tree
version=v4
num_class=1
num_tree_per_iteration=1
label_index=0
max_feature_idx=7
objective=regression
feature_names=diastolic_lag1 diastolic_lag2 diastolic_lag3 diastolic_lag4 diastolic_lag5 diastolic_lag6 diastolic_lag7 diastolic_diff
feature_infos=[77:98] [77:98] [77:98] [77:98] [77:98] [77:98] [77:98] [-19:20]
tree_sizes=833 874 876 871 796 796 872 885 794 884 876 877 800 798 798 799 800 803 800 724 800 796 804 881 806 879 874 879 881 811 796 890 883 885 889 881 881 879 882 882 881 887 965 888 885 808 807 813 811 808 726 729 810 806 806 895 895 735 893 894 810 815 816 819 816 814 815 814 817 813 816 902 817 736 815 904 901 900 895 980 817 818 816 814 821 895 899 812 895 810 897 896 816 894 819 812 895 897 813 897 899 898 734 733 898 977 904 899 902 902 819 815 903 824 816 899 899 902 901 823 737 900 820 739 822 904 820 903 901 988 902 820 898 986 824 903 816 739 816 819 906 822 903 828 902 817 819 819 820 820 907 908 907 909 982 908 905 902 902 825 813 900 911 819 824 907 992 903 908 907 899 908 823 824 816 815 898 903 905 910 905 988 902 905 909 738 822 817 816 819 906 822 823 822 825 734 900 813 823 899 905 908 904 823 899 824 907 822 827 822 820 818 825 827 823 829 908 814 821 824 745 818 820 819 823 742 830 751 910 749 909 906 916 825 904 907 908 833 908 905 908 820 825 825 902 913 915 905 915 904 908 905 998 914 991 911 909 827 825 826 823 831 832 832 914 823 906 827 906 829 827 745 828 911 823 829 828 833 826 827 924 910 926 994 993 832 924 1000 992 1005 827 912 828 829 827 911 833 832 834 917 913 831 912 833 918 826 825 911 819 917 826 913 912 828 833 831 829 833 917 916 911 910 910 912 908 832 820 915 829 824

Tree=0
num_leaves=9
num_cat=0
split_feature=7 0 7 0 7 7 7 0
split_gain=3295.9 674.892 620.394 1258.1 295.309 159.501 86.4554 59.2393
threshold=-4.4999999999999991 91.500000000000014 7.5000000000000009 88.500000000000014 3.5000000000000004 1.0000000180025095e-35 12.500000000000002 94.500000000000014
decision_type=2 2 2 2 2 2 2 2
left_child=1 -1 3 4 -2 -5 -4 -3
right_child=2 7 6 5 -6 -7 -8 -9
leaf_value=87.119669117647064 87.363407258064512 87.359375 87.779375000000002 87.738078703703707 87.594374999999999 87.924374999999998 87.923011363636363 87.479613095238093
leaf_weight=34 31 20 20 27 25 20 22 21
leaf_count=34 31 20 20 27 25 20 22 21
internal_value=87.5535 87.2844 87.6927 87.6266 87.4665 87.8174 87.8546 87.421
internal_weight=220 75 145 103 56 47 42 41
internal_count=220 75 145 103 56 47 42 41
is_linear=0
shrinkage=1


Tree=1
num_leaves=9
num_cat=0
split_feature=7 7 7 7 5 7 1 1
split_gain=2974.55 559.906 305.708 138.954 95.2106 78.026 66.5757 60.4192
threshold=-4.4999999999999991 7.5000000000000009 -8.4999999999999982 -1.4999999999999998 87.500000000000014 12.500000000000002 86.500000000000014 89.500000000000014
decision_type=2 2 2 2 2 2 2 2
left_child=2 3 6 -2 7 -3 -1 -5
right_child=1 5 -4 4 -6 -7 -8 -9
leaf_value=-0.27873938935143605 -0.044462177157402041 0.20603124711662535 -0.13708156393519763 0.19244455075263978 0.029763260834357319 0.34248578873547642 -0.39950053930282592 0.07584983050823213
leaf_weight=21 24 20 29 25 34 22 25 20
leaf_count=21 24 20 29 25 34 22 25 20
internal_value=-0.00858239 0.123643 -0.264219 0.0609026 0.0929122 0.277507 -0.34437 0.140625
internal_weight=220 145 75 103 79 42 46 45
internal_count=220 145 75 103 79 42 46 45
is_linear=0
shrinkage=0.05


Tree=2
num_leaves=9
num_cat=0
split_feature=7 0 7 0 0 7 7 0
split_gain=2684.53 600.807 505.315 1137.62 293.804 138.4 70.4185 54.1387
threshold=-4.4999999999999991 91.500000000000014 7.5000000000000009 88.500000000000014 81.500000000000014 1.0000000180025095e-35 12.500000000000002 94.500000000000014
decision_type=2 2 2 2 2 2 2 2
left_child=1 -1 3 4 -2 -5 -4 -3
right_child=2 7 6 5 -6 -7 -8 -9
leaf_value=-0.40641076705035045 -0.24802746638655662 -0.1810114732384682 0.19572968744440006 0.1653951637722828 -0.0090117329938544169 0.33893113732337954 0.32536150325428359 -0.066066199044386542
leaf_weight=34 20 20 20 27 36 20 22 21
leaf_count=34 20 20 20 27 36 20 22 21
internal_value=-0.00815327 -0.251008 0.117461 0.0578575 -0.0943745 0.23924 0.263632 -0.122137
internal_weight=220 75 145 103 56 47 42 41
internal_count=220 75 145 103 56 47 42 41
is_linear=0
shrinkage=0.05


Tree=3
num_leaves=9
num_cat=0
split_feature=7 7 7 5 3 7 4 1
split_gain=2443.86 514.541 297.131 79.5378 70.2113 63.5527 55.5002 55.009
threshold=-1.4999999999999998 -8.4999999999999982 7.5000000000000009 87.500000000000014 88.500000000000014 12.500000000000002 85.500000000000014 89.500000000000014
decision_type=2 2 2 2 2 2 2 2
left_child=1 6 3 7 -3 -4 -1 -2
right_child=2 4 5 -5 -6 -7 -8 -9
leaf_value=-0.37695515036582949 0.17891683721542359 -0.040984169726796221 0.18594319958239794 0.028144610979977776 -0.1597084703668952 0.30909343957901003 -0.26616671624091953 0.067664724513888372
leaf_weight=20 25 33 20 34 20 22 26 20
leaf_count=20 25 33 20 34 20 22 26 20
internal_value=-0.0077456 -0.191981 0.142992 0.0858624 -0.0857858 0.25045 -0.314336 0.129471
internal_weight=220 99 121 79 53 42 46 45
internal_count=220 99 121 79 53 42 46 45
is_linear=0
shrinkage=0.05


Tree=4
num_leaves=8
num_cat=0
split_feature=7 0 7 0 0 7 7
split_gain=2205.59 663.502 580.191 493.697 214.922 323.334 77.112
threshold=-1.4999999999999998 90.500000000000014 -9.4999999999999982 79.500000000000014 88.500000000000014 6.5000000000000009 -7.4999999999999991
decision_type=2 2 2 2 2 2 2
left_child=1 6 -3 -2 5 -5 -1
right_child=3 2 -4 4 -6 -7 -8
leaf_value=-0.39329348369078204 -0.029084467165397879 -0.27324057930991769 0.061021850706096947 0.018117111708436693 0.29856750125234782 0.26061963455544579 -0.26090975376692688
leaf_weight=22 33 21 34 28 33 27 22
leaf_count=22 33 21 34 28 33 27 22
internal_value=-0.00735832 -0.182382 -0.0666056 0.135843 0.19769 0.137164 -0.327102
internal_weight=220 99 55 121 88 55 44
internal_count=220 99 55 121 88 55 44
is_linear=0
shrinkage=0.05


Tree=5
num_leaves=8
num_cat=0
split_feature=7 0 7 0 7 0 7
split_gain=1974.54 611.727 456.718 775.363 308.599 135.549 87.6283
threshold=-2.4999999999999996 91.500000000000014 11.500000000000002 84.500000000000014 -8.4999999999999982 88.500000000000014 -7.4999999999999991
decision_type=2 2 2 2 2 2 2
left_child=1 6 3 -2 -3 -5 -1
right_child=2 4 -4 5 -6 -7 -8
leaf_value=-0.36682989780719466 -0.10593594671101184 -0.17844302743673324 0.29569455246130627 0.093957846882668408 0.06999152828007936 0.2541832007241972 -0.22950642520473119
leaf_weight=26 37 25 30 22 25 33 21
leaf_count=26 37 25 30 22 25 33 21
internal_value=-0.00758984 -0.175964 0.126281 0.0710379 -0.0542257 0.190093 -0.305473
internal_weight=219 97 122 92 50 55 47
internal_count=219 97 122 92 50 55 47
is_linear=0
shrinkage=0.05


Tree=6
num_leaves=9
num_cat=0
split_feature=7 0 7 0 7 0 7 7
split_gain=1782.02 555.371 427.64 858.127 391.489 181.391 51.7656 48.3042
threshold=-2.4999999999999996 90.500000000000014 7.5000000000000009 84.500000000000014 -9.4999999999999982 90.500000000000014 12.500000000000002 -8.4999999999999982
decision_type=2 2 2 2 2 2 2 2
left_child=1 7 3 -2 -3 -5 -4 -1
right_child=2 4 6 5 -6 -7 -8 -9
leaf_value=-0.3554790337880453 -0.19332067233324052 -0.23593700695782902 0.17725108530372383 0.077556428727176455 0.042849705149145691 0.26863745450973514 0.28338217139244082 -0.24946203529834748
leaf_weight=21 25 20 20 27 34 23 27 22
leaf_count=21 25 20 20 27 34 23 27 22
internal_value=-0.00721035 -0.167166 0.119967 0.0458622 -0.0604046 0.165454 0.23822 -0.301238
internal_weight=219 97 122 75 54 50 47 43
internal_count=219 97 122 75 54 50 47 43
is_linear=0
shrinkage=0.05


Tree=7
num_leaves=9
num_cat=0
split_feature=0 0 2 6 4 5 1 5
split_gain=187.564 200.901 147.652 112.298 107.127 97.6104 88.8511 51.9279
threshold=93.500000000000014 83.500000000000014 88.500000000000014 87.500000000000014 85.500000000000014 84.500000000000014 88.500000000000014 90.500000000000014
decision_type=2 2 2 2 2 2 2 2
left_child=1 5 4 -4 -3 -1 -2 -7
right_child=6 2 3 -5 -6 7 -8 -9
leaf_value=0.12904499034796443 0.021939389780163767 0.067971460974734763 -0.20547284942406874 -0.059884850598043875 -0.070939068943262101 -0.061174747645854954 0.16211696665734054 0.051399180434999019
leaf_weight=21 26 23 26 27 35 20 20 21
leaf_count=21 26 23 26 27 35 20 20 21
internal_value=-0.00684983 -0.0307103 -0.0709794 -0.131305 -0.0158539 0.0413844 0.0828862 -0.00351493
internal_weight=219 173 111 53 58 62 46 41
internal_count=219 173 111 53 58 62 46 41
is_linear=0
shrinkage=0.05


Tree=8
num_leaves=8
num_cat=0
split_feature=7 7 0 0 0 0 7
split_gain=1575.98 479.73 838.541 413.572 182.572 90.0846 42.4413
threshold=-4.4999999999999991 7.5000000000000009 84.500000000000014 93.500000000000014 90.500000000000014 89.500000000000014 12.500000000000002
decision_type=2 2 2 2 2 2 2
left_child=3 2 -2 5 -4 -1 -3
right_child=1 6 4 -5 -6 -7 -8
leaf_value=-0.33930242156982421 -0.20030244179069998 0.16923939734697344 0.044473463319467776 -0.034846468128520873 0.21208802065812052 -0.20507529509067535 0.26533788133550579
leaf_weight=25 28 20 33 29 32 25 27
leaf_count=25 28 20 33 29 32 25 27
internal_value=-0.00650734 0.0942492 0.0284513 -0.185063 0.126991 -0.272189 0.224445
internal_weight=219 140 93 79 65 50 47
internal_count=219 140 93 79 65 50 47
is_linear=0
shrinkage=0.05


Tree=9
num_leaves=9
num_cat=0
split_feature=0 0 2 6 4 5 1 5
split_gain=157.013 158.721 123.881 94.3103 91.6884 83.8501 76.7934 44.6017
threshold=93.500000000000014 83.500000000000014 88.500000000000014 87.500000000000014 85.500000000000014 84.500000000000014 88.500000000000014 90.500000000000014
decision_type=2 2 2 2 2 2 2 2
left_child=1 5 4 -4 -3 -1 -2 -7
right_child=6 2 3 -5 -6 7 -8 -9
leaf_value=0.1173153229767368 0.019260624308998772 0.064237718154554785 -0.18703116046694609 -0.053611775146176426 -0.064274142767701825 -0.058984026908874512 0.14958007635548712 0.045346898550078986
leaf_weight=21 26 23 26 27 35 20 20 21
leaf_count=21 26 23 26 27 35 20 20 21
internal_value=-0.00618197 -0.0280129 -0.0638059 -0.119063 -0.0133125 0.0360682 0.0759213 -0.00554624
internal_weight=219 173 111 53 58 62 46 41
internal_count=219 173 111 53 58 62 46 41
is_linear=0
shrinkage=0.05


Tree=10
num_leaves=9
num_cat=0
split_feature=7 0 7 7 0 0 0 7
split_gain=1552.86 364.856 298.977 270.861 676.207 185.487 123.179 96.7681
threshold=-2.4999999999999996 92.500000000000014 -9.4999999999999982 5.5000000000000009 90.500000000000014 85.500000000000014 82.500000000000014 -7.4999999999999991
decision_type=2 2 2 2 2 2 2 2
left_child=1 7 -3 4 5 -2 -5 -1
right_child=3 2 -4 6 -6 -7 -8 -9
leaf_value=-0.31651898118165822 -0.17834218279881911 -0.19969874233007434 0.057439042513187114 0.13445883434679773 0.24612504295431653 0.029407237434671041 0.28463131053881213 -0.17572515146887824
leaf_weight=26 22 20 26 36 26 21 22 23
leaf_count=26 22 20 26 36 26 21 22 23
internal_value=-0.00259482 -0.155492 -0.05436 0.111777 0.0448301 -0.0768832 0.191421 -0.250432
internal_weight=222 95 46 127 69 43 58 49
internal_count=222 95 46 127 69 43 58 49
is_linear=0
shrinkage=0.05


Tree=11
num_leaves=9
num_cat=0
split_feature=7 7 7 1 6 5 3 1
split_gain=1401.45 247.22 235.607 57.0704 45.9073 38.828 38.214 17.4979
threshold=-2.4999999999999996 7.5000000000000009 -7.4999999999999991 87.500000000000014 86.500000000000014 89.500000000000014 88.500000000000014 87.500000000000014
decision_type=2 2 2 2 2 2 2 2
left_child=2 4 3 -1 -2 -4 -6 -3
right_child=1 7 5 -5 6 -7 -8 -9
leaf_value=-0.16664196088075126 0.093658726466329487 0.16511197093696822 -0.0061230270937085154 -0.26865861372162519 -0.032315450347959997 -0.10464718639850618 0.062185551226139071 0.22702224802970888
leaf_weight=29 38 21 20 26 20 20 23 25
leaf_count=29 38 21 20 26 20 20 23 25
internal_value=-0.00246508 0.106188 -0.147717 -0.214868 0.0536172 -0.0553851 0.0182316 0.198759
internal_weight=222 127 95 55 81 40 43 46
internal_count=222 127 95 55 81 40 43 46
is_linear=0
shrinkage=0.05


Tree=12
num_leaves=8
num_cat=0
split_feature=7 7 7 6 5 7 3
split_gain=1264.81 223.612 215.606 75.2743 60.3341 23.8251 9.91542
threshold=-2.4999999999999996 5.5000000000000009 -9.4999999999999982 86.500000000000014 88.500000000000014 12.500000000000002 89.500000000000014
decision_type=2 2 2 2 2 2 2
left_child=2 3 6 -2 -4 -3 -1
right_child=1 5 4 -5 -6 -7 -8
leaf_value=-0.20376366414129735 0.096206408692523837 0.14631934675168903 -0.018727368503808975 -0.0085166195155801008 -0.1238998428483804 0.21138563019533954 -0.25355175472795966
leaf_weight=20 32 34 25 37 30 24 20
leaf_count=20 32 34 25 37 30 24 20
internal_value=-0.00234182 0.100879 -0.140331 0.0400506 -0.0760942 0.173243 -0.228658
internal_weight=222 127 95 69 55 58 40
internal_count=222 127 95 69 55 58 40
is_linear=0
shrinkage=0.05


Tree=13
num_leaves=8
num_cat=0
split_feature=7 0 0 7 7 7 7
split_gain=1141.49 323.797 259.199 616.33 241.986 118.741 68.4102
threshold=-2.4999999999999996 92.500000000000014 85.500000000000014 7.5000000000000009 -9.4999999999999982 2.5000000000000004 -7.4999999999999991
decision_type=2 2 2 2 2 2 2
left_child=1 6 3 -2 -3 -4 -1
right_child=2 4 5 -5 -6 -7 -8
leaf_value=-0.27831958440633925 -0.15073653949158533 -0.16879808157682419 0.11388595044198964 0.15673350590543869 0.062537351967050486 0.25746438105901087 -0.15993973029696423
leaf_weight=26 28 20 36 39 26 24 23
leaf_count=26 28 20 36 39 26 24 23
internal_value=-0.00222473 -0.133315 0.0958348 0.0282386 -0.0380433 0.171317 -0.222754
internal_weight=222 95 127 67 46 60 49
internal_count=222 95 127 67 46 60 49
is_linear=0
shrinkage=0.05


Tree=14
num_leaves=8
num_cat=0
split_feature=7 7 7 6 1 5 7
split_gain=1030.2 186.927 180.733 65.0437 43.6531 30.0473 20.9579
threshold=-2.4999999999999996 5.5000000000000009 -7.4999999999999991 86.500000000000014 87.500000000000014 89.500000000000014 12.500000000000002
decision_type=2 2 2 2 2 2 2
left_child=2 3 4 -2 -1 -4 -3
right_child=1 6 5 -5 -6 -7 -8
leaf_value=-0.143284664328756 0.087628317717462781 0.13195393685908879 -0.002445448599755764 -0.0097183879414522983 -0.2325069109407755 -0.089116195291280745 0.19297967602809271
leaf_weight=29 32 34 20 37 26 20 24
leaf_count=29 32 34 20 37 26 20 24
internal_value=-0.0021135 0.0910431 -0.126649 0.0354279 -0.185462 -0.0457808 0.157206
internal_weight=222 127 95 69 55 40 58
internal_count=222 127 95 69 55 40 58
is_linear=0
shrinkage=0.05


Tree=15
num_leaves=8
num_cat=0
split_feature=7 0 7 0 7 0 7
split_gain=846.556 627.992 460.102 151.751 222.886 144.021 164.231
threshold=2.5000000000000004 90.500000000000014 -6.4999999999999991 85.500000000000014 10.500000000000002 85.500000000000014 -5.4999999999999991
decision_type=2 2 2 2 2 2 2
left_child=1 5 -3 4 -2 -1 -7
right_child=3 2 -4 -5 -6 6 -8
leaf_value=-0.29114112095399336 -0.011343520081468992 -0.095438429634822047 0.15400375860432786 0.24338817975737831 0.18815852563296045 -0.23864188939332964 -0.042733324319124223
leaf_weight=22 28 38 36 22 28 20 23
leaf_count=22 28 38 36 22 28 20 23
internal_value=0.000285835 -0.073693 0.0259118 0.13212 0.0884075 -0.187089 -0.133854
internal_weight=217 139 74 78 56 65 43
internal_count=217 139 74 78 56 65 43
is_linear=0
shrinkage=0.05


Tree=16
num_leaves=8
num_cat=0
split_feature=7 0 7 0 7 0 7
split_gain=764.016 566.763 415.242 144.293 227.944 129.979 148.219
threshold=2.5000000000000004 90.500000000000014 -6.4999999999999991 82.500000000000014 12.500000000000002 85.500000000000014 -5.4999999999999991
decision_type=2 2 2 2 2 2 2
left_child=1 5 -3 4 -2 -1 -7
right_child=3 2 -4 -5 -6 6 -8
leaf_value=-0.27658406170931732 -0.053929231989951365 -0.090666508145238231 0.14630356975831091 0.19896864742040635 0.17903498588573366 -0.22670979231595992 -0.04059665692241296
leaf_weight=22 21 38 36 36 21 20 23
leaf_count=22 21 38 36 36 21 20 23
internal_value=0.000271544 -0.0700084 0.0246162 0.125514 0.0625529 -0.177735 -0.127161
internal_weight=217 139 74 78 42 65 43
internal_count=217 139 74 78 42 65 43
is_linear=0
shrinkage=0.05


Tree=17
num_leaves=8
num_cat=0
split_feature=7 0 7 7 0 7 0
split_gain=689.835 266.15 629.214 159.03 127.204 111.951 11.8314
threshold=-6.4999999999999991 88.500000000000014 2.5000000000000004 7.5000000000000009 90.500000000000014 -1.0000000180025095e-35 79.500000000000014
decision_type=2 2 2 2 2 2 2
left_child=4 2 -2 -4 -1 -3 -5
right_child=1 5 3 6 -6 -7 -8
leaf_value=-0.23511348807293439 -0.17181648374958472 0.077900944155971374 -0.00068628461315081669 0.13096231185831128 -0.086133183574451044 0.21858821350794574 0.18534841164946558
leaf_weight=23 33 31 26 20 38 26 20
leaf_count=23 33 31 26 20 38 26 20
internal_value=0.000257966 0.0560042 0.00644876 0.0955814 -0.142306 0.142074 0.158155
internal_weight=217 156 99 66 61 57 40
internal_count=217 156 99 66 61 57 40
is_linear=0
shrinkage=0.05


Tree=18
num_leaves=8
num_cat=0
split_feature=7 0 7 0 7 0 7
split_gain=624.905 467.848 341.086 126.535 197.17 113.566 120.769
threshold=2.5000000000000004 90.500000000000014 -6.4999999999999991 82.500000000000014 12.500000000000002 85.500000000000014 -5.4999999999999991
decision_type=2 2 2 2 2 2 2
left_child=1 5 -3 4 -2 -1 -7
right_child=3 2 -4 -5 -6 6 -8
leaf_value=-0.25358861061659727 -0.053781071731022423 -0.081826524772393328 0.13294395546092549 0.18229937503735227 0.16288766708402408 -0.20377687215805054 -0.035779301676413293
leaf_weight=22 21 38 36 36 21 20 23
leaf_count=22 21 38 36 36 21 20 23
internal_value=0.000245067 -0.0633154 0.0226564 0.113513 0.0545533 -0.161191 -0.113918
internal_weight=217 139 74 78 42 65 43
internal_count=217 139 74 78 42 65 43
is_linear=0
shrinkage=0.05


Tree=19
num_leaves=7
num_cat=0
split_feature=0 5 6 1 3 1
split_gain=165.354 37.0034 52.1069 42.309 25.6822 29.7835
threshold=94.500000000000014 87.500000000000014 87.500000000000014 86.500000000000014 89.500000000000014 89.500000000000014
decision_type=2 2 2 2 2 2
left_child=1 2 -1 -4 5 -3
right_child=-2 4 3 -5 -6 -7
leaf_value=-0.039449954621101679 0.10517692334251479 -0.055780137247509437 0.094626079192385082 0.0019221464055590332 -0.070837013289714465 0.017194287427540485
leaf_weight=38 32 27 20 32 39 29
leaf_count=38 32 27 20 32 39 29
internal_value=0.000232814 -0.0179197 0.0050548 0.0375775 -0.039685 -0.0179898
internal_weight=217 185 90 52 95 56
internal_count=217 185 90 52 95 56
is_linear=0
shrinkage=0.05


Tree=20
num_leaves=8
num_cat=0
split_feature=7 0 0 0 7 0 7
split_gain=619.19 309.855 198.763 84.0935 96.8174 73.2968 156.66
threshold=-1.4999999999999998 93.500000000000014 79.500000000000014 87.500000000000014 -9.4999999999999982 88.500000000000014 6.5000000000000009
decision_type=2 2 2 2 2 2 2
left_child=1 3 -2 -1 -5 6 -4
right_child=2 -3 5 4 -6 -7 -8
leaf_value=-0.23789763450622559 -0.025246555983058867 0.026093774505362318 0.0048334286168769556 -0.19126905940827871 -0.039440995117738131 0.19089330009840155 0.17516014791197249
leaf_weight=21 31 37 27 21 21 27 27
leaf_count=21 31 37 27 21 21 27 27
internal_value=0.0016793 -0.0887529 0.0824223 -0.156203 -0.115355 0.123629 0.0899968
internal_weight=212 100 112 63 42 81 54
internal_count=212 100 112 63 42 81 54
is_linear=0
shrinkage=0.05


Tree=21
num_leaves=8
num_cat=0
split_feature=7 0 7 0 0 7 0
split_gain=561.983 405.978 151.765 137.132 123.06 170.766 38.7282
threshold=1.5000000000000002 93.500000000000014 -7.4999999999999991 79.500000000000014 85.500000000000014 -8.4999999999999982 85.500000000000014
decision_type=2 2 2 2 2 2 2
left_child=1 4 -3 -2 -1 -6 -5
right_child=3 2 -4 6 5 -7 -8
leaf_value=-0.22932909212329169 0.01300984618387052 -0.042142345570027828 0.14435033995347721 0.1077398524752685 -0.18110369433616769 -0.015944538944784335 0.19166735990179912
leaf_weight=22 28 20 24 28 29 34 27
leaf_count=22 28 20 24 28 29 34 27
internal_value=0.00159533 -0.0637039 0.0595809 0.103084 -0.127522 -0.0919702 0.148941
internal_weight=212 129 44 83 85 63 55
internal_count=212 129 44 83 85 63 55
is_linear=0
shrinkage=0.05


Tree=22
num_leaves=8
num_cat=0
split_feature=7 0 0 7 0 7 0
split_gain=512.158 256.414 166.052 106.69 63.1945 133.251 40.4768
threshold=-1.4999999999999998 91.500000000000014 79.500000000000014 -8.4999999999999982 88.500000000000014 6.5000000000000009 87.500000000000014
decision_type=2 2 2 2 2 2 2
left_child=1 6 -2 -3 5 -4 -1
right_child=2 3 4 -5 -6 -7 -8
leaf_value=-0.21612652824038553 -0.023462111166407985 -0.075425609802970528 0.0028411405505957429 0.067812775233044076 0.17506990071248127 0.15992719855297496 -0.12357098667847891
leaf_weight=21 31 26 27 26 27 27 27
leaf_count=21 31 26 27 26 27 27 27
internal_value=0.00151556 -0.0807301 0.0749492 -0.00380642 0.112613 0.0813842 -0.164064
internal_weight=212 100 112 52 81 54 48
internal_count=212 100 112 52 81 54 48
is_linear=0
shrinkage=0.05


Tree=23
num_leaves=9
num_cat=0
split_feature=7 0 0 7 0 7 0 7
split_gain=470.767 347.209 134.509 180.075 115.05 202.471 16.8123 8.22849
threshold=1.5000000000000002 95.500000000000014 85.500000000000014 -8.4999999999999982 82.500000000000014 12.500000000000002 90.500000000000014 5.5000000000000009
decision_type=2 2 2 2 2 2 2 2
left_child=1 2 -1 -4 5 -2 -5 -6
right_child=4 -3 3 6 7 -7 -8 -9
leaf_value=-0.21085820279338141 -0.078973391093313694 0.097469027712941178 -0.15356869447148511 -0.033994841218615575 0.13095627114176753 0.14083776077763602 0.028550828481093051 0.17576858601754619
leaf_weight=22 20 28 36 21 20 22 22 21
leaf_count=22 20 28 36 21 20 22 22 21
internal_value=0.00143979 -0.0583255 -0.101516 -0.0710664 0.0943281 0.0361658 -0.00199473 0.153909
internal_weight=212 129 101 79 83 42 43 41
internal_count=212 129 101 79 83 42 43 41
is_linear=0
shrinkage=0.05


Tree=24
num_leaves=8
num_cat=0
split_feature=0 5 3 0 2 3 2
split_gain=113.876 38.249 70.4001 18.2688 43.5297 28.9159 14.0157
threshold=94.500000000000014 84.500000000000014 88.500000000000014 91.500000000000014 88.500000000000014 85.500000000000014 79.500000000000014
decision_type=2 2 2 2 2 2 2
left_child=1 2 -1 4 6 -6 -3
right_child=-2 3 -4 -5 5 -7 -8
leaf_value=-0.03617368289934738 0.086714524489291234 -0.042133445343510677 0.075948761669652809 0.011325966769998724 -0.03310816429555416 -0.11531223412603141 0.0085222367714676596
leaf_weight=28 33 22 28 22 20 23 36
leaf_count=28 33 22 28 22 20 23 36
internal_value=0.0013678 -0.0143665 0.0198875 -0.0299619 -0.0389552 -0.0770778 -0.010692
internal_weight=212 179 56 123 101 43 58
internal_count=212 179 56 123 101 43 58
is_linear=0
shrinkage=0.05


Tree=25
num_leaves=9
num_cat=0
split_feature=7 0 7 0 7 0 7 7
split_gain=494.505 278.27 254.893 100.021 96.5141 85.1334 110.84 54.4682
threshold=3.5000000000000004 90.500000000000014 -9.4999999999999982 85.500000000000014 -8.4999999999999982 84.500000000000014 11.500000000000002 -3.4999999999999996
decision_type=2 2 2 2 2 2 2 2
left_child=1 3 -3 -1 -5 6 -2 -4
right_child=5 2 7 4 -6 -7 -8 -9
leaf_value=-0.21190467643737795 -0.023015859971443814 -0.12606624187901616 0.029042723389535115 -0.17137081980705263 -0.026454480792637226 0.18191519555720417 0.13014457584531219 0.13629969139583409
leaf_weight=25 21 24 29 20 27 22 27 20
leaf_count=25 21 24 29 20 27 22 27 20
internal_value=-0.00866957 -0.0613563 0.00743347 -0.131101 -0.088121 0.100467 0.0631369 0.0728211
internal_weight=215 145 73 72 47 70 48 49
internal_count=215 145 73 72 47 70 48 49
is_linear=0
shrinkage=0.05


Tree=26
num_leaves=9
num_cat=0
split_feature=7 0 7 0 7 0 7 0
split_gain=446.291 251.138 230.041 90.2691 87.1039 76.8329 100.033 49.5756
threshold=3.5000000000000004 90.500000000000014 -9.4999999999999982 85.500000000000014 -8.4999999999999982 84.500000000000014 11.500000000000002 94.500000000000014
decision_type=2 2 2 2 2 2 2 2
left_child=1 3 -3 -1 -5 6 -2 -4
right_child=5 2 7 4 -6 -7 -8 -9
leaf_value=-0.20130944311618806 -0.021865066859338964 -0.1197629295793983 0.027414109712016993 -0.1628022786974907 -0.02513175603968126 0.17281943478367545 0.12363734733727244 0.12974059958010914
leaf_weight=25 21 24 29 20 27 22 27 20
leaf_count=25 21 24 29 20 27 22 27 20
internal_value=-0.00823609 -0.0582885 0.00706179 -0.124546 -0.083715 0.0954439 0.05998 0.06918
internal_weight=215 145 73 72 47 70 48 49
internal_count=215 145 73 72 47 70 48 49
is_linear=0
shrinkage=0.05


Tree=27
num_leaves=9
num_cat=0
split_feature=7 0 7 0 7 0 7 7
split_gain=402.777 226.652 207.612 81.4679 78.6113 69.3417 90.2795 49.6439
threshold=3.5000000000000004 90.500000000000014 -9.4999999999999982 85.500000000000014 -8.4999999999999982 84.500000000000014 11.500000000000002 -3.4999999999999996
decision_type=2 2 2 2 2 2 2 2
left_child=1 3 -3 -1 -5 6 -2 -4
right_child=5 2 7 4 -6 -7 -8 -9
leaf_value=-0.19124397027492523 -0.020771813782907669 -0.11377478184488912 0.023926357115650998 -0.15466216400265695 -0.023875168407404865 0.16417846022681759 0.11745547558422442 0.12632328838109971
leaf_weight=25 21 24 29 20 27 22 27 20
leaf_count=25 21 24 29 20 27 22 27 20
internal_value=-0.00782428 -0.055374 0.0067087 -0.118319 -0.0795292 0.0906717 0.056981 0.065721
internal_weight=215 145 73 72 47 70 48 49
internal_count=215 145 73 72 47 70 48 49
is_linear=0
shrinkage=0.05


Tree=28
num_leaves=9
num_cat=0
split_feature=7 0 7 0 0 7 0 7
split_gain=363.507 205.1 249.404 75.9262 62.5809 81.4773 44.3837 31.1198
threshold=3.5000000000000004 88.500000000000014 -10.499999999999998 94.500000000000014 84.500000000000014 11.500000000000002 85.500000000000014 -5.4999999999999991
decision_type=2 2 2 2 2 2 2 2
left_child=1 6 -3 7 5 -2 -1 -4
right_child=4 2 3 -5 -6 -7 -8 -9
leaf_value=-0.18168177157640458 -0.019733223531927385 -0.14880652210364739 -0.036928252982518943 0.11742075620485204 0.15596953901377592 0.11158270146040228 -0.087465311110019692 0.042026956551350081
leaf_weight=25 21 24 24 21 22 27 25 26
leaf_count=25 21 24 24 21 22 27 25 26
internal_value=-0.00743307 -0.0526053 -0.00946419 0.0376374 0.0861381 0.054132 -0.134574 0.00412846
internal_weight=215 145 95 71 70 48 50 50
internal_count=215 145 95 71 70 48 50 50
is_linear=0
shrinkage=0.05


Tree=29
num_leaves=8
num_cat=0
split_feature=0 5 3 3 6 3 0
split_gain=53.8685 24.7726 31.8188 24.0248 18.2226 26.8352 18.2094
threshold=95.500000000000014 86.500000000000014 88.500000000000014 85.500000000000014 94.500000000000014 89.500000000000014 86.500000000000014
decision_type=2 2 2 2 2 2 2
left_child=1 2 3 -1 5 6 -3
right_child=-2 4 -4 -5 -6 -7 -8
leaf_value=0.0057127356777588525 0.058979847640902909 -0.047464534003908439 0.039062666877483332 -0.065034447945654397 0.0095805465150624533 -0.075193322973476875 0.016289595718539895
leaf_weight=30 27 24 36 20 20 37 21
leaf_count=30 27 24 36 20 20 37 21
internal_value=-0.00706142 -0.0165461 0.00322034 -0.0225861 -0.0332119 -0.043649 -0.0177126
internal_weight=215 188 86 50 102 82 45
internal_count=215 188 86 50 102 82 45
is_linear=0
shrinkage=0.05


Tree=30
num_leaves=8
num_cat=0
split_feature=7 0 7 0 7 0 0
split_gain=362.499 117.545 183.583 115.327 69.5587 102.05 39.568
threshold=-4.4999999999999991 91.500000000000014 5.5000000000000009 84.500000000000014 -10.499999999999998 90.500000000000014 80.500000000000014
decision_type=2 2 2 2 2 2 2
left_child=4 2 3 -2 -1 -6 -4
right_child=1 -3 6 -5 5 -7 -8
leaf_value=-0.16245254945495857 -0.1332227951713971 0.13823326051767384 0.047048177696107064 0.013480170448688237 -0.130695292322586 0.013648959051817657 0.12654945637131562
leaf_weight=23 21 28 34 37 24 25 29
leaf_count=23 21 28 34 37 24 25 29
internal_value=0.00139964 0.045914 0.0245509 -0.0396364 -0.0907204 -0.0570503 0.083644
internal_weight=221 149 121 58 72 49 63
internal_count=221 149 121 58 72 49 63
is_linear=0
shrinkage=0.05


Tree=31
num_leaves=9
num_cat=0
split_feature=0 3 2 6 4 3 5 0
split_gain=38.2961 23.4172 15.9479 23.3757 23.376 35.5252 22.0231 11.3792
threshold=95.500000000000014 95.500000000000014 79.500000000000014 89.500000000000014 85.500000000000014 86.500000000000014 90.500000000000014 86.500000000000014
decision_type=2 2 2 2 2 2 2 2
left_child=1 2 -1 4 -4 -6 7 -5
right_child=-2 -3 3 6 5 -7 -8 -9
leaf_value=-0.046277654761898109 0.05833055291038293 0.042317832803184338 0.010850110659375786 0.063716288718084491 0.0019725968563844534 -0.083621417406808451 -0.024116573211821646 0.012259962511333553
leaf_weight=29 26 22 30 21 22 27 22 22
leaf_count=29 26 22 30 21 22 27 22 22
internal_value=0.00132965 -0.00627047 -0.0124493 -0.00563667 -0.0239098 -0.0451915 0.0165723 0.0373898
internal_weight=221 195 173 144 79 49 65 43
internal_count=221 195 173 144 79 49 65 43
is_linear=0
shrinkage=0.05


Tree=32
num_leaves=9
num_cat=0
split_feature=7 7 7 4 7 5 3 4
split_gain=326.654 65.9717 63.1537 34.4396 20.789 32.1359 18.8561 14.461
threshold=-4.4999999999999991 13.500000000000002 -10.499999999999998 85.500000000000014 6.5000000000000009 85.500000000000014 87.500000000000014 88.500000000000014
decision_type=2 2 2 2 2 2 2 2
left_child=2 3 -1 6 5 -5 -2 -4
right_child=1 -3 7 4 -6 -7 -8 -9
leaf_value=-0.15453361468794555 0.028445298881048249 0.12801531717181205 -0.08298107652327695 0.044702710619284991 0.052013602920553903 -0.03236811983975043 0.091617429422007679 -0.028553736066588987
leaf_weight=23 21 20 23 21 22 38 27 26
leaf_count=23 21 20 23 21 22 38 27 26
internal_value=0.00126317 0.0435194 -0.0861838 0.0304193 0.0105317 -0.00493613 0.0639796 -0.0541013
internal_weight=221 149 72 129 81 59 48 49
internal_count=221 149 72 129 81 59 48 49
is_linear=0
shrinkage=0.05


Tree=33
num_leaves=9
num_cat=0
split_feature=7 7 7 4 7 6 3 4
split_gain=294.805 59.5395 56.9962 31.0817 18.932 25.5994 17.0177 13.0511
threshold=-4.4999999999999991 13.500000000000002 -10.499999999999998 85.500000000000014 2.5000000000000004 87.500000000000014 87.500000000000014 88.500000000000014
decision_type=2 2 2 2 2 2 2 2
left_child=2 3 -1 6 5 -5 -2 -4
right_child=1 -3 7 4 -6 -7 -8 -9
leaf_value=-0.14680693347169005 0.027023034012832105 0.12161455228924752 -0.078832021971111721 0.024973154973916032 0.035719030781796106 -0.052205635695939973 0.087036559565199748 -0.027126048768583974
leaf_weight=23 21 20 23 22 38 21 27 26
leaf_count=23 21 20 23 22 38 21 27 26
internal_value=0.00120001 0.0413435 -0.0818746 0.0288983 0.0100051 -0.0127188 0.0607806 -0.0513962
internal_weight=221 149 72 129 81 43 48 49
internal_count=221 149 72 129 81 43 48 49
is_linear=0
shrinkage=0.05


Tree=34
num_leaves=9
num_cat=0
split_feature=7 7 7 4 5 7 3 4
split_gain=266.062 54.0269 51.4391 35.0058 29.2468 14.9406 12.6191 11.7786
threshold=-4.4999999999999991 7.5000000000000009 -10.499999999999998 85.500000000000014 85.500000000000014 13.500000000000002 87.500000000000014 88.500000000000014
decision_type=2 2 2 2 2 2 2 2
left_child=2 3 -1 -2 -5 -3 -6 -4
right_child=1 5 7 4 6 -7 -8 -9
leaf_value=-0.13946658635269041 0.057644496030277687 0.05935939304402163 -0.074890420715446063 0.041141633219693025 -0.057726372406809792 0.11553382374346258 -0.0022316034528471174 -0.025769746554299047
leaf_weight=23 36 29 23 23 20 20 21 26
leaf_count=23 36 29 23 23 20 20 21 26
internal_value=0.00114001 0.0392763 -0.0777809 0.0182007 -0.00398646 0.0822877 -0.0293022 -0.0488264
internal_weight=221 149 72 100 64 49 41 49
internal_count=221 149 72 100 64 49 41 49
is_linear=0
shrinkage=0.05


Tree=35
num_leaves=9
num_cat=0
split_feature=7 0 7 0 7 0 7 0
split_gain=235.378 138.776 164.857 71.9552 122.67 25.4814 49.1879 20.8601
threshold=-1.4999999999999998 82.500000000000014 8.5000000000000018 89.500000000000014 -10.499999999999998 90.500000000000014 5.5000000000000009 93.500000000000014
decision_type=2 2 2 2 2 2 2 2
left_child=3 2 -2 -1 -5 6 -3 -6
right_child=1 5 -4 4 7 -7 -8 -9
leaf_value=-0.12119400655229887 -0.12352831455923262 0.026822251924831009 0.056763973014312796 -0.13378578918986023 -0.019036452946826245 0.13416779786348343 0.13027716107666493 0.044930689558386805
leaf_weight=30 21 27 32 20 26 24 20 25
leaf_count=30 21 27 32 20 26 24 20 25
internal_value=0.000395143 0.0465494 -0.0146726 -0.0562695 -0.0288366 0.0922503 0.0708456 0.01232
internal_weight=225 124 53 101 71 71 47 51
internal_count=225 124 53 101 71 71 47 51
is_linear=0
shrinkage=0.05


Tree=36
num_leaves=9
num_cat=0
split_feature=7 0 7 0 7 7 0 0
split_gain=212.429 125.245 150.176 64.9395 110.709 23.1102 20.1352 18.8263
threshold=-1.4999999999999998 82.500000000000014 10.500000000000002 89.500000000000014 -10.499999999999998 1.5000000000000002 86.500000000000014 93.500000000000014
decision_type=2 2 2 2 2 2 2 2
left_child=3 2 -2 -1 -5 -3 -7 -6
right_child=1 5 -4 4 7 6 -8 -9
leaf_value=-0.11513430769244831 -0.099707545863034638 0.052287064170065733 0.068653004726877923 -0.12709649950265886 -0.018084630653118858 0.07875142839291821 0.14734809786081313 0.042684154972434052
leaf_weight=30 26 28 27 20 26 23 20 25
leaf_count=30 26 28 27 20 26 23 20 25
internal_value=0.000375386 0.0442219 -0.013939 -0.053456 -0.0273947 0.0876378 0.110657 0.011704
internal_weight=225 124 53 101 71 71 43 51
internal_count=225 124 53 101 71 71 43 51
is_linear=0
shrinkage=0.05


Tree=37
num_leaves=9
num_cat=0
split_feature=7 0 7 0 7 0 7 0
split_gain=191.717 113.034 136.7 58.6079 99.9151 22.9798 43.4657 16.9907
threshold=-1.4999999999999998 82.500000000000014 8.5000000000000018 89.500000000000014 -10.499999999999998 90.500000000000014 5.5000000000000009 93.500000000000014
decision_type=2 2 2 2 2 2 2 2
left_child=3 2 -2 -1 -5 6 -3 -6
right_child=1 5 -4 4 7 -7 -8 -9
leaf_value=-0.10937759170929591 -0.11236652167780059 0.021545518972669486 0.051808441430330282 -0.12074167251586915 -0.017180399102373765 0.12306266116599243 0.11879678130149843 0.040549947563558821
leaf_weight=30 21 27 32 20 26 24 20 25
leaf_count=30 21 27 32 20 26 24 20 25
internal_value=0.000356617 0.0420108 -0.013242 -0.0507832 -0.026025 0.0832559 0.062929 0.0111188
internal_weight=225 124 53 101 71 71 47 51
internal_count=225 124 53 101 71 71 47 51
is_linear=0
shrinkage=0.05


Tree=38
num_leaves=9
num_cat=0
split_feature=7 0 7 0 7 0 7 0
split_gain=173.025 102.013 124.53 52.8937 90.1734 20.7392 39.2278 15.3341
threshold=-1.4999999999999998 82.500000000000014 10.500000000000002 89.500000000000014 -10.499999999999998 90.500000000000014 5.5000000000000009 93.500000000000014
decision_type=2 2 2 2 2 2 2 2
left_child=3 2 -2 -1 -5 6 -3 -6
right_child=1 5 -4 4 7 -7 -8 -9
leaf_value=-0.10390871105094751 -0.090682446537539374 0.020468243335684144 0.062629932744635478 -0.11470459073781968 -0.016321378767203826 0.1169095275302728 0.11285694465041161 0.038522450309246781
leaf_weight=30 26 27 27 20 26 24 20 25
leaf_count=30 26 27 27 20 26 24 20 25
internal_value=0.000338786 0.0399103 -0.0125799 -0.048244 -0.0247238 0.0790931 0.0597826 0.0105629
internal_weight=225 124 53 101 71 71 47 51
internal_count=225 124 53 101 71 71 47 51
is_linear=0
shrinkage=0.05


Tree=39
num_leaves=9
num_cat=0
split_feature=7 0 7 0 7 0 7 0
split_gain=156.155 92.0667 113.351 48.336 79.2837 20.3778 19.9792 17.3303
threshold=-1.4999999999999998 82.500000000000014 8.5000000000000018 87.500000000000014 -10.499999999999998 93.500000000000014 1.5000000000000002 86.500000000000014
decision_type=2 2 2 2 2 2 2 2
left_child=3 2 -2 -1 -5 -6 -3 -8
right_child=1 6 -4 4 5 -7 7 -9
leaf_value=-0.11334370913959685 -0.10221407271566846 0.042269565291436662 0.047284275852143766 -0.10893013497645206 -0.02324977959647323 0.036596327826380733 0.066941518174565368 0.13058134123682977
leaf_weight=21 21 28 32 22 33 25 23 20
leaf_count=21 21 28 32 22 33 25 23 20
internal_value=0.000321847 0.0379148 -0.0119509 -0.0458318 -0.02811 0.00254596 0.0751384 0.0965414
internal_weight=225 124 53 101 80 58 71 43
internal_count=225 124 53 101 80 58 71 43
is_linear=0
shrinkage=0.05


Tree=40
num_leaves=9
num_cat=0
split_feature=7 7 7 5 7 6 1 7
split_gain=151.416 46.9576 21.9971 16.868 21.2033 10.0951 7.42247 5.15868
threshold=-1.4999999999999998 -10.499999999999998 8.5000000000000018 83.500000000000014 2.5000000000000004 83.500000000000014 86.500000000000014 13.500000000000002
decision_type=2 2 2 2 2 2 2 2
left_child=1 -1 3 -2 -5 -3 -7 -4
right_child=2 5 7 4 -6 6 -8 -9
leaf_value=-0.10406621789390391 0.06421700081099635 0.0073435146022926686 0.055723599490264189 -0.017920253505664212 0.041658802414622192 -0.014426166975629581 -0.050832772654082092 0.0904448029678315
leaf_weight=22 23 22 23 28 32 28 28 20
leaf_count=22 23 22 23 28 32 28 28 20
internal_value=0.00638803 -0.0395515 0.042848 0.0278109 0.0138552 -0.021355 -0.0326295 0.071873
internal_weight=226 100 126 83 60 78 56 43
internal_count=226 100 126 83 60 78 56 43
is_linear=0
shrinkage=0.05


Tree=41
num_leaves=9
num_cat=0
split_feature=7 0 7 0 7 0 0 2
split_gain=136.653 84.2838 99.9728 53.5611 34.4835 27.5003 13.8557 5.36839
threshold=-1.4999999999999998 82.500000000000014 10.500000000000002 91.500000000000014 -8.4999999999999982 88.500000000000014 87.500000000000014 85.500000000000014
decision_type=2 2 2 2 2 2 2 2
left_child=3 2 -2 6 -5 7 -1 -3
right_child=1 5 -4 4 -6 -7 -8 -9
leaf_value=-0.10797512233257295 -0.089676923421211543 0.029667617584623041 0.053910267956692862 -0.044213824303677457 0.036462297925242672 0.10876184923108667 -0.05306712552167786 0.064284092343101895
leaf_weight=20 22 21 27 26 27 32 27 24
leaf_count=20 22 21 27 26 27 32 27 24
internal_value=0.00606863 0.0407056 -0.0105575 -0.0375739 -0.00311467 0.0733275 -0.0764322 0.0481297
internal_weight=226 126 49 100 53 77 47 45
internal_count=226 126 49 100 53 77 47 45
is_linear=0
shrinkage=0.05


Tree=42
num_leaves=10
num_cat=0
split_feature=7 0 7 0 7 0 7 0 7
split_gain=124.522 83.8481 108.384 44.7773 41.1353 35.2303 28.6474 35.648 13.2576
threshold=-4.4999999999999991 92.500000000000014 2.5000000000000004 82.500000000000014 12.500000000000002 86.500000000000014 -10.499999999999998 90.500000000000014 6.5000000000000009
decision_type=2 2 2 2 2 2 2 2 2
left_child=6 2 5 4 -4 -2 -1 -8 -5
right_child=1 -3 3 8 -6 -7 7 -9 -10
leaf_value=-0.09647112427787348 -0.098080289065837864 0.11474369353055953 -0.038430911692835037 0.057556206538257271 0.058358962931062866 -0.0082270384921381886 -0.079144694246351732 0.007625720820767035 0.11380330353975297
leaf_weight=22 20 25 21 22 23 24 20 29 20
leaf_count=22 20 25 21 22 23 24 20 29 20
internal_value=0.0057652 0.0308842 0.0147573 0.0474129 0.0121638 -0.0490694 -0.049072 -0.0277908 0.0843405
internal_weight=226 155 130 86 44 44 71 49 42
internal_count=226 155 130 86 44 44 71 49 42
is_linear=0
shrinkage=0.05


Tree=43
num_leaves=9
num_cat=0
split_feature=7 0 7 0 0 0 7 4
split_gain=112.923 70.9647 83.9869 45.3899 23.4973 18.0757 19.0404 6.16195
threshold=-1.4999999999999998 82.500000000000014 10.500000000000002 93.500000000000014 88.500000000000014 87.500000000000014 -9.4999999999999982 85.500000000000014
decision_type=2 2 2 2 2 2 2 2
left_child=3 2 -2 5 7 -1 -7 -3
right_child=1 4 -4 -5 -6 6 -8 -9
leaf_value=-0.09846505403518678 -0.082593697851354439 0.023825320459547498 0.049013767625998572 0.011710571731839862 0.099650816281791788 -0.074591321339407421 -0.0095275177336905312 0.060912190742480256
leaf_weight=20 22 21 27 35 32 22 23 24
leaf_count=20 22 21 27 35 32 22 23 24
internal_value=0.00547694 0.0369632 -0.0100753 -0.0341957 0.0668968 -0.0589145 -0.0413365 0.043605
internal_weight=226 126 49 100 77 65 45 45
internal_count=226 126 49 100 77 65 45 45
is_linear=0
shrinkage=0.05


Tree=44
num_leaves=9
num_cat=0
split_feature=7 0 7 0 0 7 0 7
split_gain=103.478 72.5115 94.867 36.9676 29.4938 25.9278 29.4661 18.0424
threshold=-4.4999999999999991 92.500000000000014 2.5000000000000004 80.500000000000014 86.500000000000014 -10.499999999999998 90.500000000000014 5.5000000000000009
decision_type=2 2 2 2 2 2 2 2
left_child=5 2 4 -4 -2 -1 -7 -5
right_child=1 -3 3 7 -6 6 -8 -9
leaf_value=-0.089879408275539238 -0.091453523058444272 0.10608608160912991 0.0059309978944224288 0.037108231007698035 -0.0092403828321645665 -0.071229659896343944 0.00765920971231214 0.098417476591254993
leaf_weight=22 20 25 37 21 24 20 29 28
leaf_count=22 20 25 37 21 24 20 29 28
internal_value=0.00520309 0.0281014 0.0131044 0.0436559 -0.04661 -0.0447862 -0.0245403 0.0721421
internal_weight=226 155 130 86 44 71 49 49
internal_count=226 155 130 86 44 71 49 49
is_linear=0
shrinkage=0.05


Tree=45
num_leaves=8
num_cat=0
split_feature=7 0 0 0 7 7 0
split_gain=89.8229 93.6476 52.8494 43.0866 40.1388 7.36392 6.96855
threshold=2.5000000000000004 87.500000000000014 95.500000000000014 80.500000000000014 -9.4999999999999982 -3.4999999999999996 85.500000000000014
decision_type=2 2 2 2 2 2 2
left_child=1 -1 4 -2 -3 -6 -5
right_child=3 2 -4 6 5 -7 -8
leaf_value=-0.10090123326517642 -0.0014979224227478398 -0.07451384545614323 0.070243526212871082 0.051081462493166335 -0.01217821486262155 0.026699514585059314 0.090678473800420767
leaf_weight=32 34 24 20 20 29 21 25
leaf_count=32 34 24 20 20 29 21 25
internal_value=-0.000815209 -0.0270221 -0.0018717 0.0409831 -0.0213623 0.00415043 0.0730798
internal_weight=205 126 94 79 74 50 45
internal_count=205 126 94 79 74 50 45
is_linear=0
shrinkage=0.05


Tree=46
num_leaves=8
num_cat=0
split_feature=7 0 0 0 7 7 0
split_gain=81.0652 84.517 47.6966 38.8857 36.2253 6.64594 6.28911
threshold=2.5000000000000004 87.500000000000014 95.500000000000014 80.500000000000014 -9.4999999999999982 -3.4999999999999996 85.500000000000014
decision_type=2 2 2 2 2 2 2
left_child=1 -1 4 -2 -3 -6 -5
right_child=3 2 -4 6 5 -7 -8
leaf_value=-0.095856171373452537 -0.0014230259680463112 -0.0707881527642409 0.066731350123882302 0.048527389727532871 -0.011569304272917838 0.025364538273286254 0.08614455039799214
leaf_weight=32 34 24 20 20 29 21 25
leaf_count=32 34 24 20 20 29 21 25
internal_value=-0.000774449 -0.025671 -0.00177812 0.0389339 -0.0202942 0.00394291 0.0694258
internal_weight=205 126 94 79 74 50 45
internal_count=205 126 94 79 74 50 45
is_linear=0
shrinkage=0.05


Tree=47
num_leaves=8
num_cat=0
split_feature=0 2 0 1 5 1 1
split_gain=36.4587 15.5947 13.4408 14.2033 9.9498 6.98645 1.83132
threshold=95.500000000000014 89.500000000000014 85.500000000000014 88.500000000000014 84.500000000000014 85.500000000000014 89.500000000000014
decision_type=2 2 2 2 2 2 2
left_child=1 2 6 -4 -3 -6 -1
right_child=-2 4 3 -5 5 -7 -8
leaf_value=-0.032074641692452131 0.063394783660769463 0.034792396843433382 -0.025315083563327789 0.024073058002250038 0.020092779076436446 -0.016015078142486715 -0.053215351789480163
leaf_weight=20 20 25 37 24 21 37 21
leaf_count=20 20 25 37 24 21 37 21
internal_value=-0.000735726 -0.00766875 -0.0207639 -0.00588368 0.0084241 -0.00294154 -0.0429028
internal_weight=205 185 102 61 83 58 41
internal_count=205 185 102 61 83 58 41
is_linear=0
shrinkage=0.05


Tree=48
num_leaves=8
num_cat=0
split_feature=7 0 0 7 0 0 7
split_gain=74.2317 73.9287 45.1868 36.4787 34.184 5.47714 3.03454
threshold=2.5000000000000004 85.500000000000014 95.500000000000014 -8.4999999999999982 80.500000000000014 85.500000000000014 -3.4999999999999996
decision_type=2 2 2 2 2 2 2
left_child=1 -1 3 -3 -2 -6 -5
right_child=4 2 -4 6 5 -7 -8
leaf_value=-0.11016294959755171 -0.00053960753823904437 -0.062455574646592141 0.060225044563412669 -0.0092466233824582203 0.046385348523035649 0.081490282274782666 0.015468090220733925
leaf_weight=21 34 35 20 23 20 25 27
leaf_count=21 34 35 20 23 20 25 27
internal_value=-0.00069894 -0.024523 -0.00739503 -0.0233056 0.037299 0.0658881 0.00409932
internal_weight=205 126 105 85 79 45 50
internal_count=205 126 105 85 79 45 50
is_linear=0
shrinkage=0.05


Tree=49
num_leaves=8
num_cat=0
split_feature=7 0 7 0 0 7 0
split_gain=66.9941 67.749 38.8001 30.851 14.5259 6.54164 4.94312
threshold=2.5000000000000004 87.500000000000014 -6.4999999999999991 80.500000000000014 92.500000000000014 -10.499999999999998 85.500000000000014
decision_type=2 2 2 2 2 2 2
left_child=1 -1 5 -2 -4 -3 -5
right_child=3 2 4 6 -6 -7 -8
leaf_value=-0.086135277865105317 -0.00051262698081486365 -0.051961289346218111 0.00333459870446296 0.044066079903859648 0.061471851893954654 -0.015804658354870205 0.077415767867118124
leaf_weight=32 34 22 21 20 22 29 25
leaf_count=32 34 22 21 20 22 29 25
internal_value=-0.000663993 -0.0232969 -0.00190507 0.035434 0.0330792 -0.0314016 0.0625937
internal_weight=205 126 94 79 43 51 45
internal_count=205 126 94 79 43 51 45
is_linear=0
shrinkage=0.05


Tree=50
num_leaves=7
num_cat=0
split_feature=7 7 7 1 3 6
split_gain=93.7664 26.5855 12.7037 5.68594 9.27979 3.93314
threshold=-4.4999999999999991 -10.499999999999998 9.5000000000000018 86.500000000000014 85.500000000000014 85.500000000000014
decision_type=2 2 2 2 2 2
left_child=1 -1 3 -2 -5 -3
right_child=2 5 -4 4 -6 -7
leaf_value=-0.085405100817265725 0.036904389241762051 -0.0042191507206076669 0.05877164114138176 0.035454658232629298 -0.0039787267561297154 -0.032067083765286955
leaf_weight=23 36 21 29 25 37 32
leaf_count=23 36 21 29 25 37 32
internal_value=0.00341391 -0.040514 0.0297015 0.0210991 0.0119218 -0.021033
internal_weight=203 76 127 98 62 53
internal_count=203 76 127 98 62 53
is_linear=0
shrinkage=0.05


Tree=51
num_leaves=7
num_cat=0
split_feature=7 7 7 1 3 6
split_gain=84.6242 23.9935 11.4651 5.13156 8.37501 3.54966
threshold=-4.4999999999999991 -10.499999999999998 9.5000000000000018 86.500000000000014 85.500000000000014 85.500000000000014
decision_type=2 2 2 2 2 2
left_child=1 -1 3 -2 -5 -3
right_child=2 5 -4 4 -6 -7
leaf_value=-0.081134846385406412 0.035059170503033484 -0.0040081929947648736 0.055833059703481618 0.033681925065815452 -0.0037797903818254535 -0.030463729915209115
leaf_weight=23 36 21 29 25 37 32
leaf_count=23 36 21 29 25 37 32
internal_value=0.00324321 -0.0384883 0.0282164 0.0200441 0.0113257 -0.0199813
internal_weight=203 76 127 98 62 53
internal_count=203 76 127 98 62 53
is_linear=0
shrinkage=0.05


Tree=52
num_leaves=8
num_cat=0
split_feature=7 0 7 7 0 0 3
split_gain=76.3734 42.5826 24.4002 21.6541 27.6053 21.5849 3.30032
threshold=-4.4999999999999991 92.500000000000014 8.5000000000000018 -10.499999999999998 90.500000000000014 87.500000000000014 88.500000000000014
decision_type=2 2 2 2 2 2 2
left_child=3 2 5 -1 -5 6 -2
right_child=1 -3 -4 4 -6 -7 -8
leaf_value=-0.077078104132543443 -0.011720557681606311 0.093772637741640213 0.050842019892297689 -0.058648584627856819 0.013845007083025471 0.02895311259975036 -0.039784368090331562
leaf_weight=23 22 20 32 24 29 33 20
leaf_count=23 22 20 32 24 29 33 20
internal_value=0.00308105 0.0268056 0.0142884 -0.0365639 -0.0189823 -0.00130783 -0.0250843
internal_weight=203 127 107 76 53 75 42
internal_count=203 127 107 76 53 75 42
is_linear=0
shrinkage=0.05


Tree=53
num_leaves=8
num_cat=0
split_feature=7 0 7 0 7 0 3
split_gain=69.4761 41.6259 23.5667 21.8372 17.5922 23.3622 4.2704
threshold=-5.4999999999999991 92.500000000000014 8.5000000000000018 87.500000000000014 -10.499999999999998 91.500000000000014 89.500000000000014
decision_type=2 2 2 2 2 2 2
left_child=4 2 3 6 -1 -6 -2
right_child=1 -3 -4 -5 5 -7 -8
leaf_value=-0.073224197878785757 -0.011567405968582115 0.088746760537227007 0.048299918952398005 0.02791510625906727 -0.059082298104961718 0.011823083553463221 -0.042298760088160636
leaf_weight=23 26 21 32 34 21 26 20
leaf_count=23 26 21 32 34 21 26 20
internal_value=0.002927 0.0241479 0.0120356 -0.00247018 -0.0373926 -0.019858 -0.0249289
internal_weight=203 133 112 80 70 47 46
internal_count=203 133 112 80 70 47 46
is_linear=0
shrinkage=0.05


Tree=54
num_leaves=8
num_cat=0
split_feature=7 0 7 7 0 0 0
split_gain=62.7022 37.6104 23.734 15.8769 21.3445 15.649 4.0053
threshold=-5.4999999999999991 91.500000000000014 8.5000000000000018 -10.499999999999998 92.500000000000014 87.500000000000014 84.500000000000014
decision_type=2 2 2 2 2 2 2
left_child=3 2 5 -1 -5 6 -2
right_child=1 -3 -4 4 -6 -7 -8
leaf_value=-0.069562988363854258 -0.036622500720505533 0.07687953578021664 0.045884922886034477 -0.050473727641743606 0.017053704793480309 0.023216824052084625 -0.00686031726654619
leaf_weight=23 26 26 32 25 22 29 20
leaf_count=23 26 26 32 25 22 29 20
internal_value=0.00278065 0.0229405 0.00983378 -0.035523 -0.0188651 -0.00554805 -0.0236824
internal_weight=203 133 107 70 47 75 46
internal_count=203 133 107 70 47 75 46
is_linear=0
shrinkage=0.05


Tree=55
num_leaves=9
num_cat=0
split_feature=7 0 7 0 0 7 7 0
split_gain=56.9448 62.9854 51.7078 27.2261 21.6301 32.3642 11.5704 5.48228
threshold=13.500000000000002 79.500000000000014 -1.4999999999999998 86.500000000000014 88.500000000000014 -10.499999999999998 1.5000000000000002 93.500000000000014
decision_type=2 2 2 2 2 2 2 2
left_child=1 -1 4 -4 -3 -6 -5 -7
right_child=-2 2 3 6 5 7 -8 -9
leaf_value=-0.094270671675691309 0.076136446073651318 -0.062146280252685149 -0.0029940928307999122 0.028536378731951119 -0.06515724149532616 -0.0064558391235768802 0.081675150564738688 0.026656922161579135
leaf_weight=21 20 30 38 20 20 25 21 25
leaf_count=21 20 30 38 20 20 25 21 25
internal_value=-0.00430605 -0.0123503 -0.00273953 0.0274953 -0.0266251 -0.0114017 0.0557538 0.0101005
internal_weight=220 200 179 79 100 70 41 50
internal_count=220 200 179 79 100 70 41 50
is_linear=0
shrinkage=0.05


Tree=56
num_leaves=9
num_cat=0
split_feature=7 0 7 0 0 7 0 7
split_gain=51.3926 56.8443 46.6663 24.5715 19.8632 10.4423 8.91495 6.42199
threshold=13.500000000000002 79.500000000000014 -1.4999999999999998 86.500000000000014 94.500000000000014 1.5000000000000002 87.500000000000014 -9.4999999999999982
decision_type=2 2 2 2 2 2 2 2
left_child=1 -1 4 -4 6 -5 -3 -8
right_child=-2 2 3 5 -6 -7 7 -9
leaf_value=-0.089557137695096795 0.072329624667763714 -0.064915797901763161 -0.0028443882903574332 0.027109560361132025 0.01330337043106556 0.077591393994433544 -0.046185155061539265 -0.011219786608527446
leaf_weight=21 20 22 38 20 25 21 24 29
leaf_count=21 20 22 38 20 25 21 24 29
internal_value=-0.00409075 -0.0117328 -0.00260255 0.0261206 -0.0252938 0.0529661 -0.0381595 -0.0270532
internal_weight=220 200 179 79 100 41 75 53
internal_count=220 200 179 79 100 41 75 53
is_linear=0
shrinkage=0.05


Tree=57
num_leaves=7
num_cat=0
split_feature=0 0 5 6 6 0
split_gain=21.7852 6.75774 2.43032 15.0663 6.95219 2.74926
threshold=94.500000000000014 79.500000000000014 84.500000000000014 87.500000000000014 91.500000000000014 88.500000000000014
decision_type=2 2 2 2 2 2
left_child=1 -1 3 -3 5 -4
right_child=-2 2 4 -5 -6 -7
leaf_value=-0.030552529941504716 0.034250532428268345 -0.026556605954344076 -0.0087962556105011559 0.026999242899232896 -0.02772621555329376 0.012444283083081245
leaf_weight=34 32 24 39 29 37 25
leaf_count=34 32 24 39 29 37 25
internal_value=-0.00388621 -0.0103776 -0.00592336 0.00274754 -0.0104734 -0.00049917
internal_weight=220 188 154 53 101 64
internal_count=220 188 154 53 101 64
is_linear=0
shrinkage=0.05


Tree=58
num_leaves=9
num_cat=0
split_feature=7 0 7 0 0 7 7 0
split_gain=47.263 49.3748 42.3082 21.8725 16.8774 28.9229 9.2602 4.12519
threshold=13.500000000000002 79.500000000000014 -1.4999999999999998 86.500000000000014 88.500000000000014 -10.499999999999998 1.5000000000000002 93.500000000000014
decision_type=2 2 2 2 2 2 2 2
left_child=1 -1 4 -4 -3 -6 -5 -7
right_child=-2 2 3 6 5 7 -8 -9
leaf_value=-0.083551653190737679 0.069593805589247493 -0.055493972897529602 -0.0024900653669120451 0.025816978355869654 -0.061486994167789827 -0.0047044788477942356 0.073355702026968908 0.024018994599580765
leaf_weight=21 20 30 38 20 20 25 21 25
leaf_count=21 20 30 38 20 20 25 21 25
internal_value=-0.0036919 -0.0110205 -0.00251123 0.0248378 -0.024117 -0.0106697 0.0501661 0.00965726
internal_weight=220 200 179 79 100 70 41 50
internal_count=220 200 179 79 100 70 41 50
is_linear=0
shrinkage=0.05


Tree=59
num_leaves=9
num_cat=0
split_feature=7 0 7 0 7 0 7 0
split_gain=42.6549 45.1221 42.9026 16.538 12.178 20.9104 9.43701 2.61649
threshold=13.500000000000002 81.500000000000014 -3.4999999999999996 86.500000000000014 -10.499999999999998 88.500000000000014 1.5000000000000002 93.500000000000014
decision_type=2 2 2 2 2 2 2 2
left_child=1 -1 4 -4 -3 -6 -5 -7
right_child=-2 2 3 6 5 7 -8 -9
leaf_value=-0.065920823851540203 0.066114114094525583 -0.057919106650210564 -0.0010288222227245569 0.024997297729606984 -0.052684836964244433 -0.0056707674167806874 0.069687917314115028 0.019003436665627219
leaf_weight=31 20 21 34 27 23 22 21 21
leaf_count=31 20 21 34 27 23 22 21 21
internal_value=-0.00350731 -0.0104694 -0.000297893 0.0256511 -0.0247556 -0.0142036 0.0445494 0.00637943
internal_weight=220 200 169 82 87 66 48 43
internal_count=220 200 169 82 87 66 48 43
is_linear=0
shrinkage=0.05


Tree=60
num_leaves=8
num_cat=0
split_feature=7 0 0 0 7 0 7
split_gain=52.6705 31.9093 30.0009 11.8014 7.31626 16.09 2.01976
threshold=-1.0000000180025095e-35 88.500000000000014 80.500000000000014 94.500000000000014 6.5000000000000009 88.500000000000014 -7.4999999999999991
decision_type=2 2 2 2 2 2 2
left_child=1 -1 -2 6 5 -4 -3
right_child=2 3 4 -5 -6 -7 -8
leaf_value=-0.064080306616696447 -0.012579694828566383 -0.030125870074843988 0.004562807484529913 0.027002193707795372 0.06486367123649904 0.062510230230248501 -0.0091619765610192663
leaf_weight=33 34 20 25 21 27 23 27
leaf_count=33 34 20 25 21 27 23 27
internal_value=0.00227581 -0.0237376 0.02638 -0.00415948 0.0440417 0.0323293 -0.0180828
internal_weight=210 101 109 68 75 48 47
internal_count=210 101 109 68 75 48 47
is_linear=0
shrinkage=0.05


Tree=61
num_leaves=8
num_cat=0
split_feature=7 0 0 0 7 0 7
split_gain=47.5352 28.7981 27.0758 10.6507 6.60292 14.5212 1.82283
threshold=-1.0000000180025095e-35 88.500000000000014 80.500000000000014 94.500000000000014 6.5000000000000009 88.500000000000014 -7.4999999999999991
decision_type=2 2 2 2 2 2 2
left_child=1 -1 -2 6 5 -4 -3
right_child=2 3 4 -5 -6 -7 -8
leaf_value=-0.060876291470997261 -0.011950709188685698 -0.028619576524943114 0.0043346670982427893 0.025652085102739787 0.061620487341726274 0.059384719541539323 -0.0087038777768611904
leaf_weight=33 34 20 25 21 27 23 27
leaf_count=33 34 20 25 21 27 23 27
internal_value=0.00216202 -0.0225507 0.025061 -0.00395151 0.0418396 0.0307128 -0.0171786
internal_weight=210 101 109 68 75 48 47
internal_count=210 101 109 68 75 48 47
is_linear=0
shrinkage=0.05


Tree=62
num_leaves=8
num_cat=0
split_feature=7 0 0 0 7 0 7
split_gain=42.9005 25.9903 24.4359 9.61228 5.95914 13.1054 1.64511
threshold=-1.0000000180025095e-35 88.500000000000014 80.500000000000014 94.500000000000014 6.5000000000000009 88.500000000000014 -7.4999999999999991
decision_type=2 2 2 2 2 2 2
left_child=1 -1 -2 6 5 -4 -3
right_child=2 3 4 -5 -6 -7 -8
leaf_value=-0.057832477467529703 -0.011353174728505753 -0.027188597703352569 0.0041179339196532969 0.024369480106092634 0.058539463000165097 0.056415483525589762 -0.0082686836279376782
leaf_weight=33 34 20 25 21 27 23 27
leaf_count=33 34 20 25 21 27 23 27
internal_value=0.00205392 -0.0214232 0.0238079 -0.00375393 0.0397476 0.0291772 -0.0163197
internal_weight=210 101 109 68 75 48 47
internal_count=210 101 109 68 75 48 47
is_linear=0
shrinkage=0.05


Tree=63
num_leaves=8
num_cat=0
split_feature=0 6 0 3 1 2 0
split_gain=19.8592 7.95364 6.83988 2.87321 4.95608 3.95842 2.58925
threshold=94.500000000000014 95.500000000000014 79.500000000000014 93.500000000000014 84.500000000000014 83.500000000000014 89.500000000000014
decision_type=2 2 2 2 2 2 2
left_child=1 2 -1 4 -4 -6 -7
right_child=-2 -3 3 -5 5 6 -8
leaf_value=-0.031324091138174907 0.042854958514754592 0.023012328629071516 -0.023290659656049685 0.012373390009937188 -0.014974939493861581 0.017796149623269836 -0.0054294038098305466
leaf_weight=26 26 24 32 24 28 30 20
leaf_count=26 26 24 32 24 28 30 20
internal_value=0.00195122 -0.00382865 -0.0078548 -0.00330106 -0.00672094 7.68988e-05 0.00850593
internal_weight=210 184 160 134 110 78 50
internal_count=210 184 160 134 110 78 50
is_linear=0
shrinkage=0.05


Tree=64
num_leaves=8
num_cat=0
split_feature=7 0 0 7 0 0 7
split_gain=39.5051 22.7613 20.8375 10.079 16.9583 7.68608 1.47658
threshold=-1.0000000180025095e-35 88.500000000000014 79.500000000000014 9.5000000000000018 87.500000000000014 94.500000000000014 -7.4999999999999991
decision_type=2 2 2 2 2 2 2
left_child=1 -1 -2 4 -4 6 -3
right_child=2 5 3 -5 -6 -7 -8
leaf_value=-0.054747830396235903 -0.015369204155824804 -0.025673546146135779 -0.00083216615096335452 0.066137687359005215 0.051467007116204312 0.021008258756427541 -0.0077489040981702229
leaf_weight=33 27 20 31 20 31 21 27
leaf_count=33 27 20 31 20 31 21 27
internal_value=0.00185366 -0.0206752 0.022729 0.0352736 0.0253174 -0.00413997 -0.0153764
internal_weight=210 101 109 82 62 68 47
internal_count=210 101 109 82 62 68 47
is_linear=0
shrinkage=0.05


Tree=65
num_leaves=8
num_cat=0
split_feature=0 7 0 7 0 7 7
split_gain=32.0397 44.1393 24.4928 12.9822 22.8753 10.6286 3.61121
threshold=94.500000000000014 3.5000000000000004 85.500000000000014 13.500000000000002 81.500000000000014 -8.4999999999999982 -1.0000000180025095e-35
decision_type=2 2 2 2 2 2 2
left_child=1 2 -1 4 -3 -4 -7
right_child=-2 3 5 -5 -6 6 -8
leaf_value=-0.071544185434670546 0.049384112584014095 -0.027273467523248301 -0.037297286817263207 0.058177625201642519 0.03691679074428976 -0.011144297014626707 0.014359946263468135
leaf_weight=23 31 23 31 20 35 35 23
leaf_count=23 31 23 31 20 35 35 23
internal_value=0.00225228 -0.00543765 -0.0255491 0.0234404 0.011462 -0.0136628 -0.00103055
internal_weight=221 190 112 78 58 89 58
internal_count=221 190 112 78 58 89 58
is_linear=0
shrinkage=0.05


Tree=66
num_leaves=8
num_cat=0
split_feature=0 7 0 7 0 7 7
split_gain=28.9159 39.8357 22.1047 11.7164 20.6449 9.59233 3.25912
threshold=94.500000000000014 3.5000000000000004 85.500000000000014 13.500000000000002 81.500000000000014 -8.4999999999999982 -1.0000000180025095e-35
decision_type=2 2 2 2 2 2 2
left_child=1 2 -1 4 -3 -4 -7
right_child=-2 3 5 -5 -6 6 -8
leaf_value=-0.067966975709018496 0.046914907025113223 -0.025909794154374496 -0.0354324227679641 0.055268743522465226 0.035070951405380454 -0.010587082314970239 0.013641948836005252
leaf_weight=23 31 23 31 20 35 35 23
leaf_count=23 31 23 31 20 35 35 23
internal_value=0.00213967 -0.00516577 -0.0242717 0.0222684 0.0108889 -0.0129796 -0.000979018
internal_weight=221 190 112 78 58 89 58
internal_count=221 190 112 78 58 89 58
is_linear=0
shrinkage=0.05


Tree=67
num_leaves=8
num_cat=0
split_feature=0 7 0 7 0 7 7
split_gain=26.0966 35.9517 19.9495 10.5741 18.632 8.65707 2.94135
threshold=94.500000000000014 3.5000000000000004 85.500000000000014 13.500000000000002 81.500000000000014 -8.4999999999999982 -1.0000000180025095e-35
decision_type=2 2 2 2 2 2 2
left_child=1 2 -1 4 -3 -4 -7
right_child=-2 3 5 -5 -6 6 -8
leaf_value=-0.064568627204584048 0.044569161552334986 -0.02461430440130441 -0.033660801149333917 0.052505305670201778 0.033317404163203071 -0.010057728144207172 0.012959851624201175
leaf_weight=23 31 23 31 20 35 35 23
leaf_count=23 31 23 31 20 35 35 23
internal_value=0.00203268 -0.00490748 -0.0230581 0.021155 0.0103445 -0.0123307 -0.000930067
internal_weight=221 190 112 78 58 89 58
internal_count=221 190 112 78 58 89 58
is_linear=0
shrinkage=0.05


Tree=68
num_leaves=8
num_cat=0
split_feature=0 7 0 7 0 7 7
split_gain=23.5522 32.4465 18.0044 9.54308 16.8154 7.81301 2.65457
threshold=94.500000000000014 3.5000000000000004 85.500000000000014 13.500000000000002 81.500000000000014 -8.4999999999999982 -1.0000000180025095e-35
decision_type=2 2 2 2 2 2 2
left_child=1 2 -1 4 -3 -4 -7
right_child=-2 3 5 -5 -6 6 -8
leaf_value=-0.06134019570182199 0.042340703633043077 -0.023383588991735295 -0.031977761386623303 0.049880040958523754 0.031651533911270756 -0.0095548416088734357 0.012311859007762826
leaf_weight=23 31 23 31 20 35 35 23
leaf_count=23 31 23 31 20 35 35 23
internal_value=0.00193105 -0.0046621 -0.0219052 0.0200972 0.00982726 -0.0117141 -0.000883564
internal_weight=221 190 112 78 58 89 58
internal_count=221 190 112 78 58 89 58
is_linear=0
shrinkage=0.05


Tree=69
num_leaves=8
num_cat=0
split_feature=0 7 0 7 0 7 7
split_gain=21.2558 29.2829 16.249 8.61263 15.1759 7.05124 2.39575
threshold=94.500000000000014 3.5000000000000004 85.500000000000014 13.500000000000002 81.500000000000014 -8.4999999999999982 -1.0000000180025095e-35
decision_type=2 2 2 2 2 2 2
left_child=1 2 -1 4 -3 -4 -7
right_child=-2 3 5 -5 -6 6 -8
leaf_value=-0.058273186259295631 0.040223669053445904 -0.022214409575352204 -0.030378873201627889 0.047386039234697822 0.030068956799805164 -0.0090770997559385651 0.01169626599420672
leaf_weight=23 31 23 31 20 35 35 23
leaf_count=23 31 23 31 20 35 35 23
internal_value=0.0018345 -0.004429 -0.0208099 0.0190923 0.0093359 -0.0111284 -0.000839386
internal_weight=221 190 112 78 58 89 58
internal_count=221 190 112 78 58 89 58
is_linear=0
shrinkage=0.05


Tree=70
num_leaves=8
num_cat=0
split_feature=0 0 5 2 3 4 3
split_gain=15.3235 9.04653 4.86753 4.97451 4.67306 3.5262 1.58694
threshold=95.500000000000014 78.500000000000014 81.500000000000014 88.500000000000014 90.500000000000014 88.500000000000014 86.500000000000014
decision_type=2 2 2 2 2 2 2
left_child=1 -1 -3 4 5 -4 -5
right_child=-2 2 3 6 -6 -7 -8
leaf_value=-0.036705288782715798 0.032250877604103438 -0.020129312148415731 -0.014467724605294115 0.00054778636622359049 -0.02872124280603159 0.013532049296950194 0.0170563494182519
leaf_weight=25 26 38 22 24 21 23 37
leaf_count=25 26 38 22 24 21 23 37
internal_value=-0.00374996 -0.00867639 -0.00442958 0.000267976 -0.00924544 -0.000156729 0.0105612
internal_weight=216 190 165 127 66 45 61
internal_count=216 190 165 127 66 45 61
is_linear=0
shrinkage=0.05


Tree=71
num_leaves=9
num_cat=0
split_feature=7 0 7 0 7 0 0 5
split_gain=28.7647 43.9958 24.2225 18.8491 13.0003 7.48403 4.84151 1.08225
threshold=9.5000000000000018 81.500000000000014 -10.499999999999998 95.500000000000014 1.0000000180025095e-35 87.500000000000014 87.500000000000014 86.500000000000014
decision_type=2 2 2 2 2 2 2 2
left_child=1 -1 -3 4 6 -6 -4 -8
right_child=-2 2 3 -5 5 -7 7 -9
leaf_value=-0.074635400347566855 0.03793090799025127 -0.053349286168813709 -0.034955516748041628 0.050413190759718424 3.592089157212864e-05 0.042296568118035796 -0.014576088093842069 -0.00033102702621060119
leaf_weight=24 35 20 21 20 22 20 24 30
leaf_count=24 35 20 21 20 22 20 24 30
internal_value=-0.00356246 -0.011586 -0.00194792 0.00555593 -0.00211198 0.02016 -0.0145843 -0.00666217
internal_weight=216 181 157 137 117 42 75 54
internal_count=216 181 157 137 117 42 75 54
is_linear=0
shrinkage=0.05


Tree=72
num_leaves=8
num_cat=0
split_feature=7 7 6 6 3 6 7
split_gain=25.9602 14.1572 3.8621 8.41821 2.38101 2.15005 1.70955
threshold=9.5000000000000018 -10.499999999999998 85.500000000000014 89.500000000000014 89.500000000000014 80.500000000000014 -3.4999999999999996
decision_type=2 2 2 2 2 2 2
left_child=1 -1 5 4 -4 -3 -5
right_child=-2 2 3 6 -6 -7 -8
leaf_value=-0.05068181924521923 0.036034362050039424 -0.005705118291079999 -0.042092822762206196 -0.0096120897904728303 -0.017695020725950601 0.01307149936206594 0.0073526595803824341
leaf_weight=20 35 30 20 27 20 31 33
leaf_count=20 35 30 20 27 20 31 33
internal_value=-0.00338433 -0.0110067 -0.00607815 -0.0121265 -0.0298939 0.0038371 -0.000281478
internal_weight=216 181 161 100 40 61 60
internal_count=216 181 161 100 40 61 60
is_linear=0
shrinkage=0.05


Tree=73
num_leaves=7
num_cat=0
split_feature=7 0 7 0 7 7
split_gain=23.533 41.1228 20.7196 16.0963 6.54001 4.03847
threshold=8.5000000000000018 81.500000000000014 -6.4999999999999991 93.500000000000014 -10.499999999999998 1.0000000180025095e-35
decision_type=2 2 2 2 2 2
left_child=1 -1 4 5 -3 -4
right_child=-2 2 3 -5 -6 -7
leaf_value=-0.073228827313236572 0.032503962038869141 -0.048147729597985744 -0.010666254382279779 0.049223362605856816 -0.012980531898733133 0.012856489417420045
leaf_weight=23 38 20 36 23 39 37
leaf_count=23 38 20 36 23 39 37
internal_value=-0.00321512 -0.0108405 -0.00158292 0.0127484 -0.0249016 0.00125623
internal_weight=216 178 155 96 59 73
internal_count=216 178 155 96 59 73
is_linear=0
shrinkage=0.05


Tree=74
num_leaves=8
num_cat=0
split_feature=0 0 5 2 3 4 3
split_gain=12.333 8.97869 4.09897 4.2999 4.15212 2.88939 1.62056
threshold=95.500000000000014 78.500000000000014 81.500000000000014 88.500000000000014 90.500000000000014 88.500000000000014 86.500000000000014
decision_type=2 2 2 2 2 2 2
left_child=1 -1 -3 4 5 -4 -5
right_child=-2 2 3 6 -6 -7 -8
leaf_value=-0.035397628944367175 0.02924309029028966 -0.017650226189901957 -0.012164526953446594 0.00051855803782624823 -0.026135418262510077 0.013181140014658805 0.017201040783343283
leaf_weight=25 26 38 22 24 21 23 37
leaf_count=25 26 38 22 24 21 23 37
internal_value=-0.00305436 -0.00747401 -0.00324316 0.00106761 -0.00777723 0.000789925 0.0106374
internal_weight=216 190 165 127 66 45 61
internal_count=216 190 165 127 66 45 61
is_linear=0
shrinkage=0.05


Tree=75
num_leaves=9
num_cat=0
split_feature=7 0 7 2 6 7 0 1
split_gain=29.0211 43.5699 15.0183 6.03652 4.31109 3.78876 3.29564 1.46094
threshold=14.500000000000002 79.500000000000014 -1.0000000180025095e-35 89.500000000000014 81.500000000000014 -9.4999999999999982 88.500000000000014 89.500000000000014
decision_type=2 2 2 2 2 2 2 2
left_child=1 -1 4 7 -3 -6 -7 -4
right_child=-2 2 3 -5 5 6 -8 -9
leaf_value=-0.073662728098729119 0.054494130407415686 0.0075800299037085935 -0.0021033383715389807 0.036959070850301673 -0.034102979802486041 -0.024528918547414083 0.00012653023427860302 0.015563267674297094
leaf_weight=22 21 23 22 27 23 23 33 25
leaf_count=22 21 23 22 27 23 23 33 25
internal_value=-0.00139506 -0.0073227 0.000969805 0.0181176 -0.0114708 -0.0170172 -0.00999981 0.00729379
internal_weight=219 198 176 74 102 79 56 47
internal_count=219 198 176 74 102 79 56 47
is_linear=0
shrinkage=0.05


Tree=76
num_leaves=9
num_cat=0
split_feature=7 0 7 2 6 7 0 4
split_gain=26.1915 39.3218 13.554 5.44796 3.89076 3.41935 2.97431 1.32841
threshold=14.500000000000002 79.500000000000014 -1.0000000180025095e-35 89.500000000000014 81.500000000000014 -9.4999999999999982 88.500000000000014 85.500000000000014
decision_type=2 2 2 2 2 2 2 2
left_child=1 -1 4 7 -3 -6 -7 -4
right_child=-2 2 3 -5 5 6 -8 -9
leaf_value=-0.069979591015726331 0.051769424376210994 0.0072010281779195957 -0.0012998781011750301 0.035111117121522074 -0.032397829798308367 -0.02330247253260535 0.00012020386586135085 0.015515865666953767
leaf_weight=22 21 23 24 27 23 23 33 23
leaf_count=22 21 23 24 27 23 23 33 23
internal_value=-0.0013253 -0.00695656 0.000921315 0.0172117 -0.0108972 -0.0161663 -0.00949982 0.0069291
internal_weight=219 198 176 74 102 79 56 47
internal_count=219 198 176 74 102 79 56 47
is_linear=0
shrinkage=0.05


Tree=77
num_leaves=9
num_cat=0
split_feature=7 0 7 0 7 6 7 0
split_gain=23.6379 35.488 12.2325 5.1163 3.93049 3.51141 3.08597 2.68432
threshold=14.500000000000002 79.500000000000014 -1.0000000180025095e-35 89.500000000000014 5.5000000000000009 81.500000000000014 -9.4999999999999982 88.500000000000014
decision_type=2 2 2 2 2 2 2 2
left_child=1 -1 5 4 -4 -3 -7 -8
right_child=-2 2 3 -5 -6 6 7 -9
leaf_value=-0.066480611328204917 0.049180952632533657 0.0068409774047525039 -0.006731708157652368 0.037954140938818458 0.02041542651752631 -0.030777937380354045 -0.022137349285185338 0.00011419351636008784
leaf_weight=22 21 23 24 20 30 23 23 33
leaf_count=22 21 23 24 20 30 23 23 33
internal_value=-0.00125904 -0.00660874 0.000875249 0.0163511 0.00835003 -0.0103524 -0.015358 -0.00902483
internal_weight=219 198 176 74 54 102 79 56
internal_count=219 198 176 74 54 102 79 56
is_linear=0
shrinkage=0.05


Tree=78
num_leaves=9
num_cat=0
split_feature=0 0 4 4 3 0 5 0
split_gain=6.72735 4.60684 2.78185 3.48469 4.04755 1.8932 1.50187 1.46091
threshold=95.500000000000014 78.500000000000014 93.500000000000014 88.500000000000014 87.500000000000014 89.500000000000014 87.500000000000014 86.500000000000014
decision_type=2 2 2 2 2 2 2 2
left_child=1 -1 3 4 6 -6 -3 -5
right_child=-2 2 -4 7 5 -7 -8 -9
leaf_value=-0.023243585008162041 0.025712622837939611 -0.024943552832119169 -0.013590617610939913 0.022626357483254238 0.0146465963783807 -0.0054950305819511415 -0.005798615058440538 0.0049599296376109129
leaf_weight=27 21 20 35 22 28 20 21 25
leaf_count=27 21 20 35 22 28 20 21 25
internal_value=-0.00119609 -0.00405004 -0.00101948 0.00221574 -0.00360043 0.00625425 -0.0151376 0.0132293
internal_weight=219 198 171 136 89 48 41 47
internal_count=219 198 171 136 89 48 41 47
is_linear=0
shrinkage=0.05


Tree=79
num_leaves=10
num_cat=0
split_feature=7 0 7 0 2 7 4 7 4
split_gain=22.6661 28.6833 6.86086 13.3174 4.32597 3.92553 2.33281 1.30859 0.357618
threshold=9.5000000000000018 81.500000000000014 -5.4999999999999991 91.500000000000014 85.500000000000014 14.500000000000002 85.500000000000014 -9.4999999999999982 91.500000000000014
decision_type=2 2 2 2 2 2 2 2 2
left_child=1 -1 4 6 -3 -2 -4 -6 -8
right_child=5 2 3 -5 7 -7 8 -9 -10
leaf_value=-0.065270493729040022 0.016526542752981186 0.0051703990763053301 -0.01444397580906235 0.040985714889724148 -0.031116357704867488 0.047478370778706105 0.0088330252594460042 -0.01405935756523501 -0.0004049792801114646
leaf_weight=20 20 20 29 22 23 21 20 22 22
leaf_count=20 20 20 29 22 23 21 20 22 22
internal_value=-0.00113628 -0.00885631 -0.00171527 0.00699528 -0.0141781 0.0323799 -0.00353696 -0.0227774 0.00399407
internal_weight=219 178 158 93 65 41 71 45 42
internal_count=219 178 158 93 65 41 71 45 42
is_linear=0
shrinkage=0.05


Tree=80
num_leaves=8
num_cat=0
split_feature=7 0 7 0 6 5 7
split_gain=12.6996 20.1084 14.9192 11.6121 3.81601 1.82791 0.60732
threshold=9.5000000000000018 81.500000000000014 -5.4999999999999991 92.500000000000014 83.500000000000014 88.500000000000014 -9.4999999999999982
decision_type=2 2 2 2 2 2 2
left_child=1 -1 4 5 -3 -4 -6
right_child=-2 2 3 -5 6 -7 -8
leaf_value=-0.051849002703758224 0.02923497114485751 -0.034552970503202898 -0.0042611872247006327 0.044649973195856035 -0.0028348124541697048 0.013552987874330333 -0.014859782276852501
leaf_weight=21 30 22 36 23 21 24 21
leaf_count=21 30 22 36 23 21 24 21
internal_value=-0.000730876 -0.00608192 0.000456235 0.0144436 -0.0176836 0.00286448 -0.0088473
internal_weight=198 168 147 83 64 60 42
internal_count=198 168 147 83 64 60 42
is_linear=0
shrinkage=0.05


Tree=81
num_leaves=8
num_cat=0
split_feature=7 7 6 6 6 7 7
split_gain=11.4614 5.0235 5.51267 10.5452 3.44395 1.91707 0.548106
threshold=9.5000000000000018 -5.4999999999999991 86.500000000000014 91.500000000000014 83.500000000000014 2.5000000000000004 -9.4999999999999982
decision_type=2 2 2 2 2 2 2
left_child=1 4 5 -4 -1 -3 -6
right_child=-2 2 3 -5 6 -7 -8
leaf_value=-0.032825322101019662 0.027773223161542168 0.023839439261549467 -0.028465520864438078 0.013963766385697657 -0.0026930713626955238 0.0031532498342650276 -0.014116793132520148
leaf_weight=22 30 24 32 27 21 21 21
leaf_count=22 30 24 32 27 21 21 21
internal_value=-0.000694332 -0.00577782 0.00100471 -0.00904873 -0.0167994 0.0141859 -0.00840493
internal_weight=198 168 104 59 64 45 42
internal_count=198 168 104 59 64 45 42
is_linear=0
shrinkage=0.05


Tree=82
num_leaves=8
num_cat=0
split_feature=7 0 7 0 0 3 5
split_gain=10.3439 17.9785 12.5733 10.0747 3.27045 2.67302 1.52766
threshold=9.5000000000000018 81.500000000000014 -5.4999999999999991 92.500000000000014 90.500000000000014 87.500000000000014 88.500000000000014
decision_type=2 2 2 2 2 2 2
left_child=1 -1 4 6 -3 -6 -4
right_child=-2 2 3 -5 5 -7 -8
leaf_value=-0.048764344746069541 0.02638456240917246 -0.031576454563235698 -0.0037656234680778452 0.041669635378512676 0.0054503363554249526 -0.019805942869491198 0.012519890972180293
leaf_weight=21 30 22 36 23 20 22 24
leaf_count=21 30 22 36 23 20 22 24
internal_value=-0.000659615 -0.00548893 0.000693269 0.0135339 -0.0159595 -0.00777914 0.00274858
internal_weight=198 168 147 83 64 42 60
internal_count=198 168 147 83 64 42 60
is_linear=0
shrinkage=0.05


Tree=83
num_leaves=8
num_cat=0
split_feature=7 0 7 0 0 1 7
split_gain=9.60411 15.9051 13.6493 6.71819 5.52363 3.20627 1.82843
threshold=5.5000000000000009 91.500000000000014 -3.4999999999999996 84.500000000000014 80.500000000000014 85.500000000000014 -7.4999999999999991
decision_type=2 2 2 2 2 2 2
left_child=1 3 5 -1 -2 -3 -5
right_child=4 2 -4 6 -6 -7 -8
leaf_value=-0.046497677514950438 0.0023353466631046366 0.0074301164516288312 0.043119644619185819 -0.025858023157343271 0.034670230619609353 -0.019943060366786086 -0.0072633606262314009
leaf_weight=21 28 23 22 20 25 20 39
leaf_count=21 28 23 22 20 25 20 39
internal_value=-0.000626634 -0.00728427 0.0110871 -0.022211 0.0175877 -0.00530159 -0.0135666
internal_weight=198 145 65 80 53 43 59
internal_count=198 145 65 80 53 43 59
is_linear=0
shrinkage=0.05


Tree=84
num_leaves=8
num_cat=0
split_feature=7 0 7 0 6 5 7
split_gain=8.84279 15.5583 10.5182 8.26511 3.18596 1.40297 0.556504
threshold=9.5000000000000018 81.500000000000014 -5.4999999999999991 92.500000000000014 83.500000000000014 88.500000000000014 -9.4999999999999982
decision_type=2 2 2 2 2 2 2
left_child=1 -1 4 5 -3 -4 -6
right_child=-2 2 3 -5 6 -7 -8
leaf_value=-0.045317910372146539 0.024409651557604474 -0.029954471513205634 -0.0035764907693697349 0.037919035829279739 -0.00071111042052507401 0.012030264696416756 -0.012222011972750937
leaf_weight=21 30 22 36 23 21 24 21
leaf_count=21 30 22 36 23 21 24 21
internal_value=-0.000595303 -0.00506047 0.000690589 0.0124351 -0.0145405 0.00266621 -0.00646656
internal_weight=198 168 147 83 64 60 42
internal_count=198 168 147 83 64 60 42
is_linear=0
shrinkage=0.05


Tree=85
num_leaves=9
num_cat=0
split_feature=4 2 3 1 4 3 4 3
split_gain=5.74773 6.56907 4.0539 3.72414 3.90076 1.6731 1.67583 1.15189
threshold=88.500000000000014 84.500000000000014 90.500000000000014 86.500000000000014 84.500000000000014 85.500000000000014 93.500000000000014 93.500000000000014
decision_type=2 2 2 2 2 2 2 2
left_child=2 -2 3 -1 -5 -3 -7 -4
right_child=1 5 7 4 -6 6 -8 -9
leaf_value=-0.031541941256728025 0.026631824824620377 0.010338039247488435 0.012118776745739438 -0.021185514330863953 0.0079623340544375514 0.0028398363173685291 -0.017157999444752933 -0.0036257089044039064
leaf_weight=24 33 22 21 24 22 22 20 26
leaf_count=24 33 22 21 24 22 22 20 26
internal_value=-0.000488122 0.00851138 -0.00794925 -0.0155755 -0.00724524 -0.00083198 -0.00668294 0.00340906
internal_weight=214 97 117 70 46 64 42 47
internal_count=214 97 117 70 46 64 42 47
is_linear=0
shrinkage=0.05


Tree=86
num_leaves=9
num_cat=0
split_feature=7 0 7 0 3 7 0 2
split_gain=9.37948 7.37964 13.0148 3.37498 2.72648 1.70345 0.749908 0.185521
threshold=-10.499999999999998 88.500000000000014 8.5000000000000018 82.500000000000014 89.500000000000014 -2.4999999999999996 93.500000000000014 87.500000000000014
decision_type=2 2 2 2 2 2 2 2
left_child=-1 2 3 -2 6 -5 -3 -6
right_child=1 4 -4 5 7 -7 -8 -9
leaf_value=-0.029916324278262137 -0.034680590281883882 -0.00070234239101409914 0.018714214795948685 -0.021640029110546626 0.020502647291868927 -0.0029413271890070033 0.012675073351711037 0.027312956899404529
leaf_weight=24 21 22 37 21 20 29 20 20
leaf_count=24 21 22 37 21 20 29 20 20
internal_value=-0.000463716 0.00325661 -0.00532968 -0.0178596 0.0145654 -0.0107948 0.00566786 0.0239078
internal_weight=214 190 108 71 82 50 42 40
internal_count=214 190 108 71 82 50 42 40
is_linear=0
shrinkage=0.05


Tree=87
num_leaves=8
num_cat=0
split_feature=7 0 0 0 7 0 2
split_gain=8.8486 8.20804 5.38587 4.51223 4.02758 2.42893 1.95634
threshold=2.5000000000000004 95.500000000000014 85.500000000000014 87.500000000000014 10.500000000000002 90.500000000000014 88.500000000000014
decision_type=2 2 2 2 2 2 2
left_child=1 3 4 -1 -2 -5 -7
right_child=2 -3 -4 5 -6 6 -8
leaf_value=-0.028652555923576337 -0.0095008380413055434 0.017421114878155865 0.035620244629681108 0.004746479131738722 0.01767248261719942 -0.024362672452369463 -0.0045185734483378908
leaf_weight=35 25 26 20 28 30 23 27
leaf_count=35 25 26 20 28 30 23 27
internal_value=-0.000440531 -0.00790886 0.0134008 -0.013737 0.00532097 -0.00704412 -0.0136469
internal_weight=214 139 75 113 55 78 50
internal_count=214 139 75 113 55 78 50
is_linear=0
shrinkage=0.05


Tree=88
num_leaves=9
num_cat=0
split_feature=4 2 3 1 4 3 4 3
split_gain=5.20491 5.79395 3.24246 3.34113 3.3996 1.37753 1.31252 1.12666
threshold=88.500000000000014 84.500000000000014 90.500000000000014 86.500000000000014 84.500000000000014 85.500000000000014 93.500000000000014 93.500000000000014
decision_type=2 2 2 2 2 2 2 2
left_child=2 -2 3 -1 -5 -3 -7 -4
right_child=1 5 7 4 -6 6 -8 -9
leaf_value=-0.029462150614805678 0.025163338584543178 0.0095061490481550062 0.011253353243782408 -0.019462727913438962 0.007748362980782986 0.0024891651574183594 -0.015208685232792049 -0.0043177156924055172
leaf_weight=24 33 22 21 24 22 22 20 26
leaf_count=24 33 22 21 24 22 22 20 26
internal_value=-0.000418504 0.0081455 -0.00751858 -0.014339 -0.00644873 -0.000629325 -0.00593838 0.00263957
internal_weight=214 97 117 70 46 64 42 47
internal_count=214 97 117 70 46 64 42 47
is_linear=0
shrinkage=0.05


Tree=89
num_leaves=8
num_cat=0
split_feature=7 7 3 1 5 4 2
split_gain=8.32504 4.61044 3.14947 2.4488 1.87329 1.5737 1.27252
threshold=-10.499999999999998 2.5000000000000004 87.500000000000014 85.500000000000014 87.500000000000014 85.500000000000014 90.500000000000014
decision_type=2 2 2 2 2 2 2
left_child=-1 2 6 -3 -4 -5 -2
right_child=1 3 4 5 -6 -7 -8
leaf_value=-0.0281453124480322 -0.0057851134517573214 0.026336772334964384 -0.0069584760069847113 -0.0026518196954081457 0.012126859861665354 0.014796256209956483 -0.021121657373649735
leaf_weight=24 38 23 20 24 36 28 21
leaf_count=24 38 23 20 24 36 28 21
internal_value=-0.000397579 0.0031074 -0.00318254 0.012752 0.00531067 0.0067433 -0.0112439
internal_weight=214 190 115 75 56 52 59
internal_count=214 190 115 75 56 52 59
is_linear=0
shrinkage=0.05


Tree=90
num_leaves=9
num_cat=0
split_feature=7 7 3 6 6 4 3 5
split_gain=9.60682 4.32685 3.24321 2.7412 3.13017 2.19141 1.66564 0.500513
threshold=5.5000000000000009 -10.499999999999998 87.500000000000014 86.500000000000014 90.500000000000014 87.500000000000014 89.500000000000014 87.500000000000014
decision_type=2 2 2 2 2 2 2 2
left_child=1 -1 -2 6 -5 -6 7 -3
right_child=2 3 -4 4 5 -7 -8 -9
leaf_value=-0.026729749731719495 0.031915457463557166 -0.0076906252279877662 0.007190590920961565 -0.024531866910939032 -0.013740348309764398 0.0080860799077250387 0.015570447230711579 0.0033614755818797723
leaf_weight=25 21 20 36 26 23 23 20 21
leaf_count=25 21 20 36 26 23 23 20 21
internal_value=-0.00129696 -0.00764515 0.0162998 -0.00405781 -0.010665 -0.00282713 0.00374078 -0.00202979
internal_weight=215 158 57 133 72 46 61 41
internal_count=215 158 57 133 72 46 61 41
is_linear=0
shrinkage=0.05


Tree=91
num_leaves=9
num_cat=0
split_feature=0 0 4 4 4 2 1 5
split_gain=10.0279 4.85491 5.09454 2.76028 2.01898 1.7286 2.12381 2.35457
threshold=78.500000000000014 95.500000000000014 92.500000000000014 88.500000000000014 94.500000000000014 83.500000000000014 86.500000000000014 89.500000000000014
decision_type=2 2 2 2 2 2 2 2
left_child=-1 2 3 5 -4 -2 -7 -8
right_child=1 -3 4 -5 -6 6 7 -9
leaf_value=-0.03100095754861832 -0.01130253861968716 0.022758150000411731 -0.026479571525539671 0.017285966033523437 -0.0045544831614409177 0.016232350480277092 -0.014829402044415475 0.0088747304271567951
leaf_weight=25 24 26 21 32 21 24 20 22
leaf_count=25 24 26 21 32 21 24 20 22
internal_value=-0.00123212 0.00268484 -0.000497517 0.00467313 -0.015517 0.000188572 0.00436716 -0.00241295
internal_weight=215 190 164 122 42 90 66 42
internal_count=215 190 164 122 42 90 66 42
is_linear=0
shrinkage=0.05


Tree=92
num_leaves=8
num_cat=0
split_feature=7 7 3 6 6 4 3
split_gain=9.22049 4.02156 2.8672 2.34449 2.69585 1.87422 1.45448
threshold=5.5000000000000009 -10.499999999999998 87.500000000000014 86.500000000000014 90.500000000000014 87.500000000000014 87.500000000000014
decision_type=2 2 2 2 2 2 2
left_child=1 -1 -2 6 -5 -6 -3
right_child=2 3 -4 4 5 -7 -8
leaf_value=-0.025788752337917688 0.030751373290660834 -0.0035992601502905877 0.0075039042392745616 -0.022910608258098365 -0.012860443076604736 0.0073246989237225578 0.011944912577530852
leaf_weight=25 21 34 36 26 23 23 27
leaf_count=25 21 34 36 26 23 23 27
internal_value=-0.00117051 -0.00738974 0.0160688 -0.00393128 -0.0100416 -0.00276787 0.00328095
internal_weight=215 158 57 133 72 46 61
internal_count=215 158 57 133 72 46 61
is_linear=0
shrinkage=0.05


Tree=93
num_leaves=9
num_cat=0
split_feature=0 0 4 4 4 2 1 5
split_gain=9.36591 4.48656 4.60872 2.4261 1.75232 1.53269 1.91771 2.09322
threshold=78.500000000000014 95.500000000000014 92.500000000000014 88.500000000000014 94.500000000000014 83.500000000000014 86.500000000000014 89.500000000000014
decision_type=2 2 2 2 2 2 2 2
left_child=-1 2 3 5 -4 -2 -7 -8
right_child=1 -3 4 -5 -6 6 7 -9
leaf_value=-0.029881500855088235 -0.010492533608339728 0.021970280489096276 -0.024884169850321044 0.016356873899349013 -0.0044582273988496698 0.0155372817767784 -0.01388733682135353 0.0084625835869122628
leaf_weight=25 24 26 21 32 21 24 20 22
leaf_count=25 24 26 21 32 21 24 20 22
internal_value=-0.00111198 0.00267348 -0.00038577 0.00453216 -0.0146712 0.000327823 0.0042625 -0.00218024
internal_weight=215 190 164 122 42 90 66 42
internal_count=215 190 164 122 42 90 66 42
is_linear=0
shrinkage=0.05


Tree=94
num_leaves=8
num_cat=0
split_feature=7 0 7 0 0 7 4
split_gain=8.84114 13.8656 6.98158 7.58689 6.00555 4.60266 1.90148
threshold=5.5000000000000009 84.500000000000014 -10.499999999999998 91.500000000000014 80.500000000000014 -3.4999999999999996 85.500000000000014
decision_type=2 2 2 2 2 2 2
left_child=1 -1 -3 6 -2 -5 -4
right_child=4 2 3 5 -6 -7 -8
leaf_value=-0.043031374717374213 0.0024759935379466591 -0.024883577462285759 -0.018288372337818146 0.0054288988659993327 0.035557144119039825 0.035757278784347528 -0.0001234896426253459
leaf_weight=23 34 25 25 29 23 22 34
leaf_count=23 34 25 25 29 23 22 34
internal_value=-0.00105638 -0.00714633 -0.00103259 0.00438809 0.0158245 0.0185117 -0.00782047
internal_weight=215 158 135 110 57 51 59
internal_count=215 158 135 110 57 51 59
is_linear=0
shrinkage=0.05


Tree=95
num_leaves=8
num_cat=0
split_feature=7 0 7 0 7 3 4
split_gain=8.267 11.9297 5.97754 6.03246 4.8559 2.81359 1.98494
threshold=9.5000000000000018 87.500000000000014 1.0000000180025095e-35 95.500000000000014 3.5000000000000004 87.500000000000014 87.500000000000014
decision_type=2 2 2 2 2 2 2
left_child=1 4 3 5 -1 -3 -2
right_child=6 2 -4 -5 -6 -7 -8
leaf_value=-0.031910658703261131 0.010458841937638465 0.0040749943843393617 0.031493308274075392 0.021046317016173686 -0.0057352398494806365 -0.016137345512914989 0.032198336702727141
leaf_weight=37 21 33 20 28 34 36 21
leaf_count=37 21 33 20 28 34 36 21
internal_value=0.00127305 -0.00320744 0.00660422 0.00147245 -0.019376 -0.00647057 0.0213286
internal_weight=230 188 117 97 71 69 42
internal_count=230 188 117 97 71 69 42
is_linear=0
shrinkage=0.05


Tree=96
num_leaves=9
num_cat=0
split_feature=7 0 5 2 4 0 5 4
split_gain=7.46097 10.8263 5.69081 3.39102 4.22736 4.71028 1.83315 1.79141
threshold=9.5000000000000018 83.500000000000014 79.500000000000014 81.500000000000014 80.500000000000014 92.500000000000014 87.500000000000014 87.500000000000014
decision_type=2 2 2 2 2 2 2 2
left_child=1 -1 -3 -4 -5 6 -6 -2
right_child=7 2 3 4 5 -7 -8 -9
leaf_value=-0.031142144907137445 0.0099358994868539649 0.025079107349333558 -0.016978413399694296 -0.016184417187954145 -0.01312357299916801 0.02267871666699648 0.0061376574663881914 0.030588420764321375
leaf_weight=29 21 23 29 24 21 32 30 21
leaf_count=29 21 23 29 24 21 32 30 21
internal_value=0.0012094 -0.00304707 0.00207719 -0.00181284 0.00229745 0.00764161 -0.00179344 0.0202622
internal_weight=230 188 159 136 107 83 51 42
internal_count=230 188 159 136 107 83 51 42
is_linear=0
shrinkage=0.05


Tree=97
num_leaves=9
num_cat=0
split_feature=7 0 7 0 7 0 4 6
split_gain=6.73352 9.88194 5.39861 5.35927 4.52078 2.79683 1.61675 0.184684
threshold=9.5000000000000018 87.500000000000014 1.0000000180025095e-35 95.500000000000014 3.5000000000000004 90.500000000000014 87.500000000000014 87.500000000000014
decision_type=2 2 2 2 2 2 2 2
left_child=1 4 3 5 -1 -3 -2 -7
right_child=6 2 -4 -5 -6 7 -8 -9
leaf_value=-0.0297046933839148 0.0094391045293637701 0.0054940646963900532 0.029688360411673789 0.019607687937760993 -0.0044486396754270094 -0.011502280477434398 0.029058999612572647 -0.018297198899090289
leaf_weight=37 21 29 20 28 34 20 21 20
leaf_count=37 21 29 20 28 34 20 21 20
internal_value=0.00114893 -0.00289472 0.00603522 0.00115828 -0.0176102 -0.00632843 0.0192491 -0.0148997
internal_weight=230 188 117 97 71 69 42 40
internal_count=230 188 117 97 71 69 42 40
is_linear=0
shrinkage=0.05


Tree=98
num_leaves=8
num_cat=0
split_feature=4 0 3 4 2 1 4
split_gain=5.22474 10.6538 6.39658 4.02947 3.97904 2.75896 3.56724
threshold=85.500000000000014 94.500000000000014 84.500000000000014 93.500000000000014 88.500000000000014 89.500000000000014 89.500000000000014
decision_type=2 2 2 2 2 2 2
left_child=2 3 -1 5 -4 6 -2
right_child=1 -3 4 -5 -6 -7 -8
leaf_value=-0.030039991139434282 -0.013668187838047744 0.038873667587970645 -0.0095149527696010323 -0.012187918318578831 0.017604691499755496 0.01799048006002392 0.013042252965271473
leaf_weight=25 25 22 38 39 21 35 25
leaf_count=25 25 22 38 39 21 35 25
internal_value=0.00109148 0.0068076 -0.00884368 0.00111846 0.000137802 0.00722375 -0.000312967
internal_weight=230 146 84 124 59 85 50
internal_count=230 146 84 124 59 85 50
is_linear=0
shrinkage=0.05


Tree=99
num_leaves=9
num_cat=0
split_feature=7 0 5 2 7 5 3 7
split_gain=6.1422 9.13357 4.89955 2.89907 3.00629 2.7947 3.36858 0.985387
threshold=9.5000000000000018 83.500000000000014 79.500000000000014 81.500000000000014 1.0000000180025095e-35 92.500000000000014 86.500000000000014 13.500000000000002
decision_type=2 2 2 2 2 2 2 2
left_child=1 -1 -3 -4 5 6 -5 -2
right_child=7 2 3 4 -6 -7 -8 -9
leaf_value=-0.02863052798162118 0.010291612185537816 0.023224522999447328 -0.015750350160845396 -0.02399948100474748 0.017251093663275242 0.011382853161543608 0.00096862143969961572 0.025626187605402348
leaf_weight=29 20 23 29 22 25 25 35 22
leaf_count=29 20 23 29 22 25 25 35 22
internal_value=0.00103691 -0.0028251 0.00188155 -0.00172793 0.00207254 -0.00255507 -0.00866819 0.018324
internal_weight=230 188 159 136 107 82 57 42
internal_count=230 188 159 136 107 82 57 42
is_linear=0
shrinkage=0.05


Tree=100
num_leaves=9
num_cat=0
split_feature=7 0 0 0 6 6 5 5
split_gain=8.3741 12.0417 3.72386 2.02188 1.93751 0.930713 0.827802 0.633053
threshold=5.5000000000000009 86.500000000000014 95.500000000000014 80.500000000000014 86.500000000000014 91.500000000000014 88.500000000000014 86.500000000000014
decision_type=2 2 2 2 2 2 2 2
left_child=1 6 4 -2 7 -6 -1 -3
right_child=3 2 -4 -5 5 -7 -8 -9
leaf_value=-0.036345020011067396 0.0081687103166724704 -0.016158318530069667 0.021750454031418832 0.026618199395360771 0.011992100921149057 -0.0013189154580749317 -0.021959248441271485 -0.0035780432960018519
leaf_weight=20 33 20 21 27 24 29 20 20
leaf_count=20 33 20 21 27 24 29 20 20
internal_value=0.000625082 -0.00554864 0.00273328 0.016471 -0.00156092 0.00470871 -0.0291521 -0.00986818
internal_weight=214 154 114 60 93 53 40 40
internal_count=214 154 114 60 93 53 40 40
is_linear=0
shrinkage=0.05


Tree=101
num_leaves=9
num_cat=0
split_feature=7 0 0 4 6 1 5 5
split_gain=7.55762 10.8676 3.36078 1.93708 1.7486 0.883891 0.747091 0.571331
threshold=5.5000000000000009 86.500000000000014 95.500000000000014 86.500000000000014 86.500000000000014 89.500000000000014 88.500000000000014 86.500000000000014
decision_type=2 2 2 2 2 2 2 2
left_child=1 6 4 -2 7 -6 -1 -3
right_child=3 2 -4 -5 5 -7 -8 -9
leaf_value=-0.034527769386768346 0.00604317103113447 -0.015350402505137027 0.020662931330679431 0.024051158933434638 -0.0018630265016798622 0.011053288219353329 -0.020861287286970766 -0.0033991414075717334
leaf_weight=20 28 20 21 32 27 26 20 20
leaf_count=20 28 20 21 32 27 26 20 20
internal_value=0.000593828 -0.00527121 0.00259662 0.0156474 -0.00148287 0.00447328 -0.0276945 -0.00937477
internal_weight=214 154 114 60 93 53 40 40
internal_count=214 154 114 60 93 53 40 40
is_linear=0
shrinkage=0.05


Tree=102
num_leaves=7
num_cat=0
split_feature=0 2 1 2 5 5
split_gain=6.94407 2.48708 4.16542 3.64498 2.17722 1.84586
threshold=78.500000000000014 85.500000000000014 93.500000000000014 89.500000000000014 89.500000000000014 87.500000000000014
decision_type=2 2 2 2 2 2
left_child=-1 4 3 -3 -2 -5
right_child=1 2 -4 5 -6 -7
leaf_value=-0.024777893485346189 0.019632177900623632 -0.0088866545161341917 -0.018229216043479168 0.0024510162261625131 0.0015063944862534603 0.019587505439465698
leaf_weight=24 37 34 26 30 30 33
leaf_count=24 37 34 26 30 30 33
internal_value=0.000564137 0.00376524 -0.000456811 0.00430693 0.0115162 0.0114273
internal_weight=214 190 123 97 67 63
internal_count=214 190 123 97 67 63
is_linear=0
shrinkage=0.05


Tree=103
num_leaves=7
num_cat=0
split_feature=7 3 3 1 3 6
split_gain=7.03633 3.77142 3.94389 1.86565 1.84286 1.30471
threshold=5.5000000000000009 79.500000000000014 92.500000000000014 92.500000000000014 90.500000000000014 86.500000000000014
decision_type=2 2 2 2 2 2
left_child=1 -1 3 5 -2 -3
right_child=4 2 -4 -5 -6 -7
leaf_value=-0.023333983674334983 0.022215849787203801 0.0018060378194081064 -0.015311975019836896 -0.0066586982972663029 0.004328951487938563 0.016213242343316475
leaf_weight=24 36 33 38 29 24 30
leaf_count=24 36 33 38 29 24 30
internal_value=0.00053593 -0.00512322 -0.00176124 0.00383581 0.0150611 0.00866661
internal_weight=214 154 130 92 60 63
internal_count=214 154 130 92 60 63
is_linear=0
shrinkage=0.05


Tree=104
num_leaves=9
num_cat=0
split_feature=0 7 0 0 0 7 3 7
split_gain=6.41076 7.37909 4.52161 2.3608 1.56809 1.51534 1.06641 0.630443
threshold=78.500000000000014 1.0000000180025095e-35 95.500000000000014 86.500000000000014 86.500000000000014 9.5000000000000018 91.500000000000014 -4.4999999999999991
decision_type=2 2 2 2 2 2 2 2
left_child=-1 2 4 5 -2 -3 7 -6
right_child=1 3 -4 -5 6 -7 -8 -9
leaf_value=-0.02384030199609697 -0.021135541591793303 0.0018295976068151906 0.017448396747931839 0.02890730364791428 0.0024490402093814579 0.019507474977184427 -0.01503057141034376 -0.0084136155010624374
leaf_weight=24 20 27 20 24 34 22 21 22
leaf_count=24 20 27 20 24 34 22 21 22
internal_value=0.000509133 0.00358485 -0.00419844 0.0160594 -0.0086617 0.0097666 -0.00542174 -0.00181843
internal_weight=214 190 117 73 97 49 77 56
internal_count=214 190 117 73 97 49 77 56
is_linear=0
shrinkage=0.05


Tree=105
num_leaves=10
num_cat=0
split_feature=7 7 3 7 3 1 5 1 1
split_gain=8.64068 6.75349 2.95795 2.35168 1.73381 3.03787 1.15305 0.573467 0.350927
threshold=-10.499999999999998 14.500000000000002 94.500000000000014 1.5000000000000002 83.500000000000014 93.500000000000014 89.500000000000014 85.500000000000014 89.500000000000014
decision_type=2 2 2 2 2 2 2 2 2
left_child=-1 2 3 4 -2 7 8 -6 -5
right_child=1 -3 -4 6 5 -7 -8 -9 -10
leaf_value=-0.025973203095297021 -0.011450590305030347 0.031723605226725342 -0.016078043085607615 0.020658322663512082 0.0042531487554134358 -0.013132906071841716 0.001931196069041186 0.01556712604748706 0.011403972921626909
leaf_weight=27 30 20 22 20 21 20 23 24 21
leaf_count=27 30 20 22 20 21 20 23 24 21
internal_value=0.000584638 0.00415211 0.00110553 0.00348314 -0.00150788 0.00308106 0.0108917 0.0102873 0.0159183
internal_weight=228 201 181 159 95 65 64 45 41
internal_count=228 201 181 159 95 65 64 45 41
is_linear=0
shrinkage=0.05


Tree=106
num_leaves=9
num_cat=0
split_feature=7 7 0 7 0 7 6 4
split_gain=7.79822 6.09502 13.381 4.07673 1.98995 1.63347 1.19336 1.0211
threshold=-10.499999999999998 14.500000000000002 80.500000000000014 1.0000000180025095e-35 94.500000000000014 -1.4999999999999998 86.500000000000014 86.500000000000014
decision_type=2 2 2 2 2 2 2 2
left_child=-1 2 -2 4 5 7 -5 -4
right_child=1 -3 3 6 -6 -7 -8 -9
leaf_value=-0.024674543714219774 -0.034581687641532528 0.030137425092980265 0.0082669214703715767 0.0093593495315872129 0.014227141558658334 -0.015381676539601314 0.023711904014150301 -0.0049821507051643552
leaf_weight=27 23 20 26 28 20 21 30 33
leaf_count=27 23 20 26 28 20 21 30 33
internal_value=0.000555406 0.0039445 0.00105026 0.00623719 0.000120566 -0.00340608 0.0167831 0.000856423
internal_weight=228 201 181 158 100 80 58 59
internal_count=228 201 181 158 100 80 58 59
is_linear=0
shrinkage=0.05


Tree=107
num_leaves=9
num_cat=0
split_feature=0 5 0 5 4 4 1 4
split_gain=3.03573 2.4896 4.24841 3.97943 1.75643 1.98707 1.39677 0.808491
threshold=78.500000000000014 78.500000000000014 90.500000000000014 88.500000000000014 92.500000000000014 85.500000000000014 87.500000000000014 79.500000000000014
decision_type=2 2 2 2 2 2 2 2
left_child=-1 -2 4 -4 5 7 -7 -3
right_child=1 2 3 -5 -6 6 -8 -9
leaf_value=-0.016696874358002906 0.018770252336703597 0.0093799163248728633 0.0038898711152855429 -0.020395959685934155 -0.0050313151553452303 0.0075601802626624713 0.025451321302292246 -0.0038900433573871851
leaf_weight=23 21 22 31 37 26 20 24 24
leaf_count=23 21 22 31 37 26 20 24 24
internal_value=0.000527636 0.00246014 0.000598662 -0.00932448 0.00641567 0.00972258 0.017319 0.00245646
internal_weight=228 205 184 68 116 90 44 46
internal_count=228 205 184 68 116 90 44 46
is_linear=0
shrinkage=0.05


Tree=108
num_leaves=9
num_cat=0
split_feature=0 5 0 5 4 1 4 6
split_gain=2.73974 2.24686 3.83419 3.59143 1.58518 1.83064 3.50162 0.418814
threshold=78.500000000000014 78.500000000000014 90.500000000000014 88.500000000000014 92.500000000000014 84.500000000000014 85.500000000000014 88.500000000000014
decision_type=2 2 2 2 2 2 2 2
left_child=-1 -2 4 -4 5 -3 7 -7
right_child=1 2 3 -5 -6 6 -8 -9
leaf_value=-0.015862030702967034 0.017831738820920387 -0.0029344872450051103 0.0036953776594131228 -0.019376161412612811 -0.0047797491684412729 -0.0010928494762629272 0.027327354624867441 0.0091396212857216604
leaf_weight=23 21 23 31 37 26 20 27 20
leaf_count=23 21 23 31 37 26 20 27 20
internal_value=0.000501254 0.00233713 0.000568729 -0.00885825 0.00609489 0.00923645 0.0134145 0.00402339
internal_weight=228 205 184 68 116 90 67 40
internal_count=228 205 184 68 116 90 67 40
is_linear=0
shrinkage=0.05


Tree=109
num_leaves=9
num_cat=0
split_feature=7 0 7 7 0 5 0 6
split_gain=7.37508 9.51466 7.67613 3.46039 1.95917 1.93685 1.06746 1.05784
threshold=14.500000000000002 80.500000000000014 -10.499999999999998 1.0000000180025095e-35 94.500000000000014 87.500000000000014 86.500000000000014 88.500000000000014
decision_type=2 2 2 2 2 2 2 2
left_child=1 -1 -3 4 5 -4 -5 -7
right_child=-2 2 3 6 -6 7 -8 -9
leaf_value=-0.032641222311750699 0.029476509476080538 -0.023179473696897428 -0.01185299222407913 0.009480645271215702 0.014030288755893709 0.011777618562891371 0.023177890099585055 -0.0039112883503548803
leaf_weight=23 20 27 37 33 20 21 25 22
leaf_count=23 20 27 37 33 20 21 25 22
internal_value=0.000476191 -0.0023123 0.00145832 0.00566858 3.32671e-05 -0.00346599 0.0153846 0.00375074
internal_weight=228 208 185 158 100 80 58 43
internal_count=228 208 185 158 100 80 58 43
is_linear=0
shrinkage=0.05


Tree=110
num_leaves=8
num_cat=0
split_feature=7 0 7 5 0 5 4
split_gain=6.02974 17.4048 5.88659 5.58723 2.90212 1.99691 1.24275
threshold=13.500000000000002 80.500000000000014 -5.4999999999999991 88.500000000000014 92.500000000000014 85.500000000000014 85.500000000000014
decision_type=2 2 2 2 2 2 2
left_child=1 -1 3 -3 5 -4 -7
right_child=-2 2 4 -5 -6 6 -8
leaf_value=-0.045877788452939557 0.023584267039867966 0.0052286266268969615 -0.0071157224404697246 -0.024853476866811629 0.024792888912964953 0.00029326312413269825 0.015458672413868564
leaf_weight=22 22 29 26 33 22 22 35
leaf_count=22 22 29 26 33 22 22 35
internal_value=-0.00118982 -0.00407358 0.00143357 -0.0107828 0.00864705 0.00436743 0.00960536
internal_weight=211 189 167 62 105 83 57
internal_count=211 189 167 62 105 83 57
is_linear=0
shrinkage=0.05


Tree=111
num_leaves=8
num_cat=0
split_feature=7 0 7 5 0 5 7
split_gain=5.44184 15.7078 5.3127 6.36505 2.72067 2.18471 1.20271
threshold=13.500000000000002 80.500000000000014 -6.4999999999999991 88.500000000000014 92.500000000000014 85.500000000000014 4.5000000000000009
decision_type=2 2 2 2 2 2 2
left_child=1 -1 3 -3 5 -4 -7
right_child=-2 2 4 -5 -6 6 -8
leaf_value=-0.043583898483352229 0.022405053895305505 0.0072174318349705301 -0.0082316944927529057 -0.026328567932209664 0.022280955767259004 0.0035618843548503275 0.018543323204808292
leaf_weight=22 22 26 27 31 25 37 21
leaf_count=22 22 26 27 31 25 37 21
internal_value=-0.00113033 -0.0038699 0.00136189 -0.0110269 0.00778152 0.00351699 0.0089862
internal_weight=211 189 167 57 110 85 58
internal_count=211 189 167 57 110 85 58
is_linear=0
shrinkage=0.05


Tree=112
num_leaves=9
num_cat=0
split_feature=7 1 7 6 6 6 3 7
split_gain=4.91598 3.14771 4.98005 1.74574 2.37574 2.23372 0.700688 0.694566
threshold=9.5000000000000018 95.500000000000014 -10.499999999999998 85.500000000000014 80.500000000000014 89.500000000000014 88.500000000000014 1.0000000180025095e-35
decision_type=2 2 2 2 2 2 2 2
left_child=1 2 -1 4 -4 -5 -2 -7
right_child=6 -3 3 5 -6 7 -8 -9
leaf_value=-0.030472940071485939 0.021323631284758449 0.01387488363077864 -0.0070062706791795791 -0.01901247307037314 0.015017486798266569 -0.0064480644301511351 0.0080883712694048895 0.0054298022016882903
leaf_weight=20 20 20 25 30 24 32 20 20
leaf_count=20 20 20 25 30 24 32 20 20
internal_value=-0.00107381 -0.004765 -0.00723385 -0.0036859 0.00378088 -0.00814776 0.014706 -0.00187965
internal_weight=211 171 151 131 49 82 40 52
internal_count=211 171 151 131 49 82 40 52
is_linear=0
shrinkage=0.05


Tree=113
num_leaves=8
num_cat=0
split_feature=7 7 4 4 5 5 2
split_gain=4.60909 2.50312 1.91535 1.87084 3.28469 1.70631 0.810098
threshold=13.500000000000002 -10.499999999999998 93.500000000000014 90.500000000000014 88.500000000000014 93.500000000000014 86.500000000000014
decision_type=2 2 2 2 2 2 2
left_child=1 -1 3 4 6 -6 -3
right_child=-2 2 -4 -5 5 -7 -8
leaf_value=-0.019394951501056891 0.020639740709554068 -0.0025027516581442046 -0.01166744090539093 0.015430809687823059 0.015245758730076976 -0.0025122161256149415 -0.014726708444174043
leaf_weight=22 22 23 36 20 31 24 33
leaf_count=22 22 23 36 20 31 24 33
internal_value=-0.00102012 -0.00354138 -0.00145288 0.00135417 -0.00118216 0.00749682 -0.00970615
internal_weight=211 189 167 131 111 55 56
internal_count=211 189 167 131 111 55 56
is_linear=0
shrinkage=0.05


Tree=114
num_leaves=8
num_cat=0
split_feature=0 7 5 3 4 3 4
split_gain=4.178 4.8916 4.53267 2.4792 2.28463 1.94131 0.971765
threshold=80.500000000000014 -5.4999999999999991 88.500000000000014 86.500000000000014 88.500000000000014 91.500000000000014 85.500000000000014
decision_type=2 2 2 2 2 2 2
left_child=4 2 -2 6 -1 -5 -3
right_child=1 3 -4 5 -6 -7 -8
leaf_value=-0.027465826142579322 0.0056423768658062506 -0.0076362144900485873 -0.021452470812382121 0.027298698286809354 -0.0035669100005179645 0.0083756935472289722 0.0063312216746536174
leaf_weight=20 29 20 33 23 20 33 33
leaf_count=20 29 20 33 23 20 33 33
internal_value=-0.000969115 0.00243375 -0.00877907 0.00881169 -0.0155164 0.0161476 0.00106049
internal_weight=211 171 62 109 40 56 53
internal_count=211 171 62 109 40 56 53
is_linear=0
shrinkage=0.05


Tree=115
num_leaves=9
num_cat=0
split_feature=0 0 7 5 2 0 6 6
split_gain=11.883 5.22772 5.04001 3.3174 1.49698 1.30264 1.6061 0.558087
threshold=95.500000000000014 78.500000000000014 1.0000000180025095e-35 89.500000000000014 87.500000000000014 83.500000000000014 86.500000000000014 88.500000000000014
decision_type=2 2 2 2 2 2 2 2
left_child=1 -1 3 4 -3 -4 -7 -5
right_child=-2 2 5 7 -6 6 -8 -9
leaf_value=-0.024344549753836223 0.037985341949388386 -0.0053023184016346937 0.0039039131719619037 0.0094032770848134547 -0.022281913887019514 0.0065390489902347332 0.025548868328332905 -0.0018025066331028941
leaf_weight=21 22 25 32 25 27 20 25 20
leaf_count=21 22 25 32 25 27 20 25 20
internal_value=0.00315084 -0.000779208 0.00206489 -0.00551688 -0.0141186 0.0116159 0.0171001 0.00442293
internal_weight=217 195 174 97 52 77 45 45
internal_count=217 195 174 97 52 77 45 45
is_linear=0
shrinkage=0.05


Tree=116
num_leaves=9
num_cat=0
split_feature=0 0 7 5 3 2 0 6
split_gain=10.7244 4.71802 4.54861 2.99395 1.59379 1.35102 1.0994 0.503674
