tree
version=v4
num_class=1
num_tree_per_iteration=1
label_index=0
max_feature_idx=24
objective=regression
feature_names=year month day dayofweek dayofweek_sin dayofweek_cos month_sin month_cos heart_rate_ma7 heart_rate_ema heart_rate_lag1 heart_rate_lag2 heart_rate_lag3 heart_rate_lag4 heart_rate_lag5 heart_rate_lag6 heart_rate_lag7 heart_rate_ma7_lag1 heart_rate_ma7_lag2 heart_rate_ma7_lag3 heart_rate_ma7_lag4 heart_rate_ma7_lag5 heart_rate_ma7_lag6 heart_rate_ma7_lag7 heart_rate_diff
feature_infos=none [3:12] [1:31] [0:6] [-0.97492791218182362:0.97492791218182362] [-0.90096886790241903:1] [-1:1] [-1:1] [71.142857142857139:85.857142857142861] [70.201808883341741:85.330231129389389] [65:91] [65:91] [65:91] [65:91] [65:91] [65:91] [65:91] [71.142857142857139:85.857142857142861] [71.142857142857139:85.857142857142861] [71.142857142857139:85.857142857142861] [71.142857142857139:85.857142857142861] [71.142857142857139:85.857142857142861] [71.142857142857139:85.857142857142861] [71.142857142857139:85.857142857142861] [-26:25]
tree_sizes=768 799 801 802 720 876 877 797 805 804 879 883 880 804 880 721 805 804 724 805 801 802 801 805 721 810 812 805 805 814 801 805 806 806 726 881 807 885 887 886 812 813 814 812 810 809 812 731 731 818 906 900 730 737 817 815 895 814 894 895 813 899 815 821 815 903 900 896 900 819 735 733 902 897 816 893 902 895 893 895 817 815 822 821 821 819 803 814 822 817 817 817 817 819 733 822 821 815 818 900 911 899 905 908 830 742 823 823 906 830 822 821 819 822 824 987 909 826 823 904 816 819 806 906 905 742 912 903 828 901 903 905 903 743 993 823 818 904 822 823 904 823 820 830 822 822 821 822 901 826 825 901 825 901 828 899 823 824 900 825 986 909 992 830 909 815 903 904 902 894 889 825 821 743 911 823 904 825 827 826 909 827 827 911 909 827 900 832 909 911 904 902 906 740 903 913 824 825 836 917 823 905 898 911 832 907 999 908 908 912 829 744 910 916 829

Tree=0
num_leaves=8
num_cat=0
split_feature=24 9 9 9 18 9 24
split_gain=5425.28 1862.51 1808.48 463.887 399.557 259.359 87.5717
threshold=1.0000000180025095e-35 77.615838396674476 78.826825400382162 75.610643547545919 78.214285714285737 81.29669086049087 -7.4999999999999991
decision_type=2 2 2 2 2 2 2
left_child=2 -2 3 6 -5 -3 -1
right_child=1 5 -4 4 -6 -7 -8
leaf_value=77.145355801671641 77.692987381246425 78.064073750771669 77.77270874354933 77.597964499526583 77.296308182624017 78.282022468338297 77.291546277862111
leaf_weight=20 38 39 34 23 21 21 21
leaf_count=20 38 39 34 23 21 21 21
internal_value=77.6914 77.9669 77.4645 77.3412 77.454 78.1404 77.2202
internal_weight=217 98 119 85 44 60 41
internal_count=217 98 119 85 44 60 41
is_linear=0
shrinkage=1


Tree=1
num_leaves=8
num_cat=0
split_feature=9 9 17 9 17 17 9
split_gain=4723.93 1011.7 1340.39 1007.08 915.031 214.173 132.228
threshold=77.693586013589567 81.523381822714882 77.785714285714292 75.214972930098071 76.785714285714292 80.928571428571445 73.842363835120281
decision_type=2 2 2 2 2 2 2
left_child=3 2 -2 6 -5 -4 -1
right_child=1 -3 5 4 -6 -7 -8
leaf_value=-0.47880637462322534 0.38613348550373511 0.47605410362283385 0.056425505638122569 0.084994489746168259 -0.30639539031045782 -0.16309408225119115 -0.31775659251213079
leaf_weight=26 31 30 25 32 28 20 25
leaf_count=26 31 30 25 32 28 20 25
internal_value=-0.00853277 0.230194 0.133143 -0.236506 -0.0976541 -0.0411388 -0.39986
internal_weight=217 106 76 111 60 45 51
internal_count=217 106 76 111 60 45 51
is_linear=0
shrinkage=0.05


Tree=2
num_leaves=8
num_cat=0
split_feature=24 9 9 9 18 10 24
split_gain=4672.98 1973.89 1048.67 629.106 498.881 135.589 83.4653
threshold=1.5000000000000002 80.494887296193596 77.615838396674476 75.610643547545919 78.214285714285737 78.500000000000014 -7.4999999999999991
decision_type=2 2 2 2 2 2 2
left_child=1 3 -2 6 -5 -4 -1
right_child=2 -3 5 4 -6 -7 -8
leaf_value=-0.50700790822505959 0.046572787337230914 0.24162653400784448 0.34163853875228339 -0.038796026554579539 -0.32260678731836379 0.50234478712081909 -0.36996892261505132
leaf_weight=20 33 21 35 30 32 21 25
leaf_count=20 33 21 35 30 32 21 25
internal_value=-0.00810613 -0.201582 0.270152 -0.288567 -0.185279 0.401903 -0.430875
internal_weight=217 128 89 107 62 56 45
internal_count=217 128 89 107 62 56 45
is_linear=0
shrinkage=0.05


Tree=3
num_leaves=8
num_cat=0
split_feature=24 9 9 9 24 10 24
split_gain=4217.37 1781.43 946.421 567.768 460.292 122.369 75.3274
threshold=1.5000000000000002 80.494887296193596 77.615838396674476 75.610643547545919 -9.4999999999999982 78.500000000000014 -7.4999999999999991
decision_type=2 2 2 2 2 2 2
left_child=1 3 -2 6 -5 -4 -1
right_child=2 -3 5 4 -6 -7 -8
leaf_value=-0.48165748715400697 0.044244147882317057 0.22954520689589636 0.32455662625176568 -0.34175299257040026 -0.064029952048047165 0.47722754762286235 -0.35147047615051275
leaf_weight=20 33 21 35 25 37 21 25
leaf_count=20 33 21 35 25 37 21 25
internal_value=-0.00770082 -0.191503 0.256644 -0.274139 -0.176015 0.381808 -0.409331
internal_weight=217 128 89 107 62 56 45
internal_count=217 128 89 107 62 56 45
is_linear=0
shrinkage=0.05


Tree=4
num_leaves=7
num_cat=0
split_feature=24 9 9 24 10 9
split_gain=3814.59 1237.88 1233.34 293.176 303.108 194.077
threshold=1.0000000180025095e-35 78.826825400382162 77.615838396674476 -13.499999999999998 76.500000000000014 81.29669086049087
decision_type=2 2 2 2 2 2
left_child=1 3 -2 -1 -5 -4
right_child=2 -3 5 4 -6 -7
leaf_value=-0.4520086900047634 0.0008050071173592619 0.057423374380039818 0.29886489951839817 -0.36481483174221863 -0.14266504528110519 0.487399316969372
leaf_weight=23 38 34 39 28 34 21
leaf_count=23 38 34 39 28 34 21
internal_value=-0.00731578 -0.197557 0.223691 -0.299549 -0.242991 0.364852
internal_weight=217 119 98 85 62 60
internal_count=217 119 98 85 62 60
is_linear=0
shrinkage=0.05


Tree=5
num_leaves=9
num_cat=0
split_feature=9 17 9 9 17 10 9 17
split_gain=3000.16 604.972 752.731 583.914 971.661 161.258 145.193 116.815
threshold=77.615838396674476 77.785714285714292 75.156788902991735 81.523381822714882 79.214285714285737 76.500000000000014 73.842363835120281 77.071428571428584
decision_type=2 2 2 2 2 2 2 2
left_child=1 2 6 4 7 -4 -1 -2
right_child=3 -3 5 -5 -6 -7 -8 -9
leaf_value=-0.34624393121762709 0.37332610528577459 -0.38632493231158993 0.13972726010140921 0.40961694264411924 -0.059281572341569701 -0.058652520477771766 -0.16243956273510343 0.20845936160712017
leaf_weight=22 22 26 21 25 36 20 21 21
leaf_count=22 22 26 21 25 36 20 21 21
internal_value=0.00647329 -0.175562 -0.110326 0.199011 0.132363 0.0429566 -0.256479 0.29281
internal_weight=214 110 84 104 79 41 43 43
internal_count=214 110 84 104 79 41 43 43
is_linear=0
shrinkage=0.05


Tree=6
num_leaves=9
num_cat=0
split_feature=24 9 9 24 9 19 19 24
split_gain=3054.13 1598.17 422.359 431.004 387.74 103.623 81.1084 64.1887
threshold=4.5000000000000009 80.380951718602859 75.610643547545919 -9.4999999999999982 77.693586013589567 77.785714285714292 78.214285714285737 -4.4999999999999991
decision_type=2 2 2 2 2 2 2 2
left_child=1 2 7 -4 -2 -5 -6 -1
right_child=4 -3 3 5 6 -7 -8 -9
leaf_value=-0.38939957258601987 0.12190989819355309 0.21565104522384129 -0.31178282234309751 0.044220921508967878 0.41494167732155846 -0.11673157010227442 0.28215515250745032 -0.2737594269216061
leaf_weight=24 32 26 22 20 23 20 23 24
leaf_count=24 32 26 22 20 23 20 23 24
internal_value=0.00614963 -0.136899 -0.22023 -0.134023 0.255569 -0.0362553 0.348548 -0.331579
internal_weight=214 136 110 62 78 40 46 48
internal_count=214 136 110 62 78 40 46 48
is_linear=0
shrinkage=0.05


Tree=7
num_leaves=8
num_cat=0
split_feature=24 9 9 18 9 19 18
split_gain=2756.36 1442.35 381.179 408.089 349.935 73.2003 63.7197
threshold=4.5000000000000009 80.380951718602859 75.610643547545919 77.928571428571445 77.693586013589567 78.214285714285737 75.071428571428584
decision_type=2 2 2 2 2 2 2
left_child=1 2 6 -4 -2 -6 -1
right_child=4 -3 3 -5 5 -7 -8
leaf_value=-0.24967868065550214 0.11581440313020722 0.20486848873014632 -0.0070696434711642331 -0.26416086489013557 0.3941945900087771 0.26804739703302799 -0.36580640784016366
leaf_weight=21 32 26 33 29 23 23 27
leaf_count=21 32 26 33 29 23 23 27
internal_value=0.00584214 -0.130054 -0.209218 -0.127322 0.24279 0.331121 -0.315001
internal_weight=214 136 110 62 78 46 48
internal_count=214 136 110 62 78 46 48
is_linear=0
shrinkage=0.05


Tree=8
num_leaves=8
num_cat=0
split_feature=24 9 24 10 9 24 19
split_gain=2487.61 1301.72 374.137 446.114 315.817 94.6674 66.0633
threshold=4.5000000000000009 80.380951718602859 -12.499999999999998 77.500000000000014 77.693586013589567 -1.0000000180025095e-35 78.214285714285737
decision_type=2 2 2 2 2 2 2
left_child=1 2 -1 5 -2 -4 -6
right_child=4 -3 3 -5 6 -7 -8
leaf_value=-0.36878836965560913 0.11002368261106313 0.19462506620822331 -0.31953511039415994 -0.018280230505341614 0.37448485986046171 -0.17909869765862824 0.25464502715546156
leaf_weight=25 32 26 24 37 23 24 23
leaf_count=25 32 26 24 37 23 24 23
internal_value=0.00555004 -0.123552 -0.198757 -0.148748 0.230651 -0.249317 0.314565
internal_weight=214 136 110 85 78 48 46
internal_count=214 136 110 85 78 48 46
is_linear=0
shrinkage=0.05


Tree=9
num_leaves=8
num_cat=0
split_feature=24 9 24 10 9 24 24
split_gain=2245.7 1187.25 350.047 375.175 261.154 107.117 54.8686
threshold=5.5000000000000009 80.380951718602859 -12.499999999999998 77.500000000000014 77.693586013589567 -1.0000000180025095e-35 12.500000000000002
decision_type=2 2 2 2 2 2 2
left_child=1 2 -1 5 -2 -4 -6
right_child=4 -3 3 -5 6 -7 -8
leaf_value=-0.35034895324707033 0.11150606781865161 0.18391418019654576 -0.30355835581819218 -0.017366220228172639 0.25031138714402917 -0.15707355052089464 0.36097957463491537
leaf_weight=25 30 27 24 37 24 26 21
leaf_count=25 30 27 24 37 24 26 21
internal_value=0.00527253 -0.113704 -0.185452 -0.138067 0.225776 -0.227386 0.301957
internal_weight=214 139 112 87 75 50 45
internal_count=214 139 112 87 75 50 45
is_linear=0
shrinkage=0.05


Tree=10
num_leaves=9
num_cat=0
split_feature=24 9 24 24 24 10 13 13
split_gain=2363.03 1160.1 405.346 266.274 198.159 292.016 72.3357 29.4666
threshold=4.5000000000000009 78.826825400382162 -6.4999999999999991 9.5000000000000018 -7.4999999999999991 74.500000000000014 76.500000000000014 76.500000000000014
decision_type=2 2 2 2 2 2 2 2
left_child=1 4 -3 -2 7 -6 -5 -1
right_child=3 2 -4 6 5 -7 -8 -9
leaf_value=-0.27521499877884276 0.099604669980930566 -0.07437021207550297 0.22583197619427336 0.21882478012925102 -0.28077261575630735 -0.043093829221713051 0.3458931093414625 -0.35897569599605744
leaf_weight=21 33 23 22 21 28 24 24 21
leaf_count=21 33 23 22 21 28 24 24 21
internal_value=-0.012776 -0.136375 0.0723953 0.207483 -0.236318 -0.171075 0.286595 -0.317095
internal_weight=217 139 45 78 94 52 45 42
internal_count=217 139 45 78 94 52 45 42
is_linear=0
shrinkage=0.05


Tree=11
num_leaves=9
num_cat=0
split_feature=24 9 24 9 24 10 17 24
split_gain=2132.63 1046.99 365.825 250.737 179.453 263.758 67.8414 30.3383
threshold=4.5000000000000009 78.826825400382162 -6.4999999999999991 77.172794514321751 -6.4999999999999991 74.500000000000014 77.642857142857153 -13.499999999999998
decision_type=2 2 2 2 2 2 2 2
left_child=1 4 -3 -2 7 -6 -5 -1
right_child=3 2 -4 6 5 -7 -8 -9
leaf_value=-0.33567820891090067 0.083714874014258395 -0.070651700926701658 0.21454038141210649 0.32742323602239293 -0.26023868918418885 -0.023972167864087082 0.20853831484758609 -0.25446679954943446
leaf_weight=23 30 23 22 24 27 21 24 23
leaf_count=23 30 23 22 24 27 21 24 23
internal_value=-0.0121372 -0.129556 0.0687755 0.197109 -0.224502 -0.156872 0.267981 -0.295073
internal_weight=217 139 45 78 94 48 48 46
internal_count=217 139 45 78 94 48 48 46
is_linear=0
shrinkage=0.05


Tree=12
num_leaves=9
num_cat=0
split_feature=24 9 24 24 24 10 13 24
split_gain=1924.7 944.91 330.157 237.342 161.956 238.364 62.9356 27.3804
threshold=4.5000000000000009 78.826825400382162 -6.4999999999999991 9.5000000000000018 -6.4999999999999991 72.500000000000014 76.500000000000014 -13.499999999999998
decision_type=2 2 2 2 2 2 2 2
left_child=1 4 -3 -2 7 -6 -5 -1
right_child=3 2 -4 6 5 -7 -8 -9
leaf_value=-0.31889429403387987 0.08540426093068991 -0.067119117453694352 0.20381336093626243 0.19873025296699434 -0.27536884787536803 -0.05076375507611644 0.31725505987803143 -0.24174345913140671
leaf_weight=23 33 23 22 21 21 27 24 23
leaf_count=23 33 23 22 21 21 27 24 23
internal_value=-0.0115303 -0.123078 0.0653368 0.187254 -0.213277 -0.149028 0.261943 -0.280319
internal_weight=217 139 45 78 94 48 45 46
internal_count=217 139 45 78 94 48 45 46
is_linear=0
shrinkage=0.05


Tree=13
num_leaves=8
num_cat=0
split_feature=24 9 9 24 24 18 13
split_gain=1745.97 581.718 530.609 281.633 108.778 104.294 26.3422
threshold=1.0000000180025095e-35 77.172794514321751 78.826825400382162 8.5000000000000018 -7.4999999999999991 77.642857142857153 76.500000000000014
decision_type=2 2 2 2 2 2 2
left_child=2 3 4 -2 6 -3 -1
right_child=1 5 -4 -5 -6 -7 -8
leaf_value=-0.23249615828196207 -0.12652728503400631 0.31242085761494109 0.014576079179015426 0.13271756159141659 -0.15451529176553358 0.179914526122086 -0.31169176499048867
leaf_weight=21 22 27 36 20 37 33 21
leaf_count=21 22 27 36 20 37 33 21
internal_value=-0.0109538 0.13964 -0.144524 -0.00307736 -0.217025 0.239542 -0.272094
internal_weight=217 102 115 42 79 60 42
internal_count=217 102 115 42 79 60 42
is_linear=0
shrinkage=0.05


Tree=14
num_leaves=9
num_cat=0
split_feature=24 9 24 24 24 10 24 24
split_gain=1581.16 773.414 286.757 205.217 130.134 214.776 43.175 23.9118
threshold=4.5000000000000009 78.826825400382162 -6.4999999999999991 9.5000000000000018 -6.4999999999999991 74.500000000000014 15.500000000000002 -13.499999999999998
decision_type=2 2 2 2 2 2 2 2
left_child=1 4 -3 -2 7 -6 -5 -1
right_child=3 2 -4 6 5 -7 -8 -9
leaf_value=-0.28925880478776017 0.07505975022460476 -0.064491963742867767 0.1880062110722065 0.18686018172828925 -0.22879828645123379 -0.015596011848676773 0.28502986406286562 -0.21716009430263356
leaf_weight=23 33 23 22 21 27 21 24 23
leaf_count=23 33 23 22 21 27 21 24 23
internal_value=-0.0104061 -0.11151 0.0589516 0.169766 -0.193114 -0.135522 0.239217 -0.253209
internal_weight=217 139 45 78 94 48 45 46
internal_count=217 139 45 78 94 48 45 46
is_linear=0
shrinkage=0.05


Tree=15
num_leaves=7
num_cat=0
split_feature=24 24 10 9 18 10
split_gain=1239.43 384.031 569.146 364.058 102.784 75.8523
threshold=1.5000000000000002 -12.499999999999998 82.500000000000014 76.941331801106188 78.714285714285737 74.500000000000014
decision_type=2 2 2 2 2 2
left_child=1 -1 5 -2 -5 -3
right_child=3 2 -4 4 -6 -7
leaf_value=-0.26089799712444178 -0.0051536362086023607 -0.22958676382899285 0.10020387042817232 0.27440615650266409 0.1432303350551852 -0.1092879087517136
leaf_weight=29 28 20 37 32 28 38
leaf_count=29 28 20 37 32 28 38
internal_value=0.000207406 -0.101639 -0.0530224 0.143718 0.213191 -0.15077
internal_weight=212 124 95 88 60 58
internal_count=212 124 95 88 60 58
is_linear=0
shrinkage=0.05


Tree=16
num_leaves=8
num_cat=0
split_feature=24 24 10 24 10 18 13
split_gain=1118.59 346.588 513.655 261.261 435.004 75.0848 55.6415
threshold=1.5000000000000002 -12.499999999999998 82.500000000000014 9.5000000000000018 74.500000000000014 77.785714285714292 76.500000000000014
decision_type=2 2 2 2 2 2 2
left_child=1 -1 5 4 -2 -3 -5
right_child=3 2 -4 6 -6 -7 -8
leaf_value=-0.24785309845003589 -0.10683405412869021 -0.088271304679413631 0.095193678291665543 0.16895725139133311 0.20759321227669716 -0.20211796079363142 0.28152709716842289
leaf_weight=29 22 30 37 23 22 28 21
leaf_count=29 22 30 37 23 22 28 21
internal_value=0.000197035 -0.0965566 -0.0503713 0.136532 0.0503796 -0.143232 0.222684
internal_weight=212 124 95 88 44 58 44
internal_count=212 124 95 88 44 58 44
is_linear=0
shrinkage=0.05


Tree=17
num_leaves=8
num_cat=0
split_feature=24 24 10 9 18 18 11
split_gain=1009.52 312.796 464.135 307.84 91.6653 72.6906 21.0006
threshold=1.5000000000000002 -12.499999999999998 81.500000000000014 76.941331801106188 78.714285714285737 77.785714285714292 75.500000000000014
decision_type=2 2 2 2 2 2 2
left_child=1 -1 5 -2 -5 -3 -4
right_child=3 2 6 4 -6 -7 -8
leaf_value=-0.23546044600420984 -0.0071900733613542147 -0.087675125094066414 0.11796928422525527 0.25139921102672819 0.1275212584595595 -0.20280946330077804 0.045511336810886864
leaf_weight=29 28 29 20 32 28 26 20
leaf_count=29 28 29 20 32 28 26 20
internal_value=0.000187183 -0.0917288 -0.0478528 0.129705 0.193589 -0.142102 0.0817403
internal_weight=212 124 95 88 60 55 40
internal_count=212 124 95 88 60 55 40
is_linear=0
shrinkage=0.05


Tree=18
num_leaves=7
num_cat=0
split_feature=24 9 9 18 17 24
split_gain=928.259 677.147 248.432 379.929 78.3779 52.5505
threshold=9.5000000000000018 81.523381822714882 76.599920202118213 79.071428571428584 75.928571428571445 14.500000000000002
decision_type=2 2 2 2 2 2
left_child=1 2 4 -4 -1 -2
right_child=5 -3 3 -5 -6 -7
leaf_value=-0.11046738172523106 0.14475933134555816 0.20523013743487273 0.091595075683934352 -0.1353238103290399 -0.21516668823632329 0.25449910946190357
leaf_weight=39 20 22 35 39 33 24
leaf_count=39 20 22 35 39 33 24
internal_value=0.000177824 -0.0533659 -0.0923324 -0.0279973 -0.158455 0.204617
internal_weight=212 168 146 74 72 44
internal_count=212 168 146 74 72 44
is_linear=0
shrinkage=0.05


Tree=19
num_leaves=8
num_cat=0
split_feature=24 24 10 9 10 24 18
split_gain=840.713 269.082 389.817 257.865 101.148 148.918 78.2217
threshold=1.5000000000000002 -12.499999999999998 86.500000000000014 76.941331801106188 74.500000000000014 -4.4999999999999991 78.714285714285737
decision_type=2 2 2 2 2 2 2
left_child=1 -1 4 -2 -3 -6 -5
right_child=3 2 -4 6 5 -7 -8
leaf_value=-0.21702109534164957 -0.0069285390233354907 -0.19720164327882231 0.13118958648604651 0.23023486267775298 -0.13601378609736761 0.037589686251400661 0.11580078862607479
leaf_weight=29 28 20 24 32 30 21 28
leaf_count=29 28 20 24 32 30 21 28
internal_value=0.000168933 -0.0837107 -0.0430159 0.118363 -0.101902 -0.06453 0.176832
internal_weight=212 124 95 88 71 51 60
internal_count=212 124 95 88 71 51 60
is_linear=0
shrinkage=0.05


Tree=20
num_leaves=8
num_cat=0
split_feature=24 9 9 10 9 18 9
split_gain=928.796 665.57 195.796 148.812 146.381 126.913 10.4817
threshold=-5.4999999999999991 76.941331801106188 81.523381822714882 84.500000000000014 74.404761005172873 78.357142857142875 75.789384656865579
decision_type=2 2 2 2 2 2 2
left_child=3 4 5 6 -2 -3 -1
right_child=1 2 -4 -5 -6 -7 -8
leaf_value=-0.23996921316498804 -0.17140029014088215 0.17577059578991705 0.29087535522200841 -0.078433045695878958 -0.0026902984103394883 0.014218824869021774 -0.19001279217856271
leaf_weight=21 20 31 22 38 36 20 21
leaf_count=21 20 31 22 38 36 20 21
internal_value=-0.0162795 0.0667261 0.166199 -0.150126 -0.0629439 0.112417 -0.214991
internal_weight=209 129 73 80 56 51 42
internal_count=209 129 73 80 56 51 42
is_linear=0
shrinkage=0.05


Tree=21
num_leaves=8
num_cat=0
split_feature=24 9 9 9 9 17 24
split_gain=838.239 600.677 176.706 132.109 117.649 115.396 85.4455
threshold=-5.4999999999999991 76.941331801106188 81.523381822714882 74.404761005172873 76.599920202118213 77.785714285714292 -10.499999999999998
decision_type=2 2 2 2 2 2 2
left_child=4 3 5 -2 -1 -3 -6
right_child=1 2 -4 -5 6 -7 -8
leaf_value=-0.20798590188292235 -0.16283027715981008 0.1723037729746309 0.27633159241893074 -0.0025557830826275878 -0.15851531365797633 0.020445102876560255 -0.017512455892706801
leaf_weight=37 20 29 22 36 21 22 22
leaf_count=37 20 29 22 36 21 22 22
internal_value=-0.0154655 0.0633898 0.157889 -0.0597967 -0.14262 0.106796 -0.0863743
internal_weight=209 129 73 56 80 51 43
internal_count=209 129 73 56 80 51 43
is_linear=0
shrinkage=0.05


Tree=22
num_leaves=8
num_cat=0
split_feature=24 9 9 10 9 18 9
split_gain=756.51 542.111 159.477 131.737 119.229 106.866 24.8799
threshold=-5.4999999999999991 76.941331801106188 81.523381822714882 86.500000000000014 74.404761005172873 78.357142857142875 75.214972930098071
decision_type=2 2 2 2 2 2 2
left_child=3 4 5 6 -2 -3 -1
right_child=1 2 -4 -5 -6 -7 -8
leaf_value=-0.22295792617581112 -0.15468876466155054 0.15959154249679658 0.26251500953327528 -0.048050297101560446 -0.0024279937975936468 0.011346687264740467 -0.15295375207361456
leaf_weight=22 20 31 22 28 36 20 30
leaf_count=22 20 31 22 28 36 20 30
internal_value=-0.0146922 0.0602203 0.149995 -0.135489 -0.0568068 0.101456 -0.182571
internal_weight=209 129 73 80 56 51 52
internal_count=209 129 73 80 56 51 52
is_linear=0
shrinkage=0.05


Tree=23
num_leaves=8
num_cat=0
split_feature=24 9 9 9 24 24 9
split_gain=682.751 489.255 143.928 107.623 104.623 104.254 102.451
threshold=-5.4999999999999991 76.941331801106188 81.523381822714882 74.509180852196593 12.500000000000002 -13.499999999999998 77.521456213982631
decision_type=2 2 2 2 2 2 2
left_child=5 3 4 -2 -3 -1 -7
right_child=1 2 -4 -5 -6 6 -8
leaf_value=-0.20240213690946499 -0.14345196678879715 0.038861728375477182 0.24938925741748377 -0.00027521529367991853 0.18554222390055658 -0.16204801733079166 -0.01844341001059446
leaf_weight=30 21 31 22 35 20 23 27
leaf_count=30 21 31 22 35 20 23 27
internal_value=-0.0139576 0.0572093 0.142495 -0.0539665 0.0963835 -0.128714 -0.0845015
internal_weight=209 129 73 56 51 80 50
internal_count=209 129 73 56 51 80 50
is_linear=0
shrinkage=0.05


Tree=24
num_leaves=7
num_cat=0
split_feature=9 9 17 17 9 17
split_gain=550.115 224.726 367.607 121.793 201.046 54.5617
threshold=76.814748305225208 81.523381822714882 79.214285714285737 77.071428571428584 74.336980369280127 76.928571428571445
decision_type=2 2 2 2 2 2
left_child=3 2 5 4 -1 -2
right_child=1 -3 -4 -5 -6 -7
leaf_value=-0.16874549761414528 0.16234641317278148 0.17938351957729601 -0.098330265577686468 -0.19400012134401889 0.0088348583897223353 0.057800617746005839
leaf_weight=28 24 29 38 27 37 26
leaf_count=28 24 29 38 27 37 26
internal_value=-0.0132597 0.0586727 0.018893 -0.104739 -0.0676613 0.107983
internal_weight=209 117 88 92 65 50
internal_count=209 117 88 92 65 50
is_linear=0
shrinkage=0.05


Tree=25
num_leaves=8
num_cat=0
split_feature=24 10 24 9 10 15 11
split_gain=623.004 221.842 307.644 203.691 159.205 44.493 30.134
threshold=1.0000000180025095e-35 78.500000000000014 13.500000000000002 78.826825400382162 71.500000000000014 70.500000000000014 76.500000000000014
decision_type=2 2 2 2 2 2 2
left_child=3 2 4 5 -2 -1 -7
right_child=1 -3 -4 -5 -6 6 -8
leaf_value=-0.075449219495058062 -0.12136485813693568 0.23473594238360726 0.18882775560573295 0.012687632666998789 0.055718437967201079 -0.12485842664950882 -0.20463634580373766
leaf_weight=25 22 21 27 38 30 29 20
leaf_count=25 22 21 27 38 30 29 20
internal_value=-0.00041694 0.0902933 0.0518972 -0.0814082 -0.0192014 -0.129728 -0.157421
internal_weight=212 100 79 112 52 74 49
internal_count=212 100 79 112 52 74 49
is_linear=0
shrinkage=0.05


Tree=26
num_leaves=8
num_cat=0
split_feature=24 9 9 10 24 11 9
split_gain=566.258 269.224 176.995 128.715 150.477 20.4913 28.7778
threshold=-1.0000000180025095e-35 75.351549313006515 78.826825400382162 78.500000000000014 11.500000000000002 82.500000000000014 74.756254977761984
decision_type=2 2 2 2 2 2 2
left_child=2 -2 5 4 -3 6 -1
right_child=1 3 -4 -5 -6 -7 -8
leaf_value=-0.16130967348814013 -0.07476243687712629 0.0064768906795617314 0.0028771146924959287 0.21901867286018703 0.15864697103388609 -0.17743163891136648 -0.080842220097780235
leaf_weight=20 23 33 36 23 32 20 25
leaf_count=20 23 33 36 23 32 20 25
internal_value=-0.000396093 0.0775526 -0.0860624 0.117362 0.0813914 -0.135321 -0.116606
internal_weight=212 111 101 88 65 65 45
internal_count=212 111 101 88 65 65 45
is_linear=0
shrinkage=0.05


Tree=27
num_leaves=8
num_cat=0
split_feature=9 17 9 9 17 17 2
split_gain=423.971 194.616 195.017 162.969 187.601 77.2833 9.08625
threshold=77.752022435418198 77.071428571428584 73.842363835120281 81.523381822714882 79.928571428571445 75.357142857142875 16.500000000000004
decision_type=2 2 2 2 2 2 2
left_child=1 2 -1 4 6 -4 -2
right_child=3 -3 5 -5 -6 -7 -8
leaf_value=-0.1480985510207358 0.12551966557279229 -0.16043449840263319 0.093193632335617005 0.16604465353884734 -0.062183407934442651 -0.031230773644832274 0.077858746349811561
leaf_weight=21 20 38 26 32 31 24 20
leaf_count=21 20 38 26 32 31 24 20
internal_value=-0.000376288 -0.0691109 -0.0202334 0.0723622 0.0301392 0.0334699 0.101689
internal_weight=212 109 71 103 71 50 40
internal_count=212 109 71 103 71 50 40
is_linear=0
shrinkage=0.05


Tree=28
num_leaves=8
num_cat=0
split_feature=9 17 9 9 17 17 2
split_gain=382.633 176.582 152.437 147.079 169.31 98.2877 8.20034
threshold=77.752022435418198 77.785714285714292 73.842363835120281 81.523381822714882 79.928571428571445 76.071428571428584 16.500000000000004
decision_type=2 2 2 2 2 2 2
left_child=1 2 -1 4 6 -4 -2
right_child=3 -3 5 -5 -6 -7 -8
leaf_value=-0.14069362410477229 0.11924368128180506 -0.16660309491618988 0.065163894521223537 0.1577424209099263 -0.059074238162007069 -0.072411619424819954 0.073965807538479575
leaf_weight=21 20 31 37 32 31 20 20
leaf_count=21 20 31 37 32 31 20 20
internal_value=-0.000357474 -0.0656553 -0.0255351 0.0687441 0.0286322 0.0168918 0.0966047
internal_weight=212 109 78 103 71 57 40
internal_count=212 109 78 103 71 57 40
is_linear=0
shrinkage=0.05


Tree=29
num_leaves=8
num_cat=0
split_feature=24 10 24 10 10 24 10
split_gain=453.802 180.271 254.833 144.88 113.541 31.3541 17.7257
threshold=-1.0000000180025095e-35 78.500000000000014 13.500000000000002 71.500000000000014 86.500000000000014 -4.4999999999999991 81.500000000000014
decision_type=2 2 2 2 2 2 2
left_child=4 2 3 -2 5 6 -1
right_child=1 -3 -4 -5 -6 -7 -8
leaf_value=-0.16025896849376817 -0.10914599902641316 0.19407865858596307 0.16475605633523729 0.046672069232777828 0.0026334972436269448 -0.061192386136168536 -0.099490072755586537
leaf_weight=28 26 23 27 35 31 21 21
leaf_count=28 26 23 27 35 31 21 21
internal_value=-0.0003396 0.069441 0.0368652 -0.0197422 -0.0770292 -0.112308 -0.134215
internal_weight=212 111 88 61 101 70 49
internal_count=212 111 88 61 101 70 49
is_linear=0
shrinkage=0.05


Tree=30
num_leaves=8
num_cat=0
split_feature=24 9 9 17 24 10 9
split_gain=450.252 273.47 136.765 112.659 100.719 179.56 36.4646
threshold=-3.4999999999999996 75.351549313006515 81.29669086049087 75.500000000000014 -12.499999999999998 81.500000000000014 78.206741927991501
decision_type=2 2 2 2 2 2 2
left_child=4 -2 3 -3 -1 -6 -5
right_child=1 2 -4 6 5 -7 -8
leaf_value=-0.16128860368873135 -0.083013729197305763 0.1469680120308812 0.20072888984628348 -0.024015608709305525 -0.14252083146801361 0.0433039509673388 0.059786634147167207
leaf_weight=33 28 26 23 25 26 26 27
leaf_count=33 28 26 23 25 26 26 27
internal_value=-0.0036204 0.0552511 0.093582 0.0619874 -0.0929666 -0.0496084 0.0194971
internal_weight=214 129 101 78 85 52 52
internal_count=214 129 101 78 85 52 52
is_linear=0
shrinkage=0.05


Tree=31
num_leaves=8
num_cat=0
split_feature=24 9 9 17 24 10 9
split_gain=406.352 246.807 123.43 101.674 90.8987 162.053 32.9093
threshold=-3.4999999999999996 75.351549313006515 81.29669086049087 75.500000000000014 -12.499999999999998 81.500000000000014 78.206741927991501
decision_type=2 2 2 2 2 2 2
left_child=4 -2 3 -3 -1 -6 -5
right_child=1 2 -4 6 5 -7 -8
leaf_value=-0.15322417467832566 -0.078863043803721666 0.13961961140426307 0.19069244408089181 -0.022814828645437959 -0.13539479180024222 0.041138753903886452 0.056797302652288363
leaf_weight=33 28 26 23 25 26 26 27
leaf_count=33 28 26 23 25 26 26 27
internal_value=-0.00343938 0.0524886 0.0889029 0.058888 -0.0883183 -0.047128 0.0185222
internal_weight=214 129 101 78 85 52 52
internal_count=214 129 101 78 85 52 52
is_linear=0
shrinkage=0.05


Tree=32
num_leaves=8
num_cat=0
split_feature=24 9 9 24 24 10 18
split_gain=366.733 222.743 111.396 95.4776 82.0361 146.253 38.2904
threshold=-3.4999999999999996 75.351549313006515 81.29669086049087 10.500000000000002 -12.499999999999998 81.500000000000014 77.214285714285737
decision_type=2 2 2 2 2 2 2
left_child=4 -2 3 6 -1 -6 -3
right_child=1 2 -4 -5 5 -7 -8
leaf_value=-0.1455629649713184 -0.074919891304203443 0.055044179406017073 0.18115782271260802 0.12591711352268856 -0.1286250528234702 0.039081815343636736 -0.03434847405018366
leaf_weight=33 28 25 23 30 26 26 23
leaf_count=33 28 25 23 30 26 26 23
internal_value=-0.00326741 0.0498642 0.0844578 0.0559436 -0.0839024 -0.0447716 0.0122102
internal_weight=214 129 101 78 85 52 48
internal_count=214 129 101 78 85 52 48
is_linear=0
shrinkage=0.05


Tree=33
num_leaves=8
num_cat=0
split_feature=24 9 9 17 24 10 9
split_gain=330.976 201.026 100.535 87.357 74.7431 118.629 29.3544
threshold=-3.4999999999999996 75.351549313006515 81.29669086049087 75.500000000000014 -13.499999999999998 80.500000000000014 78.206741927991501
decision_type=2 2 2 2 2 2 2
left_child=4 -2 3 -3 -1 -6 -5
right_child=1 2 -4 6 5 -7 -8
leaf_value=-0.14486126335145072 -0.071173895682607388 0.12797830551862718 0.17209993315779645 -0.023310133792459966 -0.1399167585940588 0.010403189478175982 0.051879269353769443
leaf_weight=29 28 26 23 25 21 35 27
leaf_count=29 28 26 23 25 21 35 27
internal_value=-0.00310404 0.0473709 0.0802349 0.0531464 -0.0797073 -0.0459668 0.0157305
internal_weight=214 129 101 78 85 56 52
internal_count=214 129 101 78 85 56 52
is_linear=0
shrinkage=0.05


Tree=34
num_leaves=7
num_cat=0
split_feature=24 10 24 10 24 10
split_gain=298.706 141.47 239.732 89.9183 68.2971 124.604
threshold=-3.4999999999999996 79.500000000000014 10.500000000000002 71.500000000000014 -12.499999999999998 84.500000000000014
decision_type=2 2 2 2 2 2
left_child=4 2 3 -2 -1 -6
right_child=1 -3 -4 -5 5 -7
leaf_value=-0.13198275088586592 -0.11038997575108495 0.13810034288514048 0.11818082928657532 0.0106061304864638 -0.10894655842205575 0.046892170219317728
leaf_weight=33 28 31 36 34 29 23
leaf_count=33 28 31 36 34 29 23
internal_value=-0.00294884 0.0450024 0.0155531 -0.0440373 -0.0757219 -0.0400179
internal_weight=214 129 98 62 85 52
internal_count=214 129 98 62 85 52
is_linear=0
shrinkage=0.05


Tree=35
num_leaves=9
num_cat=0
split_feature=24 9 18 9 17 11 2 12
split_gain=301.68 194.754 82.5551 91.9531 57.5225 37.342 24.0407 23.3228
threshold=9.5000000000000018 80.21482687366192 77.785714285714292 74.509180852196593 80.642857142857153 75.500000000000014 19.500000000000004 80.500000000000014
decision_type=2 2 2 2 2 2 2 2
left_child=1 2 3 -1 -3 -5 -4 -2
right_child=7 4 6 5 -6 -7 -8 -9
leaf_value=-0.089088805159553891 0.1559004821504156 0.13146751314401625 -0.13012425769721309 0.054996275814871001 0.015524569987926796 -0.029683972182481186 -0.060836744503605933 0.082792261182330559
leaf_weight=32 24 20 31 30 23 23 21 20
leaf_count=32 24 20 31 30 23 23 21 20
internal_value=0.00530698 -0.0233816 -0.052519 -0.022161 0.0694515 0.0182482 -0.102143 0.122669
internal_weight=224 180 137 85 43 53 52 44
internal_count=224 180 137 85 43 53 52 44
is_linear=0
shrinkage=0.05


Tree=36
num_leaves=8
num_cat=0
split_feature=24 9 18 24 10 11 20
split_gain=278.975 124.86 60.4066 54.3275 121.619 45.6653 17.1151
threshold=-2.4999999999999996 76.941331801106188 75.642857142857153 -12.499999999999998 80.500000000000014 84.500000000000014 78.357142857142875
decision_type=2 2 2 2 2 2 2
left_child=3 2 -2 -1 -5 6 -3
right_child=1 5 -4 4 -6 -7 -8
leaf_value=-0.11125322033185513 0.052222286913699158 0.14675742207930006 -0.05679863896910791 -0.11156413855829411 0.025019023118492884 0.033786545108471601 0.089676176539311814
leaf_weight=32 24 29 27 28 39 21 24
leaf_count=32 24 29 27 28 39 21 24
internal_value=0.00504163 0.0546999 -0.00549467 -0.0576582 -0.0320605 0.0961853 0.120909
internal_weight=224 125 51 99 67 74 53
internal_count=224 125 51 99 67 74 53
is_linear=0
shrinkage=0.05


Tree=37
num_leaves=9
num_cat=0
split_feature=24 9 18 9 17 11 11 12
split_gain=255.56 161.589 70.5178 79.3279 48.7663 32.1086 22.3904 21.2407
threshold=9.5000000000000018 80.21482687366192 77.785714285714292 74.509180852196593 80.642857142857153 75.500000000000014 81.500000000000014 80.500000000000014
decision_type=2 2 2 2 2 2 2 2
left_child=1 2 3 -1 -3 -5 -4 -2
right_child=7 4 6 5 -6 -7 -8 -9
leaf_value=-0.082262006658129397 0.14452216556916636 0.12004606440663337 -0.065923096003631762 0.05151017352938652 0.013291783009291345 -0.027012301835676902 -0.13233272501013496 0.074753491878509534
leaf_weight=32 24 20 30 30 23 23 22 20
leaf_count=32 24 20 30 30 23 23 22 20
internal_value=0.00478955 -0.0216152 -0.048156 -0.0200984 0.0629449 0.0174344 -0.0940195 0.112809
internal_weight=224 180 137 85 43 53 52 44
internal_count=224 180 137 85 43 53 52 44
is_linear=0
shrinkage=0.05


Tree=38
num_leaves=9
num_cat=0
split_feature=24 9 24 10 18 10 18 24
split_gain=240.038 136.274 148.952 73.5522 41.2932 26.8863 22.4364 5.2829
threshold=-7.4999999999999991 78.477060997523054 11.500000000000002 72.500000000000014 77.642857142857153 84.500000000000014 75.500000000000014 6.5000000000000009
decision_type=2 2 2 2 2 2 2 2
left_child=5 2 3 -2 -3 -1 -5 -6
right_child=1 4 -4 6 7 -7 -8 -9
leaf_value=-0.1135600186755945 -0.094203056923804748 0.1411714472449743 0.11263211822475901 0.045662001725286248 0.04206033747061156 -0.048025978592169644 -0.027509937050159684 0.078402120247483262
leaf_weight=29 31 26 22 20 20 34 22 20
leaf_count=29 31 26 22 20 20 34 22 20
internal_value=0.00455007 0.0369276 -0.00141439 -0.0357846 0.0921168 -0.0781924 0.00733384 0.0602312
internal_weight=224 161 95 73 66 63 42 40
internal_count=224 161 95 73 66 63 42 40
is_linear=0
shrinkage=0.05


Tree=39
num_leaves=9
num_cat=0
split_feature=24 24 10 9 24 10 10 11
split_gain=216.634 124.592 194.367 46.66 44.4951 31.2174 24.2648 6.59739
threshold=-7.4999999999999991 14.500000000000002 77.500000000000014 81.671229032578609 7.5000000000000009 72.500000000000014 84.500000000000014 74.500000000000014
decision_type=2 2 2 2 2 2 2 2
left_child=6 2 4 7 5 -2 -1 -4
right_child=1 -3 3 -5 -6 -7 -8 -9
leaf_value=-0.10788201720550145 -0.11215664981441065 0.13306932352759221 0.071341028399765499 0.14456971868872645 0.010808317616049733 -0.029699068500970802 -0.04562467991867486 0.030728871691972016
leaf_weight=29 22 27 20 20 28 24 34 20
leaf_count=29 22 27 20 20 28 24 34 20
internal_value=0.00432257 0.0350812 0.0153373 0.0822132 -0.0388864 -0.0691353 -0.0742828 0.051035
internal_weight=224 161 134 60 74 46 63 40
internal_count=224 161 134 60 74 46 63 40
is_linear=0
shrinkage=0.05


Tree=40
num_leaves=8
num_cat=0
split_feature=24 10 24 10 24 2 24
split_gain=169.337 87.7729 154.034 62.5624 30.9315 26.2625 23.7327
threshold=9.5000000000000018 71.500000000000014 -7.4999999999999991 82.500000000000014 4.5000000000000009 19.500000000000004 14.500000000000002
decision_type=2 2 2 2 2 2 2
left_child=1 -1 5 4 -4 -3 -2
right_child=6 2 3 -5 -6 -7 -8
leaf_value=-0.10325746450021311 0.044150521829724315 -0.090863449253926157 -0.017729623719222015 0.10543423439562322 0.057523059423758904 -0.023169895962042653 0.11546374049669664
leaf_weight=27 20 38 36 25 22 23 28
leaf_count=27 20 38 36 25 22 23 28
internal_value=0.00276448 -0.0205297 -0.00501821 0.0393144 0.0108145 -0.0653397 0.0857499
internal_weight=219 171 144 83 58 61 48
internal_count=219 171 144 83 58 61 48
is_linear=0
shrinkage=0.05


Tree=41
num_leaves=8
num_cat=0
split_feature=24 9 11 24 10 24 19
split_gain=152.827 80.1451 100.152 54.8021 51.8392 21.4187 20.6187
threshold=9.5000000000000018 74.509180852196593 85.500000000000014 -9.4999999999999982 84.500000000000014 14.500000000000002 77.214285714285737
decision_type=2 2 2 2 2 2 2
left_child=1 -1 3 -3 6 -2 -5
right_child=5 2 -4 4 -6 -7 -8
leaf_value=-0.090844805527012795 0.041942994184792047 -0.044724075876486802 -0.076239480248519356 0.047472586887406895 0.10888563082331704 0.10969055386792337 -0.011651824228465557
leaf_weight=32 20 24 35 29 21 28 30
leaf_count=32 20 24 35 29 21 28 30
internal_value=0.00262626 -0.0195032 -0.00307922 0.021542 0.0414219 0.0814624 0.0174093
internal_weight=219 171 139 104 80 48 59
internal_count=219 171 139 104 80 48 59
is_linear=0
shrinkage=0.05


Tree=42
num_leaves=8
num_cat=0
split_feature=24 10 24 10 18 2 24
split_gain=137.926 74.6215 130.809 52.4845 25.9622 22.0496 19.3304
threshold=9.5000000000000018 71.500000000000014 -7.4999999999999991 81.500000000000014 76.500000000000014 19.500000000000004 14.500000000000002
decision_type=2 2 2 2 2 2 2
left_child=1 -1 5 4 -4 -3 -2
right_child=6 2 3 -5 -6 -7 -8
leaf_value=-0.094806721227036594 0.039845844004303216 -0.083200945979670482 0.045589727249283063 0.093889002584748804 -0.022673556941250964 -0.021174108091255892 0.10420602509485824
leaf_weight=27 20 38 26 27 30 23 28
leaf_count=27 20 38 26 27 30 23 28
internal_value=0.00249494 -0.018528 -0.00422577 0.0366281 0.00902011 -0.0598138 0.0773893
internal_weight=219 171 144 83 56 61 48
internal_count=219 171 144 83 56 61 48
is_linear=0
shrinkage=0.05


Tree=43
num_leaves=8
num_cat=0
split_feature=24 10 24 10 24 11 19
split_gain=126.871 69.1123 100.423 59.7295 29.7243 24.1158 11.226
threshold=7.5000000000000009 71.500000000000014 -7.4999999999999991 81.500000000000014 14.500000000000002 82.500000000000014 76.785714285714292
decision_type=2 2 2 2 2 2 2
left_child=1 -1 5 6 -2 -3 -4
right_child=4 2 3 -5 -6 -7 -8
leaf_value=-0.10951229038648308 0.03147265451649825 -0.032364712145767714 0.019981915198943833 0.0891945521209251 0.098995724054319528 -0.097232580476480979 -0.030529149587858809
leaf_weight=20 39 38 22 27 28 23 22
leaf_count=20 39 38 22 27 28 23 22
internal_value=0.0023702 -0.0228963 -0.00977269 0.0306509 0.0596913 -0.0568231 -0.00527362
internal_weight=219 152 132 71 67 61 44
internal_count=219 152 132 71 67 61 44
is_linear=0
shrinkage=0.05


Tree=44
num_leaves=8
num_cat=0
split_feature=24 10 18 9 9 11 19
split_gain=114.589 67.1532 39.1922 46.429 39.0649 33.5652 13.9993
threshold=4.5000000000000009 86.500000000000014 75.642857142857153 79.432807573455591 73.842363835120281 81.500000000000014 76.642857142857153
decision_type=2 2 2 2 2 2 2
left_child=1 4 -2 -4 -1 6 -6
right_child=2 -3 3 -5 5 -7 -8
leaf_value=-0.10883346930146219 0.10151341292262078 0.033252685724033247 -0.01320621319464408 0.078791737385715044 0.025774637758731844 -0.074142947125023811 -0.027239186130464079
leaf_weight=20 25 36 32 24 20 29 33
leaf_count=20 25 36 32 24 20 29 33
internal_value=0.00225169 -0.0254574 0.0494597 0.0262215 -0.0461786 -0.0308969 -0.00723397
internal_weight=219 138 81 56 102 82 53
internal_count=219 138 81 56 102 82 53
is_linear=0
shrinkage=0.05


Tree=45
num_leaves=8
num_cat=0
split_feature=24 10 24 10 19 12 13
split_gain=120.678 71.2774 119.07 25.3336 26.8666 22.12 10.5438
threshold=8.5000000000000018 82.500000000000014 -10.499999999999998 72.500000000000014 76.642857142857153 79.500000000000014 77.500000000000014
decision_type=2 2 2 2 2 2 2
left_child=1 3 -3 -1 -5 -2 -4
right_child=5 2 6 4 -6 -7 -8
leaf_value=-0.093318285578145435 0.09751665296929854 -0.064977303947563528 0.094990489339189868 0.0080567929083886353 -0.061508499256202158 0.033514340682369137 0.044263928513973955
leaf_weight=26 27 27 21 23 35 27 20
leaf_count=26 27 27 21 23 35 27 20
internal_value=0.00130952 -0.0215005 0.0165543 -0.0523067 -0.0339223 0.0655155 0.0702458
internal_weight=206 152 68 84 58 54 41
internal_count=206 152 68 84 58 54 41
is_linear=0
shrinkage=0.05


Tree=46
num_leaves=8
num_cat=0
split_feature=24 18 9 18 9 18 13
split_gain=109.53 64.2467 81.9105 40.7248 32.4307 22.4526 17.4262
threshold=9.5000000000000018 81.357142857142875 78.477060997523054 77.642857142857153 73.842363835120281 76.500000000000014 76.500000000000014
decision_type=2 2 2 2 2 2 2
left_child=1 2 4 -4 -1 -6 -2
right_child=6 -3 3 -5 5 -7 -8
leaf_value=-0.089477271225769081 0.039735298773104499 -0.086639601950134551 0.092071886479854592 0.0026944202406761742 0.012982487585395575 -0.046723547878284616 0.10266771770336412
leaf_weight=20 22 28 25 26 32 31 22
leaf_count=20 22 28 25 26 32 31 22
internal_value=0.00124405 -0.0177567 -0.00336331 0.0465069 -0.0340065 -0.0163967 0.0712015
internal_weight=206 162 134 51 83 63 44
internal_count=206 162 134 51 83 63 44
is_linear=0
shrinkage=0.05


Tree=47
num_leaves=7
num_cat=0
split_feature=24 18 9 9 24 11
split_gain=99.6108 59.8125 84.741 25.2336 19.8166 17.6541
threshold=8.5000000000000018 77.785714285714292 78.826825400382162 77.752022435418198 15.500000000000002 75.500000000000014
decision_type=2 2 2 2 2 2
left_child=1 2 5 -3 -2 -1
right_child=4 3 -4 -5 -6 -7
leaf_value=-0.00065535810909100943 0.034400401471066287 -0.09250167068094016 0.085463835790753367 -0.029620991322474605 0.096045001122084528 -0.055047591288502395
leaf_weight=35 32 27 25 39 22 26
leaf_count=35 32 27 25 39 22 26
internal_value=0.00118185 -0.0195417 0.00793513 -0.0553449 0.0595149 -0.0238389
internal_weight=206 152 86 66 54 61
internal_count=206 152 86 66 54 61
is_linear=0
shrinkage=0.05


Tree=48
num_leaves=7
num_cat=0
split_feature=24 10 24 10 24 12
split_gain=89.8987 54.6693 98.9485 20.6617 22.2049 18.819
threshold=8.5000000000000018 82.500000000000014 -7.4999999999999991 72.500000000000014 -2.4999999999999996 79.500000000000014
decision_type=2 2 2 2 2 2
left_child=1 3 -3 -1 -5 -2
right_child=5 2 -4 4 -6 -7
leaf_value=-0.082581623471700227 0.086056050837591852 -0.037246942238356825 0.084707535382617147 -0.0578135394814214 0.0042084626715492316 0.027022199926001057
leaf_weight=26 27 39 29 31 27 27
leaf_count=26 27 39 29 31 27 27
internal_value=0.00112275 -0.0185646 0.0147631 -0.0455442 -0.0289412 0.0565391
internal_weight=206 152 68 84 58 54
internal_count=206 152 68 84 58 54
is_linear=0
shrinkage=0.05


Tree=49
num_leaves=8
num_cat=0
split_feature=24 18 9 11 4 13 9
split_gain=81.5185 53.5958 64.1164 30.0445 22.4345 15.2818 10.5228
threshold=9.5000000000000018 81.357142857142875 76.496194970973264 78.500000000000014 1.0000000180025095e-35 76.500000000000014 80.380951718602859
decision_type=2 2 2 2 2 2 2
left_child=1 2 4 -4 -1 -2 -5
right_child=5 -3 3 6 -6 -7 -8
leaf_value=-0.018253604484427918 0.031952512171119454 -0.078240023101014758 0.062328043846147402 -0.026750717656686903 -0.082648738238605718 0.090885831280188123 0.024539650436490774
leaf_weight=38 22 28 35 20 21 22 20
leaf_count=38 22 28 35 20 21 22 20
internal_value=0.00106661 -0.0153254 -0.00217911 0.0284968 -0.0411739 0.0614192 -0.00110553
internal_weight=206 162 134 75 59 44 40
internal_count=206 162 134 75 59 44 40
is_linear=0
shrinkage=0.05


Tree=50
num_leaves=9
num_cat=0
split_feature=24 10 24 10 24 24 10 19
split_gain=93.8456 50.7893 76.9535 30.5114 33.6559 16.1569 9.21366 8.49045
threshold=-9.4999999999999982 79.500000000000014 14.500000000000002 69.500000000000014 -1.0000000180025095e-35 -15.499999999999998 84.500000000000014 76.928571428571445
decision_type=2 2 2 2 2 2 2 2
left_child=5 2 3 -2 -5 -1 -3 -6
right_child=1 6 -4 4 7 -7 -8 -9
leaf_value=-0.096240802519023422 -0.076923347432166334 0.041685622388666327 0.076947122558951378 -0.055927940225228671 0.044046935029327876 -0.037400449679366184 0.087987577418486285 -0.0014730929884882202
leaf_weight=20 20 22 25 22 20 28 21 21
leaf_count=20 20 22 25 22 20 28 21 21
internal_value=-0.00101711 0.0183419 4.44461e-05 -0.023119 -0.00603827 -0.0619173 0.0642982 0.0207318
internal_weight=199 151 108 83 63 48 43 41
internal_count=199 151 108 83 63 48 43 41
is_linear=0
shrinkage=0.05


Tree=51
num_leaves=9
num_cat=0
split_feature=24 10 24 18 11 24 10 10
split_gain=84.6957 45.8374 69.4506 28.6205 17.5288 14.5816 9.9052 8.31533
threshold=-9.4999999999999982 79.500000000000014 14.500000000000002 75.071428571428584 83.500000000000014 -15.499999999999998 73.500000000000014 84.500000000000014
decision_type=2 2 2 2 2 2 2 2
left_child=5 2 3 -2 6 -1 -5 -3
right_child=1 7 -4 4 -6 -7 -8 -9
leaf_value=-0.091428763344883923 0.030147350141778592 0.039601340754465628 0.073099766987375914 -0.044369418751448397 -0.074510484290393919 -0.035530427231320313 0.0047970483389993511 0.083588198625615673
leaf_weight=20 20 22 25 20 22 28 21 21
leaf_count=20 20 22 25 20 22 28 21 21
internal_value=-0.000966258 0.0174248 4.22237e-05 -0.0219631 -0.038506 -0.0588214 -0.0191866 0.0610833
internal_weight=199 151 108 83 63 48 41 43
internal_count=199 151 108 83 63 48 41 43
is_linear=0
shrinkage=0.05


Tree=52
num_leaves=7
num_cat=0
split_feature=24 11 9 24 20 24
split_gain=76.4379 43.45 39.9078 26.4106 26.0158 13.1599
threshold=-9.4999999999999982 73.500000000000014 76.533084237699498 4.5000000000000009 77.357142857142875 -15.499999999999998
decision_type=2 2 2 2 2 2
left_child=5 3 -3 -2 -4 -1
right_child=1 2 4 -5 -6 -7
leaf_value=-0.086857325509190564 0.0242329970753241 -0.045812519027718476 0.051488632302392617 0.096855412684159273 -0.012299631094379773 -0.03375390592430319
leaf_weight=20 31 35 33 21 31 28
leaf_count=20 31 35 33 21 31 28
internal_value=-0.000917946 0.0165535 -0.00288487 0.0535613 0.0205912 -0.0558803
internal_weight=199 151 99 52 64 48
internal_count=199 151 99 52 64 48
is_linear=0
shrinkage=0.05


Tree=53
num_leaves=7
num_cat=0
split_feature=24 18 10 24 10 24
split_gain=68.9852 41.4241 48.8756 40.4493 17.7137 11.8768
threshold=-9.4999999999999982 74.428571428571445 79.500000000000014 13.500000000000002 73.500000000000014 -15.499999999999998
decision_type=2 2 2 2 2 2
left_child=5 -2 3 4 -3 -1
right_child=1 2 -4 -5 -6 -7
leaf_value=-0.082514457963407048 0.0683203312382102 -0.065159394504923016 0.053518670254989589 0.038057265725607678 -0.012127261431851367 -0.032066210625427111
leaf_weight=20 30 31 34 24 32 28
leaf_count=20 30 31 34 24 32 28
internal_value=-0.000872048 0.0157259 0.00268591 -0.0171798 -0.0382224 -0.0530863
internal_weight=199 151 121 87 63 48
internal_count=199 151 121 87 63 48
is_linear=0
shrinkage=0.05


Tree=54
num_leaves=8
num_cat=0
split_feature=24 10 24 10 10 8 13
split_gain=63.4274 29.0694 39.6491 40.4194 26.7087 9.00751 5.21857
threshold=-3.4999999999999996 79.500000000000014 14.500000000000002 69.500000000000014 84.500000000000014 76.500000000000014 77.500000000000014
decision_type=2 2 2 2 2 2 2
left_child=4 2 3 -2 6 -5 -1
right_child=1 -3 -4 5 -6 -7 -8
leaf_value=-0.043683405808935115 -0.06850569035857916 0.074787482619285583 0.064888472974300379 0.035193609127222941 -0.0040729362660875687 -0.0079063820060003894 -0.078122314336625018
leaf_weight=22 20 22 25 27 39 22 22
leaf_count=22 20 22 25 27 39 22 22
internal_value=-0.000828446 0.0230492 0.0109403 -0.00860618 -0.0341996 0.0158426 -0.0609029
internal_weight=199 116 94 69 83 49 44
internal_count=199 116 94 69 83 49 44
is_linear=0
shrinkage=0.05


Tree=55
num_leaves=8
num_cat=0
split_feature=24 24 9 11 9 11 9
split_gain=63.3674 27.6546 21.2813 27.9032 18.8727 36.4145 10.4835
threshold=4.5000000000000009 -12.499999999999998 75.156788902991735 83.500000000000014 80.494887296193596 78.500000000000014 78.654873140756024
decision_type=2 2 2 2 2 2 2
left_child=1 -1 -3 6 5 -2 -4
right_child=4 2 3 -5 -6 -7 -8
leaf_value=-0.064249116937019707 0.058655047146021391 -0.046043727013082909 0.0026379759009513594 -0.043643148323254929 0.076989779323339461 -0.017381399641594582 0.047120793287355744
leaf_weight=29 32 28 27 21 20 31 26
leaf_count=29 32 28 27 21 20 31 26
internal_value=0.000492266 -0.0211648 -0.00891534 0.00513324 0.0346739 0.0212403 0.0244597
internal_weight=214 131 102 74 83 63 53
internal_count=214 131 102 74 83 63 53
is_linear=0
shrinkage=0.05


Tree=56
num_leaves=9
num_cat=0
split_feature=24 9 9 18 24 12 18 9
split_gain=57.873 50.9534 31.6937 38.4143 14.873 12.3966 12.0243 13.5606
threshold=-7.4999999999999991 75.156788902991735 81.671229032578609 74.428571428571445 15.500000000000002 81.500000000000014 79.928571428571445 78.38545609406718
decision_type=2 2 2 2 2 2 2 2
left_child=5 -2 3 -3 6 -1 7 -5
right_child=1 2 -4 4 -6 -7 -8 -9
leaf_value=-0.025673232455220487 -0.040395295814960264 0.081780370539054278 0.087987734153866778 -0.017452392339085541 0.041430684640294035 -0.074769473746418957 -0.038098682596215183 0.038293807860463859
leaf_weight=36 32 20 20 24 21 20 21 20
leaf_count=36 32 20 20 24 21 20 21 20
internal_value=0.000467652 0.0159475 0.0302568 0.0193641 0.00484873 -0.0432076 -0.00697006 0.00788679
internal_weight=214 158 126 106 86 56 65 44
internal_count=214 158 126 106 86 56 65 44
is_linear=0
shrinkage=0.05


Tree=57
num_leaves=8
num_cat=0
split_feature=24 9 9 18 11 11 9
split_gain=52.2303 45.9854 28.6035 34.6689 19.6292 13.0815 9.1113
threshold=-7.4999999999999991 75.156788902991735 81.671229032578609 74.428571428571445 83.500000000000014 71.500000000000014 78.654873140756024
decision_type=2 2 2 2 2 2 2
left_child=5 -2 3 -3 6 -1 -5
right_child=1 2 -4 4 -6 -7 -8
leaf_value=-0.0098490089710269665 -0.038375530368648471 0.077691353037953381 0.083588346574688333 0.0048649891818824571 -0.032707271290943023 -0.059766153429767911 0.044737104828590939
leaf_weight=21 32 20 20 38 25 35 23
leaf_count=21 32 20 20 38 25 35 23
internal_value=0.00044427 0.0151501 0.0287439 0.0183959 0.00460629 -0.0410472 0.0198987
internal_weight=214 158 126 106 86 56 61
internal_count=214 158 126 106 86 56 61
is_linear=0
shrinkage=0.05


Tree=58
num_leaves=9
num_cat=0
split_feature=24 11 9 10 24 13 9 18
split_gain=49.144 28.4662 27.4856 16.5593 21.8668 15.6572 13.2863 4.41724
threshold=7.5000000000000009 85.500000000000014 75.156788902991735 72.500000000000014 15.500000000000002 84.500000000000014 78.654873140756024 75.500000000000014
decision_type=2 2 2 2 2 2 2 2
left_child=1 2 7 4 -2 6 -4 -1
right_child=3 -3 5 -5 -6 -7 -8 -9
leaf_value=-0.020963138199987866 -0.017825164397557578 -0.057328767934814097 0.0067326175111035507 0.074284851299598817 0.051383744537830359 -0.021525005111470819 0.05724357298534849 -0.053796312939375639
leaf_weight=21 21 32 30 20 25 22 23 20
leaf_count=21 21 32 30 20 25 22 23 20
internal_value=0.000422056 -0.0155787 -0.00406139 0.0363025 0.0197884 0.0139337 0.0286525 -0.0369793
internal_weight=214 148 116 66 46 75 53 41
internal_count=214 148 116 66 46 75 53 41
is_linear=0
shrinkage=0.05


Tree=59
num_leaves=9
num_cat=0
split_feature=9 17 9 18 11 12 9 11
split_gain=37.2875 33.7868 34.8976 27.4074 14.8034 9.24468 8.09898 9.27481
threshold=81.606488334673287 81.071428571428584 75.156788902991735 74.428571428571445 83.500000000000014 72.500000000000014 78.38545609406718 72.500000000000014
decision_type=2 2 2 2 2 2 2 2
left_child=1 2 5 -4 6 -1 7 -5
right_child=-2 -3 3 4 -6 -7 -8 -9
leaf_value=-0.011571398233486848 0.055327699447257656 -0.064281625462614969 0.065503631286661743 0.025471123012349658 -0.02774819005970602 -0.05561052044280447 0.040148655746294108 -0.02048837593091386
leaf_weight=22 27 23 22 23 27 26 23 21
leaf_count=22 27 23 22 23 27 26 23 21
internal_value=0.000400953 -0.00752965 0.000429472 0.0152662 0.00350849 -0.0354259 0.0161045 0.00353591
internal_weight=214 187 164 116 94 48 67 44
internal_count=214 187 164 116 94 48 67 44
is_linear=0
shrinkage=0.05


Tree=60
num_leaves=8
num_cat=0
split_feature=24 9 18 9 11 12 5
split_gain=52.119 41.7946 44.7602 21.9879 18.182 16.5519 9.49053
threshold=15.500000000000002 81.671229032578609 77.785714285714292 78.38545609406718 75.500000000000014 74.500000000000014 -0.56174490092936669
decision_type=2 2 2 2 2 2 2
left_child=1 2 3 4 5 -1 -4
right_child=-2 -3 6 -5 -6 -7 -8
leaf_value=0.045980471298098569 0.067987648483652338 0.056822847071188426 -0.024943518087915756 0.048323239083401859 -0.037061271310085429 -0.01621370375075418 -0.065636956750562317
leaf_weight=20 26 22 23 22 32 23 38
leaf_count=20 26 22 23 22 32 23 38
internal_value=0.00181418 -0.00774421 -0.0167346 0.00436953 -0.00852355 0.0127138 -0.0502935
internal_weight=206 180 158 97 75 43 61
internal_count=206 180 158 97 75 43 61
is_linear=0
shrinkage=0.05


Tree=61
num_leaves=9
num_cat=0
split_feature=24 24 10 10 24 12 17 18
split_gain=48.7579 31.7627 45.8804 25.6818 27.7358 11.2113 10.7627 2.23358
threshold=-9.4999999999999982 16.500000000000004 68.500000000000014 86.500000000000014 -2.4999999999999996 77.500000000000014 75.214285714285737 78.714285714285737
decision_type=2 2 2 2 2 2 2 2
left_child=5 2 -2 4 -4 -1 -6 -8
right_child=1 -3 3 -5 6 -7 7 -9
leaf_value=-0.019879560577480693 -0.063934251237660653 0.073550942689180374 -0.036260719877544846 0.066680155813016673 0.04811972161685979 -0.069805764483118607 0.018608945068748047 -0.0037196818561781018
leaf_weight=23 20 20 27 22 27 22 24 21
leaf_count=23 20 20 27 22 27 22 24 21
internal_value=0.00172347 0.0145838 0.00621967 0.0178154 0.00695651 -0.0442879 0.023163 0.00818892
internal_weight=206 161 141 121 99 45 72 45
internal_count=206 161 141 121 99 45 72 45
is_linear=0
shrinkage=0.05


Tree=62
num_leaves=8
num_cat=0
split_feature=24 24 10 10 24 17 19
split_gain=44.004 28.6658 41.4071 23.6597 26.5061 10.8777 10.46
threshold=-9.4999999999999982 16.500000000000004 68.500000000000014 82.500000000000014 -2.4999999999999996 75.214285714285737 76.928571428571445
decision_type=2 2 2 2 2 2 2
left_child=6 2 -2 4 -4 -6 -1
right_child=1 -3 3 -5 5 -7 -8
leaf_value=-0.015121875451877716 -0.060737538263201718 0.069873396158218387 -0.039991379848681397 0.053797065402613954 0.045641466459402674 0.0036704009576504562 -0.063634852617979062
leaf_weight=20 20 20 25 32 26 38 25
leaf_count=20 20 20 25 32 26 38 25
internal_value=0.0016373 0.0138546 0.00590868 0.0169246 0.00366707 0.0207211 -0.0420735
internal_weight=206 161 141 121 89 64 45
internal_count=206 161 141 121 89 64 45
is_linear=0
shrinkage=0.05


Tree=63
num_leaves=8
num_cat=0
split_feature=24 24 10 11 24 12 24
split_gain=39.7136 26.0235 36.6935 17.2121 13.5532 9.86413 8.97556
threshold=-9.4999999999999982 15.500000000000002 82.500000000000014 78.500000000000014 4.5000000000000009 77.500000000000014 8.5000000000000018
decision_type=2 2 2 2 2 2 2
left_child=5 2 3 4 -2 -1 -5
right_child=1 -3 -4 6 -6 -7 -8
leaf_value=-0.017074859624667822 -0.010601655284271521 0.058967676414893228 0.051107212190981958 -0.050341943791967686 0.040486905697200981 -0.063905531057918616 -0.0064861131552606827
leaf_weight=23 34 26 32 28 21 22 20
leaf_count=23 34 26 32 28 21 22 20
internal_value=0.00155543 0.0131619 0.00434002 -0.0101896 0.00890489 -0.0399699 -0.0320687
internal_weight=206 161 135 103 55 45 48
internal_count=206 161 135 103 55 45 48
is_linear=0
shrinkage=0.05


Tree=64
num_leaves=8
num_cat=0
split_feature=24 11 24 10 14 11 10
split_gain=36.2616 18.9133 15.4842 15.1303 12.0763 7.87881 7.36149
threshold=-1.4999999999999998 80.500000000000014 11.500000000000002 84.500000000000014 80.500000000000014 73.500000000000014 77.500000000000014
decision_type=2 2 2 2 2 2 2
left_child=3 2 6 5 -3 -1 -2
right_child=1 4 -4 -5 -6 -7 -8
leaf_value=-0.014519808317224185 0.0045175086706876755 0.020181098183536014 0.073578600264154373 0.0030953902958167929 -0.031635404445908288 -0.053472051718820107 0.043167326277629897
leaf_weight=21 28 23 20 36 22 34 22
leaf_count=21 28 23 20 36 22 34 22
internal_value=0.00147766 0.0201385 0.0363963 -0.0221047 -0.00515141 -0.0385994 0.0215234
internal_weight=206 115 70 91 45 55 50
internal_count=206 115 70 91 45 55 50
is_linear=0
shrinkage=0.05


Tree=65
num_leaves=9
num_cat=0
split_feature=9 11 24 9 19 19 17 11
split_gain=50.1003 29.7011 25.5935 20.8663 23.0927 9.88044 6.89919 6.87488
threshold=81.671229032578609 83.500000000000014 6.5000000000000009 73.842363835120281 80.642857142857153 77.357142857142875 75.642857142857153 73.500000000000014
decision_type=2 2 2 2 2 2 2 2
left_child=1 2 3 -1 7 -3 -4 -5
right_child=-2 5 6 4 -6 -7 -8 -9
leaf_value=-0.057006037952378401 0.068705577942866677 -0.022958285788652198 0.056392312124371527 0.031922032603373132 -0.047075723484158519 -0.067394065856933597 0.015816482918506319 -0.00091716455953086125
leaf_weight=20 23 29 20 30 20 22 22 34
leaf_count=20 23 29 20 30 20 22 22 34
internal_value=-0.00112537 -0.00927822 0.00219624 -0.0111073 -0.000179013 -0.0421267 0.0351383 0.0144762
internal_weight=220 197 146 104 84 51 42 64
internal_count=220 197 146 104 84 51 42 64
is_linear=0
shrinkage=0.05


Tree=66
num_leaves=9
num_cat=0
split_feature=9 11 24 9 19 19 11 17
split_gain=45.2953 27.0724 23.3379 18.8319 20.8411 8.91709 6.20458 6.18238
threshold=82.01621300898266 83.500000000000014 6.5000000000000009 73.842363835120281 80.642857142857153 77.357142857142875 73.500000000000014 75.642857142857153
decision_type=2 2 2 2 2 2 2 2
left_child=1 2 3 -1 6 -3 -5 -4
right_child=-2 5 7 4 -6 -7 -8 -9
leaf_value=-0.054155736044049267 0.066993190517479734 -0.021810371563609307 0.053572697043418882 0.030325930843440197 -0.044721937179565435 -0.064024362848563637 -0.00087130650713601533 0.015562224436713302
leaf_weight=20 22 29 20 30 20 22 34 23
leaf_count=20 22 29 20 30 20 22 34 23
internal_value=-0.0010691 -0.00863157 0.0022584 -0.0105519 -0.000170062 -0.0400203 0.0137524 0.0332415
internal_weight=220 198 147 104 84 51 64 43
internal_count=220 198 147 104 84 51 64 43
is_linear=0
shrinkage=0.05


Tree=67
num_leaves=9
num_cat=0
split_feature=9 11 24 9 19 19 11 11
split_gain=40.879 24.4328 21.0625 16.9957 18.8091 8.08806 5.59963 5.34031
threshold=82.01621300898266 83.500000000000014 6.5000000000000009 73.842363835120281 80.642857142857153 77.071428571428584 73.500000000000014 74.500000000000014
decision_type=2 2 2 2 2 2 2 2
left_child=1 2 3 -1 6 -3 -5 -4
right_child=-2 5 7 4 -6 -7 -8 -9
leaf_value=-0.051447948943823575 0.063643530533987691 -0.018494341114106087 0.050475359410047528 0.028809634102508426 -0.042485841587185859 -0.058325281679630282 -0.00082774096004226627 0.015148203658021015
leaf_weight=20 22 26 20 30 20 25 34 23
leaf_count=20 22 26 20 30 20 25 34 23
internal_value=-0.00101564 -0.0082 0.00214548 -0.0100243 -0.00016156 -0.0380193 0.0130648 0.0315794
internal_weight=220 198 147 104 84 51 64 43
internal_count=220 198 147 104 84 51 64 43
is_linear=0
shrinkage=0.05


Tree=68
num_leaves=9
num_cat=0
split_feature=9 11 24 9 19 13 17 11
split_gain=36.8933 22.0506 19.0089 15.3387 16.9752 7.44963 5.39252 5.05367
threshold=82.01621300898266 83.500000000000014 6.5000000000000009 73.842363835120281 80.642857142857153 79.500000000000014 75.642857142857153 73.500000000000014
decision_type=2 2 2 2 2 2 2 2
left_child=1 2 3 -1 7 -3 -4 -5
right_child=-2 5 6 4 -6 -7 -8 -9
leaf_value=-0.048875551493838432 0.060461354645138438 -0.018798774653779611 0.048988520056009295 0.027369152234556778 -0.040361549463123085 -0.057203042691411535 0.013489116096626159 -0.00078635377371135881
leaf_weight=20 22 28 20 30 20 23 23 34
leaf_count=20 22 28 20 30 20 23 23 34
internal_value=-0.00096486 -0.00779 0.00203821 -0.00952311 -0.000153482 -0.0361183 0.0300005 0.0124115
internal_weight=220 198 147 104 84 51 43 64
internal_count=220 198 147 104 84 51 43 64
is_linear=0
shrinkage=0.05


Tree=69
num_leaves=8
num_cat=0
split_feature=9 11 24 9 18 12 19
split_gain=33.3236 19.6917 17.3467 10.6974 7.50462 9.64902 7.16693
threshold=81.671229032578609 83.500000000000014 -3.4999999999999996 75.214972930098071 77.928571428571445 75.500000000000014 77.357142857142875
decision_type=2 2 2 2 2 2 2
left_child=1 2 3 -1 5 -4 -3
right_child=-2 6 4 -5 -6 -7 -8
leaf_value=-0.044417094687620805 0.056034740384506149 -0.017987032106210447 0.049092400926523484 -0.0017779630559839701 -0.0063749315440654753 0.008364326481453398 -0.055832270651378413
leaf_weight=24 23 29 26 38 25 33 22
leaf_count=24 23 29 26 38 25 33 22
internal_value=-0.000916617 -0.00756576 0.00177725 -0.0182834 0.016584 0.0263123 -0.0343124
internal_weight=220 197 146 62 84 59 51
internal_count=220 197 146 62 84 59 51
is_linear=0
shrinkage=0.05


Tree=70
num_leaves=7
num_cat=0
split_feature=24 9 18 15 12 24
split_gain=26.2625 18.205 29.7193 10.958 9.52293 5.81087
threshold=-12.499999999999998 78.477060997523054 75.214285714285737 78.500000000000014 74.500000000000014 -2.4999999999999996
decision_type=2 2 2 2 2 2
left_child=-1 2 -2 -4 -3 -6
right_child=1 4 3 -5 5 -7
leaf_value=-0.044816607871541271 0.032390129185015604 0.056679035574197768 -0.04382139241056783 -0.0042559385140027326 -0.0042494819632598333 0.029599352506920695
leaf_weight=27 35 20 35 35 21 32
leaf_count=27 35 20 35 35 21 32
internal_value=0.00113376 0.00810376 -0.00522907 -0.0240387 0.0272811 0.0161876
internal_weight=205 178 105 70 73 53
internal_count=205 178 105 70 73 53
is_linear=0
shrinkage=0.05


Tree=71
num_leaves=7
num_cat=0
split_feature=24 10 12 13 12 10
split_gain=24.3034 19.4651 16.4575 14.9955 6.56364 6.11276
threshold=-3.4999999999999996 68.500000000000014 81.500000000000014 80.500000000000014 71.500000000000014 79.500000000000014
decision_type=2 2 2 2 2 2
left_child=2 -2 3 -1 -3 -6
right_child=1 4 -4 -5 5 -7
leaf_value=0.016881466306971783 -0.018554716007483582 0.048587576711836916 -0.056609010323882103 -0.031961627652247748 0.0065104514360427856 0.038582069581995414
leaf_weight=33 31 26 22 30 39 24
leaf_count=33 31 26 22 30 39 24
internal_value=0.00107707 0.0155663 -0.0193783 -0.00637715 0.0274512 0.0187282
internal_weight=205 120 85 63 89 63
internal_count=205 120 85 63 89 63
is_linear=0
shrinkage=0.05


Tree=72
num_leaves=9
num_cat=0
split_feature=24 10 24 10 24 13 24 9
split_gain=22.4617 16.2265 26.8214 17.4625 17.2862 7.1885 6.58818 5.98495
threshold=-12.499999999999998 79.500000000000014 15.500000000000002 69.500000000000014 -2.4999999999999996 73.500000000000014 -5.4999999999999991 77.226452678340664
decision_type=2 2 2 2 2 2 2 2
left_child=-1 2 3 -2 -5 -3 -7 -6
right_child=1 5 -4 4 7 6 -8 -9
leaf_value=-0.041472244041937369 -0.052817982016616354 0.052315405905246741 0.044206405852151957 -0.039201589995487174 0.031914060392106577 -0.00082292351871728899 0.037678246498107915 -0.0051204077154397972
leaf_weight=27 24 20 23 22 24 25 20 20
leaf_count=27 24 20 23 22 24 25 20 20
internal_value=0.00102322 0.00746916 -0.00398044 -0.0162949 -0.00301372 0.0273738 0.0162887 0.0150802
internal_weight=205 178 113 90 66 65 45 44
internal_count=205 178 113 90 66 65 45 44
is_linear=0
shrinkage=0.05


Tree=73
num_leaves=9
num_cat=0
split_feature=24 18 8 1 14 20 5 14
split_gain=20.2717 15.2427 20.8549 11.5256 10.2701 8.24347 5.19753 3.63935
threshold=-12.499999999999998 75.214285714285737 76.928571428571445 9.5000000000000018 87.500000000000014 79.928571428571445 -0.22252093395631442 77.500000000000014
decision_type=2 2 2 2 2 2 2 2
left_child=-1 3 7 -2 5 6 -4 -3
right_child=1 2 4 -5 -6 -7 -8 -9
leaf_value=-0.039398632433127474 0.058398306014185601 -0.016301618774776303 -0.0068951080350772203 0.0059538888745009899 -0.016448603741203747 0.04859160343883559 0.025183126410203323 -0.046103881523013118
leaf_weight=27 22 21 23 20 24 20 28 20
leaf_count=27 22 21 23 20 24 20 28 20
internal_value=0.000972056 0.0070957 -0.00103534 0.0334248 0.0118274 0.0213855 0.0107165 -0.0308393
internal_weight=205 178 136 42 95 71 51 41
internal_count=205 178 136 42 95 71 51 41
is_linear=0
shrinkage=0.05


Tree=74
num_leaves=8
num_cat=0
split_feature=9 17 9 17 11 10 11
split_gain=15.1563 20.0247 12.5024 14.2588 12.8196 4.05435 3.97475
threshold=73.842363835120281 74.642857142857153 78.593496312344385 81.357142857142875 72.500000000000014 74.500000000000014 78.500000000000014
decision_type=2 2 2 2 2 2 2
left_child=-1 -2 4 6 -3 -6 -4
right_child=1 2 3 -5 5 -7 -8
leaf_value=-0.035556687662377955 0.047515454650856555 0.014697412772104144 0.045299204642928782 -0.017446275323629381 -0.043373591721057897 -0.015671051362629182 0.017126006993555255
leaf_weight=25 25 25 21 25 25 28 31
leaf_count=25 25 25 21 25 25 28 31
internal_value=0.000923453 0.00599014 -0.000707492 0.0135848 -0.0148166 -0.0287383 0.0285036
internal_weight=205 180 155 77 78 53 52
internal_count=205 180 155 77 78 53 52
is_linear=0
shrinkage=0.05


Tree=75
num_leaves=9
num_cat=0
split_feature=18 9 24 2 17 19 9 20
split_gain=23.5347 21.5217 17.0929 10.3704 9.14032 18.804 6.05273 3.422
threshold=73.357142857142875 79.432807573455591 -5.4999999999999991 20.500000000000004 78.714285714285737 75.928571428571445 81.29669086049087 77.785714285714292
decision_type=2 2 2 2 2 2 2 2
left_child=-1 3 -3 4 5 -2 -4 -5
right_child=1 2 6 7 -6 -7 -8 -9
leaf_value=0.049606829919767656 -0.049493178471922875 -0.017090124272457933 0.017146423023024743 -0.012985500400885941 -0.054667053177304893 0.0087893987374921007 0.053830429555281348 0.012465161173271814
leaf_weight=22 25 23 22 25 23 31 23 28
leaf_count=22 25 23 22 25 23 31 23 28
internal_value=0.000521555 -0.00487782 0.0179742 -0.0166501 -0.0281291 -0.0172296 0.035896 0.000460132
internal_weight=222 200 68 132 79 56 45 53
internal_count=222 200 68 132 79 56 45 53
is_linear=0
shrinkage=0.05


Tree=76
num_leaves=9
num_cat=0
split_feature=18 9 17 4 5 12 8 7
split_gain=21.24 19.4508 17.7695 10.2915 10.0669 6.93642 6.10045 4.69116
threshold=73.357142857142875 76.533084237699498 82.357142857142875 1.0000000180025095e-35 -0.56174490092936669 84.500000000000014 75.214285714285737 -0.24999999999999994
decision_type=2 2 2 2 2 2 2 2
left_child=-1 3 4 6 -3 7 -2 -6
right_child=1 2 -4 -5 5 -7 -8 -9
leaf_value=0.047126488154754044 0.0077841239701956517 -0.011502033751457931 -0.037161030652932824 -0.053848456923404467 0.043650151714682582 0.00048675674851983788 -0.02997362489771584 0.015291760809719564
leaf_weight=22 20 29 20 23 35 25 23 25
leaf_count=22 20 29 20 23 35 25 23 25
internal_value=0.000495477 -0.00463393 0.00630924 -0.0268519 0.0139356 0.0226143 -0.0124119 0.0318342
internal_weight=222 200 134 66 114 85 43 60
internal_count=222 200 134 66 114 85 43 60
is_linear=0
shrinkage=0.05


Tree=77
num_leaves=9
num_cat=0
split_feature=18 9 24 11 12 9 12 9
split_gain=19.1691 18.8793 15.3637 11.6674 8.52576 8.02622 6.43886 5.4795
threshold=73.357142857142875 79.432807573455591 -5.4999999999999991 73.500000000000014 76.500000000000014 76.533084237699498 77.500000000000014 81.29669086049087
decision_type=2 2 2 2 2 2 2 2
left_child=-1 3 -3 6 5 -5 -2 -4
right_child=1 2 7 4 -6 -7 -8 -9
leaf_value=0.044770163517783991 0.024144717627628286 -0.016242359005643622 0.016152484717101536 -0.031914611592888831 -0.044618552278198706 0.0094942216996886687 -0.012608659869203202 0.051056191163218551
leaf_weight=22 22 23 22 25 37 22 26 23
leaf_count=22 22 23 22 25 37 22 26 23
internal_value=0.000470704 -0.00440224 0.0170011 -0.0154282 -0.0266652 -0.0125318 0.00423664 0.0339922
internal_weight=222 200 68 132 84 47 48 45
internal_count=222 200 68 132 84 47 48 45
is_linear=0
shrinkage=0.05


Tree=78
num_leaves=9
num_cat=0
split_feature=18 9 24 11 12 14 9 13
split_gain=17.3001 17.0386 13.8657 10.5299 7.85936 6.08222 4.94525 4.82259
threshold=73.357142857142875 79.432807573455591 -5.4999999999999991 73.500000000000014 79.500000000000014 76.500000000000014 81.29669086049087 75.500000000000014
decision_type=2 2 2 2 2 2 2 2
left_child=-1 3 -3 5 7 -2 -4 -5
right_child=1 2 6 4 -6 -7 -8 -9
leaf_value=0.042531655339354824 -0.01377356930364234 -0.01543024065701858 0.015344860580411146 0.0037234194036996505 -0.046961086216781828 0.021823181343885761 0.048503382763136989 -0.026320285977357451
leaf_weight=22 24 23 22 22 28 24 23 34
leaf_count=22 24 23 22 22 28 24 23 34
internal_value=0.000447168 -0.00418213 0.016151 -0.0146568 -0.025332 0.00402481 0.0322925 -0.0145174
internal_weight=222 200 68 132 84 48 45 56
internal_count=222 200 68 132 84 48 45 56
is_linear=0
shrinkage=0.05


Tree=79
num_leaves=9
num_cat=0
split_feature=18 9 24 10 15 24 11 1
split_gain=15.6134 16.2794 12.6589 15.0955 9.06805 7.79052 7.05 6.27414
threshold=73.357142857142875 76.094945533310764 -10.499999999999998 86.500000000000014 77.500000000000014 8.5000000000000018 84.500000000000014 7.5000000000000009
decision_type=2 2 2 2 2 2 2 2
left_child=-1 4 -3 5 -2 6 -4 -7
right_child=1 2 3 -5 -6 7 -8 -9
leaf_value=0.040405071882361719 -0.050464566449712346 -0.03038206517865712 0.0030533366232506328 0.043851197121181976 -0.008915594348619724 0.038405697029083974 -0.033218365260178136 -0.0011990275420248509
leaf_weight=22 24 22 37 27 29 20 21 20
leaf_count=22 24 22 37 27 29 20 21 20
internal_value=0.00042481 -0.00397302 0.0045925 0.010748 -0.0277302 0.00162777 -0.0100795 0.0186033
internal_weight=222 200 147 125 53 98 58 40
internal_count=222 200 147 125 53 98 58 40
is_linear=0
shrinkage=0.05


Tree=80
num_leaves=8
num_cat=0
split_feature=24 22 10 12 9 13 2
split_gain=27.3267 15.835 10.7831 11.4647 9.25925 4.72802 6.41731
threshold=-15.499999999999998 82.142857142857153 67.500000000000014 71.500000000000014 81.606488334673287 72.500000000000014 21.500000000000004
decision_type=2 2 2 2 2 2 2
left_child=-1 2 -2 -4 5 -5 -7
right_child=1 -3 3 4 -6 6 -8
leaf_value=-0.055147508354414079 -0.021639925055205823 -0.03551533641737132 0.038924604107458627 0.017743687687272375 0.036768820360302927 -0.024233997745379324 0.012093532222206705
leaf_weight=21 22 21 39 22 20 31 20
leaf_count=21 22 21 39 22 20 31 20
internal_value=-0.00125298 0.00521436 0.0107684 0.0161698 0.00662747 -0.00163044 -0.00998791
internal_weight=196 175 154 132 93 73 51
internal_count=196 175 154 132 93 73 51
is_linear=0
shrinkage=0.05


Tree=81
num_leaves=8
num_cat=0
split_feature=24 10 22 12 11 1 9
split_gain=24.6623 14.4383 13.7718 12.1972 15.3551 11.0861 5.55358
threshold=-15.499999999999998 86.500000000000014 82.142857142857153 79.500000000000014 73.500000000000014 5.5000000000000009 76.431613783604504
decision_type=2 2 2 2 2 2 2
left_child=-1 2 3 4 -2 -5 -6
right_child=1 -3 -4 5 6 -7 -8
leaf_value=-0.052390132915406 0.052165758221045792 0.0401327038705349 -0.039535230007022623 0.016844309195876123 -0.012621286768397248 -0.029820769480429589 0.020083111875690521
leaf_weight=21 23 25 20 20 27 35 25
leaf_count=21 23 25 20 20 27 35 25
internal_value=-0.00119033 0.00495364 -0.000909532 0.00503288 0.0181482 -0.0128516 0.00310198
internal_weight=196 175 150 130 75 55 52
internal_count=196 175 150 130 75 55 52
is_linear=0
shrinkage=0.05


Tree=82
num_leaves=8
num_cat=0
split_feature=24 10 22 24 12 16 3
split_gain=22.2577 13.0305 12.429 11.7549 11.7791 9.15175 8.69586
threshold=-15.499999999999998 86.500000000000014 82.142857142857153 6.5000000000000009 71.500000000000014 72.500000000000014 2.5000000000000004
decision_type=2 2 2 2 2 2 2
left_child=-1 2 3 4 -2 -5 -6
right_child=1 -3 -4 5 6 -7 -8
leaf_value=-0.049770625183979678 0.021082135390800737 0.038126069247722633 -0.037558468654751778 -0.0012788773878760961 0.00081993652468857672 0.040348025693768462 -0.04019511988319989
leaf_weight=21 24 25 20 23 24 31 28
leaf_count=21 24 25 20 23 24 31 28
internal_value=-0.00113082 0.00470596 -0.000864056 0.00478124 -0.00789228 0.022618 -0.0212651
internal_weight=196 175 150 130 76 54 52
internal_count=196 175 150 130 76 54 52
is_linear=0
shrinkage=0.05


Tree=83
num_leaves=8
num_cat=0
split_feature=24 10 22 16 11 24 1
split_gain=20.0876 11.7601 11.2172 10.9388 16.0466 9.39762 5.88243
threshold=-15.499999999999998 86.500000000000014 82.142857142857153 71.500000000000014 74.500000000000014 6.5000000000000009 8.5000000000000018
decision_type=2 2 2 2 2 2 2
left_child=-1 2 3 6 -5 -6 -2
right_child=1 -3 -4 4 5 -7 -8
leaf_value=-0.047282094579367412 0.0031734668090939522 0.03621976558119059 -0.035680544786155226 0.045816898572125606 -0.016180317240004013 0.024211903639176552 -0.03429335663095117
leaf_weight=21 20 25 20 28 36 24 22
leaf_count=21 20 25 20 28 36 24 22
internal_value=-0.00107427 0.00447066 -0.000820853 0.00454218 0.0145621 -2.34289e-05 -0.016452
internal_weight=196 175 150 130 88 60 42
internal_count=196 175 150 130 88 60 42
is_linear=0
shrinkage=0.05


Tree=84
num_leaves=8
num_cat=0
split_feature=24 10 12 10 12 11 8
split_gain=18.1291 10.6135 10.4608 9.54652 8.10573 4.82433 2.5984
threshold=-15.499999999999998 86.500000000000014 86.500000000000014 67.500000000000014 69.500000000000014 76.500000000000014 78.714285714285737
decision_type=2 2 2 2 2 2 2
left_child=-1 2 3 -2 -5 -6 -7
right_child=1 -3 -4 4 5 6 -8
leaf_value=-0.044917990196318855 -0.025624748747352336 0.034408777525648478 -0.030304924696683885 0.03378251976301444 0.01621106617152691 -0.021951347622089088 0.0035358923533931374
leaf_weight=21 21 25 25 29 35 20 20
leaf_count=21 21 25 25 29 35 20 20
internal_value=-0.00102056 0.00424713 -0.00077981 0.00512521 0.0113343 0.00265438 -0.00920773
internal_weight=196 175 150 125 104 75 40
internal_count=196 175 150 125 104 75 40
is_linear=0
shrinkage=0.05


Tree=85
num_leaves=8
num_cat=0
split_feature=11 24 10 20 15 7 24
split_gain=16.0378 17.7447 10.2821 5.74222 5.33004 4.89157 4.57184
threshold=67.500000000000014 -5.4999999999999991 67.500000000000014 74.428571428571445 77.500000000000014 -0.24999999999999994 4.5000000000000009
decision_type=2 2 2 2 2 2 2
left_child=-1 4 -3 -4 -2 6 -5
right_child=1 2 3 5 -6 -7 -8
leaf_value=0.041707517718896275 -0.0075766589897482296 -0.022742648397318342 -0.0093123066797852518 0.015430767364799978 -0.039344478374527349 0.0063783259105144284 0.045669275641441347
leaf_weight=24 23 22 20 25 31 36 25
leaf_count=24 23 22 20 25 31 36 25
internal_value=0.0032892 -0.00177695 0.00836357 0.0148196 -0.0258137 0.0204316 0.03055
internal_weight=206 182 128 106 54 86 50
internal_count=206 182 128 106 54 86 50
is_linear=0
shrinkage=0.05


Tree=86
num_leaves=8
num_cat=0
split_feature=11 24 10 20 15 15 7
split_gain=14.4741 16.0146 9.27958 5.18235 4.81036 4.58557 2.30331
threshold=67.500000000000014 -5.4999999999999991 67.500000000000014 74.428571428571445 77.500000000000014 80.500000000000014 -0.5
decision_type=2 2 2 2 2 2 2
left_child=-1 4 -3 -4 -2 6 -5
right_child=1 2 3 5 -6 -7 -8
leaf_value=0.039622142010678846 -0.00719782605605281 -0.021605515750971707 -0.0088466917583718899 0.039269059660056463 -0.03737725427434329 0.0051316529402838035 0.018222807894031016
leaf_weight=24 23 22 20 26 31 34 26
leaf_count=24 23 22 20 26 31 34 26
internal_value=0.00312474 -0.00168811 0.00794539 0.0140786 -0.0245231 0.0194101 0.0287459
internal_weight=206 182 128 106 54 86 52
internal_count=206 182 128 106 54 86 52
is_linear=0
shrinkage=0.05


Tree=87
num_leaves=8
num_cat=0
split_feature=18 9 12 9 11 16 2
split_gain=15.7149 9.94503 14.1815 9.25519 12.1486 5.10667 1.88888
threshold=73.357142857142875 81.606488334673287 87.500000000000014 76.318724014806676 73.500000000000014 75.500000000000014 19.500000000000004
decision_type=2 2 2 2 2 2 2
left_child=-1 2 3 4 -2 -5 -7
right_child=1 -3 -4 5 -6 6 -8
leaf_value=0.045083223860710862 0.0092547829590599855 0.027779993055388332 -0.042464909346207336 -0.005341000659391284 -0.036621031393447231 0.01213856334798038 0.031716498211872855
leaf_weight=20 27 25 23 30 31 28 22
leaf_count=20 27 25 23 30 31 28 22
internal_value=0.0029685 -0.00155996 -0.00611586 -5.7682e-05 -0.015265 0.0109677 0.0207529
internal_weight=206 186 161 138 58 80 50
internal_count=206 186 161 138 58 80 50
is_linear=0
shrinkage=0.05


Tree=88
num_leaves=8
num_cat=0
split_feature=11 24 10 7 9 12 15
split_gain=12.6233 14.4219 7.79488 5.0203 4.17839 5.98613 4.16912
threshold=67.500000000000014 -5.4999999999999991 67.500000000000014 1.0000000180025095e-35 80.494887296193596 76.500000000000014 77.500000000000014
decision_type=2 2 2 2 2 2 2
left_child=-1 6 -3 4 5 -4 -2
right_child=1 2 3 -5 -6 -7 -8
leaf_value=0.036904228618368506 -0.0072151028596715121 -0.019616521844132383 0.028358738259911271 -0.0038365485567239026 0.038401970690624287 -0.005302656248211861 -0.035311081482758445
leaf_weight=24 23 22 28 31 22 25 31
leaf_count=24 23 22 28 31 22 25 31
internal_value=0.00282008 -0.00167454 0.00746738 0.0130886 0.0200843 0.0124807 -0.0233443
internal_weight=206 182 128 106 75 53 54
internal_count=206 182 128 106 75 53 54
is_linear=0
shrinkage=0.05


Tree=89
num_leaves=8
num_cat=0
split_feature=18 9 12 9 11 16 2
split_gain=13.9617 8.6568 12.6551 8.31525 10.3859 4.50059 2.05936
threshold=73.357142857142875 81.606488334673287 87.500000000000014 76.318724014806676 73.500000000000014 72.500000000000014 19.500000000000004
decision_type=2 2 2 2 2 2 2
left_child=-1 2 3 4 -2 -5 -7
right_child=1 -3 -4 5 -6 6 -8
leaf_value=0.042375074140727526 0.008139771060949123 0.025784485679119826 -0.040177145551728168 -0.0077819344975675157 -0.034277469232197731 0.010384370726259317 0.030017054109537807
leaf_weight=20 27 25 23 24 31 34 22
leaf_count=20 27 25 23 24 31 34 22
internal_value=0.00267907 -0.00158931 -0.00583991 -0.000117032 -0.0145315 0.0103335 0.0180972
internal_weight=206 186 161 138 58 80 56
internal_count=206 186 161 138 58 80 56
is_linear=0
shrinkage=0.05


Tree=90
num_leaves=8
num_cat=0
split_feature=24 10 17 10 24 5 16
split_gain=11.8437 18.8106 14.675 4.92045 9.11348 2.8126 1.32794
threshold=10.500000000000002 69.500000000000014 81.642857142857153 84.500000000000014 -4.4999999999999991 -0.56174490092936669 75.500000000000014
decision_type=2 2 2 2 2 2 2
left_child=1 -1 3 4 -3 -6 -7
right_child=-2 2 -4 -5 5 6 -8
leaf_value=-0.047480259019704096 0.027370604700767076 -0.018274474367499353 -0.032655152740577863 0.02769496689240138 -0.0002823665598407388 0.012990723541006447 0.030607019105683204
leaf_weight=21 39 30 24 30 20 20 23
leaf_count=21 39 30 24 30 20 20 23
internal_value=0.00254777 -0.00321468 0.00310898 0.0100873 0.00440747 0.0152084 0.0224134
internal_weight=207 168 147 123 93 63 43
internal_count=207 168 147 123 93 63 43
is_linear=0
shrinkage=0.05


Tree=91
num_leaves=8
num_cat=0
split_feature=24 10 24 12 14 15 15
split_gain=10.7882 16.9621 13.4595 12.1834 10.3405 6.29981 3.81111
threshold=13.500000000000002 73.500000000000014 -7.4999999999999991 77.500000000000014 70.500000000000014 79.500000000000014 76.500000000000014
decision_type=2 2 2 2 2 2 2
left_child=1 5 3 -3 -4 -1 -6
right_child=-2 2 4 -5 6 -7 -8
leaf_value=-0.043428488455160903 0.031892692994464331 0.01017449724453467 -0.009331728289411827 -0.038786681502824653 0.017461821201556763 -0.0069142092196714314 0.042910299618397992
leaf_weight=27 27 27 22 24 28 21 31
leaf_count=27 27 27 22 24 28 21 31
internal_value=0.00242038 -0.00200047 0.00725518 -0.0128661 0.0199241 -0.0274535 0.0308331
internal_weight=207 180 132 51 81 48 59
internal_count=207 180 132 51 81 48 59
is_linear=0
shrinkage=0.05


Tree=92
num_leaves=8
num_cat=0
split_feature=24 10 24 18 10 6 17
split_gain=9.84422 18.8021 11.3665 9.41914 4.17415 6.3023 3.34671
threshold=14.500000000000002 68.500000000000014 -3.4999999999999996 76.500000000000014 77.500000000000014 -0.24999999999999994 80.928571428571445
decision_type=2 2 2 2 2 2 2
left_child=1 -1 3 -3 5 -4 -5
right_child=-2 2 4 6 -6 -7 -8
leaf_value=-0.047244752161204821 0.033918492157350891 0.013857117088304628 0.022835811101659029 -0.01222914998109142 0.028570618222539243 -0.013215766079850833 -0.038634304124861962
leaf_weight=20 22 27 27 30 39 22 20
leaf_count=20 22 27 27 30 39 22 20
internal_value=0.00229936 -0.00146075 0.00408882 -0.0099405 0.0163645 0.00664939 -0.0227912
internal_weight=207 185 165 77 88 49 50
internal_count=207 185 165 77 88 49 50
is_linear=0
shrinkage=0.05


Tree=93
num_leaves=8
num_cat=0
split_feature=24 10 17 10 24 5 20
split_gain=9.20048 14.9357 12.0028 4.37633 7.3101 2.51071 1.34894
threshold=10.500000000000002 69.500000000000014 81.642857142857153 84.500000000000014 -4.4999999999999991 -0.56174490092936669 76.928571428571445
decision_type=2 2 2 2 2 2 2
left_child=1 -1 3 4 -3 -6 -7
right_child=-2 2 -4 -5 5 6 -8
leaf_value=-0.042338110683929356 0.024062638452801949 -0.016619399891545376 -0.029604158162449795 0.025656977449543775 -0.001267597731202841 0.011917441611623635 0.029672490627272053
leaf_weight=21 39 30 24 30 20 23 20
leaf_count=21 39 30 24 30 20 23 20
internal_value=0.00218439 -0.00289449 0.00274032 0.00905143 0.00369481 0.0133682 0.0201756
internal_weight=207 168 147 123 93 63 43
internal_count=207 168 147 123 93 63 43
is_linear=0
shrinkage=0.05


Tree=94
num_leaves=7
num_cat=0
split_feature=12 24 11 21 10 24
split_gain=9.02855 12.486 10.2161 9.03706 7.46556 6.2752
threshold=72.500000000000014 -4.4999999999999991 80.500000000000014 77.071428571428584 77.500000000000014 11.500000000000002
decision_type=2 2 2 2 2 2
left_child=2 3 -1 -2 5 -3
right_child=1 4 -4 -5 -6 -7
leaf_value=0.036404744146720451 -0.0046899208236330509 -0.019075616824307612 -0.00264816206287254 -0.048549353784841043 0.022509604255595297 0.016033179815858604
leaf_weight=34 24 35 33 23 38 20
leaf_count=34 24 35 33 23 38 20
internal_value=0.00207517 -0.00514865 0.0171697 -0.026153 0.00546647 -0.00630878
internal_weight=207 140 67 47 93 55
internal_count=207 140 67 47 93 55
is_linear=0
shrinkage=0.05


Tree=95
num_leaves=8
num_cat=0
split_feature=17 9 19 5 1 23 3
split_gain=11.2642 8.78801 7.30674 4.99377 5.61712 3.86162 3.61237
threshold=73.642857142857153 76.318724014806676 81.785714285714292 1.0000000180025095e-35 7.5000000000000009 76.928571428571445 3.5000000000000004
decision_type=2 2 2 2 2 2 2
left_child=-1 6 3 4 -3 -5 -2
right_child=1 2 -4 5 -6 -7 -8
leaf_value=0.033603432929764192 -0.031942031396153779 0.012604388894646296 -0.022292426445479085 0.034074826900345773 -0.017748980168943052 0.0075379277097767806 -0.0069707614431778588
leaf_weight=24 28 35 22 26 27 29 30
leaf_count=24 28 35 22 26 27 29 30
internal_value=0.00126256 -0.00267744 0.0041442 0.00911518 -0.000614014 0.0200826 -0.0190259
internal_weight=221 197 139 117 62 55 58
internal_count=221 197 139 117 62 55 58
is_linear=0
shrinkage=0.05


Tree=96
num_leaves=8
num_cat=0
split_feature=21 17 9 14 23 2 5
split_gain=10.3011 9.64015 9.15744 12.5756 4.88455 5.03431 2.89346
threshold=81.785714285714292 73.642857142857153 74.509180852196593 69.500000000000014 78.214285714285737 7.5000000000000009 1.0000000180025095e-35
decision_type=2 2 2 2 2 2 2
left_child=1 -1 -3 -4 5 -5 -7
right_child=-2 2 3 4 -6 6 -8
leaf_value=0.035691502787496734 -0.027141574703689133 -0.028898208596828307 -0.022639981876578064 -0.012123263309088847 0.031391213734501176 0.0045997923664639105 0.025720823048463754
leaf_weight=23 28 22 31 24 28 34 31
leaf_count=23 28 22 31 24 28 34 31
internal_value=0.00119943 0.00531108 0.00120079 0.00567496 0.0131772 0.00744697 0.0146729
internal_weight=221 193 170 148 117 89 65
internal_count=221 193 170 148 117 89 65
is_linear=0
shrinkage=0.05


Tree=97
num_leaves=8
num_cat=0
split_feature=21 17 5 20 10 1 23
split_gain=9.29674 8.70024 8.47191 8.82334 5.641 5.24941 2.30343
threshold=81.785714285714292 73.642857142857153 1.0000000180025095e-35 79.500000000000014 80.500000000000014 7.5000000000000009 77.357142857142875
decision_type=2 2 2 2 2 2 2
left_child=1 -1 3 5 6 -3 -4
right_child=-2 2 4 -5 -6 -7 -8
leaf_value=0.033906927024540699 -0.025784495911960095 -0.0031587008822468983 0.012523531780711243 0.01692722269023458 0.027786587971624817 -0.031051877120862138 -0.01089515033277816
leaf_weight=23 28 31 21 24 36 37 21
leaf_count=23 28 31 21 24 36 37 21
internal_value=0.00113946 0.00504553 0.00114075 -0.0091368 0.013263 -0.0183359 0.000814191
internal_weight=221 193 170 92 78 68 42
internal_count=221 193 170 92 78 68 42
is_linear=0
shrinkage=0.05


Tree=98
num_leaves=8
num_cat=0
split_feature=21 17 9 11 9 2 12
split_gain=8.39031 7.85196 8.04463 4.04731 4.22897 5.01102 3.60334
threshold=81.785714285714292 73.642857142857153 74.509180852196593 72.500000000000014 81.671229032578609 12.500000000000002 76.500000000000014
decision_type=2 2 2 2 2 2 2
left_child=1 -1 -3 -4 5 -5 -7
right_child=-2 2 3 4 -6 6 -8
leaf_value=0.032211581714775249 -0.024495271260717086 -0.027127258494411683 0.02134051550960829 -0.018505767147455898 0.021345667576506026 0.01932770169268434 -0.0052457911521196368
leaf_weight=23 28 22 31 35 21 26 35
leaf_count=23 28 22 31 35 21 26 35
internal_value=0.00108249 0.00479325 0.00108371 0.00527723 0.00102115 -0.00342484 0.00522816
internal_weight=221 193 170 148 117 96 61
internal_count=221 193 170 148 117 96 61
is_linear=0
shrinkage=0.05


Tree=99
num_leaves=9
num_cat=0
split_feature=21 14 9 2 17 23 11 19
split_gain=7.57225 7.24515 6.07518 5.24656 4.5587 3.74093 3.69412 0.425263
threshold=81.785714285714292 69.500000000000014 74.509180852196593 8.5000000000000018 76.928571428571445 77.785714285714292 77.500000000000014 79.357142857142875
decision_type=2 2 2 2 2 2 2 2
left_child=1 6 -3 -4 -5 7 -1 -6
right_child=-2 2 3 4 5 -7 -8 -9
leaf_value=0.0021758555155247448 -0.023270507859498531 -0.013315546526185549 -0.0016919397874861153 0.037858410683219081 0.0094226036664275901 0.030404095291825278 -0.027206097057332165 -0.00076486257836222654
leaf_weight=20 28 24 37 27 21 21 23 20
leaf_count=20 28 24 37 27 21 21 23 20
internal_value=0.00102836 0.00455359 0.00974044 0.0141321 0.0207106 0.013243 -0.0135401 0.00445311
internal_weight=221 193 150 126 89 62 43 41
internal_count=221 193 150 126 89 62 43 41
is_linear=0
shrinkage=0.05


Tree=100
num_leaves=9
num_cat=0
split_feature=18 10 24 9 18 9 5 23
split_gain=10.4726 6.90567 8.80379 5.47163 4.98834 4.66208 3.48586 2.52833
threshold=73.928571428571445 67.500000000000014 -4.4999999999999991 81.606488334673287 79.928571428571445 76.814748305225208 1.0000000180025095e-35 77.357142857142875
decision_type=2 2 2 2 2 2 2 2
left_child=-1 -2 4 5 6 -4 -3 -7
right_child=1 2 3 -5 -6 7 -8 -9
leaf_value=0.030120593249797822 -0.031333890770162853 -0.018893438488568948 0.020296863456650712 0.032141231466084719 -0.031590616559753051 0.0042033381760120392 0.0075954883458541223 -0.01756964426410074
leaf_weight=25 21 23 26 20 26 30 27 24
leaf_count=25 21 23 26 20 26 30 27 24
internal_value=-0.000364198 -0.00423283 -0.000999177 0.00874972 -0.0138267 0.00290184 -0.00458942 -0.00547354
internal_weight=222 197 176 100 76 80 50 54
internal_count=222 197 176 100 76 80 50 54
is_linear=0
shrinkage=0.05


Tree=101
num_leaves=9
num_cat=0
split_feature=17 17 9 12 15 9 9 21
split_gain=7.52293 5.10144 7.16311 4.80711 2.38525 2.34849 3.47935 1.40767
threshold=82.357142857142875 73.928571428571445 76.094945533310764 86.500000000000014 80.500000000000014 78.38545609406718 77.226452678340664 78.714285714285737
decision_type=2 2 2 2 2 2 2 2
left_child=1 -1 4 5 -3 6 -4 -7
right_child=-2 2 3 -5 -6 7 -8 -9
leaf_value=0.02292026052320445 -0.028097758679227397 -0.029643708428061064 0.014939660383000351 -0.013826201920612499 -0.0060850486602811588 0.011251069830828592 -0.012588750828184525 0.027639155208598821
leaf_weight=27 22 22 24 26 21 38 22 20
leaf_count=27 22 22 24 26 21 38 22 20
internal_value=-0.000345988 0.00270671 -0.00044801 0.0054034 -0.0181383 0.0102108 0.0017739 0.0169021
internal_weight=222 200 173 130 43 104 46 58
internal_count=222 200 173 130 43 104 46 58
is_linear=0
shrinkage=0.05


Tree=102
num_leaves=9
num_cat=0
split_feature=18 11 9 12 9 13 12 13
split_gain=8.92142 5.81025 6.54529 7.32904 2.97335 2.72853 2.46618 1.84548
threshold=73.928571428571445 74.500000000000014 76.094945533310764 86.500000000000014 79.432807573455591 83.500000000000014 75.500000000000014 80.500000000000014
decision_type=2 2 2 2 2 2 2 2
left_child=-1 5 -3 4 6 -2 -4 -6
right_child=1 2 3 -5 7 -7 -8 -9
leaf_value=0.027808039218187332 0.016701712979911229 -0.034821148513054311 0.0039774533361196518 -0.028743553921580317 0.02199674683312575 -0.0042091552508421821 -0.020029517842922361 0.001034887826868466
leaf_weight=25 39 22 23 25 21 26 20 21
leaf_count=25 39 22 23 25 21 26 20 21
internal_value=-0.000328689 -0.00389934 -0.00992499 -0.00494576 0.00205359 0.00833737 -0.00718858 0.0115158
internal_weight=222 197 132 110 85 65 43 42
internal_count=222 197 132 110 85 65 43 42
is_linear=0
shrinkage=0.05


Tree=103
num_leaves=9
num_cat=0
split_feature=18 10 24 9 18 9 9 23
split_gain=8.05158 5.61683 7.54663 4.95428 4.28721 4.10944 3.18061 2.40056
threshold=73.928571428571445 67.500000000000014 -4.4999999999999991 81.606488334673287 79.928571428571445 77.226452678340664 76.431613783604504 77.357142857142875
decision_type=2 2 2 2 2 2 2 2
left_child=-1 -2 4 5 6 -4 -3 -7
right_child=1 2 3 -5 -6 7 -8 -9
leaf_value=0.026417637199163437 -0.028145943661885605 -0.018327701650559903 0.018550564933361279 0.030496199717745188 -0.029132716988141724 0.0039024158753454686 0.0070773258206567593 -0.017567973223555348
leaf_weight=25 21 22 27 20 26 30 28 23
leaf_count=25 21 22 27 20 26 30 28 23
internal_value=-0.000312255 -0.00370437 -0.000788049 0.00823798 -0.0126644 0.00267343 -0.00410089 -0.00541492
internal_weight=222 197 176 100 76 80 50 53
internal_count=222 197 176 100 76 80 50 53
is_linear=0
shrinkage=0.05


Tree=104
num_leaves=8
num_cat=0
split_feature=18 11 9 19 21 5 24
split_gain=7.26655 5.07446 5.57287 5.24686 3.30915 3.05092 2.39018
threshold=73.928571428571445 74.500000000000014 76.094945533310764 81.071428571428584 77.928571428571445 -0.22252093395631442 -4.4999999999999991
decision_type=2 2 2 2 2 2 2
left_child=-1 6 -3 4 5 -4 -2
right_child=1 2 3 -5 -6 -7 -8
leaf_value=0.025096755877137184 -0.0021247104050651673 -0.032122821820137856 -0.019153080508112909 -0.026395913459021939 0.014733871826821746 0.0038561586181030554 0.017071769314283943
leaf_weight=25 31 22 25 22 29 34 34
leaf_count=25 31 22 25 22 29 34 34
internal_value=-0.000296642 -0.00351915 -0.00915036 -0.00455587 0.000904144 -0.00589352 0.00791653
internal_weight=222 197 132 110 88 59 65
internal_count=222 197 132 110 88 59 65
is_linear=0
shrinkage=0.05


Tree=105
num_leaves=7
num_cat=0
split_feature=9 11 23 9 13 12
split_gain=7.63615 5.87754 4.60412 3.48212 6.39797 2.59427
threshold=73.591290569441881 69.500000000000014 74.642857142857153 80.494887296193596 80.500000000000014 80.500000000000014
decision_type=2 2 2 2 2 2
left_child=-1 -2 -3 4 5 -4
right_child=1 2 3 -5 -6 -7
leaf_value=-0.028856328413600016 0.022109559771012179 0.01531354245620177 0.0098172330719535246 0.0095194645039737222 -0.026352324467655775 -0.010830331670826879
leaf_weight=21 33 34 32 30 37 29
leaf_count=21 33 34 32 30 37 29
internal_value=-0.000208737 0.00287639 -0.00104148 -0.00538578 -0.00994861 1.1777e-06
internal_weight=216 195 162 128 98 61
internal_count=216 195 162 128 98 61
is_linear=0
shrinkage=0.05


Tree=106
num_leaves=8
num_cat=0
split_feature=9 11 23 24 9 13 8
split_gain=6.89163 5.30448 4.15521 4.56644 6.10904 7.53789 2.54624
threshold=73.591290569441881 69.500000000000014 74.642857142857153 -3.4999999999999996 79.432807573455591 72.500000000000014 79.500000000000014
decision_type=2 2 2 2 2 2 2
left_child=-1 -2 -3 6 5 -5 -4
right_child=1 2 3 4 -6 -7 -8
leaf_value=-0.027413512165436433 0.021004081568257376 0.014547865743310573 -0.0078446704490274643 0.016304013375192879 0.023063552372157573 -0.023596549959018314 -0.030328078232705592
leaf_weight=21 33 34 34 20 25 29 20
leaf_count=21 33 34 34 20 25 29 20
internal_value=-0.0001983 0.00273257 -0.000989406 -0.00511649 0.00295093 -0.00731061 -0.0161719
internal_weight=216 195 162 128 74 49 54
internal_count=216 195 162 128 74 49 54
is_linear=0
shrinkage=0.05


Tree=107
num_leaves=8
num_cat=0
split_feature=9 12 23 13 9 18 16
split_gain=6.2197 5.26277 5.43658 4.67789 4.64911 2.79051 4.77429
threshold=73.591290569441881 69.500000000000014 81.071428571428584 68.500000000000014 81.523381822714882 79.928571428571445 74.500000000000014
decision_type=2 2 2 2 2 2 2
left_child=-1 -2 3 -3 5 6 -5
right_child=1 2 -4 4 -6 -7 -8
leaf_value=-0.026042836687217158 0.020158414947135109 0.025195972081273794 -0.021701663566960228 -0.014063389765215107 0.020831515621393921 -0.0192826037277916 0.012844640332246748
leaf_weight=21 35 20 27 32 20 27 34
leaf_count=21 35 20 27 32 20 27 34
internal_value=-0.000188385 0.00259594 -0.00124585 0.00290683 -0.00103815 -0.0057413 -0.000201677
internal_weight=216 195 160 133 113 93 66
internal_count=216 195 160 133 113 93 66
is_linear=0
shrinkage=0.05


Tree=108
num_leaves=9
num_cat=0
split_feature=24 9 13 19 18 16 21 20
split_gain=6.08212 5.41017 6.10064 5.65614 6.95105 2.12571 3.59055 1.5965
threshold=13.500000000000002 82.01621300898266 67.500000000000014 75.500000000000014 79.928571428571445 74.500000000000014 77.928571428571445 81.214285714285737
decision_type=2 2 2 2 2 2 2 2
left_child=1 2 -1 -4 5 -5 -7 -6
right_child=-2 -3 3 4 7 6 -8 -9
leaf_value=0.017485865448480069 0.021126566274926581 0.021092221513390543 -0.02709701645637963 -0.0070639911655400126 -0.030216009524606527 0.027617558585479859 -0.0010675491997972132 -0.010477139526046814
leaf_weight=23 29 20 37 22 21 20 24 20
leaf_count=23 29 20 37 22 21 20 24 20
internal_value=-0.000178966 -0.00348303 -0.00642618 -0.0102455 -0.00441829 0.00562609 0.0119711 -0.0205873
internal_weight=216 187 167 144 107 66 44 41
internal_count=216 187 167 144 107 66 44 41
is_linear=0
shrinkage=0.05


Tree=109
num_leaves=8
num_cat=0
split_feature=9 12 23 10 5 16 20
split_gain=5.40044 4.73132 4.95211 4.82862 3.20167 2.31861 1.30845
threshold=73.591290569441881 69.500000000000014 81.071428571428584 85.500000000000014 1.0000000180025095e-35 76.500000000000014 76.642857142857153
decision_type=2 2 2 2 2 2 2
left_child=-1 -2 3 4 5 -3 -6
right_child=1 2 -4 -5 6 -7 -8
leaf_value=-0.024261607292906516 0.019076592783842772 -0.021987236693501472 -0.020741310101692324 0.019329501759035118 -0.0020797959808260204 -0.0015215292032207213 0.015236468552999819
leaf_weight=21 35 25 27 33 20 31 24
leaf_count=21 35 25 27 33 20 31 24
internal_value=-0.000170018 0.00242446 -0.00121819 0.00274515 -0.00272769 -0.010658 0.00736544
internal_weight=216 195 160 133 100 56 44
internal_count=216 195 160 133 100 56 44
is_linear=0
shrinkage=0.05


Tree=110
num_leaves=8
num_cat=0
split_feature=11 12 8 21 10 10 11
split_gain=8.80062 8.93732 5.95287 4.17046 3.68961 4.24013 2.6315
threshold=78.500000000000014 72.500000000000014 76.928571428571445 78.500000000000014 69.500000000000014 85.500000000000014 84.500000000000014
decision_type=2 2 2 2 2 2 2
left_child=1 -1 -3 -4 -2 6 -6
right_child=4 2 3 -5 5 -7 -8
leaf_value=0.030777449952438474 -0.031140874964185064 -0.015953225671712843 -0.0047316359444743118 0.025779116576692712 0.012860540091060102 -0.024789962971893453 -0.0088988416150889618
leaf_weight=32 20 35 21 24 24 24 33
leaf_count=32 20 35 21 24 24 24 33
internal_value=-0.00120627 0.00844509 -0.000487856 0.0115408 -0.0119088 -0.0071601 0.000263003
internal_weight=213 112 80 45 101 81 57
internal_count=213 112 80 45 101 81 57
is_linear=0
shrinkage=0.05


Tree=111
num_leaves=8
num_cat=0
split_feature=11 12 15 21 20 14 22
split_gain=7.94256 8.06593 5.52717 3.55552 4.99169 3.51 2.80334
threshold=78.500000000000014 72.500000000000014 81.500000000000014 80.214285714285737 75.071428571428584 77.500000000000014 77.785714285714292
decision_type=2 2 2 2 2 2 2
left_child=1 -1 5 4 -2 -3 -6
right_child=3 2 -4 -5 6 -7 -8
leaf_value=0.029238577594514939 -0.026362406737778499 -0.022621407416383073 0.015632685312812099 -0.030192748121917246 0.0091393113344613655 0.0048038228414952755 -0.013987484727986159
leaf_weight=32 23 28 32 20 38 20 20
leaf_count=32 23 28 32 20 38 20 20
internal_value=-0.00114596 0.00802283 -0.000463463 -0.0113133 -0.00665174 -0.0111942 0.00116455
internal_weight=213 112 80 101 81 48 58
internal_count=213 112 80 101 81 48 58
is_linear=0
shrinkage=0.05


Tree=112
num_leaves=8
num_cat=0
split_feature=11 12 8 23 10 10 11
split_gain=7.16816 7.2795 5.02571 3.6866 3.21712 3.78605 2.35066
threshold=78.500000000000014 72.500000000000014 76.928571428571445 77.071428571428584 69.500000000000014 85.500000000000014 84.500000000000014
decision_type=2 2 2 2 2 2 2
left_child=1 -1 -3 -4 -2 6 -6
right_child=4 2 3 -5 5 -7 -8
leaf_value=0.027776648342842238 -0.028706174133112657 -0.01465034764792238 -0.0046873560352694429 0.023998894072913876 0.012607264736046396 -0.022972588054350734 -0.0079582611776211048
leaf_weight=32 20 35 21 24 24 24 33
leaf_count=32 20 35 21 24 24 24 33
internal_value=-0.00108866 0.00762169 -0.00044029 0.010612 -0.0107477 -0.00631346 0.000700908
internal_weight=213 112 80 45 101 81 57
internal_count=213 112 80 45 101 81 57
is_linear=0
shrinkage=0.05


Tree=113
num_leaves=8
num_cat=0
split_feature=11 12 15 10 21 20 2
split_gain=6.46926 6.56975 4.74206 3.32454 3.2228 4.36865 2.41317
threshold=78.500000000000014 72.500000000000014 81.500000000000014 79.500000000000014 80.214285714285737 75.071428571428584 9.5000000000000018
decision_type=2 2 2 2 2 2 2
left_child=1 -1 3 -3 5 -2 -7
right_child=4 2 -4 -5 -6 6 -8
leaf_value=0.026387816099304476 -0.024211756431538126 -0.024076699137525717 0.014490920957177878 0.0022637041825801134 -0.028184643713757396 -0.011506290310485797 0.0095128746056515317
leaf_weight=32 23 23 32 25 20 22 36
leaf_count=32 23 23 32 25 20 22 36
internal_value=-0.00103423 0.00724061 -0.000418275 -0.0103577 -0.0102103 -0.00577216 0.00154009
internal_weight=213 112 80 48 101 81 58
internal_count=213 112 80 48 101 81 58
is_linear=0
shrinkage=0.05


Tree=114
num_leaves=8
num_cat=0
split_feature=11 12 15 22 20 16 2
split_gain=5.83851 5.9292 4.27971 3.0683 4.15862 3.04318 2.01874
threshold=78.500000000000014 72.500000000000014 81.500000000000014 79.785714285714292 75.071428571428584 75.500000000000014 9.5000000000000018
decision_type=2 2 2 2 2 2 2
left_child=1 -1 5 4 -2 -3 -6
right_child=3 2 -4 -5 6 -7 -8
leaf_value=0.025068425386052695 -0.023001168263347253 -0.023526223257861356 0.013766374363331125 -0.026214076985012404 -0.010485490465362091 0.0017409236295721853 0.0093269475399413056
leaf_weight=32 23 22 32 22 20 26 36
leaf_count=32 23 22 32 22 20 26 36
internal_value=-0.000982514 0.00687858 -0.000397361 -0.00969976 -0.00510084 -0.00983985 0.00225108
internal_weight=213 112 80 101 79 48 56
internal_count=213 112 80 101 79 48 56
is_linear=0
shrinkage=0.05


Tree=115
num_leaves=10
num_cat=0
split_feature=24 11 5 1 19 9 9 17 16
split_gain=6.76571 4.08724 3.98302 6.51 5.60832 3.09497 2.66908 2.55337 0.74109
threshold=9.5000000000000018 87.500000000000014 1.0000000180025095e-35 9.5000000000000018 79.785714285714292 78.654873140756024 76.496194970973264 76.214285714285737 76.500000000000014
decision_type=2 2 2 2 2 2 2 2 2
left_child=1 2 3 5 6 8 -4 -2 -1
right_child=7 -3 4 -5 -6 -7 -8 -9 -10
leaf_value=-0.014251265367493033 0.031383829116821291 -0.023070716035241884 0.0068214704080120387 -0.030702389503383765 -0.012816998971227025 0.016644026825670153 0.031476393852028106 0.006699273803017357 -0.00063977958634495744
leaf_weight=20 20 24 23 23 21 20 21 22 20
leaf_count=20 20 24 23 23 21 20 21 22 20
internal_value=0.00046266 -0.00393053 -0.000826718 -0.00808549 0.00844217 0.000584327 0.0185886 0.0184538 -0.00744552
internal_weight=214 172 148 83 65 60 44 42 40
internal_count=214 172 148 83 65 60 44 42 40
is_linear=0
shrinkage=0.05


Tree=116
num_leaves=9
num_cat=0
split_feature=24 10 24 14 21 10 7 8
split_gain=6.16773 5.53114 4.2726 3.85273 4.18063 4.45803 2.3523 1.08861
threshold=15.500000000000002 68.500000000000014 -15.499999999999998 73.500000000000014 81.357142857142875 84.500000000000014 -0.68301270189221952 75.642857142857153
decision_type=2 2 2 2 2 2 2 2
left_child=1 -1 -3 7 5 6 -5 -4
right_child=-2 2 3 4 -6 -7 -8 -9
leaf_value=-0.027255157157778744 0.026172777992628873 -0.021215675189159813 0.00028442379087209704 0.017013250402142778 -0.011948978980944958 0.032271073098577886 -0.0023709434413296338 -0.015106245814995083
leaf_weight=20 21 20 20 29 20 23 34 27
leaf_count=20 21 20 20 29 20 23 34 27
internal_value=0.000439527 -0.00236046 0.000517535 0.00335848 0.00864177 0.0134303 0.00655194 -0.00855702
internal_weight=214 193 173 153 106 86 63 47
internal_count=214 193 173 153 106 86 63 47
is_linear=0
shrinkage=0.05


Tree=117
num_leaves=8
num_cat=0
split_feature=24 3 12 10 23 23 12
split_gain=5.87358 4.33321 3.66705 5.27157 3.15468 4.09181 2.58792
threshold=8.5000000000000018 1.0000000180025095e-35 80.500000000000014 77.500000000000014 76.214285714285737 79.214285714285737 80.500000000000014
decision_type=2 2 2 2 2 2 2
left_child=1 -1 4 -4 -3 -6 -2
right_child=6 2 3 -5 5 -7 -8
leaf_value=0.016983105512779383 0.025845474087529713 0.012614270020878457 -0.037844761572778225 -0.0059835980268749039 -0.023309346878280245 0.0040018672174483077 0.003280081475774447
leaf_weight=21 27 29 20 37 24 32 24
leaf_count=21 27 29 20 37 24 32 24
internal_value=0.000417551 -0.00421591 -0.00735098 -0.017163 -0.000771185 -0.00770294 0.0152265
internal_weight=214 163 142 57 85 56 51
internal_count=214 163 142 57 85 56 51
is_linear=0
shrinkage=0.05


Tree=118
num_leaves=8
num_cat=0
split_feature=24 11 5 1 20 8 17
split_gain=5.30091 4.15145 4.36439 6.1647 3.74622 3.35559 2.42272
threshold=8.5000000000000018 87.500000000000014 1.0000000180025095e-35 9.5000000000000018 79.071428571428584 76.928571428571445 76.214285714285737
decision_type=2 2 2 2 2 2 2
