tree
version=v4
num_class=1
num_tree_per_iteration=1
label_index=0
max_feature_idx=7
objective=regression
feature_names=systolic_lag1 systolic_lag2 systolic_lag3 systolic_lag4 systolic_lag5 systolic_lag6 systolic_lag7 systolic_diff
feature_infos=[120:162] [120:162] [120:162] [120:162] [120:162] [120:162] [120:162] [-42:40]
tree_sizes=765 871 715 874 871 795 795 796 788 873 868 873 874 865 795 797 791 798 796 884 788 796 867 794 718 798 796 797 793 803 880 803 886 888 882 799 879 798 802 876 969 887 803 887 888 802 725 803 798 722 810 814 796 802 880 964 884 809 887 883 805 723 722 806 881 886 883 887 886 883 890 807 812 808 807 885 809 888 809 888 807 812 805 810 888 889 814 813 726 730 885 810 887 809 887 812 894 977 814 815 890 817 818 813 894 974 889 895 900 889 888 812 884 732 895 896 900 896 897 815 898 896 887 898 985 809 897 896 900 892 812 890 897 891 891 894 814 735 816 734 812 814 813 816 894 900 814 811 901 902 813 732 893 812 814 900 894 980 981 816 978 896 984 901 974 895 813 894 894 897

Tree=0
num_leaves=8
num_cat=0
split_feature=7 0 7 7 0 0 0
split_gain=9538.88 5810.27 5128.81 1944.02 2458.32 807.959 384.4
threshold=10.500000000000002 153.50000000000003 -13.499999999999998 -6.4999999999999991 131.50000000000003 132.50000000000003 146.50000000000003
decision_type=2 2 2 2 2 2 2
left_child=1 3 -3 6 -5 -2 -1
right_child=5 2 -4 4 -6 -7 -8
leaf_value=141.72874999999999 142.96232142857144 142.22291666666666 143.17757352941177 141.90965909090909 142.57067307692307 143.33028846153846 142.03874999999999
leaf_weight=20 35 24 34 22 39 26 20
leaf_count=20 35 24 34 22 39 26 20
internal_value=142.588 142.384 142.783 142.155 142.332 143.119 141.884
internal_weight=220 159 58 101 61 61 40
internal_count=220 159 58 101 61 61 40
is_linear=0
shrinkage=1


Tree=1
num_leaves=9
num_cat=0
split_feature=7 7 6 7 1 2 7 1
split_gain=8608.84 3232.69 1388.95 1030.44 491.152 564.22 459.173 95.7782
threshold=10.500000000000002 -11.499999999999998 154.50000000000003 -23.499999999999996 153.50000000000003 141.50000000000003 22.500000000000004 148.50000000000003
decision_type=2 2 2 2 2 2 2 2
left_child=1 3 4 -1 5 -3 7 -2
right_child=6 2 -4 -5 -6 -7 -8 -9
leaf_value=-0.819991672039032 0.29268474893644453 -0.18998162288356713 -0.35344704816053651 -0.37453699764367698 0.22995301869053109 0.16040397919714453 0.65877939632960736 0.44742499821819365
leaf_weight=20 20 27 29 37 26 20 21 20
leaf_count=20 20 27 29 37 26 20 21 20
internal_value=-0.035517 -0.229247 -0.0607119 -0.530837 0.0555802 -0.0408814 0.469452 0.370055
internal_weight=220 159 102 57 73 47 61 40
internal_count=220 159 102 57 73 47 61 40
is_linear=0
shrinkage=0.05


Tree=2
num_leaves=7
num_cat=0
split_feature=7 0 7 7 0 0
split_gain=7769.48 5235.51 4657.12 1471.15 2032.23 750.11
threshold=10.500000000000002 152.50000000000003 -13.499999999999998 -6.4999999999999991 131.50000000000003 132.50000000000003
decision_type=2 2 2 2 2 2
left_child=1 3 -3 -1 -5 -2
right_child=5 2 -4 4 -6 -7
leaf_value=-0.68979883939027786 0.29485985726118086 -0.36882602916314056 0.50935997532473676 -0.67145377722653476 -0.064620004835966471 0.64940920380445633
leaf_weight=38 35 26 36 22 37 26
leaf_count=38 35 26 36 22 37 26
internal_value=-0.0337412 -0.217785 0.141088 -0.447168 -0.290897 0.445979
internal_weight=220 159 62 97 59 61
internal_count=220 159 62 97 59 61
is_linear=0
shrinkage=0.05


Tree=3
num_leaves=9
num_cat=0
split_feature=7 7 6 7 7 1 2 1
split_gain=7011.95 2732.41 968.361 1074.32 437.876 408.708 455.638 83.3409
threshold=10.500000000000002 -23.499999999999996 154.50000000000003 -11.499999999999998 22.500000000000004 153.50000000000003 141.50000000000003 148.50000000000003
decision_type=2 2 2 2 2 2 2 2
left_child=1 -1 3 -3 7 6 -5 -2
right_child=4 2 -4 5 -6 -7 -8 -9
leaf_value=-0.75332889199256903 0.25444378107786181 -0.29831657409667972 -0.3557630160876683 -0.16897195621773051 0.60856495584760406 0.21207537639599583 0.1458986607193947 0.39878790140151982
leaf_weight=20 20 31 35 27 21 26 20 20
leaf_count=20 20 31 35 27 21 26 20 20
internal_value=-0.0320541 -0.206896 -0.128272 -0.0517127 0.42368 0.0530095 -0.0349845 0.326616
internal_weight=220 159 139 104 61 73 47 40
internal_count=220 159 139 104 61 73 47 40
is_linear=0
shrinkage=0.05


Tree=4
num_leaves=9
num_cat=0
split_feature=7 0 7 7 0 0 7 0
split_gain=6328.29 4721.28 3700.52 1364.3 1941.47 715.217 1244.22 371.668
threshold=10.500000000000002 153.50000000000003 -11.499999999999998 -6.4999999999999991 131.50000000000003 136.50000000000003 22.500000000000004 146.50000000000003
decision_type=2 2 2 2 2 2 2 2
left_child=1 3 -3 7 -5 6 -2 -1
right_child=5 2 -4 4 -6 -7 -8 -9
leaf_value=-0.78236484766006475 0.014117857671919323 -0.2504089287349156 0.54882880270481116 -0.62978173602711074 -0.042350480328194606 0.64762875437736511 0.56516114473342893 -0.47754186466336251
leaf_weight=20 21 28 30 22 39 20 20 20
leaf_count=20 21 28 30 22 39 20 20 20
internal_value=-0.0304514 -0.196551 0.16299 -0.40302 -0.254211 0.402496 0.282919 -0.629953
internal_weight=220 159 58 101 61 61 41 40
internal_count=220 159 58 101 61 61 41 40
is_linear=0
shrinkage=0.05


Tree=5
num_leaves=8
num_cat=0
split_feature=7 0 7 0 0 7 7
split_gain=5859.58 3441.53 5155.46 1429.21 976.575 553.361 377.271
threshold=-7.4999999999999991 144.50000000000003 13.500000000000002 153.50000000000003 131.50000000000003 -1.0000000180025095e-35 22.500000000000004
decision_type=2 2 2 2 2 2 2
left_child=3 2 4 -1 -2 -3 -4
right_child=1 5 6 -5 -6 -7 -8
leaf_value=-0.56712886459297607 -0.53786878188991027 0.37619506484744225 0.279751654104753 -0.12159322152535122 -0.10786249012716356 0.72002353858947754 0.56640622516473138
leaf_weight=36 23 22 22 36 31 25 24
leaf_count=36 23 22 22 36 31 25 24
internal_value=0.0251893 0.206194 0.0403357 -0.344361 -0.291013 0.559083 0.429311
internal_weight=219 147 100 72 54 47 46
internal_count=219 147 100 72 54 47 46
is_linear=0
shrinkage=0.05


Tree=6
num_leaves=8
num_cat=0
split_feature=7 0 7 0 0 7 7
split_gain=5288.27 3105.98 4652.8 1289.87 881.358 499.408 340.487
threshold=-7.4999999999999991 144.50000000000003 13.500000000000002 153.50000000000003 131.50000000000003 -1.0000000180025095e-35 22.500000000000004
decision_type=2 2 2 2 2 2 2
left_child=3 2 4 -1 -2 -3 -4
right_child=1 5 6 -5 -6 -7 -8
leaf_value=-0.53877240955933103 -0.51097534169321479 0.35738531581380151 0.26576407199556179 -0.11551355976197455 -0.1024693649622702 0.68402236652374271 0.53808591266473138
leaf_weight=36 23 22 22 36 31 25 24
leaf_count=36 23 22 22 36 31 25 24
internal_value=0.0239298 0.195884 0.0383189 -0.327143 -0.276463 0.531128 0.407845
internal_weight=219 147 100 72 54 47 46
internal_count=219 147 100 72 54 47 46
is_linear=0
shrinkage=0.05


Tree=7
num_leaves=8
num_cat=0
split_feature=0 5 5 5 3 1 4
split_gain=849.767 547.782 512.809 396.966 243.662 427.217 315.275
threshold=154.50000000000003 142.50000000000003 154.50000000000003 126.50000000000001 141.50000000000003 146.50000000000003 141.50000000000003
decision_type=2 2 2 2 2 2 2
left_child=2 -2 3 -1 6 -6 -5
right_child=1 -3 -4 4 5 -7 -8
leaf_value=-0.18240958381266822 0.38963006707755005 0.058766788347014071 -0.19040784583641934 0.014658069958289464 -0.15537889770099098 0.13544923468776371 0.25016818874412111
leaf_weight=21 22 29 39 30 28 23 27
leaf_count=21 22 29 39 30 28 23 27
internal_value=0.0227333 0.201492 -0.0315327 0.0164993 0.055176 -0.0242211 0.126215
internal_weight=219 51 168 129 108 51 57
internal_count=219 51 168 129 108 51 57
is_linear=0
shrinkage=0.05


Tree=8
num_leaves=8
num_cat=0
split_feature=7 0 7 7 7 0 7
split_gain=4807.84 3008.96 5106.34 825.11 642.703 636.199 404.565
threshold=-11.499999999999998 142.50000000000003 13.500000000000002 -1.4999999999999998 -21.499999999999996 130.50000000000003 22.500000000000004
decision_type=2 2 2 2 2 2 2
left_child=4 2 5 -3 -1 -2 -4
right_child=1 3 6 -5 -6 -7 -8
leaf_value=-0.56671488189697272 -0.5831884780526162 0.23346101099794564 0.20573687836527826 0.581950182744435 -0.22597850791869628 -0.22148249735755307 0.51022470345099769
leaf_weight=25 20 33 20 35 31 31 24
leaf_count=25 20 33 20 35 31 31 24
internal_value=0.0215967 0.158913 -0.0228379 0.41283 -0.378093 -0.363328 0.371821
internal_weight=219 163 95 68 56 51 44
internal_count=219 163 95 68 56 51 44
is_linear=0
shrinkage=0.05


Tree=9
num_leaves=9
num_cat=0
split_feature=0 5 5 5 3 0 0 5
split_gain=764.055 450.98 411.703 328.005 282.272 191.516 353.189 159.946
threshold=154.50000000000003 142.50000000000003 154.50000000000003 132.50000000000003 142.50000000000003 147.50000000000003 139.50000000000003 143.50000000000003
decision_type=2 2 2 2 2 2 2 2
left_child=2 -2 3 4 -1 6 7 -5
right_child=1 -3 -4 5 -6 -7 -8 -9
leaf_value=0.018803424420564072 0.36072763177481565 0.060519008595367962 -0.17329388245558131 -0.065883070230484009 -0.23803444236516952 -0.055014937209046412 0.28714701712131502 0.1270338394425132
leaf_weight=23 22 29 39 21 20 23 20 22
leaf_count=23 22 29 39 21 20 23 20 22
internal_value=0.0205168 0.190021 -0.0309397 0.0120976 -0.100656 0.0684744 0.113558 0.0328186
internal_weight=219 51 168 129 43 86 63 43
internal_count=219 51 168 129 43 86 63 43
is_linear=0
shrinkage=0.05


Tree=10
num_leaves=9
num_cat=0
split_feature=7 0 7 0 7 0 7 7
split_gain=5847.35 2781.78 3560.28 966.408 1700.17 540.233 500 240.964
threshold=-5.4999999999999991 142.50000000000003 12.500000000000002 147.50000000000003 -21.499999999999996 131.50000000000003 22.500000000000004 1.5000000000000002
decision_type=2 2 2 2 2 2 2 2
left_child=3 2 5 -1 -5 -2 -4 -3
right_child=1 7 6 4 -6 -7 -8 -9
leaf_value=-0.58951317117764401 -0.46146351607008418 0.37683784237929752 0.19240504944766013 -0.5355225731929143 0.025022865495374125 -0.11489311385413875 0.51770507267543253 0.60266459959524654
leaf_weight=26 22 21 27 24 31 23 21 27
leaf_count=26 22 21 27 24 31 23 21 27
internal_value=0.000240394 0.194734 0.0351828 -0.338323 -0.219579 -0.284328 0.334724 0.503865
internal_weight=222 141 93 81 55 45 48 48
internal_count=222 141 93 81 55 45 48 48
is_linear=0
shrinkage=0.05


Tree=11
num_leaves=9
num_cat=0
split_feature=7 7 7 5 5 6 7 1
split_gain=5277.24 1155.84 786.477 297.383 264.38 249.962 228.719 213.911
threshold=-5.4999999999999991 12.500000000000002 -23.499999999999996 153.50000000000003 147.50000000000003 144.50000000000003 22.500000000000004 140.50000000000003
decision_type=2 2 2 2 2 2 2 2
left_child=2 3 -1 5 -4 7 -3 -2
right_child=1 6 4 -5 -6 -7 -8 -9
leaf_value=-0.59350189208984383 0.083962202295660981 0.28309640544865816 -0.33128857044503096 -0.08946149681102146 -0.12285153506131008 -0.007274648288021917 0.49181981994992213 0.31521504238247872
leaf_weight=20 20 35 32 22 29 23 21 20
leaf_count=20 20 35 32 22 29 23 21 20
internal_value=0.000228373 0.184998 -0.321407 0.0688009 -0.232196 0.124067 0.361368 0.199589
internal_weight=222 141 81 85 61 63 56 40
internal_count=222 141 81 85 61 63 56 40
is_linear=0
shrinkage=0.05


Tree=12
num_leaves=9
num_cat=0
split_feature=7 7 7 5 5 6 7 1
split_gain=4762.71 1043.15 709.795 268.388 238.603 225.591 206.419 193.055
threshold=-5.4999999999999991 12.500000000000002 -23.499999999999996 153.50000000000003 147.50000000000003 144.50000000000003 22.500000000000004 140.50000000000003
decision_type=2 2 2 2 2 2 2 2
left_child=2 3 -1 5 -4 7 -3 -2
right_child=1 6 4 -5 -6 -7 -8 -9
leaf_value=-0.56382679462432861 0.079764093980193143 0.26894158729485101 -0.31472414215095346 -0.0849884216758338 -0.11670896112918855 -0.0069109139882999925 0.46722883213134048 0.29945428997278212
leaf_weight=20 20 35 32 22 29 23 21 20
leaf_count=20 20 35 32 22 29 23 21 20
internal_value=0.000216955 0.175748 -0.305337 0.0653608 -0.220586 0.117864 0.343299 0.189609
internal_weight=222 141 81 85 61 63 56 40
internal_count=222 141 81 85 61 63 56 40
is_linear=0
shrinkage=0.05


Tree=13
num_leaves=9
num_cat=0
split_feature=7 0 7 0 7 0 7 7
split_gain=4298.34 2573.09 2849.38 892.35 1410.8 474.052 393.776 209.903
threshold=-5.4999999999999991 142.50000000000003 12.500000000000002 147.50000000000003 -16.499999999999996 131.50000000000003 22.500000000000004 1.5000000000000002
decision_type=2 2 2 2 2 2 2 2
left_child=3 2 5 -1 -5 -2 -4 -3
right_child=1 7 6 4 -6 -7 -8 -9
leaf_value=-0.53144340973633986 -0.43825821443037549 0.34571177533694675 0.1551828973547176 -0.39065531991072933 0.1227323512668195 -0.11360928273719291 0.44386738992872693 0.55648164660842336
leaf_weight=26 22 21 27 32 23 23 21 27
leaf_count=26 22 21 27 32 23 23 21 27
internal_value=0.000206109 0.16696 0.0135103 -0.29007 -0.175966 -0.272327 0.281482 0.46427
internal_weight=222 141 93 81 55 45 48 48
internal_count=222 141 93 81 55 45 48 48
is_linear=0
shrinkage=0.05


Tree=14
num_leaves=8
num_cat=0
split_feature=7 7 7 7 1 6 3
split_gain=3923.64 996.735 395.979 358.914 326.14 246.724 68.255
threshold=1.5000000000000002 -11.499999999999998 22.500000000000004 -23.499999999999996 132.50000000000003 146.50000000000003 144.50000000000003
decision_type=2 2 2 2 2 2 2
left_child=1 3 4 -1 -2 -3 -6
right_child=2 5 -4 -5 6 -7 -8
leaf_value=-0.51575072526931764 0.013728342205286027 0.021087384567810938 0.42167402108510332 -0.25285303024826827 0.19318120806642317 -0.18266731252272925 0.3020125274658203
leaf_weight=20 22 39 21 37 34 24 25
leaf_count=20 22 39 21 37 34 24 25
internal_value=0.000195802 -0.193602 0.228193 -0.345098 0.178031 -0.0565335 0.239296
internal_weight=222 120 102 57 81 63 59
internal_count=222 120 102 57 81 63 59
is_linear=0
shrinkage=0.05


Tree=15
num_leaves=8
num_cat=0
split_feature=7 0 7 0 7 0 7
split_gain=3033.52 2563.49 1819.94 1317.67 972.889 886.315 611.974
threshold=3.5000000000000004 152.50000000000003 -16.499999999999996 137.50000000000003 22.500000000000004 135.50000000000003 -9.4999999999999982
decision_type=2 2 2 2 2 2 2
left_child=1 5 -3 4 -2 -1 -7
right_child=3 2 -4 -5 -6 6 -8
leaf_value=-0.59663755997367529 -0.093552449465759344 -0.26782677443254566 0.31495047512690766 0.49629228182377355 0.34721841443152657 -0.39809619572300181 -0.058231621097635348
leaf_weight=23 31 21 37 31 21 26 27
leaf_count=23 31 21 37 31 21 26 27
internal_value=0.000736904 -0.146393 0.103945 0.238271 0.0844512 -0.33744 -0.224958
internal_weight=217 134 58 83 52 76 53
internal_count=217 134 58 83 52 76 53
is_linear=0
shrinkage=0.05


Tree=16
num_leaves=8
num_cat=0
split_feature=7 0 7 0 7 0 7
split_gain=2737.75 2313.55 1666 1189.2 879.031 799.9 552.307
threshold=3.5000000000000004 152.50000000000003 -13.499999999999998 137.50000000000003 20.500000000000004 135.50000000000003 -9.4999999999999982
decision_type=2 2 2 2 2 2 2
left_child=1 5 -3 4 -2 -1 -7
right_child=3 2 -4 -5 -6 6 -8
leaf_value=-0.56680568301159406 -0.09581540506953995 -0.18839139143625896 0.34883653646515267 0.47147766966973581 0.32028863335197627 -0.37819138552563697 -0.055320038398106897
leaf_weight=23 30 27 31 31 22 26 27
leaf_count=23 30 27 31 31 22 26 27
internal_value=0.000700059 -0.139073 0.0987477 0.226358 0.0802286 -0.320568 -0.21371
internal_weight=217 134 58 83 52 76 53
internal_count=217 134 58 83 52 76 53
is_linear=0
shrinkage=0.05


Tree=17
num_leaves=8
num_cat=0
split_feature=7 0 7 0 0 7 7
split_gain=2470.82 2087.98 1511.68 1084.28 721.909 721.595 498.457
threshold=3.5000000000000004 152.50000000000003 -16.499999999999996 140.50000000000003 135.50000000000003 20.500000000000004 -9.4999999999999982
decision_type=2 2 2 2 2 2 2
left_child=1 4 -3 5 -1 -2 -6
right_child=3 2 -4 -5 6 -7 -8
leaf_value=-0.53846540036408796 -0.046573226765862535 -0.24501586989277888 0.28611702711598291 0.49030118370056153 -0.35928181444223112 0.31394974343154747 -0.052554036400936269
leaf_weight=23 35 21 37 25 26 23 27
leaf_count=23 35 21 37 25 26 23 27
internal_value=0.000665056 -0.132119 0.0938103 0.21504 -0.304539 0.0963928 -0.203024
internal_weight=217 134 58 83 76 58 53
internal_count=217 134 58 83 76 58 53
is_linear=0
shrinkage=0.05


Tree=18
num_leaves=8
num_cat=0
split_feature=7 0 0 7 0 7 0
split_gain=2229.91 1911.8 1121.93 1122.33 990.573 727.508 486.894
threshold=3.5000000000000004 159.50000000000003 137.50000000000003 -16.499999999999996 137.50000000000003 22.500000000000004 147.50000000000003
decision_type=2 2 2 2 2 2 2
left_child=1 2 -1 -4 5 -2 -5
right_child=4 -3 3 6 -6 -7 -8
leaf_value=-0.4931904769860781 -0.083008020984069009 0.32538268968462947 -0.36763858964045842 -0.1516537278604049 0.42800279569721988 0.29814557466833363 0.13964560008607804
leaf_weight=26 31 20 30 26 31 21 32
leaf_count=26 31 20 30 26 31 21 32
internal_value=0.000631802 -0.125513 -0.204618 -0.119358 0.204288 0.0709194 0.00906314
internal_weight=217 134 114 88 83 52 58
internal_count=217 134 114 88 83 52 58
is_linear=0
shrinkage=0.05


Tree=19
num_leaves=9
num_cat=0
split_feature=0 0 2 4 1 2 4 0
split_gain=838.748 462.183 151.296 196.536 144.328 133.865 219.167 88.4381
threshold=159.50000000000003 125.50000000000001 149.50000000000003 130.50000000000003 146.50000000000003 154.50000000000003 141.50000000000003 144.50000000000003
decision_type=2 2 2 2 2 2 2 2
left_child=1 -1 3 -3 7 -4 -7 -5
right_child=-2 2 5 4 -6 6 -8 -9
leaf_value=-0.22289140577669497 0.30911355666816237 -0.14752800426092641 0.16434672283274787 -0.10760527826272524 0.10395506384968758 0.12395331916354953 -0.10448168264258476 0.0215937156368185
leaf_weight=27 20 29 21 26 25 21 21 27
leaf_count=27 20 29 21 26 25 21 21 27
internal_value=0.000600213 -0.0307209 -0.000199746 -0.0363939 0.00492525 0.0612728 0.00973582 -0.0417869
internal_weight=217 197 170 107 78 63 42 53
internal_count=217 197 170 107 78 63 42 53
is_linear=0
shrinkage=0.05


Tree=20
num_leaves=8
num_cat=0
split_feature=7 0 7 0 7 7 0
split_gain=1967.58 1195.05 1497.2 1148.34 747.724 346.837 268.737
threshold=-3.4999999999999996 138.50000000000003 9.5000000000000018 149.50000000000003 -16.499999999999996 24.500000000000004 150.50000000000003
decision_type=2 2 2 2 2 2 2
left_child=3 2 -2 -1 -5 -4 -3
right_child=1 6 5 4 -6 -7 -8
leaf_value=-0.38058367288774919 -0.29358499532995314 0.22567741608980932 0.056836873925446223 -0.23744733312300276 0.15430997607523 0.33876510739326476 0.44831910340682324
leaf_weight=36 26 33 24 21 29 20 23
leaf_count=36 26 33 24 21 29 20 23
internal_value=0.0191154 0.144959 0.0072311 -0.165261 -0.0102281 0.184986 0.31712
internal_weight=212 126 70 86 50 44 56
internal_count=212 126 70 86 50 44 56
is_linear=0
shrinkage=0.05


Tree=21
num_leaves=8
num_cat=0
split_feature=7 0 7 0 7 0 7
split_gain=1775.74 1110.48 1200.45 1040.89 734.808 357.992 516.546
threshold=-3.4999999999999996 132.50000000000003 18.500000000000004 148.50000000000003 -18.499999999999996 150.50000000000003 6.5000000000000009
decision_type=2 2 2 2 2 2 2
left_child=3 2 -2 -1 -5 6 -3
right_child=1 5 -4 4 -6 -7 -8
leaf_value=-0.37744440920650962 -0.23709047952546711 -0.0098214014619588865 0.25252210068560782 -0.25888311610557141 0.12519793390776174 0.42590314512667454 0.31610078042553319
leaf_weight=33 31 20 21 20 33 23 31
leaf_count=33 31 20 21 20 33 23 31
internal_value=0.0181596 0.137711 -0.0393623 -0.156998 -0.0197383 0.262141 0.188288
internal_weight=212 126 52 86 53 74 51
internal_count=212 126 52 86 53 74 51
is_linear=0
shrinkage=0.05


Tree=22
num_leaves=9
num_cat=0
split_feature=7 0 7 0 7 0 0 0
split_gain=1606.31 1625.37 1161.71 657.896 685.364 380.67 236.98 135.807
threshold=1.5000000000000002 147.50000000000003 -18.499999999999996 132.50000000000003 18.500000000000004 156.50000000000003 138.50000000000003 140.50000000000003
decision_type=2 2 2 2 2 2 2 2
left_child=1 6 -3 4 -2 -4 -1 -5
right_child=3 2 5 7 -6 -7 -8 -9
leaf_value=-0.45471465276635215 -0.15123441099034002 -0.26221508194099774 0.041237613841748011 0.20185266110030087 0.23989599205198742 0.31738245536883675 -0.22517565773292023 0.36785956663744795
leaf_weight=23 24 22 26 22 21 24 22 28
leaf_count=23 24 22 26 22 21 24 22 28
internal_value=0.0172516 -0.106766 0.0405642 0.16999 0.0312931 0.173787 -0.342496 0.294817
internal_weight=212 117 72 95 45 50 45 50
internal_count=212 117 72 95 45 50 45 50
is_linear=0
shrinkage=0.05


Tree=23
num_leaves=8
num_cat=0
split_feature=7 0 0 7 0 7 7
split_gain=1482.81 987.461 861.444 541.709 466.454 604.488 127.784
threshold=-3.4999999999999996 126.50000000000001 149.50000000000003 -16.499999999999996 145.50000000000003 5.5000000000000009 15.500000000000002
decision_type=2 2 2 2 2 2 2
left_child=2 -2 -1 -4 5 -3 -7
right_child=1 4 3 -5 -6 6 -8
leaf_value=-0.33016567087421816 -0.14887402367133359 -0.099116993695497521 -0.20279402860573362 0.13065491037379051 0.35811688361629362 0.14426451304554941 0.30756803193817972
leaf_weight=36 26 21 21 29 31 25 23
leaf_count=36 26 21 21 29 31 25 23
internal_value=0.016389 0.125636 -0.14367 -0.00939364 0.197008 0.124626 0.222514
internal_weight=212 126 86 50 100 69 48
internal_count=212 126 86 50 100 69 48
is_linear=0
shrinkage=0.05


Tree=24
num_leaves=7
num_cat=0
split_feature=0 5 5 1 6 4
split_gain=567.454 347.106 237.395 124.11 164.533 106.215
threshold=153.50000000000003 152.50000000000003 139.50000000000003 137.50000000000003 135.50000000000003 145.50000000000003
decision_type=2 2 2 2 2 2
left_child=1 3 -2 -1 -5 -6
right_child=2 -3 -4 4 5 -7
leaf_value=0.082018259733628779 0.28406555088503022 -0.1630792536892188 0.072530673858192229 -0.12414645568600723 -0.035961437491433962 0.11279373367627461
leaf_weight=39 21 39 36 28 28 21
leaf_count=39 21 39 36 28 28 21
internal_value=0.0155696 -0.034037 0.150465 0.00934793 -0.0274591 0.0277908
internal_weight=212 155 57 116 77 49
internal_count=212 155 57 116 77 49
is_linear=0
shrinkage=0.05


Tree=25
num_leaves=8
num_cat=0
split_feature=7 0 7 0 7 7 7
split_gain=1630.98 1049.81 1190.94 417.872 542.163 183.023 158.505
threshold=-7.4999999999999991 138.50000000000003 9.5000000000000018 147.50000000000003 -21.499999999999996 1.0000000180025095e-35 22.500000000000004
decision_type=2 2 2 2 2 2 2
left_child=3 2 -2 -1 -5 -3 -4
right_child=1 5 6 4 -6 -7 -8
leaf_value=-0.37599065333604814 -0.27207453744164828 0.15831155082391157 0.048753407800739466 -0.29952034435488961 0.022917018225416544 0.3220213309714669 0.24079939268884207
leaf_weight=20 29 31 22 22 32 38 21
leaf_count=20 29 31 22 22 32 38 21
internal_value=0.00933839 0.109104 -0.0244555 -0.180756 -0.108446 0.248471 0.142543
internal_weight=215 141 72 74 54 69 43
internal_count=215 141 72 74 54 69 43
is_linear=0
shrinkage=0.05


Tree=26
num_leaves=8
num_cat=0
split_feature=7 0 7 0 7 0 0
split_gain=1477.77 1112.25 970.991 610.753 448.872 181.96 139.372
threshold=1.0000000180025095e-35 146.50000000000003 -15.499999999999998 132.50000000000003 20.500000000000004 156.50000000000003 144.50000000000003
decision_type=2 2 2 2 2 2 2
left_child=1 -1 -3 4 -2 -4 -5
right_child=3 2 5 6 -6 -7 -8
leaf_value=-0.33271036660788877 -0.1368452250957489 -0.19675920241408879 0.060563675966113811 0.20208409451879561 0.18288522036302657 0.26476721286773686 0.36785608388128738
leaf_weight=38 23 36 24 32 21 20 21
leaf_count=38 23 36 24 32 21 20 21
internal_value=0.00887147 -0.109978 -0.00418074 0.153452 0.0157534 0.153383 0.267767
internal_weight=215 118 80 97 44 44 53
internal_count=215 118 80 97 44 44 53
is_linear=0
shrinkage=0.05


Tree=27
num_leaves=8
num_cat=0
split_feature=7 0 7 0 7 7 0
split_gain=1350.37 876.27 998.749 364.363 141.634 131.109 89.2994
threshold=-7.4999999999999991 138.50000000000003 9.5000000000000018 154.50000000000003 1.0000000180025095e-35 22.500000000000004 147.50000000000003
decision_type=2 2 2 2 2 2 2
left_child=3 2 -2 6 -3 -4 -1
right_child=1 4 5 -5 -6 -7 -8
leaf_value=-0.34153878629207612 -0.24957591205321511 0.14722134213774438 0.044815666812726043 -0.044201296250171523 0.2912355176908405 0.21947802722099283 -0.19212379094242352
leaf_weight=20 29 31 22 34 38 21 20
leaf_count=20 29 31 22 34 38 21 20
internal_value=0.0084279 0.0992063 -0.0228155 -0.164542 0.226533 0.130116 -0.266831
internal_weight=215 141 72 74 69 43 40
internal_count=215 141 72 74 69 43 40
is_linear=0
shrinkage=0.05


Tree=28
num_leaves=8
num_cat=0
split_feature=7 0 7 0 7 0 0
split_gain=1222.06 1048.88 902.474 435.273 312.385 308.014 93.8098
threshold=1.5000000000000002 146.50000000000003 -21.499999999999996 132.50000000000003 20.500000000000004 156.50000000000003 143.50000000000003
decision_type=2 2 2 2 2 2 2
left_child=1 -1 -3 4 -2 -4 -5
right_child=3 2 5 6 -6 -7 -8
leaf_value=-0.31052046489830198 -0.10559079434553331 -0.26947061399167238 0.0091599071558032732 0.18757990042288458 0.16401464669477372 0.23894755053520203 0.32647383272647862
leaf_weight=39 22 22 35 31 21 25 20
leaf_count=39 22 22 35 31 21 25 20
internal_value=0.0080065 -0.0970609 0.00446259 0.143253 0.026077 0.104905 0.242048
internal_weight=215 121 82 94 43 60 51
internal_count=215 121 82 94 43 60 51
is_linear=0
shrinkage=0.05


Tree=29
num_leaves=8
num_cat=0
split_feature=0 0 5 1 0 2 3
split_gain=299.729 173.058 82.3514 85.109 113.941 79.7495 24.4508
threshold=125.50000000000001 158.50000000000003 151.50000000000003 137.50000000000003 139.50000000000003 142.50000000000003 141.50000000000003
decision_type=2 2 2 2 2 2 2
left_child=-1 2 3 -2 -5 -4 -6
right_child=1 -3 5 4 6 -7 -8
leaf_value=-0.16296351801442066 0.094824697681375456 0.14292247817918127 0.035933582559227947 -0.073189224277933437 0.094009589739143862 -0.090598329071971517 0.019154306221753362
leaf_weight=23 37 28 20 30 20 33 24
leaf_count=23 37 28 20 30 20 33 24
internal_value=0.00760617 0.028039 0.00842475 0.0329075 0.0019489 -0.0428504 0.0531794
internal_weight=215 192 164 111 74 53 44
internal_count=215 192 164 111 74 53 44
is_linear=0
shrinkage=0.05


Tree=30
num_leaves=9
num_cat=0
split_feature=7 0 7 0 0 0 7 7
split_gain=1293.34 874.568 1090.06 588.999 314.043 198.574 283.695 65.9748
threshold=1.0000000180025095e-35 139.50000000000003 -23.499999999999996 126.50000000000001 158.50000000000003 144.50000000000003 15.500000000000002 -9.4999999999999982
decision_type=2 2 2 2 2 2 2 2
left_child=1 -1 -3 -2 7 6 -5 -4
right_child=3 2 4 5 -6 -7 -8 -9
leaf_value=-0.35544313348208867 -0.078728848585376043 -0.36925762534141543 -0.072864770344816726 0.041254220462287779 0.21674703147262334 0.32421998608680003 0.27465893043124162 0.04209656678140164
leaf_weight=30 27 20 26 30 20 21 23 24
leaf_count=30 27 20 26 30 20 21 23 24
internal_value=-0.0106785 -0.121647 -0.0437153 0.121166 0.0492968 0.1941 0.142543 -0.0176833
internal_weight=221 120 90 101 70 74 53 50
internal_count=221 120 90 101 70 74 53 50
is_linear=0
shrinkage=0.05


Tree=31
num_leaves=8
num_cat=0
split_feature=0 0 5 4 3 3 5
split_gain=327.257 134.502 90.7868 76.5189 98.9797 69.8408 41.8265
threshold=125.50000000000001 152.50000000000003 139.50000000000003 135.50000000000003 138.50000000000003 153.50000000000003 138.50000000000003
decision_type=2 2 2 2 2 2 2
left_child=-1 3 -3 6 -5 -6 -2
right_child=1 2 -4 4 5 -7 -8
leaf_value=-0.16366790547966958 -0.023594316386658213 0.15327848289971768 0.028027529864070505 0.093596448921240305 -0.073660778603516525 0.034469203038939404 -0.12246123047545553
leaf_weight=30 23 23 39 26 32 28 20
leaf_count=30 23 23 39 26 32 28 20
internal_value=-0.0101446 0.013969 0.0744916 -0.0151193 0.0121105 -0.0232001 -0.0695789
internal_weight=221 191 62 129 86 60 43
internal_count=221 191 62 129 86 60 43
is_linear=0
shrinkage=0.05


Tree=32
num_leaves=9
num_cat=0
split_feature=7 7 7 6 1 7 5 5
split_gain=1183.1 531.96 218.898 196.813 91.3041 67.5347 80.6277 18.6883
threshold=1.0000000180025095e-35 -23.499999999999996 14.500000000000002 154.50000000000003 139.50000000000003 -3.4999999999999996 148.50000000000003 138.50000000000003
decision_type=2 2 2 2 2 2 2 2
left_child=1 -1 4 5 -2 6 -3 -4
right_child=2 3 7 -5 -6 -7 -8 -9
leaf_value=-0.35116997517645365 -0.031944639342171809 -0.10509673790592287 0.16255162343382837 -0.20077035125683654 0.099931268963430617 0.045211722453435264 0.018182150647044183 0.22739659486711028
leaf_weight=20 21 36 20 22 35 21 21 25
leaf_count=20 21 36 20 22 35 21 21 25
internal_value=-0.00963735 -0.115771 0.116462 -0.0686916 0.0504778 -0.0314386 -0.0596782 0.198577
internal_weight=221 120 101 100 56 78 57 45
internal_count=221 120 101 100 56 78 57 45
is_linear=0
shrinkage=0.05


Tree=33
num_leaves=9
num_cat=0
split_feature=7 7 7 6 1 7 5 5
split_gain=1067.75 480.094 197.556 177.624 82.4019 60.9501 72.7665 16.8662
threshold=1.0000000180025095e-35 -23.499999999999996 14.500000000000002 154.50000000000003 139.50000000000003 -3.4999999999999996 148.50000000000003 138.50000000000003
decision_type=2 2 2 2 2 2 2 2
left_child=1 -1 4 5 -2 6 -3 -4
right_child=2 3 7 -5 -6 -7 -8 -9
leaf_value=-0.33361147850751882 -0.030347409702482675 -0.099841903564002785 0.15442404076457025 -0.19073183529756288 0.094934705091374263 0.042951136117889768 0.017273042315528505 0.21602676413953303
leaf_weight=20 21 36 20 22 35 21 21 25
leaf_count=20 21 36 20 22 35 21 21 25
internal_value=-0.00915548 -0.109983 0.110639 -0.065257 0.0479539 -0.0298667 -0.0566943 0.188648
internal_weight=221 120 101 100 56 78 57 45
internal_count=221 120 101 100 56 78 57 45
is_linear=0
shrinkage=0.05


Tree=34
num_leaves=9
num_cat=0
split_feature=7 7 1 6 7 7 4 5
split_gain=964.343 444.433 179.709 165.117 111.658 55.8374 27.418 15.7565
threshold=1.5000000000000002 -23.499999999999996 129.50000000000003 154.50000000000003 14.500000000000002 -11.499999999999998 144.50000000000003 138.50000000000003
decision_type=2 2 2 2 2 2 2 2
left_child=1 -1 -2 5 7 -3 -7 -4
right_child=2 3 4 -5 -6 6 -8 -9
leaf_value=-0.31693090394139295 -0.024143697917461397 -0.081252251553038765 0.12123321786522866 -0.18119524488733574 0.21003427367125238 -0.03189906165576898 0.040714294807269027 0.059913696619597348
leaf_weight=20 20 30 20 22 35 26 26 22
leaf_count=20 20 30 20 22 35 26 26 22
internal_value=-0.00869771 -0.101075 0.109393 -0.0595641 0.144077 -0.0269314 0.00440762 0.0891135
internal_weight=221 124 97 104 77 82 52 42
internal_count=221 124 97 104 77 82 52 42
is_linear=0
shrinkage=0.05


Tree=35
num_leaves=8
num_cat=0
split_feature=7 0 7 0 0 7 0
split_gain=884.518 845.527 287.35 341.363 273.412 471.799 63.3434
threshold=-7.4999999999999991 127.50000000000001 -23.499999999999996 154.50000000000003 153.50000000000003 5.5000000000000009 136.50000000000003
decision_type=2 2 2 2 2 2 2
left_child=2 -2 -1 -4 5 -3 -7
right_child=1 4 3 -5 -6 6 -8
leaf_value=-0.30476760521531104 -0.15159210878259996 -0.044491144289841522 -0.18884012988119414 0.058989374246448283 0.28245719100038208 0.12808740392889983 0.23790042975853229
leaf_weight=20 34 37 33 24 24 24 29
leaf_count=20 34 37 33 24 24 24 29
internal_value=-0.00426423 0.0672424 -0.141706 -0.0844909 0.132509 0.0925226 0.188174
internal_weight=225 148 77 57 114 90 53
internal_count=225 148 77 57 114 90 53
is_linear=0
shrinkage=0.05


Tree=36
num_leaves=9
num_cat=0
split_feature=7 0 7 0 0 7 7 7
split_gain=798.277 763.088 259.333 308.614 248.243 433.783 73.2984 38.6412
threshold=-7.4999999999999991 127.50000000000001 -23.499999999999996 155.50000000000003 145.50000000000003 5.5000000000000009 15.500000000000002 -1.0000000180025095e-35
decision_type=2 2 2 2 2 2 2 2
left_child=2 -2 -1 -4 5 -3 -7 -6
right_child=1 4 3 -5 7 6 -8 -9
leaf_value=-0.28952922604978087 -0.14401250391760295 -0.088909138987461722 -0.1691247533178992 0.07206242426875091 0.17218813158571722 0.10218407863184163 0.22984214580871842 0.26821514097127047
leaf_weight=20 34 27 36 21 20 23 22 22
leaf_count=20 34 27 36 21 20 23 22 22
internal_value=-0.00405102 0.0638803 -0.13462 -0.0802663 0.125883 0.0695308 0.164595 0.222488
internal_weight=225 148 77 57 114 72 45 42
internal_count=225 148 77 57 114 72 45 42
is_linear=0
shrinkage=0.05


Tree=37
num_leaves=8
num_cat=0
split_feature=7 0 0 7 0 7 0
split_gain=720.445 688.687 235.922 304.248 232.029 390.316 56.809
threshold=-7.4999999999999991 127.50000000000001 147.50000000000003 -21.499999999999996 153.50000000000003 5.5000000000000009 136.50000000000003
decision_type=2 2 2 2 2 2 2
left_child=2 -2 -1 -4 5 -3 -7
right_child=1 4 3 -5 -6 6 -8
leaf_value=-0.2662712040865286 -0.13681187943062362 -0.041868535177530475 -0.21124850085976982 0.027162670972757041 0.25772436670958998 0.11285046897052478 0.21684532073037377
leaf_weight=22 34 37 23 32 24 24 29
leaf_count=22 34 37 23 32 24 24 29
internal_value=-0.00384847 0.0606863 -0.127889 -0.0725365 0.119589 0.0827532 0.169753
internal_weight=225 148 77 55 114 90 53
internal_count=225 148 77 55 114 90 53
is_linear=0
shrinkage=0.05


Tree=38
num_leaves=8
num_cat=0
split_feature=7 0 7 0 0 7 7
split_gain=650.202 621.54 219.705 263.808 209.864 365.924 34.0928
threshold=-7.4999999999999991 127.50000000000001 -23.499999999999996 155.50000000000003 145.50000000000003 9.5000000000000018 -1.0000000180025095e-35
decision_type=2 2 2 2 2 2 2
left_child=2 -2 -1 -4 5 -3 -6
right_child=1 4 3 -5 6 -7 -8
leaf_value=-0.26407766956835987 -0.12997128150480636 -0.060742915974873496 -0.15362100485298369 0.069371752440929413 0.15518639869987966 0.16548292580514382 0.24538499306548728
leaf_weight=20 34 33 36 21 20 39 22
leaf_count=20 34 33 36 21 20 39 22
internal_value=-0.00365605 0.057652 -0.121495 -0.0714658 0.11361 0.0617961 0.202433
internal_weight=225 148 77 57 114 72 42
internal_count=225 148 77 57 114 72 42
is_linear=0
shrinkage=0.05


Tree=39
num_leaves=9
num_cat=0
split_feature=7 0 0 7 0 7 0 0
split_gain=586.807 560.94 205.346 255.374 196.965 330.099 65.4447 53.5552
threshold=-7.4999999999999991 127.50000000000001 147.50000000000003 -21.499999999999996 153.50000000000003 7.5000000000000009 136.50000000000003 141.50000000000003
decision_type=2 2 2 2 2 2 2 2
left_child=2 -2 -1 -4 5 7 -7 -3
right_child=1 4 3 -5 -6 6 -8 -9
leaf_value=-0.244523479857228 -0.12347271705374999 -0.083234713545867381 -0.19086199814210769 0.027562342735473068 0.23519968762993815 0.10531233853620033 0.22334078227480256 0.028396085332232441
leaf_weight=22 34 21 23 32 24 23 24 22
leaf_count=22 34 21 23 32 24 23 24 22
internal_value=-0.00347324 0.0547694 -0.11542 -0.0637787 0.107929 0.0739905 0.165582 -0.0261213
internal_weight=225 148 77 55 114 90 47 43
internal_count=225 148 77 55 114 90 47 43
is_linear=0
shrinkage=0.05


Tree=40
num_leaves=10
num_cat=0
split_feature=7 7 7 4 1 6 1 7 1
split_gain=485.63 199.909 115.74 81.291 65.401 61.1651 48.1461 41.5186 18.3472
threshold=-1.0000000180025095e-35 -23.499999999999996 18.500000000000004 151.50000000000003 132.50000000000003 136.50000000000003 150.50000000000003 -9.4999999999999982 142.50000000000003
decision_type=2 2 2 2 2 2 2 2 2
left_child=1 -1 4 7 -2 -6 -7 8 -3
right_child=2 3 -4 -5 5 6 -8 -9 -10
leaf_value=-0.21591571682975408 -0.03350101964814322 -0.079786179065704343 0.16737737618386747 0.022630404631296796 -0.0026544724546727679 0.14694600814580919 0.042864955328404904 -0.12910837414674461 -0.012060323916375638
leaf_weight=21 21 20 24 30 21 25 20 24 20
leaf_count=21 21 20 24 30 21 25 20 24 20
internal_value=-0.00443411 -0.0764422 0.0701688 -0.0452832 0.0433527 0.0678061 0.100688 -0.0771177 -0.0459233
internal_weight=226 115 111 94 87 66 45 64 40
internal_count=226 115 111 94 87 66 45 64 40
is_linear=0
shrinkage=0.05


Tree=41
num_leaves=9
num_cat=0
split_feature=7 0 0 7 7 0 0 7
split_gain=438.281 595.597 384.032 375.344 324.138 274.412 198.42 50.5388
threshold=-1.0000000180025095e-35 139.50000000000003 141.50000000000003 -23.499999999999996 20.500000000000004 130.50000000000003 156.50000000000003 -11.499999999999998
decision_type=2 2 2 2 2 2 2 2
left_child=1 -1 4 -3 5 -2 7 -5
right_child=2 3 -4 6 -6 -7 -8 -9
leaf_value=-0.31336190104484563 -0.20541509762406351 -0.20511993283317206 0.19818507055374418 -0.08445196778259495 0.16714265956765129 0.02719304542988539 0.13925388553845031 0.021549845324910208
leaf_weight=21 21 21 37 22 21 32 28 23
leaf_count=21 21 21 37 22 21 32 28 23
internal_value=-0.0042124 -0.0726201 0.0666604 -0.0188373 0.000898057 -0.0649724 0.0347508 -0.0302733
internal_weight=226 115 111 94 74 53 73 45
internal_count=226 115 111 94 74 53 73 45
is_linear=0
shrinkage=0.05


Tree=42
num_leaves=8
num_cat=0
split_feature=7 0 7 0 0 7 7
split_gain=396.305 593.612 429.756 240.162 193.384 210.808 115.98
threshold=3.5000000000000004 137.50000000000003 -11.499999999999998 156.50000000000003 141.50000000000003 20.500000000000004 -23.499999999999996
decision_type=2 2 2 2 2 2 2
left_child=1 -1 6 -4 5 -2 -3
right_child=4 2 3 -5 -6 -7 -8
leaf_value=-0.27023482242455849 -0.040552252386179238 -0.19486393367960342 0.014087368250900024 0.22578961139633541 0.19968159997463228 0.15878552397979159 -0.049118561020646344
leaf_weight=26 36 21 37 21 25 21 39
leaf_count=26 36 21 37 21 25 21 39
internal_value=-0.00400178 -0.0539657 -0.00631315 0.0907382 0.0837397 0.032888 -0.100129
internal_weight=226 144 118 58 82 57 60
internal_count=226 144 118 58 82 57 60
is_linear=0
shrinkage=0.05


Tree=43
num_leaves=9
num_cat=0
split_feature=7 0 0 7 7 0 7 7
split_gain=363.687 501.23 319.025 306.529 259.152 166.519 70.143 42.7933
threshold=-1.0000000180025095e-35 139.50000000000003 144.50000000000003 -23.499999999999996 9.5000000000000018 156.50000000000003 18.500000000000004 -11.499999999999998
decision_type=2 2 2 2 2 2 2 2
left_child=1 -1 4 -3 -2 7 -6 -5
right_child=2 3 -4 5 6 -7 -8 -9
leaf_value=-0.28696488965125311 -0.098479396326001736 -0.18512073815578509 0.21402409609693748 -0.077773441587408926 0.029388306623902818 0.12738350708303708 0.14494512720654409 0.019767985104218774
leaf_weight=21 32 21 26 22 29 28 24 23
leaf_count=21 32 21 26 22 29 28 24 23
internal_value=-0.00380169 -0.0661166 0.0607588 -0.0167782 0.0138777 0.0316491 0.0817159 -0.0279189
internal_weight=226 115 111 94 85 73 53 45
internal_count=226 115 111 94 85 73 53 45
is_linear=0
shrinkage=0.05


Tree=44
num_leaves=9
num_cat=0
split_feature=7 0 0 7 7 0 0 7
split_gain=328.227 452.36 291.633 276.643 240.455 246.235 150.284 38.621
threshold=-1.0000000180025095e-35 139.50000000000003 141.50000000000003 -23.499999999999996 20.500000000000004 130.50000000000003 156.50000000000003 -11.499999999999998
decision_type=2 2 2 2 2 2 2 2
left_child=1 -1 4 -3 5 -2 7 -5
right_child=2 3 -4 6 -6 -7 -8 -9
leaf_value=-0.27261664782251632 -0.18935762799921491 -0.17586470356299766 0.17233606325210751 -0.073884769292040312 0.14359899390311467 0.030984851357061416 0.12101433266320133 0.018779585316129353
leaf_weight=21 21 21 37 22 21 32 28 23
leaf_count=21 21 21 37 22 21 32 28 23
internal_value=-0.00361161 -0.0628108 0.0577209 -0.0159393 0.000413296 -0.0563207 0.0300667 -0.026523
internal_weight=226 115 111 94 74 53 73 45
internal_count=226 115 111 94 74 53 73 45
is_linear=0
shrinkage=0.05


Tree=45
num_leaves=8
num_cat=0
split_feature=7 0 7 0 0 7 7
split_gain=219.104 407.49 298.266 94.1044 82.1697 96.6614 39.6018
threshold=12.500000000000002 146.50000000000003 -9.4999999999999982 130.50000000000003 132.50000000000003 -2.4999999999999996 -19.499999999999996
decision_type=2 2 2 2 2 2 2
left_child=1 4 6 -2 -1 -6 -3
right_child=3 2 -4 -5 5 -7 -8
leaf_value=-0.18462718257308008 0.03194834768239941 -0.080915089561180639 0.15823165983767123 0.16404938875482633 -0.14054056233220288 0.0097569904103875157 0.011957934467742841
leaf_weight=25 28 22 37 26 23 20 24
leaf_count=25 28 22 37 26 23 20 24
internal_value=0.00911363 -0.0217983 0.0525473 0.0955526 -0.112544 -0.0706347 -0.0324596
internal_weight=205 151 83 54 68 43 46
internal_count=205 151 83 54 68 43 46
is_linear=0
shrinkage=0.05


Tree=46
num_leaves=7
num_cat=0
split_feature=7 0 0 7 0 7
split_gain=199.551 296.775 278.528 149.373 75.2039 87.1941
threshold=-1.0000000180025095e-35 126.50000000000001 147.50000000000003 -13.499999999999998 144.50000000000003 15.500000000000002
decision_type=2 2 2 2 2 2
left_child=2 -2 -1 -4 5 -3
right_child=1 4 3 -5 -6 -7
leaf_value=-0.16394510623067618 -0.098986150991792476 0.018169435343759904 -0.057168742570587822 0.093340658897068357 0.17526893777151903 0.14117649281024933
leaf_weight=32 24 34 34 32 24 25
leaf_count=32 24 34 34 32 24 25
internal_value=0.00865795 0.0558688 -0.0428886 0.0158055 0.100646 0.0702911
internal_weight=205 107 98 66 83 59
internal_count=205 107 98 66 83 59
is_linear=0
shrinkage=0.05


Tree=47
num_leaves=8
num_cat=0
split_feature=0 0 1 2 0 2 1
split_gain=171.733 113.943 37.2804 33.5209 41.2599 28.307 20.1593
threshold=125.50000000000001 158.50000000000003 137.50000000000003 134.50000000000003 139.50000000000003 154.50000000000003 128.50000000000003
decision_type=2 2 2 2 2 2 2
left_child=-1 2 6 -4 -5 -6 -2
right_child=1 -3 3 4 5 -7 -8
leaf_value=-0.1174512249417603 0.0088524651310872282 0.11963360168867641 0.046348085077036 -0.068516844965051865 0.038487418620691945 -0.039994333591312173 0.070120780606722014
leaf_weight=24 25 27 21 32 27 20 29
leaf_count=24 25 27 21 32 27 20 29
internal_value=0.00822506 0.0248893 0.0082783 -0.00979956 -0.0247249 0.00509093 0.0417558
internal_weight=205 181 154 100 79 47 54
internal_count=205 181 154 100 79 47 54
is_linear=0
shrinkage=0.05


Tree=48
num_leaves=8
num_cat=0
split_feature=7 0 7 0 0 7 3
split_gain=192.643 321.721 245.632 72.3277 71.6373 76.6 34.1154
threshold=12.500000000000002 146.50000000000003 -9.4999999999999982 132.50000000000003 132.50000000000003 -2.4999999999999996 138.50000000000003
decision_type=2 2 2 2 2 2 2
left_child=1 4 6 -2 -1 -6 -3
right_child=3 2 -4 -5 5 -7 -8
leaf_value=-0.16910848051309588 0.040885088802315298 0.016840432845056059 0.14079552874774545 0.15865456377240747 -0.12490233328274412 0.0088926045969128613 -0.07002012707973615
leaf_weight=25 32 20 37 22 23 20 26
leaf_count=25 32 20 37 22 23 20 26
internal_value=0.0078138 -0.0211715 0.0448882 0.0888652 -0.101803 -0.0626721 -0.0322547
internal_weight=205 151 83 54 68 43 46
internal_count=205 151 83 54 68 43 46
is_linear=0
shrinkage=0.05


Tree=49
num_leaves=7
num_cat=0
split_feature=7 0 0 7 0 7
split_gain=175.9 236.449 222.033 122.353 57.9855 71.2556
threshold=-1.0000000180025095e-35 126.50000000000001 147.50000000000003 -13.499999999999998 144.50000000000003 15.500000000000002
decision_type=2 2 2 2 2 2
left_child=2 -2 -1 -4 5 -3
right_child=1 4 3 -5 -6 -7
leaf_value=-0.14905655537731946 -0.086475049300740167 0.01794385288787239 -0.054612943601301492 0.081605022080475473 0.15724158224572118 0.12914157807826995
leaf_weight=32 24 34 34 32 24 25
leaf_count=32 24 34 34 32 24 25
internal_value=0.00742311 0.0517479 -0.0409723 0.0114321 0.091716 0.0650615
internal_weight=205 107 98 66 83 59
internal_count=205 107 98 66 83 59
is_linear=0
shrinkage=0.05


Tree=50
num_leaves=8
num_cat=0
split_feature=7 7 6 3 7 5 6
split_gain=309.991 125.63 48.7182 34.6311 28.9857 22.3812 12.2212
threshold=9.5000000000000018 -23.499999999999996 147.50000000000003 149.50000000000003 20.500000000000004 139.50000000000003 130.50000000000003
decision_type=2 2 2 2 2 2 2
left_child=1 -1 3 6 -2 -4 -3
right_child=4 2 5 -5 -6 -7 -8
leaf_value=-0.16126083731651308 0.066438800866405176 -0.055296478526932862 -0.10179268373599784 0.043243290076497944 0.14302959945939839 -0.036686070455294671 -0.0048377830967573192
leaf_weight=20 30 21 22 28 21 33 28
leaf_count=20 30 21 22 28 21 33 28
internal_value=-0.00869154 -0.0444814 -0.0267875 -0.00111522 0.0979762 -0.0627287 -0.0264629
internal_weight=203 152 132 77 51 55 49
internal_count=203 152 132 77 51 55 49
is_linear=0
shrinkage=0.05


Tree=51
num_leaves=8
num_cat=0
split_feature=7 7 6 3 7 3 6
split_gain=279.767 113.381 44.9772 55.5173 26.1596 16.3448 2.39468
threshold=9.5000000000000018 -23.499999999999996 154.50000000000003 149.50000000000003 20.500000000000004 132.50000000000003 139.50000000000003
decision_type=2 2 2 2 2 2 2
left_child=1 -1 3 5 -2 -3 -7
right_child=4 2 -4 -5 -6 6 -8
leaf_value=-0.15319779723882676 0.063116861342762912 -0.0056272347975108361 -0.078129750730529912 0.042759580784888174 0.13587811887264253 -0.043741687592701056 -0.068209406733512876
leaf_weight=20 30 27 31 34 21 20 20
leaf_count=20 30 27 31 34 21 20 20
internal_value=-0.00825696 -0.0422573 -0.0254481 -0.00927853 0.0930774 -0.0356859 -0.0559755
internal_weight=203 152 132 101 51 67 40
internal_count=203 152 132 101 51 67 40
is_linear=0
shrinkage=0.05


Tree=52
num_leaves=8
num_cat=0
split_feature=7 0 7 0 0 0 0
split_gain=252.489 454.098 281.387 126 88.5209 26.8081 22.558
threshold=9.5000000000000018 139.50000000000003 -16.499999999999996 156.50000000000003 130.50000000000003 134.50000000000003 146.50000000000003
decision_type=2 2 2 2 2 2 2
left_child=1 4 -3 6 -1 -2 -4
right_child=5 2 3 -5 -6 -7 -8
leaf_value=-0.25259336658886505 0.05930612027164428 -0.10380693386707987 -0.015391176955207534 0.15685512762373457 -0.10741621475844157 0.13355546401813628 0.052586674106378975
leaf_weight=21 31 35 23 26 21 20 26
leaf_count=21 31 35 23 26 21 20 26
internal_value=-0.00784411 -0.0401444 0.0132568 0.0678865 -0.180005 0.0884235 0.0206787
internal_weight=203 152 110 75 42 51 49
internal_count=203 152 110 75 42 51 49
is_linear=0
shrinkage=0.05


Tree=53
num_leaves=8
num_cat=0
split_feature=7 0 7 0 0 7 7
split_gain=227.872 409.823 257.712 130.811 79.8901 24.9064 20.2337
threshold=9.5000000000000018 139.50000000000003 -19.499999999999996 156.50000000000003 130.50000000000003 20.500000000000004 -1.4999999999999998
decision_type=2 2 2 2 2 2 2
left_child=1 4 -3 6 -1 -2 -4
right_child=5 2 3 -5 -6 -7 -8
leaf_value=-0.2399636995224726 0.054768230480452373 -0.11837526708841324 -0.0098569486609527048 0.14744840250113395 -0.10204540359831991 0.12576534023419733 0.053186426656320701
leaf_weight=21 30 28 35 27 21 21 20
leaf_count=21 30 28 35 27 21 21 20
internal_value=-0.00745191 -0.0381372 0.012594 0.0573151 -0.171005 0.0840023 0.0130679
internal_weight=203 152 110 82 42 51 55
internal_count=203 152 110 82 42 51 55
is_linear=0
shrinkage=0.05


Tree=54
num_leaves=9
num_cat=0
split_feature=7 0 7 0 0 7 0 0
split_gain=205.654 369.866 233 93.1341 72.1008 46.1659 25.4595 19.6511
threshold=9.5000000000000018 139.50000000000003 -13.499999999999998 156.50000000000003 130.50000000000003 -23.499999999999996 134.50000000000003 146.50000000000003
decision_type=2 2 2 2 2 2 2 2
left_child=1 4 5 7 -1 -3 -2 -4
right_child=6 2 3 -5 -6 -7 -8 -9
leaf_value=-0.22796551375871613 0.051426684084318344 -0.13442879602313043 -0.010027158384327777 0.14916849083577594 -0.096943133501779466 -0.030559844799015835 0.12378429509699346 0.057739988050383079
leaf_weight=21 31 20 20 24 21 23 20 23
leaf_count=21 31 20 20 24 21 23 20 23
internal_value=-0.00707931 -0.0362304 0.0119643 0.0702615 -0.162454 -0.078871 0.0798022 0.0262204
internal_weight=203 152 110 67 42 43 51 43
internal_count=203 152 110 67 42 43 51 43
is_linear=0
shrinkage=0.05


Tree=55
num_leaves=10
num_cat=0
split_feature=7 0 7 0 7 0 0 7 7
split_gain=208.478 208.056 151.548 100.431 197.513 82.882 26.0142 62.3237 10.1283
threshold=-2.4999999999999996 140.50000000000003 -23.499999999999996 132.50000000000003 20.500000000000004 158.50000000000003 147.50000000000003 12.500000000000002 -11.499999999999998
decision_type=2 2 2 2 2 2 2 2 2
left_child=1 -1 -3 4 -2 8 7 -5 -4
right_child=3 2 5 6 -6 -7 -8 -9 -10
leaf_value=-0.19346308689564468 -0.094650648368729495 -0.13579623710364105 -0.037822618987411266 0.0033698494127020239 0.10980401145560402 0.10629379305988551 0.1316276598411302 0.12819346144795418 0.0081127070821821693
leaf_weight=20 27 20 24 20 21 20 24 20 24
leaf_count=20 27 20 24 20 21 20 24 20 24
internal_value=0.00167408 -0.0478921 -0.0148078 0.0494701 -0.00520173 0.020777 0.0904739 0.0657817 -0.014855
internal_weight=220 108 88 112 48 68 64 40 48
internal_count=220 108 88 112 48 68 64 40 48
is_linear=0
shrinkage=0.05


Tree=56
num_leaves=9
num_cat=0
split_feature=7 0 7 0 0 0 7 7
split_gain=188.151 187.771 136.772 93.5532 74.801 31.7882 52.0114 9.14075
threshold=-2.4999999999999996 140.50000000000003 -23.499999999999996 128.50000000000003 158.50000000000003 147.50000000000003 12.500000000000002 -11.499999999999998
decision_type=2 2 2 2 2 2 2 2
left_child=1 -1 -3 -2 7 6 -5 -4
right_child=3 2 4 5 -6 -7 -8 -9
leaf_value=-0.18378992896527052 -0.022218098732478479 -0.12900642350316047 -0.035931487785031399 0.0049643108943620562 0.10097910230979323 0.12504627623905737 0.10317311058087009 0.0077070710714906461
leaf_weight=20 34 20 24 26 20 24 28 24
leaf_count=20 34 20 24 26 20 24 28 24
internal_value=0.00159038 -0.0454975 -0.0140674 0.0469966 0.0197382 0.077167 0.0558874 -0.0141122
internal_weight=220 108 88 112 68 78 54 48
internal_count=220 108 88 112 68 78 54 48
is_linear=0
shrinkage=0.05


Tree=57
num_leaves=8
num_cat=0
split_feature=0 6 0 3 3 5 1
split_gain=89.0439 49.5139 56.9951 37.2763 33.5396 14.5304 27.1038
threshold=159.50000000000003 151.50000000000003 128.50000000000003 135.50000000000003 138.50000000000003 140.50000000000003 146.50000000000003
decision_type=2 2 2 2 2 2 2
left_child=1 2 -1 -4 -3 -5 -7
right_child=-2 4 3 5 -6 6 -8
leaf_value=-0.092975868016481403 0.10210224375128747 0.080847660274732683 -0.052138791957663168 0.031536926887929438 0.00173387824482209 -0.051528647169470788 0.027885529976761476
leaf_weight=25 20 21 36 38 37 21 22
leaf_count=25 20 21 36 38 37 21 22
internal_value=0.00151086 -0.00854828 -0.024448 -0.00980524 0.0303785 0.00900967 -0.0108981
internal_weight=220 200 142 117 58 81 43
internal_count=220 200 142 117 58 81 43
is_linear=0
shrinkage=0.05


Tree=58
num_leaves=9
num_cat=0
split_feature=7 0 7 4 7 0 0 7
split_gain=172.571 165.574 120.467 81.3363 115.093 86.1762 62.2277 8.17094
threshold=-2.4999999999999996 140.50000000000003 -23.499999999999996 153.50000000000003 18.500000000000004 144.50000000000003 158.50000000000003 -11.499999999999998
decision_type=2 2 2 2 2 2 2 2
left_child=1 -1 -3 4 5 -2 7 -4
right_child=3 2 6 -5 -6 -7 -8 -9
leaf_value=-0.17352224484086037 -0.010981849940946781 -0.12201744496822359 -0.033924265384363633 -0.022450135339749978 0.16924551373178309 0.11583210701743762 0.091678865831345324 0.0073344101198017601
leaf_weight=20 37 20 24 32 22 21 20 24
leaf_count=20 37 20 24 32 22 21 20 24
internal_value=0.00143532 -0.0436609 -0.0141469 0.0449209 0.0718693 0.0349335 0.0175797 -0.0132949
internal_weight=220 108 88 112 80 58 68 48
internal_count=220 108 88 112 80 58 68 48
is_linear=0
shrinkage=0.05


Tree=59
num_leaves=9
num_cat=0
split_feature=7 0 7 0 0 0 7 7
split_gain=155.745 149.43 108.722 79.9364 56.1605 24.8162 42.5495 7.46629
threshold=-2.4999999999999996 140.50000000000003 -23.499999999999996 128.50000000000003 158.50000000000003 147.50000000000003 12.500000000000002 -10.499999999999998
decision_type=2 2 2 2 2 2 2 2
left_child=1 -1 -3 -2 7 6 -5 -4
right_child=3 2 4 5 -6 -7 -8 -9
leaf_value=-0.16484613314270974 -0.02130466140806675 -0.11591657295823098 -0.029296432315771073 0.0057027711479279864 0.08709492245689035 0.11286742924712599 0.094530492448913206 0.01070257056504488
leaf_weight=20 34 20 28 26 20 24 28 20
leaf_count=20 34 20 28 26 20 24 28 20
internal_value=0.00136355 -0.0414778 -0.0134396 0.0426749 0.0167007 0.0705634 0.0517616 -0.0126302
internal_weight=220 108 88 112 68 78 54 48
internal_count=220 108 88 112 68 78 54 48
is_linear=0
shrinkage=0.05


Tree=60
num_leaves=8
num_cat=0
split_feature=7 0 7 0 0 0 4
split_gain=190.133 161.739 72.1105 67.5808 59.8484 17.7582 12.28
threshold=1.5000000000000002 139.50000000000003 -23.499999999999996 130.50000000000003 157.50000000000003 142.50000000000003 144.50000000000003
decision_type=2 2 2 2 2 2 2
left_child=1 -1 -3 -2 6 -5 -4
right_child=3 2 4 5 -6 -7 -8
leaf_value=-0.16736536873504521 -0.0051762187803113787 -0.096383476646050167 -0.04955520503796064 0.056620674700506274 0.071801919107446863 0.11325927289202808 0.0012013992306575266
leaf_weight=23 37 23 26 31 23 25 22
leaf_count=23 37 23 26 31 23 25 22
internal_value=-0.00610277 -0.0485195 -0.0194402 0.0472602 0.00548506 0.0819058 -0.0262918
internal_weight=210 117 94 93 71 56 48
internal_count=210 117 94 93 71 56 48
is_linear=0
shrinkage=0.05


Tree=61
num_leaves=7
num_cat=0
split_feature=7 0 7 0 0 0
split_gain=171.595 145.969 67.1308 60.9917 31.4897 16.0268
threshold=1.5000000000000002 139.50000000000003 -19.499999999999996 130.50000000000003 155.50000000000003 142.50000000000003
decision_type=2 2 2 2 2 2
left_child=1 -1 -3 -2 -4 -5
right_child=3 2 4 5 -6 -7
leaf_value=-0.15899710337752881 -0.0049174087273108 -0.073328591478722435 -0.013078682576336801 0.053789641131316457 0.063213295099281128 0.10759630901366474
leaf_weight=23 37 35 38 31 21 25
leaf_count=23 37 35 38 31 21 25
internal_value=-0.00579763 -0.0460935 -0.0184682 0.0448972 0.0140761 0.0778105
internal_weight=210 117 94 93 59 56
internal_count=210 117 94 93 59 56
is_linear=0
shrinkage=0.05


Tree=62
num_leaves=7
num_cat=0
split_feature=7 0 7 0 0 0
split_gain=154.864 131.737 60.5855 55.045 28.4195 14.4642
threshold=1.5000000000000002 139.50000000000003 -19.499999999999996 130.50000000000003 155.50000000000003 142.50000000000003
decision_type=2 2 2 2 2 2
left_child=1 -1 -3 -2 -4 -5
right_child=3 2 4 5 -6 -7
leaf_value=-0.15104724849047868 -0.0046715378358557413 -0.069662160225478664 -0.012424748144602697 0.051100159033892617 0.06005263092617194 0.10221649265289308
leaf_weight=23 37 35 38 31 21 25
leaf_count=23 37 35 38 31 21 25
internal_value=-0.00550775 -0.0437889 -0.0175448 0.0426524 0.0133723 0.07392
internal_weight=210 117 94 93 59 56
internal_count=210 117 94 93 59 56
is_linear=0
shrinkage=0.05


Tree=63
num_leaves=8
num_cat=0
split_feature=0 5 4 1 3 6 1
split_gain=58.0116 26.2983 21.3402 39.9174 22.9538 22.0326 8.02052
threshold=126.50000000000001 126.50000000000001 138.50000000000003 149.50000000000003 155.50000000000003 140.50000000000003 144.50000000000003
decision_type=2 2 2 2 2 2 2
left_child=-1 -2 3 5 6 -3 -4
right_child=1 2 4 -5 -6 -7 -8
leaf_value=-0.072232286286141187 -0.041480483279491852 -0.018896398941675822 0.025338535286330927 -0.063675500441935248 -0.012908201199024916 0.051232047565281394 0.06057022098451853
leaf_weight=28 26 21 30 22 24 24 35
leaf_count=28 26 21 30 22 24 24 35
internal_value=-0.00523236 0.00507532 0.0128346 -0.00847935 0.02888 0.0185054 0.0443094
internal_weight=210 182 156 67 89 45 65
internal_count=210 182 156 67 89 45 65
is_linear=0
shrinkage=0.05


Tree=64
num_leaves=9
num_cat=0
split_feature=7 0 7 0 7 0 0 4
split_gain=140.16 117.462 57.9791 150.576 55.4807 48.0327 19.3415 9.65516
threshold=1.5000000000000002 139.50000000000003 22.500000000000004 130.50000000000003 -23.499999999999996 157.50000000000003 142.50000000000003 144.50000000000003
decision_type=2 2 2 2 2 2 2 2
left_child=1 -1 3 -2 -3 7 -5 -6
right_child=2 4 -4 6 5 -7 -8 -9
leaf_value=-0.14266966328672742 -0.097067037168890244 -0.08409818725903398 0.11394654686252277 0.035025273346238665 -0.043840224388986826 0.064666250392632643 0.096058246739208708 0.0011659692766525869
leaf_weight=23 20 23 21 27 26 23 25 22
leaf_count=23 20 23 21 27 26 23 25 22
internal_value=-0.00497074 -0.0413892 0.040846 0.019525 -0.0166078 0.00525534 0.064368 -0.0232124
internal_weight=210 117 93 72 94 71 52 48
internal_count=210 117 93 72 94 71 52 48
is_linear=0
shrinkage=0.05


Tree=65
num_leaves=9
num_cat=0
split_feature=0 7 7 0 7 0 7 4
split_gain=144.953 166.577 134.599 58.2623 61.6279 43.544 19.5225 11.2963
threshold=129.50000000000003 17.500000000000004 -11.499999999999998 156.50000000000003 14.500000000000002 150.50000000000003 4.5000000000000009 143.50000000000003
decision_type=2 2 2 2 2 2 2 2
left_child=1 -1 5 4 6 -2 7 -4
right_child=2 -3 3 -5 -6 -7 -8 -9
leaf_value=-0.18206065183594114 -0.095685083386184575 0.019564637281000614 -0.028863386870720067 0.12394409175030888 0.1079789802770723 -0.0071225313363330713 0.044865474474305909 0.019817769345404072
leaf_weight=21 23 20 26 22 22 35 30 22
leaf_count=21 23 20 26 22 22 35 30 22
internal_value=0.00113931 -0.0837069 0.0204654 0.0502772 0.0340704 -0.0422422 0.0132245 -0.00655119
internal_weight=221 41 180 122 100 58 78 48
internal_count=221 41 180 122 100 58 78 48
is_linear=0
shrinkage=0.05


Tree=66
num_leaves=9
num_cat=0
split_feature=0 7 7 0 7 0 3 7
split_gain=130.82 150.336 121.938 57.5156 56.6623 44.2998 13.4218 9.41039
threshold=129.50000000000003 17.500000000000004 -6.4999999999999991 153.50000000000003 14.500000000000002 150.50000000000003 140.50000000000003 7.5000000000000009
decision_type=2 2 2 2 2 2 2 2
left_child=1 -1 5 4 7 -2 -7 -4
right_child=2 -3 3 -5 -6 6 -8 -9
leaf_value=-0.17295762087617603 -0.075968255164722609 0.018586405701935291 -0.006833186101269078 0.12250870016093057 0.10258002926341513 0.03292359193554148 -0.021558326898285976 0.035072925899709971
leaf_weight=21 30 20 37 24 22 20 26 21
leaf_count=21 30 20 37 24 22 20 26 21
internal_value=0.00108235 -0.0795215 0.0194421 0.0546219 0.0342558 -0.0286986 0.00212946 0.00833972
internal_weight=221 41 180 104 80 76 46 58
internal_count=221 41 180 104 80 76 46 58
is_linear=0
shrinkage=0.05


Tree=67
num_leaves=9
num_cat=0
split_feature=0 7 7 0 7 0 4 6
split_gain=118.529 150.159 118.291 45.0456 49.5982 35.8891 12.1922 6.56537
threshold=130.50000000000003 18.500000000000004 -11.499999999999998 156.50000000000003 4.5000000000000009 150.50000000000003 140.50000000000003 148.50000000000003
decision_type=2 2 2 2 2 2 2 2
left_child=1 -1 5 4 6 -2 -4 -6
right_child=2 -3 3 -5 7 -7 -8 -9
leaf_value=-0.15318838649988176 -0.087102417226718826 0.028173209460718291 -0.031558020002696488 0.11321453506296331 0.084018772429433369 -0.0067002960188048237 0.020120461367070675 0.046780993461143228
leaf_weight=25 23 21 21 22 29 35 25 20
leaf_count=25 23 21 21 22 29 35 25 20
internal_value=0.00102823 -0.0703929 0.0198018 0.0487451 0.0338153 -0.0385839 -0.00347189 0.0688197
internal_weight=221 46 175 117 95 58 46 49
internal_count=221 46 175 117 95 58 46 49
is_linear=0
shrinkage=0.05


Tree=68
num_leaves=9
num_cat=0
split_feature=0 7 0 0 7 7 7 4
split_gain=108.871 108.237 52.7251 48.1203 44.568 11.6386 7.98976 5.55231
threshold=127.50000000000001 -6.4999999999999991 153.50000000000003 147.50000000000003 15.500000000000002 -19.499999999999996 7.5000000000000009 139.50000000000003
decision_type=2 2 2 2 2 2 2 2
left_child=-1 3 4 -2 6 -5 7 -3
right_child=1 2 -4 5 -6 -7 -8 -9
leaf_value=-0.08757282570004464 -0.093075490675189276 -0.0255660237185657 0.11192686268283676 -0.029426765303920816 0.086649719020351776 0.016190966645833745 0.029094864090904594 0.011690902895061299
leaf_weight=30 22 20 24 27 24 29 25 20
leaf_count=30 22 20 24 27 24 29 25 20
internal_value=0.000976819 0.0148851 0.0461567 -0.0304185 0.0284209 -0.0058033 0.00692106 -0.00693756
internal_weight=221 191 113 78 89 56 65 40
internal_count=221 191 113 78 89 56 65 40
is_linear=0
shrinkage=0.05


Tree=69
num_leaves=9
num_cat=0
split_feature=0 7 7 0 7 0 4 1
split_gain=99.6237 131.887 97.9493 37.4538 41.315 30.2018 10.2877 5.9617
threshold=130.50000000000003 18.500000000000004 -11.499999999999998 156.50000000000003 4.5000000000000009 150.50000000000003 140.50000000000003 146.50000000000003
decision_type=2 2 2 2 2 2 2 2
left_child=1 -1 5 4 6 -2 -4 -6
right_child=2 -3 3 -5 7 -7 -8 -9
leaf_value=-0.14214475551247596 -0.079497961602781136 0.027824665233492852 -0.028967866815981416 0.10326295548372649 0.079214430299515914 -0.0057411289215087893 0.018503074884414671 0.044268037791809316
leaf_weight=25 23 21 21 22 26 35 25 23
leaf_count=25 23 21 21 22 26 35 25 23
internal_value=0.000927978 -0.06455 0.0181393 0.0444767 0.0308631 -0.0349895 -0.00316844 0.062811
internal_weight=221 46 175 117 95 58 46 49
internal_count=221 46 175 117 95 58 46 49
is_linear=0
shrinkage=0.05


Tree=70
num_leaves=9
num_cat=0
split_feature=0 4 4 6 3 6 1 4
split_gain=28.7609 36.7613 89.7046 21.231 17.7497 17.0057 13.5922 11.913
threshold=132.50000000000003 153.50000000000003 140.50000000000003 155.50000000000003 130.50000000000003 145.50000000000003 135.50000000000003 135.50000000000003
decision_type=2 2 2 2 2 2 2 2
left_child=1 2 -1 4 -2 6 -6 -8
right_child=3 -3 -4 -5 5 -7 7 -9
leaf_value=-0.077573417425155652 -0.028968714984200363 -0.082180163012817498 0.067214585192825485 0.059413669207556689 -0.0069582363058413787 -0.019959242135286333 0.011266377466646108 0.058220321631857336
leaf_weight=20 28 20 23 22 21 25 22 35
leaf_count=20 28 20 23 22 21 25 22 35
internal_value=0.00225606 -0.0261768 -0.000128672 0.0139637 0.00633087 0.0159269 0.0274288 0.0400977
internal_weight=216 63 43 153 131 103 78 57
internal_count=216 63 43 153 131 103 78 57
is_linear=0
shrinkage=0.05


Tree=71
num_leaves=8
num_cat=0
split_feature=7 0 7 0 5 7 0
split_gain=125.712 179.497 88.6439 41.4439 33.365 25.3432 19.1189
threshold=22.500000000000004 128.50000000000003 -6.4999999999999991 152.50000000000003 143.50000000000003 7.5000000000000009 154.50000000000003
decision_type=2 2 2 2 2 2 2
left_child=1 -1 4 5 -3 -4 -6
right_child=-2 2 3 -5 6 -7 -8
leaf_value=-0.12752926384231875 0.11837866728504498 -0.075242990574666435 -0.010352494490935523 0.093391192988147617 -0.041528405919671059 0.050696202279205495 0.024663900878901284
leaf_weight=28 21 28 34 27 20 34 24
leaf_count=28 21 28 34 27 20 34 24
internal_value=0.00214325 -0.0103744 0.00926832 0.0409816 -0.0325755 0.0201719 -0.00542351
internal_weight=216 195 167 95 72 68 44
internal_count=216 195 167 95 72 68 44
is_linear=0
shrinkage=0.05


Tree=72
num_leaves=8
num_cat=0
split_feature=7 7 6 5 4 6 1
split_gain=113.455 43.6359 25.4503 15.5534 17.9968 12.8129 8.76917
threshold=22.500000000000004 -23.499999999999996 125.50000000000001 139.50000000000003 155.50000000000003 145.50000000000003 144.50000000000003
decision_type=2 2 2 2 2 2 2
left_child=1 -1 -3 5 6 -4 -5
right_child=-2 2 3 4 -6 -7 -8
leaf_value=-0.072990207591404524 0.11245973475632215 -0.049925828917437923 0.0081465868265641964 0.053916772208627201 -0.014374256692826749 -0.037527664325066976 0.01566557115393466
leaf_weight=24 21 23 34 31 26 28 29
leaf_count=24 21 23 34 31 26 28 29
internal_value=0.00203609 -0.00985569 -0.000994701 0.00660946 0.020372 -0.0124805 0.0354287
internal_weight=216 195 171 148 86 62 60
internal_count=216 195 171 148 86 62 60
is_linear=0
shrinkage=0.05


Tree=73
num_leaves=8
num_cat=0
split_feature=7 0 7 0 5 7 0
split_gain=102.393 161.932 77.7394 37.5738 29.5178 22.8072 16.3045
threshold=22.500000000000004 128.50000000000003 -6.4999999999999991 152.50000000000003 143.50000000000003 7.5000000000000009 154.50000000000003
decision_type=2 2 2 2 2 2 2
left_child=1 -1 4 5 -3 -4 -6
right_child=-2 2 3 -5 6 -7 -8
leaf_value=-0.12063795860324587 0.10683675025190627 -0.070023923180997372 -0.009778499740230687 0.088895306625851878 -0.037694836705923079 0.048135235883733807 0.023431714484468104
leaf_weight=28 21 28 34 27 20 34 24
leaf_count=28 21 28 34 27 20 34 24
internal_value=0.00193429 -0.0093629 0.00929399 0.0389927 -0.0298917 0.0191784 -0.00435308
internal_weight=216 195 167 95 72 68 44
internal_count=216 195 167 95 72 68 44
is_linear=0
shrinkage=0.05


Tree=74
num_leaves=8
num_cat=0
split_feature=6 1 4 4 5 0 3
split_gain=24.0775 17.0744 19.377 25.4439 23.6059 16.6706 13.9449
threshold=125.50000000000001 151.50000000000003 156.50000000000003 143.50000000000003 143.50000000000003 149.50000000000003 139.50000000000003
decision_type=2 2 2 2 2 2 2
left_child=-1 2 3 4 6 -3 -2
right_child=1 5 -4 -5 -6 -7 -8
leaf_value=-0.041418685063919325 -0.04366348400712014 -0.039372784325913075 -0.018987634139401573 0.065853114197811771 0.042525187200483157 0.016133341783036791 0.015380763635039331
leaf_weight=28 20 31 28 31 34 24 20
leaf_count=28 20 31 28 31 34 24 20
internal_value=0.00183757 0.00827999 0.0179699 0.0278252 0.0118946 -0.0151519 -0.0141414
internal_weight=216 188 133 105 74 55 40
internal_count=216 188 133 105 74 55 40
is_linear=0
shrinkage=0.05


Tree=75
num_leaves=9
num_cat=0
split_feature=7 0 7 0 4 7 7 0
split_gain=103.571 152.121 70.5161 37.3629 33.5491 17.5047 12.3331 25.7089
threshold=24.500000000000004 128.50000000000003 -3.4999999999999996 150.50000000000003 151.50000000000003 6.5000000000000009 -19.499999999999996 146.50000000000003
decision_type=2 2 2 2 2 2 2 2
left_child=1 -1 4 5 6 -4 -3 -8
right_child=-2 2 3 -5 -6 -7 7 -9
leaf_value=-0.13416515412655744 0.10413874943148008 -0.073474186359216348 -0.012609774567345784 0.095862921327352524 0.025111600058153272 0.040632748861159938 -0.06957317732274533 0.0079384526318829994
leaf_weight=22 22 23 26 21 24 38 20 23
leaf_count=22 22 23 26 21 24 38 20 23
internal_value=0.00124486 -0.0102458 0.0053326 0.0379919 -0.0255123 0.019003 -0.043921 -0.0281135
internal_weight=219 197 175 85 90 64 66 43
internal_count=219 197 175 85 90 64 66 43
is_linear=0
shrinkage=0.05


Tree=76
num_leaves=8
num_cat=0
split_feature=7 0 7 0 4 5 7
split_gain=93.4732 137.289 63.6408 33.7851 30.2781 19.9953 18.5045
threshold=24.500000000000004 128.50000000000003 -3.4999999999999996 149.50000000000003 151.50000000000003 143.50000000000003 6.5000000000000009
decision_type=2 2 2 2 2 2 2
left_child=1 -1 4 6 5 -3 -4
right_child=-2 2 3 -5 -6 -7 -8
leaf_value=-0.12745689932595602 0.098931813070719896 -0.071872502813736597 -0.017478837392991411 0.087847650569418206 0.023856019973754885 -0.016601975055204499 0.038601111547139133
leaf_weight=22 22 30 24 23 24 36 38
leaf_count=22 22 30 24 23 24 36 38
internal_value=0.00118261 -0.00973354 0.00506597 0.0360923 -0.0242367 -0.0417249 0.0168927
internal_weight=219 197 175 85 90 66 62
internal_count=219 197 175 85 90 66 62
is_linear=0
shrinkage=0.05


Tree=77
num_leaves=9
num_cat=0
split_feature=7 0 7 0 4 7 6 0
split_gain=84.3595 123.903 57.4358 30.6203 27.326 14.335 11.9559 5.15679
threshold=24.500000000000004 128.50000000000003 -3.4999999999999996 150.50000000000003 151.50000000000003 6.5000000000000009 132.50000000000003 153.50000000000003
decision_type=2 2 2 2 2 2 2 2
left_child=1 -1 4 5 6 -4 -3 -8
right_child=-2 2 3 -5 -6 -7 7 -9
leaf_value=-0.12108405239626088 0.093985223499211401 -0.070790636574938184 -0.011510445593068235 0.086677392465727671 0.022663220173368852 0.036671055505346314 -0.040933906360684585 -0.007006510276170004
leaf_weight=22 22 21 26 21 24 38 24 21
leaf_count=22 22 21 26 21 24 38 24 21
internal_value=0.00112348 -0.00924686 0.00481267 0.0342877 -0.0230249 0.0170973 -0.0396387 -0.0251011
internal_weight=219 197 175 85 90 64 66 45
internal_count=219 197 175 85 90 64 66 45
is_linear=0
shrinkage=0.05


Tree=78
num_leaves=8
num_cat=0
split_feature=0 1 4 0 1 0 5
split_gain=40.3084 26.9425 25.4999 21.7112 14.794 11.1937 5.31404
threshold=159.50000000000003 151.50000000000003 153.50000000000003 129.50000000000003 131.50000000000003 139.50000000000003 143.50000000000003
decision_type=2 2 2 2 2 2 2
left_child=1 2 3 -1 -5 -3 -6
right_child=-2 5 -4 4 6 -7 -8
leaf_value=0.064376951079993014 0.068731211796402944 -0.061127012725109647 -0.029869958065036274 -0.022095209054116691 0.010661060790366987 -0.016708220082737906 0.043141715545207265
leaf_weight=21 20 23 36 28 34 37 20
leaf_count=21 20 23 36 28 34 37 20
internal_value=0.00106731 -0.00573308 0.00635426 0.0190152 0.0073981 -0.0337354 0.0226909
internal_weight=219 199 139 103 82 60 54
internal_count=219 199 139 103 82 60 54
is_linear=0
shrinkage=0.05


Tree=79
num_leaves=9
num_cat=0
split_feature=7 0 7 0 4 7 7 0
split_gain=73.8726 111.438 52.9424 26.8308 25.0854 15.116 11.9942 21.6211
threshold=24.500000000000004 128.50000000000003 -3.4999999999999996 149.50000000000003 151.50000000000003 6.5000000000000009 -19.499999999999996 146.50000000000003
decision_type=2 2 2 2 2 2 2 2
left_child=1 -1 4 5 6 -4 -3 -8
right_child=-2 2 3 -5 -6 -7 7 -9
leaf_value=-0.11475266397676685 0.087912292050367047 -0.067145873492826594 -0.015233673510374503 0.079063797580159245 0.021691639410952729 0.035452166954545603 -0.060433685462921861 0.010649123123806456
leaf_weight=22 22 23 24 23 24 38 20 23
leaf_count=22 22 23 24 23 24 38 20 23
internal_value=0.00101394 -0.00869044 0.0046431 0.0329417 -0.0220833 0.0158318 -0.0380015 -0.0224126
internal_weight=219 197 175 85 90 62 66 43
internal_count=219 197 175 85 90 62 66 43
is_linear=0
shrinkage=0.05


Tree=80
num_leaves=8
num_cat=0
split_feature=7 0 7 0 1 6 1
split_gain=73.3997 61.6803 65.6699 27.4691 18.9943 9.25231 7.63898
threshold=18.500000000000004 130.50000000000003 -11.499999999999998 145.50000000000003 142.50000000000003 139.50000000000003 150.50000000000003
decision_type=2 2 2 2 2 2 2
left_child=1 -1 4 6 -3 -5 -4
right_child=-2 2 3 5 -6 -7 -8
leaf_value=-0.089171145183111866 0.090143211522982242 -0.071072804186217212 0.01837835695707437 0.03105044089257717 -0.013266289470096429 0.077097384165972477 -0.019658170801333405
leaf_weight=21 21 27 33 20 30 24 22
leaf_count=21 21 27 33 20 30 24 22
internal_value=0.00176167 -0.00872427 0.00210511 0.0267207 -0.0406483 0.056167 0.00316375
internal_weight=198 177 156 99 57 44 55
internal_count=198 177 156 99 57 44 55
is_linear=0
shrinkage=0.05


Tree=81
num_leaves=8
num_cat=0
split_feature=7 7 7 2 3 4 1
split_gain=66.2432 39.9452 11.1099 16.0917 13.6257 9.3916 10.7377
threshold=18.500000000000004 -23.499999999999996 5.5000000000000009 153.50000000000003 143.50000000000003 129.50000000000003 138.50000000000003
decision_type=2 2 2 2 2 2 2
left_child=1 -1 3 5 -4 -3 -7
right_child=-2 2 4 -5 -6 6 -8
leaf_value=-0.074838452376425266 0.085636052418322797 -0.026294865476943197 -0.0038950808346271517 -0.040984776522964242 0.051984699014574288 -0.011735159379464609 0.029734749739637245
leaf_weight=20 21 21 24 28 20 27 37
leaf_count=20 21 21 24 28 20 27 37
internal_value=0.00167359 -0.00828806 0.000189698 -0.00811 0.0215048 0.00271934 0.0122396
internal_weight=198 177 157 113 44 85 64
internal_count=198 177 157 113 44 85 64
is_linear=0
shrinkage=0.05


Tree=82
num_leaves=8
num_cat=0
split_feature=7 0 7 0 1 7 3
split_gain=59.81 49.4473 65.2264 26.7083 25.7648 8.09923 2.38054
threshold=15.500000000000002 135.50000000000003 -13.499999999999998 156.50000000000003 142.50000000000003 4.5000000000000009 138.50000000000003
decision_type=2 2 2 2 2 2 2
left_child=1 -1 4 5 -3 6 -4
right_child=-2 2 3 -5 -6 -7 -8
leaf_value=-0.062149950520445911 0.065372440519352121 -0.086167363184504214 -0.010134172013827734 0.080838156640529638 -0.011292640119791031 0.039219035292890947 0.013673278866779237
leaf_weight=36 31 20 21 20 27 22 21
leaf_count=36 31 20 21 20 27 22 21
internal_value=0.00158991 -0.01025 0.00401263 0.0304036 -0.0431542 0.0146428 0.00176955
internal_weight=198 167 131 84 47 64 42
internal_count=198 167 131 84 47 64 42
is_linear=0
shrinkage=0.05


Tree=83
num_leaves=8
num_cat=0
split_feature=7 0 7 0 1 0 6
split_gain=55.0995 53.346 51.0861 23.3434 15.3378 9.79699 11.2478
threshold=18.500000000000004 130.50000000000003 -11.499999999999998 154.50000000000003 142.50000000000003 137.50000000000003 142.50000000000003
decision_type=2 2 2 2 2 2 2
left_child=1 -1 4 5 -3 -4 -7
right_child=-2 2 3 -5 -6 6 -8
leaf_value=-0.082389488142161141 0.078085627475576042 -0.062551660118279631 -0.014191513545811177 0.070999439983140858 -0.010606405635674795 -0.0046538074633904868 0.042439360180287627
leaf_weight=21 21 27 25 21 30 21 32
leaf_count=21 21 27 25 21 30 21 32
internal_value=0.00151041 -0.00757478 0.00249643 0.0242074 -0.0352121 0.0116095 0.0237798
internal_weight=198 177 156 99 57 78 53
internal_count=198 177 156 99 57 78 53
is_linear=0
shrinkage=0.05


Tree=84
num_leaves=9
num_cat=0
split_feature=7 0 7 0 7 0 2 3
split_gain=50.0955 46.2784 45.3787 27.2121 16.7784 18.0491 16.2124 2.27964
threshold=5.5000000000000009 136.50000000000003 -13.499999999999998 156.50000000000003 18.500000000000004 136.50000000000003 144.50000000000003 139.50000000000003
decision_type=2 2 2 2 2 2 2 2
left_child=1 -1 6 7 5 -2 -3 -4
right_child=4 2 3 -5 -6 -7 -8 -9
leaf_value=-0.079002228813866773 -0.01521969210356474 -0.069358578259530276 -0.0081834279762750314 0.073784169703722008 0.074181344253676271 0.049094005596513557 -0.010613272556414206 0.015140480417758227
leaf_weight=24 20 23 22 20 21 24 24 20
leaf_count=24 20 23 22 20 21 24 24 20
internal_value=0.00143489 -0.0161471 -0.00230742 0.0257816 0.0374103 0.0198605 -0.039361 0.0029232
internal_weight=198 133 109 62 65 44 47 42
internal_count=198 133 109 62 65 44 47 42
is_linear=0
shrinkage=0.05


Tree=85
num_leaves=9
num_cat=0
split_feature=0 1 5 0 0 5 0 4
split_gain=29.4347 35.0424 14.9988 22.2709 10.9717 9.71166 5.64058 3.81853
threshold=158.50000000000003 153.50000000000003 142.50000000000003 132.50000000000003 131.50000000000003 153.50000000000003 139.50000000000003 141.50000000000003
decision_type=2 2 2 2 2 2 2 2
left_child=1 2 3 -1 -4 -6 -3 -5
right_child=-2 6 4 7 5 -7 -8 -9
leaf_value=-0.045473214916207573 0.053952190828775726 -0.055882785265289607 0.06022848449647427 0.028938613474369053 -0.0044138801785615772 0.04130223894746797 -0.02232116546121336 -0.00037297144532203678
leaf_weight=22 28 21 20 25 26 21 31 20
leaf_count=22 28 21 20 25 26 21 31 20
internal_value=0.00615849 -0.00103626 0.0124832 -0.00424485 0.0292113 0.0160125 -0.0358749 0.0159112
internal_weight=214 186 134 67 67 47 52 45
internal_count=214 186 134 67 67 47 52 45
is_linear=0
shrinkage=0.05


Tree=86
num_leaves=8
num_cat=0
split_feature=7 0 0 7 0 7 0
split_gain=29.271 72.0431 23.3882 23.9429 9.36749 8.90369 2.30903
threshold=18.500000000000004 128.50000000000003 158.50000000000003 3.5000000000000004 142.50000000000003 -15.499999999999998 143.50000000000003
decision_type=2 2 2 2 2 2 2
left_child=1 -1 3 5 -5 -3 -7
right_child=-2 2 -4 4 -6 6 -8
leaf_value=-0.090854546055197716 0.054516028378296777 -0.034965481702238323 0.051254580795232742 0.0083470887970179316 0.053001165325227001 -0.012115469450751941 0.0075018075543145345
leaf_weight=20 27 32 28 24 23 30 30
leaf_count=20 27 32 28 24 23 30 30
internal_value=0.00585057 -0.00117599 0.00956395 0.00116584 0.0301991 -0.0136664 -0.00230683
internal_weight=214 187 167 139 47 92 60
internal_count=214 187 167 139 47 92 60
is_linear=0
shrinkage=0.05


Tree=87
num_leaves=8
num_cat=0
split_feature=7 0 0 7 7 1 3
split_gain=26.4171 65.0189 21.5018 24.8951 15.8887 6.25748 9.62158
threshold=18.500000000000004 128.50000000000003 150.50000000000003 -9.4999999999999982 -10.499999999999998 153.50000000000003 140.50000000000003
decision_type=2 2 2 2 2 2 2
left_child=1 -1 4 -4 -3 6 -6
right_child=-2 2 3 -5 5 -7 -8
leaf_value=-0.086311817727983006 0.051790225943895409 -0.043912967226722027 0.0021815900093851946 0.060716724724454045 -0.0098651100921890028 -0.018332678939969767 0.03377997714893094
leaf_weight=20 27 22 39 34 23 21 28
leaf_count=20 27 22 39 34 23 21 28
internal_value=0.00555804 -0.00111719 0.00908575 0.0294445 -0.00672478 0.00463827 0.0140969
internal_weight=214 187 167 73 94 72 51
internal_count=214 187 167 73 94 72 51
is_linear=0
shrinkage=0.05


Tree=88
num_leaves=7
num_cat=0
split_feature=1 0 0 5 4 0
split_gain=24.5436 19.8189 14.7288 10.1555 13.0729 11.8659
threshold=153.50000000000003 150.50000000000003 154.50000000000003 141.50000000000003 148.50000000000003 132.50000000000003
decision_type=2 2 2 2 2 2
left_child=2 -2 3 5 -5 -1
right_child=1 -3 -4 4 -6 -7
leaf_value=-0.036551118251823243 -0.045970103134002009 0.0099241375923156752 0.047676278042296572 0.0030636260208363338 0.0495915356450356 0.010505889177423072
leaf_weight=21 35 29 30 36 26 37
leaf_count=21 35 29 30 36 26 37
internal_value=0.00528014 -0.020643 0.0163407 0.00850679 0.0225753 -0.00653199
internal_weight=214 64 150 120 62 58
internal_count=214 64 150 120 62 58
is_linear=0
shrinkage=0.05


Tree=89
num_leaves=7
num_cat=0
split_feature=7 1 4 7 5 1
split_gain=24.5849 11.415 12.2511 10.7221 8.79166 7.47787
threshold=18.500000000000004 154.50000000000003 141.50000000000003 -1.4999999999999998 142.50000000000003 139.50000000000003
decision_type=2 2 2 2 2 2
left_child=1 3 -3 4 -1 -5
right_child=-2 2 -4 5 -6 -7
leaf_value=-0.0292926242045159 0.049616273427037179 -0.046674257047474382 0.0038901003077626232 0.0017145449126308614 0.0072628213582854526 0.034054249228957376
leaf_weight=29 27 25 23 33 38 39
leaf_count=29 27 25 23 33 38 39
internal_value=0.00501613 -0.00142346 -0.0224455 0.00583595 -0.00855968 0.0192319
internal_weight=214 187 48 139 67 72
internal_count=214 187 48 139 67 72
is_linear=0
shrinkage=0.05


Tree=90
num_leaves=9
num_cat=0
split_feature=7 4 1 7 6 6 7 5
split_gain=16.6814 27.6505 17.6384 16.5707 14.7585 22.5022 11.9893 4.08505
threshold=-1.4999999999999998 156.50000000000003 151.50000000000003 17.500000000000004 139.50000000000003 129.50000000000003 -13.499999999999998 140.50000000000003
decision_type=2 2 2 2 2 2 2 2
left_child=4 2 3 7 5 -1 -6 -2
right_child=1 -3 -4 -5 6 -7 -8 -9
leaf_value=-0.029767470099031926 0.040439701080322271 -0.034099281550911457 -0.0089190190713852643 0.078453441094607113 -0.058671679661016579 0.042749148672041687 -0.011019884224868182 0.011414610304766232
leaf_weight=20 22 23 25 20 22 23 33 27
leaf_count=20 22 23 25 20 22 23 33 27
internal_value=0.00229361 0.01504 0.0270634 0.0401005 -0.012924 0.00902049 -0.0300806 0.0244463
internal_weight=215 117 94 69 98 43 55 49
internal_count=215 117 94 69 98 43 55 49
is_linear=0
shrinkage=0.05


Tree=91
num_leaves=8
num_cat=0
split_feature=0 4 0 0 1 4 6
split_gain=31.1747 23.0418 21.0662 8.65857 12.926 3.41295 3.71264
threshold=136.50000000000003 151.50000000000003 128.50000000000003 158.50000000000003 137.50000000000003 131.50000000000003 147.50000000000003
decision_type=2 2 2 2 2 2 2
left_child=1 2 -1 4 -2 -6 -7
right_child=3 -3 -4 -5 5 6 -8
leaf_value=0.034540499225258828 0.03320532827041088 -0.064654655589644491 -0.032647250685840845 0.041190646864749769 0.015064452969956966 0.0034134564890215798 -0.022400705000528924
leaf_weight=20 39 24 28 27 21 30 26
leaf_count=20 39 24 28 27 21 30 26
internal_value=0.00217893 -0.0246531 -0.00465235 0.0156888 0.00975299 -0.00212547 -0.00857169
internal_weight=215 72 48 143 116 77 56
internal_count=215 72 48 143 116 77 56
is_linear=0
shrinkage=0.05


Tree=92
num_leaves=9
num_cat=0
split_feature=7 4 7 6 6 7 7 5
split_gain=16.1664 23.2361 25.0139 12.8256 19.9587 11.1053 6.0137 4.57207
threshold=-1.4999999999999998 154.50000000000003 18.500000000000004 139.50000000000003 129.50000000000003 -13.499999999999998 10.500000000000002 139.50000000000003
decision_type=2 2 2 2 2 2 2 2
left_child=3 2 6 4 -1 -5 7 -2
right_child=1 -3 -4 5 -6 -7 -8 -9
leaf_value=-0.028984000477939843 0.0063489510151355164 -0.02606349075558009 0.073165347223932101 -0.056421465174803002 0.039311480339940474 -0.010560020906004039 -0.0096714876422827889 0.037875577305322108
leaf_weight=20 23 27 22 22 23 33 22 23
leaf_count=20 23 27 22 22 23 33 22 23
internal_value=0.00206998 0.0146181 0.0268225 -0.0129109 0.00754614 -0.0289046 0.0118293 0.0221123
internal_weight=215 117 90 98 43 55 68 46
internal_count=215 117 90 98 43 55 68 46
is_linear=0
shrinkage=0.05


Tree=93
num_leaves=8
num_cat=0
split_feature=0 4 0 0 1 0 3
split_gain=29.5677 19.4991 18.0008 7.77873 11.627 3.05931 2.99849
threshold=136.50000000000003 151.50000000000003 128.50000000000003 158.50000000000003 136.50000000000003 151.50000000000003 148.50000000000003
decision_type=2 2 2 2 2 2 2
left_child=1 2 -1 4 -2 6 -6
right_child=3 -3 -4 -5 5 -7 -8
leaf_value=0.030463462695479393 0.032176776884711891 -0.060963035755169898 -0.031643784358831389 0.039295011579438495 -0.0049731991308576921 -0.017865588285383725 0.01840202136208182
leaf_weight=20 38 24 28 27 34 21 23
leaf_count=20 38 24 28 27 34 21 23
internal_value=0.00196648 -0.0241649 -0.00576576 0.0151235 0.0094974 -0.00155153 0.00445891
internal_weight=215 72 48 143 116 78 57
internal_count=215 72 48 143 116 78 57
is_linear=0
shrinkage=0.05


Tree=94
num_leaves=9
num_cat=0
split_feature=0 7 7 6 2 6 6 3
split_gain=26.6849 34.564 34.4974 18.1225 10.3746 7.55337 7.01661 3.61683
threshold=136.50000000000003 2.5000000000000004 -13.499999999999998 139.50000000000003 140.50000000000003 154.50000000000003 144.50000000000003 139.50000000000003
decision_type=2 2 2 2 2 2 2 2
left_child=1 -1 3 -2 -3 6 7 -4
right_child=2 4 5 -5 -6 -7 -8 -9
leaf_value=-0.076943895267322662 0.0091588869366956791 0.023192701737085979 0.017792657195102601 -0.054317105442962865 -0.021988116480686049 0.057589192074235712 0.0013299079221421076 0.044497353839688003
leaf_weight=21 23 24 21 22 27 21 24 32
leaf_count=21 23 24 21 22 27 21 24 32
internal_value=0.00186816 -0.0229566 0.0143673 -0.0218738 -0.000726555 0.0310087 0.0237595 0.0339162
internal_weight=215 72 143 45 51 98 77 53
internal_count=215 72 143 45 51 98 77 53
is_linear=0
shrinkage=0.05


Tree=95
num_leaves=8
num_cat=0
split_feature=7 0 0 5 7 6 3
split_gain=23.4033 33.1705 23.4201 22.1462 18.9076 13.405 10.7006
threshold=-1.0000000180025095e-35 141.50000000000003 134.50000000000003 142.50000000000003 -16.499999999999996 145.50000000000003 145.50000000000003
decision_type=2 2 2 2 2 2 2
left_child=1 -1 3 -2 -3 -6 -4
right_child=2 4 6 -5 5 -7 -8
leaf_value=-0.070660275136205292 -0.036530781718741717 -0.029088030509555187 0.02264702406109256 0.024744621738791467 0.035084932901164788 -0.01622900303453207 0.068041746850524637
leaf_weight=22 29 39 34 30 35 20 21
leaf_count=22 29 39 34 30 35 20 21
internal_value=0.000418499 -0.0153928 0.0165072 -0.0053738 -0.00245788 0.0164253 0.0399796
internal_weight=230 116 114 59 94 55 55
internal_count=230 116 114 59 94 55 55
is_linear=0
shrinkage=0.05


Tree=96
num_leaves=9
num_cat=0
split_feature=7 0 0 2 7 3 6 7
split_gain=21.1215 29.9364 21.1366 23.2819 17.0685 9.65725 7.48688 2.13024
threshold=-1.0000000180025095e-35 141.50000000000003 134.50000000000003 146.50000000000003 -19.499999999999996 145.50000000000003 145.50000000000003 -7.4999999999999991
decision_type=2 2 2 2 2 2 2 2
left_child=1 -1 3 -2 -3 -4 7 -6
right_child=2 4 5 -5 6 -7 -8 -9
leaf_value=-0.067127259991883126 0.019114327652228848 -0.03130250678143718 0.021514672725735345 -0.045837792068381206 0.037566742086783053 0.064639658099483882 -0.010839549735898063 0.014489493081346156
leaf_weight=22 37 33 34 22 20 21 21 20
leaf_count=22 37 33 34 22 20 21 21 20
internal_value=0.000397574 -0.0146232 0.0156818 -0.00510511 -0.00233498 0.0379806 0.013336 0.0260281
internal_weight=230 116 114 59 94 55 61 40
internal_count=230 116 114 59 94 55 61 40
is_linear=0
shrinkage=0.05


Tree=97
num_leaves=10
num_cat=0
split_feature=1 7 1 2 0 4 6 2 0
split_gain=19.9502 19.4503 27.2422 27.0109 19.3777 15.8051 10.2388 9.35694 8.71649
threshold=153.50000000000003 -1.0000000180025095e-35 128.50000000000003 153.50000000000003 142.50000000000003 137.50000000000003 141.50000000000003 142.50000000000003 147.50000000000003
decision_type=2 2 2 2 2 2 2 2 2
left_child=1 4 -3 6 -1 -6 -4 -7 -2
right_child=8 2 3 -5 5 7 -8 -9 -10
leaf_value=-0.051360374614596374 -0.043707182059685393 -0.024612166679331235 0.03776424902936687 -0.0066048584035819482 0.038156642693945253 -0.038043075855821375 0.084448864248891684 0.010322564621455969 -0.0049175915175250599
leaf_weight=20 30 21 23 21 23 20 24 20 28
leaf_count=20 30 21 23 21 23 20 24 20 28
internal_value=0.000377696 0.00892894 0.0251662 0.0405389 -0.00848211 0.00513004 0.0616032 -0.0138603 -0.0249812
internal_weight=230 172 89 68 83 63 47 40 58
internal_count=230 172 89 68 83 63 47 40 58
is_linear=0
shrinkage=0.05


Tree=98
num_leaves=8
num_cat=0
split_feature=1 1 4 0 4 2 4
split_gain=18.005 13.4871 16.3137 7.86663 7.59479 7.72753 10.7172
threshold=153.50000000000003 145.50000000000003 131.50000000000003 147.50000000000003 156.50000000000003 135.50000000000003 143.50000000000003
decision_type=2 2 2 2 2 2 2
left_child=1 2 -1 -2 5 -4 -7
right_child=3 -3 4 -5 -6 6 -8
leaf_value=0.031273147409014844 -0.041521823170284432 0.035695970591364638 -0.022181530889689126 -0.0046717113948294099 -0.033315421990118922 -0.016576826625636646 0.030324601942416408
leaf_weight=34 30 36 28 28 24 21 29
leaf_count=34 30 36 28 28 24 21 29
internal_value=0.000358811 0.00848249 0.00127893 -0.0237321 -0.00871915 -0.00115106 0.010626
internal_weight=230 172 136 58 102 78 50
internal_count=230 172 136 58 102 78 50
is_linear=0
shrinkage=0.05


Tree=99
num_leaves=8
num_cat=0
split_feature=7 0 0 2 7 6 3
split_gain=17.6117 24.5961 18.4974 20.0131 15.6836 11.1252 8.93311
threshold=-1.0000000180025095e-35 141.50000000000003 134.50000000000003 146.50000000000003 -16.499999999999996 144.50000000000003 145.50000000000003
decision_type=2 2 2 2 2 2 2
left_child=1 -1 3 -2 -3 -6 -4
right_child=2 4 6 -5 5 -7 -8
leaf_value=-0.060966451872478837 0.017306573386933352 -0.026490572988031771 0.019321230777046262 -0.042913448522714059 0.034747674277112367 -0.010596175072714688 0.060797881794029056
leaf_weight=22 37 39 34 22 31 24 21
leaf_count=22 37 39 34 22 31 24 21
internal_value=0.00034087 -0.0133752 0.0142976 -0.00514835 -0.00223684 0.0149613 0.0351578
internal_weight=230 116 114 59 94 55 55
internal_count=230 116 114 59 94 55 55
is_linear=0
shrinkage=0.05


Tree=100
num_leaves=9
num_cat=0
split_feature=7 0 7 5 0 0 5 5
split_gain=37.4457 22.405 20.3009 20.894 15.7205 14.2781 4.79198 4.57542
threshold=-21.499999999999996 156.50000000000003 5.5000000000000009 141.50000000000003 134.50000000000003 136.50000000000003 134.50000000000003 151.50000000000003
decision_type=2 2 2 2 2 2 2 2
left_child=-1 2 5 4 -4 -2 -7 -8
right_child=1 -3 3 -5 -6 6 7 -9
leaf_value=-0.060050603220968148 -0.05183399056106628 0.050619594810100699 -0.037364150807261465 0.045754538554894301 0.025326570910401643 0.014554370567202568 -0.030149100860580803 0.002097899161956527
leaf_weight=23 21 26 20 38 20 22 22 22
leaf_count=23 21 26 20 38 20 22 22 22
internal_value=0.0002216 0.00747951 0.000681677 0.0192041 -0.00601879 -0.0159246 -0.00449894 -0.0140256
internal_weight=214 191 165 78 40 87 66 44
internal_count=214 191 165 78 40 87 66 44
is_linear=0
shrinkage=0.05


Tree=101
num_leaves=8
num_cat=0
split_feature=7 0 7 0 3 6 6
split_gain=33.7948 20.3834 17.3883 16.5138 8.41749 9.80795 4.75741
threshold=-21.499999999999996 158.50000000000003 15.500000000000002 130.50000000000003 155.50000000000003 152.50000000000003 134.50000000000003
decision_type=2 2 2 2 2 2 2
left_child=-1 2 3 -2 5 6 -5
right_child=1 -3 -4 4 -6 -7 -8
leaf_value=-0.057048073147028769 -0.047806214576675776 0.054866667035967112 0.030852323980667652 0.013051781696932658 -0.02714870091189038 0.028501701081062064 -0.017216482262729722
leaf_weight=23 21 20 39 21 22 34 34
leaf_count=23 21 20 39 21 22 34 34
internal_value=0.00021052 0.00710553 0.00151944 -0.0071471 0.000545166 0.00739084 -0.00565951
internal_weight=214 191 171 132 111 89 55
internal_count=214 191 171 132 111 89 55
is_linear=0
shrinkage=0.05


Tree=102
num_leaves=8
num_cat=0
split_feature=2 6 6 0 2 2 5
split_gain=18.8866 19.7651 17.4271 26.9929 9.98658 6.54948 7.17168
threshold=132.50000000000003 129.50000000000003 135.50000000000003 130.50000000000003 124.50000000000001 148.50000000000003 147.50000000000003
decision_type=2 2 2 2 2 2 2
left_child=4 -2 -3 -4 -1 -5 -7
right_child=1 2 3 5 -6 6 -8
leaf_value=0.00072364911437034613 -0.044595220648953993 0.042782510910183195 -0.060405058078467848 -0.011280400109918494 0.042618960198579414 0.033444774821745578 -0.0060584593145176771
leaf_weight=25 31 20 20 38 33 27 20
leaf_count=25 31 20 20 38 33 27 20
internal_value=0.000199994 -0.00885717 5.86869e-06 -0.00814206 0.0245606 0.00415511 0.0166349
internal_weight=214 156 125 105 58 85 47
internal_count=214 156 125 105 58 85 47
is_linear=0
shrinkage=0.05


Tree=103
num_leaves=8
num_cat=0
split_feature=7 2 1 1 1 2 4
split_gain=30.7694 12.7695 13.6407 20.0229 10.7413 6.64119 11.5334
threshold=-21.499999999999996 132.50000000000003 138.50000000000003 128.50000000000003 138.50000000000003 144.50000000000003 139.50000000000003
decision_type=2 2 2 2 2 2 2
left_child=-1 4 3 -3 -2 -4 -7
right_child=1 2 5 -5 -6 6 -8
leaf_value=-0.054445580727137302 0.0013696150684898551 -0.016817161387630872 -0.031903806626796725 0.047769459865854257 0.047366500703307494 -0.029029559314250948 0.015435692689248492
leaf_weight=23 22 21 30 28 30 25 35
leaf_count=23 22 21 30 28 30 25 35
internal_value=0.000189994 0.00676915 -0.00113827 0.0200895 0.0279063 -0.0126956 -0.0030915
internal_weight=214 191 139 49 52 90 60
internal_count=214 191 139 49 52 90 60
is_linear=0
shrinkage=0.05


Tree=104
num_leaves=9
num_cat=0
split_feature=7 0 7 4 7 0 3 3
split_gain=27.7694 18.5982 17.093 13.7452 32.3633 12.0642 2.36416 5.28287
threshold=-21.499999999999996 156.50000000000003 5.5000000000000009 153.50000000000003 18.500000000000004 135.50000000000003 135.50000000000003 147.50000000000003
decision_type=2 2 2 2 2 2 2 2
left_child=-1 2 5 4 -4 -2 -7 -8
right_child=1 -3 3 -5 -6 6 7 -9
leaf_value=-0.051723300341678706 -0.049079306339845065 0.04573537580525646 0.00036136452108621598 -0.018510169060900809 0.077336034923791888 -0.017818636746834156 0.020941515797749163 -0.013853002490941436
leaf_weight=23 20 26 36 20 22 23 20 24
leaf_count=23 20 26 36 20 22 23 20 24
internal_value=0.000180495 0.00643069 0.000237224 0.0172333 0.0295587 -0.0150006 -0.00482792 0.00196269
internal_weight=214 191 165 78 58 87 67 44
internal_count=214 191 165 78 58 87 67 44
is_linear=0
shrinkage=0.05


Tree=105
num_leaves=10
num_cat=0
split_feature=7 5 1 1 4 3 2 7 7
split_gain=15.6615 20.7792 12.8044 20.4659 10.8097 6.98295 6.11989 7.30598 5.24492
threshold=2.5000000000000004 141.50000000000003 138.50000000000003 128.50000000000003 130.50000000000003 142.50000000000003 154.50000000000003 -6.4999999999999991 14.500000000000002
decision_type=2 2 2 2 2 2 2 2 2
left_child=2 5 3 -1 -4 -2 7 -6 -3
right_child=1 8 4 -5 6 -7 -8 -9 -10
leaf_value=-0.0029347964640085897 -0.032767307534813883 0.02163084776928792 -0.034626252986490726 -0.069699568259106434 0.037846446652775229 0.0062126675862129097 -0.012481789380311966 -0.0034739685989916324 0.055227184969754456
leaf_weight=24 20 26 20 22 23 27 25 20 21
leaf_count=24 20 26 20 22 23 27 25 20 21
internal_value=-0.00251245 0.0131337 -0.0134881 -0.0348658 -0.00231342 -0.0103746 0.00719036 0.0186276 0.036642
internal_weight=228 94 134 46 88 47 68 43 47
internal_count=228 94 134 46 88 47 68 43 47
is_linear=0
shrinkage=0.05


Tree=106
num_leaves=9
num_cat=0
split_feature=7 0 1 1 7 4 4 1
split_gain=14.1345 27.5654 16.3448 22.7086 12.2868 11.3976 15.2894 14.6875
threshold=2.5000000000000004 134.50000000000003 153.50000000000003 129.50000000000003 16.500000000000004 151.50000000000003 137.50000000000003 147.50000000000003
decision_type=2 2 2 2 2 2 2 2
left_child=1 -1 3 -2 -5 6 7 -3
right_child=2 5 -4 4 -6 -7 -8 -9
leaf_value=-0.06695608457550406 -0.021737254597246649 0.033383504945136935 -0.026395960914946739 0.022048879324486764 0.071714380346238615 0.020437138788402084 -0.038501080125570297 -0.024452248393070131
leaf_weight=20 20 23 21 33 20 35 35 21
leaf_count=20 20 23 21 33 20 35 35 21
internal_value=-0.00238682 -0.0128137 0.012477 0.0236597 0.0407906 -0.00331504 -0.0138382 0.00578008
internal_weight=228 134 94 73 53 114 79 44
internal_count=228 134 94 73 53 114 79 44
is_linear=0
shrinkage=0.05


Tree=107
num_leaves=9
num_cat=0
split_feature=5 0 1 5 3 0 2 2
split_gain=11.8309 17.2411 13.1837 9.5729 12.41 7.04036 6.14617 1.70807
threshold=145.50000000000003 129.50000000000003 138.50000000000003 151.50000000000003 137.50000000000003 150.50000000000003 143.50000000000003 145.50000000000003
decision_type=2 2 2 2 2 2 2 2
left_child=1 -1 -3 -2 -5 7 -6 -4
right_child=3 2 5 4 6 -7 -8 -9
leaf_value=-0.047323616035282616 0.031817425749100313 -0.029319502004692632 -0.010182293585461119 -0.032723238417834401 0.032097885611912479 0.035018140785396105 -0.0027851686014660768 0.0097969268448650851
leaf_weight=28 34 31 23 21 23 20 28 20
leaf_count=28 34 31 23 21 23 20 28 20
internal_value=-0.00226748 -0.0128841 -0.00262549 0.00995161 -0.000373908 0.0105097 0.0129464 -0.000889633
internal_weight=228 122 94 106 72 63 51 43
internal_count=228 122 94 106 72 63 51 43
is_linear=0
shrinkage=0.05


Tree=108
num_leaves=9
num_cat=0
split_feature=6 4 2 6 0 2 3 0
split_gain=11.3461 11.6298 7.42376 13.8394 17.9691 3.94884 4.42869 8.96929
threshold=129.50000000000003 139.50000000000003 127.50000000000001 137.50000000000003 129.50000000000003 137.50000000000003 152.50000000000003 150.50000000000003
decision_type=2 2 2 2 2 2 2 2
left_child=1 -1 -2 -4 -5 -6 7 -7
right_child=2 -3 3 4 5 6 -8 -9
leaf_value=-0.051536559322405431 0.027905283537175918 -0.0026790208889749547 0.030486669166591665 -0.04885163510387594 -0.017119659375115906 -0.0024120393646598765 -0.012469415942376312 0.03880359396147965
leaf_weight=21 27 29 29 22 23 33 22 22
leaf_count=21 27 29 29 22 23 33 22 22
internal_value=-0.00215411 -0.0231992 0.00375743 -0.000560398 -0.00794044 0.00106002 0.00649032 0.0140742
internal_weight=228 50 178 151 122 100 77 55
internal_count=228 50 178 151 122 100 77 55
is_linear=0
shrinkage=0.05


Tree=109
num_leaves=9
num_cat=0
split_feature=7 0 5 0 4 4 1 0
split_gain=13.5308 22.7822 17.2469 17.344 9.82502 13.6317 13.1867 8.07943
threshold=2.5000000000000004 134.50000000000003 141.50000000000003 129.50000000000003 151.50000000000003 137.50000000000003 147.50000000000003 131.50000000000003
decision_type=2 2 2 2 2 2 2 2
left_child=1 -1 3 -2 5 6 -3 -4
right_child=2 4 7 -5 -6 -7 -8 -9
leaf_value=-0.061469427570700647 -0.042717118845099496 0.031296245300251511 0.056012547083876353 0.018376644404354291 0.018439932252679554 -0.036670686277960031 -0.02350497672423011 0.014466665081679823
leaf_weight=20 21 23 22 26 35 35 21 25
leaf_count=20 21 23 22 26 35 35 21 25
internal_value=-0.0020464 -0.0122482 0.0124966 -0.00892057 -0.00361287 -0.0133831 0.00514112 0.0339137
internal_weight=228 134 94 47 114 79 44 47
internal_count=228 134 94 47 114 79 44 47
is_linear=0
shrinkage=0.05


Tree=110
num_leaves=9
num_cat=0
split_feature=5 1 7 3 5 3 3 6
split_gain=12.5671 10.7266 14.2233 13.4022 8.58396 18.0414 5.57005 5.04298
threshold=145.50000000000003 142.50000000000003 4.5000000000000009 153.50000000000003 150.50000000000003 137.50000000000003 136.50000000000003 145.50000000000003
decision_type=2 2 2 2 2 2 2 2
left_child=1 2 -1 6 -2 -6 -3 -7
right_child=4 3 -4 -5 5 7 -8 -9
leaf_value=-0.048487208614824341 0.042056679539382462 0.0011554280803962188 0.0013006068210905562 -0.030418319888412954 -0.034413444343954325 0.0370173270169359 0.036735211960463358 0.0044909029013731261
leaf_weight=32 21 22 26 20 20 26 22 22
leaf_count=32 21 22 26 20 20 26 22 22
internal_value=-0.000172396 -0.0105946 -0.0261685 0.00351918 0.0141143 0.00548502 0.0189453 0.0221094
internal_weight=211 122 58 64 89 68 44 48
internal_count=211 122 58 64 89 68 44 48
is_linear=0
shrinkage=0.05


Tree=111
num_leaves=8
num_cat=0
split_feature=0 7 0 5 3 3 6
split_gain=11.5741 25.2471 21.1336 13.6351 6.26553 11.7583 4.7815
threshold=136.50000000000003 24.500000000000004 128.50000000000003 127.50000000000001 155.50000000000003 148.50000000000003 142.50000000000003
decision_type=2 2 2 2 2 2 2
left_child=1 2 -1 -2 5 6 -5
right_child=3 -3 -4 4 -6 -7 -8
leaf_value=-0.074130421451159889 -0.030046120076440277 0.029398966272405926 -0.0082687141927228116 -0.0013345596282497833 -0.0077255323231220259 0.053427635361662222 0.024094175335226786
leaf_weight=21 20 21 29 38 25 21 36
leaf_count=21 20 21 29 38 25 21 36
internal_value=-0.000163775 -0.0166078 -0.0359306 0.00817569 0.014546 0.0204069 0.0110362
internal_weight=211 71 50 140 120 95 74
internal_count=211 71 50 140 120 95 74
is_linear=0
shrinkage=0.05


Tree=112
num_leaves=9
num_cat=0
split_feature=5 2 7 2 5 1 1 6
split_gain=10.797 22.3966 16.2388 14.109 12.8348 8.00317 8.16917 1.68006
threshold=145.50000000000003 144.50000000000003 -6.4999999999999991 154.50000000000003 132.50000000000003 155.50000000000003 130.50000000000003 145.50000000000003
decision_type=2 2 2 2 2 2 2 2
left_child=1 2 -1 -3 -4 6 -2 -8
right_child=5 3 4 -5 -6 -7 7 -9
leaf_value=-0.066759518105536694 -0.0005894049219787121 0.039781917479855045 0.013820859474008499 -0.011333487579530037 -0.037933936648070814 -0.012312080180677384 0.0455515033077626 0.025302698574960231
leaf_weight=20 25 27 23 27 25 23 21 20
leaf_count=20 25 27 23 27 25 23 21 20
internal_value=-0.000155587 -0.009816 -0.0289068 0.0142242 -0.0131348 0.0130868 0.0219379 0.035674
internal_weight=211 122 68 54 48 89 66 41
internal_count=211 122 68 54 48 89 66 41
is_linear=0
shrinkage=0.05


Tree=113
num_leaves=7
num_cat=0
split_feature=7 2 5 2 7 1
split_gain=10.043 11.5171 21.9279 13.5995 9.58494 6.37232
threshold=18.500000000000004 144.50000000000003 145.50000000000003 153.50000000000003 -6.4999999999999991 144.50000000000003
decision_type=2 2 2 2 2 2
left_child=1 2 4 -3 -1 -5
right_child=-2 3 -4 5 -6 -7
leaf_value=-0.063421540637500592 0.02773954542520057 0.034049376201900565 0.013820051556654476 -0.026632797475094384 -0.020847635155018324 0.0081024840143659425
leaf_weight=20 28 33 37 23 39 31
leaf_count=20 28 33 37 23 39 31
internal_value=-0.000147807 -0.00441472 -0.0163557 0.00876152 -0.0352795 -0.00669217
internal_weight=211 183 96 87 59 54
internal_count=211 183 96 87 59 54
is_linear=0
shrinkage=0.05


Tree=114
num_leaves=9
num_cat=0
split_feature=0 7 0 5 3 3 2 2
split_gain=10.9383 21.8278 19.1875 11.1935 5.58706 10.0676 3.50229 0.771136
threshold=136.50000000000003 24.500000000000004 128.50000000000003 127.50000000000001 155.50000000000003 148.50000000000003 146.50000000000003 130.50000000000003
decision_type=2 2 2 2 2 2 2 2
left_child=1 2 -1 -2 5 6 7 -5
right_child=3 -3 -4 4 -6 -7 -8 -9
leaf_value=-0.070491660492760802 -0.026664250567555427 0.026651660184420292 -0.0077355802621178584 -0.0063687615818344067 -0.0072925613820552827 0.04982775010811609 0.022400504328748762 0.007515909858047962
leaf_weight=21 20 21 29 20 25 21 34 20
leaf_count=21 20 21 29 20 25 21 34 20
internal_value=-0.000140417 -0.0161264 -0.0340931 0.00796674 0.0137386 0.0192731 0.0106022 0.000573574
internal_weight=211 71 50 140 120 95 74 40
internal_count=211 71 50 140 120 95 74 40
is_linear=0
shrinkage=0.05


Tree=115
num_leaves=9
num_cat=0
split_feature=7 0 0 7 5 5 6 0
split_gain=19.4436 38.4831 16.9724 13.1142 6.86996 5.73379 5.50999 5.05437
threshold=24.500000000000004 128.50000000000003 159.50000000000003 -2.4999999999999996 150.50000000000003 134.50000000000003 137.50000000000003 153.50000000000003
decision_type=2 2 2 2 2 2 2 2
left_child=1 -1 3 6 5 -5 -3 -8
right_child=-2 2 -4 4 -6 -7 7 -9
leaf_value=-0.066166252642869947 0.046764611896304861 0.0025333899789704729 0.04735163961304352 0.025301879625767472 0.037371052659693219 -0.0080882784522448969 -0.013106115216449386 -0.045345943439751867
leaf_weight=22 21 26 20 20 21 36 31 20
leaf_count=22 21 26 20 20 21 36 31 20
internal_value=0.00104029 -0.00385874 0.00401922 -0.00160837 0.0129825 0.00383678 -0.0161992 -0.0257492
internal_weight=217 196 174 154 77 56 77 51
internal_count=217 196 174 154 77 56 77 51
is_linear=0
shrinkage=0.05


Tree=116
num_leaves=9
num_cat=0
split_feature=7 0 0 7 5 5 3 7
split_gain=17.5479 34.731 15.3176 11.8356 6.20014 5.17474 5.11821 8.87637
threshold=24.500000000000004 128.50000000000003 159.50000000000003 -2.4999999999999996 150.50000000000003 134.50000000000003 140.50000000000003 -16.499999999999996
decision_type=2 2 2 2 2 2 2 2
left_child=1 -1 3 6 5 -5 -3 -8
right_child=-2 2 -4 4 -6 -7 7 -9
leaf_value=-0.062857939980246802 0.044426382421737631 -0.00050412625300161763 0.044984057769179346 0.024036786183714867 0.035502498774301443 -0.0076838642695090838 -0.048011996443180938 -0.0030505344182962463
leaf_weight=22 21 33 20 20 21 36 23 21
leaf_count=22 21 33 20 20 21 36 23 21
internal_value=0.000988278 -0.0036658 0.00381826 -0.00152795 0.0123334 0.00364494 -0.0153893 -0.0265531
internal_weight=217 196 174 154 77 56 77 44
internal_count=217 196 174 154 77 56 77 44
is_linear=0
shrinkage=0.05


Tree=117
num_leaves=9
num_cat=0
split_feature=7 0 0 7 5 6 3 5
split_gain=15.837 31.3447 13.8242 10.6816 5.59563 5.13065 9.35405 4.69383
threshold=24.500000000000004 128.50000000000003 159.50000000000003 -2.4999999999999996 150.50000000000003 137.50000000000003 138.50000000000003 135.50000000000003
decision_type=2 2 2 2 2 2 2 2
left_child=1 -1 3 5 7 -3 -7 -5
right_child=-2 2 -4 4 -6 6 -8 -9
leaf_value=-0.059715042534199625 0.042205063643909635 0.0034564882910882049 0.04273485443554819 0.021458346062255176 0.033727374947851614 0.0017586946664821534 -0.041750863734632736 -0.0081815540763166029
leaf_weight=22 21 26 20 22 21 21 30 34
leaf_count=22 21 26 20 22 21 21 30 34
internal_value=0.000938864 -0.00348251 0.00362735 -0.00145155 0.0117167 -0.0146198 -0.0238352 0.00346269
internal_weight=217 196 174 154 77 77 51 56
internal_count=217 196 174 154 77 77 51 56
is_linear=0
shrinkage=0.05


Tree=118
num_leaves=9
num_cat=0
split_feature=7 0 0 7 5 0 0 5
