{"learner":{"attributes":{"best_iteration":"502","best_score":"2.037041937757716"},"feature_names":["year","month","day","dayofweek","dayofweek_sin","dayofweek_cos","month_sin","month_cos","heart_rate_ma7","heart_rate_ema","heart_rate_lag1","heart_rate_lag2","heart_rate_lag3","heart_rate_lag4","heart_rate_lag5","heart_rate_lag6","heart_rate_lag7","heart_rate_ma7_lag1","heart_rate_ma7_lag2","heart_rate_ma7_lag3","heart_rate_ma7_lag4","heart_rate_ma7_lag5","heart_rate_ma7_lag6","heart_rate_ma7_lag7","heart_rate_diff"],"feature_types":["int","int","int","int","float","float","float","float","float","float","float","float","float","float","float","float","float","float","float","float","float","float","float","float","float"],"gradient_booster":{"model":{"cats":{"enc":[],"feature_segments":[],"sorted_idx":[]},"gbtree_model_param":{"num_parallel_tree":"1","num_trees":"553"},"iteration_indptr":[0,1,2,3,4,5,6,7,8,9,10,11,12,13,14,15,16,17,18,19,20,21,22,23,24,25,26,27,28,29,30,31,32,33,34,35,36,37,38,39,40,41,42,43,44,45,46,47,48,49,50,51,52,53,54,55,56,57,58,59,60,61,62,63,64,65,66,67,68,69,70,71,72,73,74,75,76,77,78,79,80,81,82,83,84,85,86,87,88,89,90,91,92,93,94,95,96,97,98,99,100,101,102,103,104,105,106,107,108,109,110,111,112,113,114,115,116,117,118,119,120,121,122,123,124,125,126,127,128,129,130,131,132,133,134,135,136,137,138,139,140,141,142,143,144,145,146,147,148,149,150,151,152,153,154,155,156,157,158,159,160,161,162,163,164,165,166,167,168,169,170,171,172,173,174,175,176,177,178,179,180,181,182,183,184,185,186,187,188,189,190,191,192,193,194,195,196,197,198,199,200,201,202,203,204,205,206,207,208,209,210,211,212,213,214,215,216,217,218,219,220,221,222,223,224,225,226,227,228,229,230,231,232,233,234,235,236,237,238,239,240,241,242,243,244,245,246,247,248,249,250,251,252,253,254,255,256,257,258,259,260,261,262,263,264,265,266,267,268,269,270,271,272,273,274,275,276,277,278,279,280,281,282,283,284,285,286,287,288,289,290,291,292,293,294,295,296,297,298,299,300,301,302,303,304,305,306,307,308,309,310,311,312,313,314,315,316,317,318,319,320,321,322,323,324,325,326,327,328,329,330,331,332,333,334,335,336,337,338,339,340,341,342,343,344,345,346,347,348,349,350,351,352,353,354,355,356,357,358,359,360,361,362,363,364,365,366,367,368,369,370,371,372,373,374,375,376,377,378,379,380,381,382,383,384,385,386,387,388,389,390,391,392,393,394,395,396,397,398,399,400,401,402,403,404,405,406,407,408,409,410,411,412,413,414,415,416,417,418,419,420,421,422,423,424,425,426,427,428,429,430,431,432,433,434,435,436,437,438,439,440,441,442,443,444,445,446,447,448,449,450,451,452,453,454,455,456,457,458,459,460,461,462,463,464,465,466,467,468,469,470,471,472,473,474,475,476,477,478,479,480,481,482,483,484,485,486,487,488,489,490,491,492,493,494,495,496,497,498,499,500,501,502,503,504,505,506,507,508,509,510,511,512,513,514,515,516,517,518,519,520,521,522,523,524,525,526,527,528,529,530,531,532,533,534,535,536,537,538,539,540,541,542,543,544,545,546,547,548,549,550,551,552,553],"tree_info":[0,0,0,0,0,0,0,0,0,0,0,0,0,0,0,0,0,0,0,0,0,0,0,0,0,0,0,0,0,0,0,0,0,0,0,0,0,0,0,0,0,0,0,0,0,0,0,0,0,0,0,0,0,0,0,0,0,0,0,0,0,0,0,0,0,0,0,0,0,0,0,0,0,0,0,0,0,0,0,0,0,0,0,0,0,0,0,0,0,0,0,0,0,0,0,0,0,0,0,0,0,0,0,0,0,0,0,0,0,0,0,0,0,0,0,0,0,0,0,0,0,0,0,0,0,0,0,0,0,0,0,0,0,0,0,0,0,0,0,0,0,0,0,0,0,0,0,0,0,0,0,0,0,0,0,0,0,0,0,0,0,0,0,0,0,0,0,0,0,0,0,0,0,0,0,0,0,0,0,0,0,0,0,0,0,0,0,0,0,0,0,0,0,0,0,0,0,0,0,0,0,0,0,0,0,0,0,0,0,0,0,0,0,0,0,0,0,0,0,0,0,0,0,0,0,0,0,0,0,0,0,0,0,0,0,0,0,0,0,0,0,0,0,0,0,0,0,0,0,0,0,0,0,0,0,0,0,0,0,0,0,0,0,0,0,0,0,0,0,0,0,0,0,0,0,0,0,0,0,0,0,0,0,0,0,0,0,0,0,0,0,0,0,0,0,0,0,0,0,0,0,0,0,0,0,0,0,0,0,0,0,0,0,0,0,0,0,0,0,0,0,0,0,0,0,0,0,0,0,0,0,0,0,0,0,0,0,0,0,0,0,0,0,0,0,0,0,0,0,0,0,0,0,0,0,0,0,0,0,0,0,0,0,0,0,0,0,0,0,0,0,0,0,0,0,0,0,0,0,0,0,0,0,0,0,0,0,0,0,0,0,0,0,0,0,0,0,0,0,0,0,0,0,0,0,0,0,0,0,0,0,0,0,0,0,0,0,0,0,0,0,0,0,0,0,0,0,0,0,0,0,0,0,0,0,0,0,0,0,0,0,0,0,0,0,0,0,0,0,0,0,0,0,0,0,0,0,0,0,0,0,0,0,0,0,0,0,0,0,0,0,0,0,0,0,0,0,0,0,0,0,0,0,0,0,0,0,0,0,0,0,0,0,0,0,0,0,0,0,0,0,0,0,0,0,0,0,0,0,0,0,0,0,0,0,0,0,0,0,0,0,0,0,0,0,0,0,0,0,0,0,0,0,0,0,0,0,0,0,0,0,0,0,0,0,0,0,0,0,0,0,0,0],"trees":[{"base_weights":[-9.367045E-2,-4.42289E0,4.760239E0,-7.322182E0,-1.5459783E0,2.6070974E0,8.9844885E0,2.3302434E-1,-8.084363E0,1.0896385E0,-7.322572E0,7.784259E0,-6.575048E-1,9.641577E0,-7.6691383E-1,-4.766914E0,1.9748609E-1,-8.235057E0,-1.5009269E-2,4.0796475E0,-1.805115E0,-2.250278E0,-8.1803465E0,8.3308613E-1,8.324645E0,4.8746758E0,-1.9060745E0,4.9705106E-1,1.7498764E-1,-6.500927E-2,4.9907304E-3,-6.500927E-2,-2.9000926E-1,-5.9003477E0,-9.088595E0,-4.3358052E-1,4.6107607E0,-2.5418842E-1,-3.833663E0,-1.383457E-1,-1.5009269E-2,-9.000927E-2,-4.250172E-1,4.9907304E-3,5.4990735E-2,8.872374E0,7.498764E-2,3.1098518E-1,9.74861E-2,-3.5035753E-1,-7.1003246E0,-3.3578634E-1,-8.751391E-2,-4.610786E-1,-1.1500927E-1,4.9907304E-3,-4.000927E-2,1.0098517E-1,2.599828E-1,1.2498764E-1,-4.956231E-2,-2.6168212E-1,-3.7513908E-2,4.6656138E-1,2.224861E-1,-1.7215876E-1,3.225503E-2,-3.8644448E-1,-6.500927E-2],"categories":[],"categories_nodes":[],"categories_segments":[],"categories_sizes":[],"default_left":[0,0,0,0,0,0,0,0,0,0,0,0,0,0,0,0,0,0,0,0,0,0,0,0,0,0,0,0,0,0,0,0,0,0,0,0,0,0,0,0,0,0,0,0,0,0,0,0,0,0,0,0,0,0,0,0,0,0,0,0,0,0,0,0,0,0,0,0,0],"id":0,"left_children":[1,3,5,7,9,11,13,15,17,19,21,23,25,27,29,31,-1,33,-1,35,37,39,41,43,45,47,49,-1,-1,-1,-1,-1,-1,51,53,55,57,59,61,-1,-1,-1,-1,-1,-1,63,-1,-1,-1,65,67,-1,-1,-1,-1,-1,-1,-1,-1,-1,-1,-1,-1,-1,-1,-1,-1,-1,-1],"loss_changes":[4.412871E3,9.1364526E2,8.758628E2,3.193828E2,8.7642096E2,1.1382228E3,2.1973022E2,1.302458E2,5.532544E1,3.5380527E2,5.8864624E1,8.9813354E1,2.9910178E2,2.0878174E1,1.6364193E0,2.4948654E0,0E0,4.2520752E1,0E0,5.0357544E1,6.4685455E1,2.8926544E0,1.4292419E1,3.5701275E-1,7.537305E1,1.852951E1,2.7959467E2,0E0,0E0,0E0,0E0,0E0,0E0,4.1541138E1,8.328369E0,7.36543E-1,1.624176E1,2.8714598E1,3.432498E1,0E0,0E0,0E0,0E0,0E0,0E0,1.7462158E0,0E0,0E0,0E0,8.8706566E1,1.8214203E1,0E0,0E0,0E0,0E0,0E0,0E0,0E0,0E0,0E0,0E0,0E0,0E0,0E0,0E0,0E0,0E0,0E0,0E0],"parents":[2147483647,0,0,1,1,2,2,3,3,4,4,5,5,6,6,7,7,8,8,9,9,10,10,11,11,12,12,13,13,14,14,15,15,17,17,19,19,20,20,21,21,22,22,23,23,24,24,25,25,26,26,33,33,34,34,35,35,36,36,37,37,38,38,45,45,49,49,50,50],"right_children":[2,4,6,8,10,12,14,16,18,20,22,24,26,28,30,32,-1,34,-1,36,38,40,42,44,46,48,50,-1,-1,-1,-1,-1,-1,52,54,56,58,60,62,-1,-1,-1,-1,-1,-1,64,-1,-1,-1,66,68,-1,-1,-1,-1,-1,-1,-1,-1,-1,-1,-1,-1,-1,-1,-1,-1,-1,-1],"split_conditions":[7.773544E1,7.529881E1,8.148864E1,7.271429E1,7.771429E1,7.785714E1,8.4E1,7.353905E1,8.8E1,7.6E1,6.9E1,6.6E1,7.4E1,9.1E1,4E0,1.1E1,1.9748609E-1,7.1E1,-1.5009269E-2,5E0,8.2E1,9E0,6.9E1,6E0,8.3E1,8E0,8.228571E1,4.9705106E-1,1.7498764E-1,-6.500927E-2,4.9907304E-3,-6.500927E-2,-2.9000926E-1,7.7E1,3E1,1.1E1,-7.818315E-1,7.342857E1,7.674024E1,-1.383457E-1,-1.5009269E-2,-9.000927E-2,-4.250172E-1,4.9907304E-3,5.4990735E-2,8.6E1,7.498764E-2,3.1098518E-1,9.74861E-2,1.4E1,2E1,-3.3578634E-1,-8.751391E-2,-4.610786E-1,-1.1500927E-1,4.9907304E-3,-4.000927E-2,1.0098517E-1,2.599828E-1,1.2498764E-1,-4.956231E-2,-2.6168212E-1,-3.7513908E-2,4.6656138E-1,2.224861E-1,-1.7215876E-1,3.225503E-2,-3.8644448E-1,-6.500927E-2],"split_indices":[9,9,9,17,17,17,18,9,13,10,10,15,10,12,1,1,0,15,0,1,10,1,16,1,23,1,17,0,0,0,0,0,0,22,2,2,4,18,9,0,0,0,0,0,0,10,0,0,0,2,2,0,0,0,0,0,0,0,0,0,0,0,0,0,0,0,0,0,0],"split_type":[0,0,0,0,0,0,0,0,0,0,0,0,0,0,0,0,0,0,0,0,0,0,0,0,0,0,0,0,0,0,0,0,0,0,0,0,0,0,0,0,0,0,0,0,0,0,0,0,0,0,0,0,0,0,0,0,0,0,0,0,0,0,0,0,0,0,0,0,0],"sum_hessian":[2.08E2,1.1E2,9.8E1,5.4E1,5.6E1,6.6E1,3.2E1,5E0,4.9E1,3.9E1,1.7E1,2.5E1,4.1E1,3E1,2E0,2E0,3E0,4.8E1,1E0,1.9E1,2E1,3E0,1.4E1,2E0,2.3E1,7E0,3.4E1,2.8E1,2E0,1E0,1E0,1E0,1E0,1.5E1,3.3E1,2E0,1.7E1,1.2E1,8E0,2E0,1E0,1E0,1.3E1,1E0,1E0,2.1E1,2E0,4E0,3E0,2.7E1,7E0,1.2E1,3E0,3.2E1,1E0,1E0,1E0,4E0,1.3E1,2E0,1E1,5E0,3E0,1.8E1,3E0,6E0,2.1E1,6E0,1E0],"tree_param":{"num_deleted":"0","num_feature":"25","num_nodes":"69","size_leaf_vector":"1"}},{"base_weights":[2.8159564E-2,-4.196338E0,5.874521E0,-6.3655653E0,4.21058E0,-4.833128E-1,8.06914E0,-8.655785E0,-4.8197403E0,6.6204184E-1,6.944285E0,-4.0990715E0,2.6056612E0,8.432017E0,1.569662E-1,-1.396432E-1,-8.908155E0,-7.1913943E0,-2.4423954E0,1.0274323E-1,-1.6788831E0,9.057907E-2,7.640437E0,-4.7489318E-1,-2.6931387E-1,3.374635E0,-5.245651E-2,8.633961E0,1.7510955E0,-1.4381954E-1,-9.183523E0,-1.4071426E-2,-7.4245563E0,-4.4642515E0,5.2011106E-3,4.86599E-3,-1.08613186E-1,2.0575118E-1,4.4381332E-1,5.2466165E-2,-6.830366E-2,7.1786502E-3,1.836692E-1,7.349125E-2,8.733859E0,1.4721619E-1,-1.3384017E-2,-1.527074E-1,-4.7386098E-1,-3.8438383E-1,-1.3179968E-1,-2.9197863E-1,-8.254988E-2,-5.1202007E-2,1.1442458E-1,3.8906848E-1,5.2276856E-1],"categories":[],"categories_nodes":[],"categories_segments":[],"categories_sizes":[],"default_left":[0,0,0,0,0,0,0,0,0,0,0,0,0,0,0,0,0,0,0,0,0,0,0,0,0,0,0,0,0,0,0,0,0,0,0,0,0,0,0,0,0,0,0,0,0,0,0,0,0,0,0,0,0,0,0,0,0],"id":1,"left_children":[1,3,5,7,9,11,13,15,17,19,21,23,25,27,-1,-1,29,31,33,-1,35,-1,37,39,-1,41,-1,43,45,-1,47,-1,49,51,53,-1,-1,-1,-1,-1,-1,-1,-1,-1,55,-1,-1,-1,-1,-1,-1,-1,-1,-1,-1,-1,-1],"loss_changes":[5.0631987E3,2.1971636E3,1.2046187E3,2.932605E2,2.3715842E2,2.677168E2,8.686279E1,2.8697021E1,3.1412842E2,4.26134E1,3.5237488E1,4.817166E1,4.0308685E1,6.3443848E1,0E0,0E0,3.0511963E1,4.3863037E1,1.5387846E2,0E0,4.800618E0,0E0,1.4456543E1,6.8985314E0,0E0,9.708954E0,0E0,2.6936523E1,8.282383E0,0E0,2.9208008E1,0E0,1.3982056E1,5.538495E1,3.7720802E1,0E0,0E0,0E0,0E0,0E0,0E0,0E0,0E0,0E0,8.643555E0,0E0,0E0,0E0,0E0,0E0,0E0,0E0,0E0,0E0,0E0,0E0,0E0],"parents":[2147483647,0,0,1,1,2,2,3,3,4,4,5,5,6,6,7,7,8,8,9,9,10,10,11,11,12,12,13,13,16,16,17,17,18,18,20,20,22,22,23,23,25,25,27,27,28,28,30,30,32,32,33,33,34,34,44,44],"right_children":[2,4,6,8,10,12,14,16,18,20,22,24,26,28,-1,-1,30,32,34,-1,36,-1,38,40,-1,42,-1,44,46,-1,48,-1,50,52,54,-1,-1,-1,-1,-1,-1,-1,-1,-1,56,-1,-1,-1,-1,-1,-1,-1,-1,-1,-1,-1,-1],"split_conditions":[2E0,8.049371E1,7.676339E1,7.5164E1,-7E0,8E0,9.1E1,2E0,-9E0,8.6E1,8.4E1,7.342857E1,8.7E1,8.4E1,1.569662E-1,-1.396432E-1,6.6E1,6.7E1,8E1,1.0274323E-1,5E0,9.057907E-2,-3E0,-7.818315E-1,-2.6931387E-1,7.491754E1,-5.245651E-2,7.285714E1,7E0,-1.4381954E-1,7.242857E1,-1.4071426E-2,3E1,-1E0,-3E0,4.86599E-3,-1.08613186E-1,2.0575118E-1,4.4381332E-1,5.2466165E-2,-6.830366E-2,7.1786502E-3,1.836692E-1,7.349125E-2,8.15854E1,1.4721619E-1,-1.3384017E-2,-1.527074E-1,-4.7386098E-1,-3.8438383E-1,-1.3179968E-1,-2.9197863E-1,-8.254988E-2,-5.1202007E-2,1.1442458E-1,3.8906848E-1,5.2276856E-1],"split_indices":[24,9,9,9,24,24,14,2,24,15,10,17,13,18,0,0,13,14,10,0,2,0,24,4,0,9,0,20,2,0,19,0,2,24,24,0,0,0,0,0,0,0,0,0,9,0,0,0,0,0,0,0,0,0,0,0,0],"split_type":[0,0,0,0,0,0,0,0,0,0,0,0,0,0,0,0,0,0,0,0,0,0,0,0,0,0,0,0,0,0,0,0,0,0,0,0,0,0,0,0,0,0,0,0,0,0,0,0,0,0,0,0,0,0,0,0,0],"sum_hessian":[2.03E2,1.18E2,8.5E1,9.4E1,2.4E1,2.2E1,6.3E1,3.6E1,5.8E1,1.1E1,1.3E1,1E1,1.2E1,5.8E1,5E0,2E0,3.4E1,2.8E1,3E1,7E0,4E0,2E0,1.1E1,3E0,7E0,1E1,2E0,5.6E1,2E0,2E0,3.2E1,1E0,2.7E1,1.6E1,1.4E1,1E0,3E0,4E0,7E0,1E0,2E0,1E0,9E0,1E0,5.5E1,1E0,1E0,2E0,3E1,2.5E1,2E0,1E1,6E0,1E1,4E0,3.9E1,1.6E1],"tree_param":{"num_deleted":"0","num_feature":"25","num_nodes":"57","size_leaf_vector":"1"}},{"base_weights":[1.8669324E-1,-3.6697757E0,5.149949E0,-5.4984713E0,9.778318E-1,3.074968E0,7.435724E0,-8.001188E0,-3.8950503E0,-6.483185E0,4.671764E0,-2.562171E0,6.5052123E0,6.549922E-2,7.6938543E0,-8.522767E0,-2.0640483E0,-7.930079E0,-1.3598888E0,-3.5855934E-1,-9.977249E-2,1.3413417E0,6.9476833E0,-3.8850641E0,1.1554233E0,3.8405876E0,4.6312076E-1,7.807237E0,7.362934E-2,-1.02796905E-1,-4.3357095E-1,-4.114146E-1,-1.7304875E-1,-7.499138E-2,-8.1716E0,-2.2380602E0,1.8711975E0,-1.1543631E-2,1.7274864E0,2.0672917E-1,4.264093E-1,-4.7725487E0,-1.7417461E0,1.8954175E0,-6.1113704E-2,6.9370806E-1,4.4170494E0,7.960207E0,1.5914406E-1,-3.8100395E-2,4.744301E-3,-1.1663586E-1,-4.1754362E-1,-1.6001509E-1,-3.400233E-2,1.2696163E-1,-2.7635957E-3,7.479248E-3,9.467629E-2,-2.6182738E-1,-9.555178E-2,-1.09289244E-1,-2.678894E-2,1.0830019E-1,1.7826805E-2,-1.3049468E-2,5.6613516E-2,8.353892E-2,2.3516695E-1,2.920356E-1,4.3410894E-1],"categories":[],"categories_nodes":[],"categories_segments":[],"categories_sizes":[],"default_left":[0,0,0,0,0,0,0,0,0,0,0,0,0,0,0,0,0,0,0,0,0,0,0,0,0,0,0,0,0,0,0,0,0,0,0,0,0,0,0,0,0,0,0,0,0,0,0,0,0,0,0,0,0,0,0,0,0,0,0,0,0,0,0,0,0,0,0,0,0,0,0],"id":2,"left_children":[1,3,5,7,9,11,13,15,17,19,21,23,25,-1,27,29,31,33,35,-1,-1,37,39,41,43,45,-1,47,-1,-1,-1,49,-1,-1,51,53,55,-1,57,-1,-1,59,61,63,-1,65,67,69,-1,-1,-1,-1,-1,-1,-1,-1,-1,-1,-1,-1,-1,-1,-1,-1,-1,-1,-1,-1,-1,-1,-1],"loss_changes":[4.1151445E3,1.0342147E3,4.219204E2,3.167683E2,9.9472375E2,1.0032368E3,5.8595215E1,8.354077E1,5.509067E2,2.1824371E1,1.7176642E2,1.03121445E2,1.9821777E2,0E0,1.7201172E1,9.938477E0,7.423296E0,1.939087E1,1.03535225E2,0E0,0E0,7.226612E0,2.5718811E1,1.956842E1,1.2940928E1,2.907779E1,0E0,2.552246E0,0E0,0E0,0E0,6.7153287E-1,0E0,0E0,3.864746E-1,3.941278E1,1.068434E1,0E0,1.8703938E0,0E0,0E0,2.5554047E0,1.7697258E0,1.0574894E0,0E0,2.0574157E0,3.2977905E0,7.515869E0,0E0,0E0,0E0,0E0,0E0,0E0,0E0,0E0,0E0,0E0,0E0,0E0,0E0,0E0,0E0,0E0,0E0,0E0,0E0,0E0,0E0,0E0,0E0],"parents":[2147483647,0,0,1,1,2,2,3,3,4,4,5,5,6,6,7,7,8,8,9,9,10,10,11,11,12,12,14,14,15,15,16,16,17,17,18,18,21,21,22,22,23,23,24,24,25,25,27,27,31,31,34,34,35,35,36,36,38,38,41,41,42,42,43,43,45,45,46,46,47,47],"right_children":[2,4,6,8,10,12,14,16,18,20,22,24,26,-1,28,30,32,34,36,-1,-1,38,40,42,44,46,-1,48,-1,-1,-1,50,-1,-1,52,54,56,-1,58,-1,-1,60,62,64,-1,66,68,70,-1,-1,-1,-1,-1,-1,-1,-1,-1,-1,-1,-1,-1,-1,-1,-1,-1,-1,-1,-1,-1,-1,-1],"split_conditions":[2E0,8.7E1,1.1E1,-7E0,-1.2E1,7.4E1,7.3E1,8.242857E1,7.5E1,-1.5E1,-6E0,7.2E1,8E1,6.549922E-2,9.1E1,6.6E1,3E0,2E0,8.2E1,-3.5855934E-1,-9.977249E-2,8.8E1,-3E0,8.1E1,1.3E1,3E0,4.6312076E-1,8.3E1,7.362934E-2,-1.02796905E-1,-4.3357095E-1,4E0,-1.7304875E-1,-7.499138E-2,6.6E1,-2E0,7.5E1,-1.1543631E-2,7.8E1,2.0672917E-1,4.264093E-1,2.2E1,1.9E1,1.2E1,-6.1113704E-2,4E0,7.285714E1,8E0,1.5914406E-1,-3.8100395E-2,4.744301E-3,-1.1663586E-1,-4.1754362E-1,-1.6001509E-1,-3.400233E-2,1.2696163E-1,-2.7635957E-3,7.479248E-3,9.467629E-2,-2.6182738E-1,-9.555178E-2,-1.09289244E-1,-2.678894E-2,1.0830019E-1,1.7826805E-2,-1.3049468E-2,5.6613516E-2,8.353892E-2,2.3516695E-1,2.920356E-1,4.3410894E-1],"split_indices":[24,10,24,24,24,10,20,19,10,24,24,10,10,0,14,12,3,2,10,0,0,10,24,13,2,24,0,22,0,0,0,1,0,0,14,24,13,0,13,0,0,2,2,1,0,1,20,2,0,0,0,0,0,0,0,0,0,0,0,0,0,0,0,0,0,0,0,0,0,0,0],"split_type":[0,0,0,0,0,0,0,0,0,0,0,0,0,0,0,0,0,0,0,0,0,0,0,0,0,0,0,0,0,0,0,0,0,0,0,0,0,0,0,0,0,0,0,0,0,0,0,0,0,0,0,0,0,0,0,0,0,0,0,0,0,0,0,0,0,0,0,0,0,0,0],"sum_hessian":[2.13E2,1.2E2,9.3E1,8.6E1,3.4E1,5E1,4.3E1,3.2E1,5.4E1,1.1E1,2.3E1,1.9E1,3.1E1,2E0,4.1E1,2.9E1,3E0,2E1,3.4E1,9E0,2E0,1E1,1.3E1,1.4E1,5E0,1.7E1,1.4E1,4E1,1E0,1E0,2.8E1,2E0,1E0,1E0,1.9E1,2.7E1,7E0,2E0,8E0,6E0,7E0,9E0,5E0,4E0,1E0,3E0,1.4E1,3.8E1,2E0,1E0,1E0,1E0,1.8E1,1.6E1,1.1E1,5E0,2E0,1E0,7E0,7E0,2E0,3E0,2E0,3E0,1E0,1E0,2E0,2E0,1.2E1,1.2E1,2.6E1],"tree_param":{"num_deleted":"0","num_feature":"25","num_nodes":"71","size_leaf_vector":"1"}},{"base_weights":[1.4863437E-1,-3.3401942E0,4.7635574E0,-6.0321403E0,1.6969552E0,5.4496133E-1,7.63865E0,-8.20851E0,-4.009683E0,-1.6794214E0,4.725427E0,-1.7397649E0,4.087036E0,8.040475E0,1.433195E-1,-4.0173583E0,-8.56986E0,-5.772373E0,-1.2885083E0,-5.0862207E0,2.4283284E-1,-6.033526E-1,6.1647563E0,-3.2871745E0,1.3472992E-1,4.767228E0,1.6171674E0,8.280745E0,1.322499E0,-2.1840438E-2,-2.3891465E-1,-4.3657002E-1,-7.443749E-2,-6.897814E0,-3.1593428E0,-4.680307E-1,-1.7361198E-1,-2.900246E-1,-9.6446835E-2,1.3194833E0,-3.0228267E0,-9.443179E-2,4.864479E-1,1.950476E-1,7.802085E0,-4.850506E0,-1.9626889E0,5.6463588E-2,4.9862E0,8.920448E-2,2.1236954E-2,8.470407E0,3.9570212E0,-1.2723312E-2,1.1441075E-1,-2.0541087E-1,-3.9709637E-1,-7.209116E-3,-1.9413051E-1,-7.76472E-2,1.0986015E-2,-9.166126E-3,9.2594944E-2,-3.7147865E-2,-1.7508988E-1,4.874588E-2,-0E0,1.0725266E-1,4.0905967E-1,-2.6264206E-1,-4.835392E-2,-1.5029353E-1,-3.869317E-2,5.8046687E-2,2.6213166E-1,4.3057233E-1,1.7490067E-1,2.5054738E-1,1.7381057E-2],"categories":[],"categories_nodes":[],"categories_segments":[],"categories_sizes":[],"default_left":[0,0,0,0,0,0,0,0,0,0,0,0,0,0,0,0,0,0,0,0,0,0,0,0,0,0,0,0,0,0,0,0,0,0,0,0,0,0,0,0,0,0,0,0,0,0,0,0,0,0,0,0,0,0,0,0,0,0,0,0,0,0,0,0,0,0,0,0,0,0,0,0,0,0,0,0,0,0,0],"id":3,"left_children":[1,3,5,7,9,11,13,15,17,19,21,23,25,27,-1,29,31,33,35,37,39,41,43,45,-1,47,49,51,53,-1,-1,-1,-1,55,57,59,-1,-1,-1,61,63,-1,65,-1,67,69,71,-1,73,-1,-1,75,77,-1,-1,-1,-1,-1,-1,-1,-1,-1,-1,-1,-1,-1,-1,-1,-1,-1,-1,-1,-1,-1,-1,-1,-1,-1,-1],"loss_changes":[3.5904036E3,1.7327559E3,1.1593887E3,3.3119897E2,4.683774E2,3.3105206E2,8.516626E1,2.3377441E1,2.0770264E2,1.4579161E2,1.8835248E2,1.8046127E2,1.8531921E1,7.2022705E1,0E0,1.1014122E1,2.6015137E1,5.6603577E1,3.2023205E1,6.079529E0,5.6557842E1,9.463156E0,3.8819336E1,2.9140213E1,0E0,3.316986E0,1.6558647E-2,6.2421875E0,5.3543487E0,0E0,0E0,0E0,0E0,1.8595642E1,2.0845184E1,1.1666788E1,0E0,0E0,0E0,1.0107756E1,1.3418007E0,0E0,9.544023E-1,0E0,2.864624E0,6.7976227E0,1.2177826E1,0E0,4.063446E0,0E0,0E0,1.6271973E0,1.29384E1,0E0,0E0,0E0,0E0,0E0,0E0,0E0,0E0,0E0,0E0,0E0,0E0,0E0,0E0,0E0,0E0,0E0,0E0,0E0,0E0,0E0,0E0,0E0,0E0,0E0,0E0],"parents":[2147483647,0,0,1,1,2,2,3,3,4,4,5,5,6,6,7,7,8,8,9,9,10,10,11,11,12,12,13,13,15,15,16,16,17,17,18,18,19,19,20,20,21,21,22,22,23,23,25,25,26,26,27,27,28,28,33,33,34,34,35,35,39,39,40,40,42,42,44,44,45,45,46,46,48,48,51,51,52,52],"right_children":[2,4,6,8,10,12,14,16,18,20,22,24,26,28,-1,30,32,34,36,38,40,42,44,46,-1,48,50,52,54,-1,-1,-1,-1,56,58,60,-1,-1,-1,62,64,-1,66,-1,68,70,72,-1,74,-1,-1,76,78,-1,-1,-1,-1,-1,-1,-1,-1,-1,-1,-1,-1,-1,-1,-1,-1,-1,-1,-1,-1,-1,-1,-1,-1,-1,-1],"split_conditions":[2E0,7.882147E1,7.761473E1,7.561021E1,-7E0,1.1E1,9.1E1,7.3E1,-6E0,-1.2E1,8.3E1,7.3E1,5E0,9.1E1,1.433195E-1,3E0,3E1,2.3E1,2.7E1,1.9E1,8.2E1,-5E-1,8.172424E1,5E0,1.3472992E-1,6E0,6E0,1.2E1,4E0,-2.1840438E-2,-2.3891465E-1,-4.3657002E-1,-7.443749E-2,7.628571E1,-7.818315E-1,7.8E1,-1.7361198E-1,-2.900246E-1,-9.6446835E-2,8.8E1,4E0,-9.443179E-2,4E0,1.950476E-1,7E1,7.2E1,6.7E1,5.6463588E-2,6.6E1,8.920448E-2,2.1236954E-2,8.342857E1,4E0,-1.2723312E-2,1.1441075E-1,-2.0541087E-1,-3.9709637E-1,-7.209116E-3,-1.9413051E-1,-7.76472E-2,1.0986015E-2,-9.166126E-3,9.2594944E-2,-3.7147865E-2,-1.7508988E-1,4.874588E-2,-0E0,1.0725266E-1,4.0905967E-1,-2.6264206E-1,-4.835392E-2,-1.5029353E-1,-3.869317E-2,5.8046687E-2,2.6213166E-1,4.3057233E-1,1.7490067E-1,2.5054738E-1,1.7381057E-2],"split_indices":[24,9,9,9,24,24,14,17,24,24,10,10,3,12,0,3,2,2,2,2,14,7,9,24,0,1,2,1,1,0,0,0,0,20,4,10,0,0,0,10,1,0,1,0,14,10,10,0,14,0,0,21,2,0,0,0,0,0,0,0,0,0,0,0,0,0,0,0,0,0,0,0,0,0,0,0,0,0,0],"split_type":[0,0,0,0,0,0,0,0,0,0,0,0,0,0,0,0,0,0,0,0,0,0,0,0,0,0,0,0,0,0,0,0,0,0,0,0,0,0,0,0,0,0,0,0,0,0,0,0,0,0,0,0,0,0,0,0,0,0,0,0,0,0,0,0,0,0,0,0,0,0,0,0,0,0,0,0,0,0,0],"sum_hessian":[2.21E2,1.26E2,9.5E1,8.2E1,4.4E1,3.9E1,5.6E1,3.8E1,4.4E1,2.1E1,2.3E1,2.4E1,1.5E1,5.1E1,5E0,4E0,3.4E1,2.6E1,1.8E1,7E0,1.4E1,5E0,1.8E1,1.8E1,6E0,1.1E1,4E0,4.9E1,2E0,1E0,3E0,3.3E1,1E0,1.7E1,9E0,1.4E1,4E0,5E0,2E0,1.1E1,3E0,2E0,3E0,9E0,9E0,7E0,1.1E1,1E0,1E1,3E0,1E0,4.6E1,3E0,1E0,1E0,6E0,1.1E1,2E0,7E0,5E0,9E0,3E0,8E0,1E0,2E0,1E0,2E0,1E0,8E0,6E0,1E0,5E0,6E0,1E0,9E0,4.4E1,2E0,2E0,1E0],"tree_param":{"num_deleted":"0","num_feature":"25","num_nodes":"79","size_leaf_vector":"1"}},{"base_weights":[-1.04004E-1,-3.1127634E0,4.84949E0,-4.8836513E0,1.212687E0,-7.9568917E-1,5.7367105E0,-8.204293E0,-3.5974495E0,-5.4926786E0,5.459614E0,-4.0621195E0,4.569737E0,4.531168E0,8.051271E0,-1.4574455E-1,-8.519456E0,-5.971515E0,-6.796916E-1,-3.337203E-1,-1.5379971E0,3.1806045E0,4.2750335E-1,-8.664113E-1,-2.4831434E-1,5.936848E-2,2.5467432E-1,1.4266981E0,7.0041914E0,8.225267E0,1.0308396E-1,-4.3687412E-1,-8.512112E-2,-7.1460752E0,-3.609148E0,-2.0529025E0,2.2442667E0,4.977379E-3,-9.9863514E-2,1.384882E0,2.0547748E-1,-5.406914E-3,-5.707394E-2,-9.6647906E-1,3.3496404E0,4.584562E0,4.3137956E-1,1.0504528E-1,4.206049E-1,-6.220242E-2,-3.6679956E-1,-2.7925918E-1,-5.847348E-2,-1.9195174E-1,-4.1884813E-2,5.5723038E-2,1.9589059E-1,8.447742E-2,-8.577881E-3,4.9201053E-2,-7.601852E-2,9.906558E-2,1.972341E-1,1.05190806E-1,2.7211234E-1],"categories":[],"categories_nodes":[],"categories_segments":[],"categories_sizes":[],"default_left":[0,0,0,0,0,0,0,0,0,0,0,0,0,0,0,0,0,0,0,0,0,0,0,0,0,0,0,0,0,0,0,0,0,0,0,0,0,0,0,0,0,0,0,0,0,0,0,0,0,0,0,0,0,0,0,0,0,0,0,0,0,0,0,0,0],"id":4,"left_children":[1,3,5,7,9,11,13,15,17,19,21,23,25,27,29,-1,31,33,35,-1,37,39,-1,41,-1,-1,-1,43,45,47,-1,-1,-1,49,51,53,55,-1,-1,57,-1,-1,-1,59,61,63,-1,-1,-1,-1,-1,-1,-1,-1,-1,-1,-1,-1,-1,-1,-1,-1,-1,-1,-1],"loss_changes":[3.2341577E3,1.0403744E3,4.1575732E2,3.79323E2,1.1690724E3,2.2882152E2,1.6037134E2,1.7365967E1,4.8708948E2,6.3687195E1,1.4771191E2,1.8229523E1,2.181633E0,3.653581E2,5.9833984E0,0E0,1.9752197E1,8.1348145E1,1.370901E2,0E0,4.1489964E0,2.0449356E1,0E0,3.773291E-1,0E0,0E0,0E0,1.0932033E2,6.518164E1,6.4487305E0,0E0,0E0,0E0,1.8037964E1,6.5106186E1,4.6238342E1,1.5929119E1,0E0,0E0,3.7610168E0,0E0,0E0,0E0,1.3433726E1,2.1765137E0,1.5455994E1,0E0,0E0,0E0,0E0,0E0,0E0,0E0,0E0,0E0,0E0,0E0,0E0,0E0,0E0,0E0,0E0,0E0,0E0,0E0],"parents":[2147483647,0,0,1,1,2,2,3,3,4,4,5,5,6,6,7,7,8,8,9,9,10,10,11,11,12,12,13,13,14,14,16,16,17,17,18,18,20,20,21,21,23,23,27,27,28,28,29,29,33,33,34,34,35,35,36,36,39,39,43,43,44,44,45,45],"right_children":[2,4,6,8,10,12,14,16,18,20,22,24,26,28,30,-1,32,34,36,-1,38,40,-1,42,-1,-1,-1,44,46,48,-1,-1,-1,50,52,54,56,-1,-1,58,-1,-1,-1,60,62,64,-1,-1,-1,-1,-1,-1,-1,-1,-1,-1,-1,-1,-1,-1,-1,-1,-1,-1,-1],"split_conditions":[3E0,8.7E1,6.6E1,-9E0,-1.1E1,1.4E1,1.5E1,-8.660254E-1,7.8E1,-1.5E1,-3E0,7.414286E1,5E0,7.4E1,9.1E1,-1.4574455E-1,1.2E1,7.5E1,-2E0,-3.337203E-1,-1.8369701E-16,-7E0,4.2750335E-1,8E0,-2.4831434E-1,5.936848E-2,2.5467432E-1,1E1,7.9E1,7.314286E1,1.0308396E-1,-4.3687412E-1,-8.512112E-2,2E0,-2E0,8.1E1,8.3E1,4.977379E-3,-9.9863514E-2,1.1E1,2.0547748E-1,-5.406914E-3,-5.707394E-2,7E0,8.2E1,7E0,4.3137956E-1,1.0504528E-1,4.206049E-1,-6.220242E-2,-3.6679956E-1,-2.7925918E-1,-5.847348E-2,-1.9195174E-1,-4.1884813E-2,5.5723038E-2,1.9589059E-1,8.447742E-2,-8.577881E-3,4.9201053E-2,-7.601852E-2,9.906558E-2,1.972341E-1,1.05190806E-1,2.7211234E-1],"split_indices":[24,10,10,24,24,24,24,7,10,24,24,19,2,10,16,0,1,10,24,0,7,24,0,1,0,0,0,24,10,19,0,0,0,2,24,10,10,0,0,1,0,0,0,2,12,24,0,0,0,0,0,0,0,0,0,0,0,0,0,0,0,0,0,0,0],"split_type":[0,0,0,0,0,0,0,0,0,0,0,0,0,0,0,0,0,0,0,0,0,0,0,0,0,0,0,0,0,0,0,0,0,0,0,0,0,0,0,0,0,0,0,0,0,0,0,0,0,0,0,0,0,0,0,0,0,0,0,0,0,0,0,0,0],"sum_hessian":[2.15E2,1.34E2,8.1E1,9.5E1,3.9E1,1.1E1,7E1,2.5E1,7E1,1.5E1,2.4E1,7E0,4E0,4.8E1,2.2E1,2E0,2.3E1,3.8E1,3.2E1,1.1E1,4E0,1.5E1,9E0,2E0,5E0,1E0,3E0,2.2E1,2.6E1,2.1E1,1E0,2.2E1,1E0,2.4E1,1.4E1,2.2E1,1E1,1E0,3E0,6E0,9E0,1E0,1E0,1E1,1.2E1,1.2E1,1.4E1,1E0,2E1,1E0,2.3E1,7E0,7E0,8E0,1.4E1,7E0,3E0,5E0,1E0,2E0,8E0,5E0,7E0,4E0,8E0],"tree_param":{"num_deleted":"0","num_feature":"25","num_nodes":"65","size_leaf_vector":"1"}},{"base_weights":[-1.957949E-2,-3.24723E0,3.9469032E0,-5.996434E0,7.4443394E-1,4.944908E-2,6.3885365E0,-7.27952E0,-3.541231E0,-5.354822E0,1.8908533E0,-1.9403206E0,3.2364507E0,5.2306643E0,4.1899273E-1,-2.2469573E0,-7.583109E0,-5.312638E0,-6.336183E-1,-2.8854677E-1,-5.85508E-2,-3.400071E-1,3.5823321E0,-3.808022E0,1.0452635E0,2.2934823E-1,1.4688804E0,2.1829941E0,7.16732E0,-2.2016868E-2,-1.3345258E-1,-7.7539654E0,-1.1949883E-2,-3.9792977E-2,-5.5540323E0,4.4371012E-1,-1.0175772E-1,-1.802267E0,1.8833835E0,9.356237E-1,5.398865E0,-1.8956224E-2,-4.298689E0,-9.1795164E-1,1.2618661E-1,9.490292E-2,8.7564595E-2,-7.365377E-2,2.7753417E0,1.0853676E-1,7.518339E0,-2.024723E-2,-3.9625338E-1,-2.8702107E-1,-7.11147E-2,-7.453499E-3,2.9200925E-2,-1.3638E-1,9.359589E-4,2.291804E-2,1.1326655E-1,-4.004832E-2,7.1082E-2,7.223965E-2,2.792097E-1,-2.3601504E-1,-6.432747E-2,-0E0,-7.795433E-2,-5.271683E-3,1.4339027E-2,6.906483E-2,2.0784612E-1,3.875535E-1,6.327473E-2],"categories":[],"categories_nodes":[],"categories_segments":[],"categories_sizes":[],"default_left":[0,0,0,0,0,0,0,0,0,0,0,0,0,0,0,0,0,0,0,0,0,0,0,0,0,0,0,0,0,0,0,0,0,0,0,0,0,0,0,0,0,0,0,0,0,0,0,0,0,0,0,0,0,0,0,0,0,0,0,0,0,0,0,0,0,0,0,0,0,0,0,0,0,0,0],"id":5,"left_children":[1,3,5,7,9,11,13,15,17,19,21,23,25,27,-1,29,31,33,35,-1,-1,37,39,41,43,-1,45,47,49,-1,-1,51,-1,-1,53,55,-1,57,59,61,63,-1,65,67,-1,-1,69,-1,71,-1,73,-1,-1,-1,-1,-1,-1,-1,-1,-1,-1,-1,-1,-1,-1,-1,-1,-1,-1,-1,-1,-1,-1,-1,-1],"loss_changes":[2.739662E3,1.2999095E3,9.125912E2,1.9365576E2,3.5240173E2,2.4738252E2,9.084253E1,5.0730713E1,1.2995389E2,6.4754333E0,1.6002731E2,1.3808496E2,2.8463638E1,2.1951013E2,0E0,1.5640354E0,5.004834E1,1.2389984E1,1.7671227E1,0E0,0E0,6.515857E1,1.0970322E2,2.3139206E1,3.1502766E1,0E0,4.377878E0,4.1034798E1,2.4804443E1,0E0,0E0,4.751245E1,0E0,0E0,2.670807E0,7.127583E-1,0E0,2.0542168E1,3.04356E0,1.0484874E1,1.4884033E0,0E0,9.835785E0,3.0790768E0,0E0,0E0,1.63716E-1,0E0,2.259401E1,0E0,2.1304443E1,0E0,0E0,0E0,0E0,0E0,0E0,0E0,0E0,0E0,0E0,0E0,0E0,0E0,0E0,0E0,0E0,0E0,0E0,0E0,0E0,0E0,0E0,0E0,0E0],"parents":[2147483647,0,0,1,1,2,2,3,3,4,4,5,5,6,6,7,7,8,8,9,9,10,10,11,11,12,12,13,13,15,15,16,16,17,17,18,18,21,21,22,22,23,23,24,24,26,26,27,27,28,28,31,31,34,34,35,35,37,37,38,38,39,39,40,40,42,42,43,43,46,46,48,48,50,50],"right_children":[2,4,6,8,10,12,14,16,18,20,22,24,26,28,-1,30,32,34,36,-1,-1,38,40,42,44,-1,46,48,50,-1,-1,52,-1,-1,54,56,-1,58,60,62,64,-1,66,68,-1,-1,70,-1,72,-1,74,-1,-1,-1,-1,-1,-1,-1,-1,-1,-1,-1,-1,-1,-1,-1,-1,-1,-1,-1,-1,-1,-1,-1,-1],"split_conditions":[1E0,7.8559204E1,7.675614E1,-4E0,-1.2E1,1.1E1,8E1,6.6E1,7.7E1,2E1,8.7E1,7.3E1,7.1E1,1E1,4.1899273E-1,8E0,7.748058E1,6.6E1,7.828571E1,-2.8854677E-1,-5.85508E-2,-3E0,-7E0,6.6E1,3E0,2.2934823E-1,6E0,6.9E1,3E0,-2.2016868E-2,-1.3345258E-1,7.228571E1,-1.1949883E-2,-3.9792977E-2,2.9E1,5E0,-1.0175772E-1,8.5E1,8.2E1,8.8E1,-7.818315E-1,-1.8956224E-2,9E0,6E0,1.2618661E-1,9.490292E-2,8E0,-7.365377E-2,8E0,1.0853676E-1,9.1E1,-2.024723E-2,-3.9625338E-1,-2.8702107E-1,-7.11147E-2,-7.453499E-3,2.9200925E-2,-1.3638E-1,9.359589E-4,2.291804E-2,1.1326655E-1,-4.004832E-2,7.1082E-2,7.223965E-2,2.792097E-1,-2.3601504E-1,-6.432747E-2,-0E0,-7.795433E-2,-5.271683E-3,1.4339027E-2,6.906483E-2,2.0784612E-1,3.875535E-1,6.327473E-2],"split_indices":[24,9,9,24,24,24,10,13,10,2,10,10,14,24,0,2,9,11,21,0,0,24,24,11,24,0,2,10,2,0,0,8,0,0,2,1,0,10,10,10,4,0,24,1,0,0,1,0,24,0,11,0,0,0,0,0,0,0,0,0,0,0,0,0,0,0,0,0,0,0,0,0,0,0,0],"split_type":[0,0,0,0,0,0,0,0,0,0,0,0,0,0,0,0,0,0,0,0,0,0,0,0,0,0,0,0,0,0,0,0,0,0,0,0,0,0,0,0,0,0,0,0,0,0,0,0,0,0,0,0,0,0,0,0,0,0,0,0,0,0,0,0,0,0,0,0,0,0,0,0,0,0,0],"sum_hessian":[2.12E2,1.17E2,9.5E1,6.9E1,4.8E1,3.7E1,5.8E1,4.4E1,2.5E1,7E0,4.1E1,2.3E1,1.4E1,3.9E1,1.9E1,3E0,4.1E1,1.5E1,1E1,6E0,1E0,1.8E1,2.3E1,1.4E1,9E0,7E0,7E0,1.6E1,2.3E1,1E0,2E0,4E1,1E0,1E0,1.4E1,6E0,4E0,1.1E1,7E0,1E1,1.3E1,2E0,1.2E1,4E0,5E0,5E0,2E0,2E0,1.4E1,2E0,2.1E1,1E0,3.9E1,1.3E1,1E0,1E0,5E0,7E0,4E0,2E0,5E0,2E0,8E0,1E0,1.2E1,1E1,2E0,2E0,2E0,1E0,1E0,8E0,6E0,2E1,1E0],"tree_param":{"num_deleted":"0","num_feature":"25","num_nodes":"75","size_leaf_vector":"1"}},{"base_weights":[4.8277276E-3,-3.2667906E0,3.790574E0,-5.1941247E0,9.2481065E-1,5.3870104E-2,6.622662E0,-7.6133695E0,-4.0401726E0,-4.439435E0,2.2825253E0,-2.1303842E0,3.4541616E0,5.3761635E0,8.893045E0,-9.402233E-2,-7.769723E0,-6.3315825E0,-2.4160986E0,-2.511531E-1,-8.7951764E-2,3.8402852E-1,3.8175209E0,-5.165224E0,-1.5184945E-1,4.3007336E0,1.4951584E0,6.3522077E0,2.852671E0,4.5716134E-1,1.0724465E-1,-3.9567828E-1,-1.0903355E-1,-6.488769E0,-6.9336854E-2,-1.2559873E0,-5.1807785E0,-1.0062298E0,1.4337817E0,1.3989522E0,4.700345E0,-2.967558E-1,-1.1545675E-1,-2.1460807E0,1.3032142E0,8.1069164E-2,2.5012928E-1,8.4543355E-2,1.01124786E-1,3.3614138E-1,1.21139124E-1,4.2222834E0,1.0612485E0,-3.4249023E-1,-1.5633295E-1,-1.3916507E-1,-1.3890161E-2,-2.7529186E-1,-5.3881228E-2,-7.2111875E-2,1.1263274E-3,3.32804E-2,9.475996E-2,-0E0,1.0456512E-1,5.6348383E-2,2.4568276E-1,9.641037E-3,-1.2610206E-1,-2.4828019E-2,1.20843984E-1,-5.139885E-3,1.3980636E-2,2.497112E-1,7.47477E-2,1.0682809E-1,-1.2718849E-2],"categories":[],"categories_nodes":[],"categories_segments":[],"categories_sizes":[],"default_left":[0,0,0,0,0,0,0,0,0,0,0,0,0,0,0,0,0,0,0,0,0,0,0,0,0,0,0,0,0,0,0,0,0,0,0,0,0,0,0,0,0,0,0,0,0,0,0,0,0,0,0,0,0,0,0,0,0,0,0,0,0,0,0,0,0,0,0,0,0,0,0,0,0,0,0,0,0],"id":6,"left_children":[1,3,5,7,9,11,13,15,17,19,21,23,25,27,29,-1,31,33,35,-1,-1,37,39,41,43,45,47,49,51,-1,-1,-1,-1,53,-1,55,57,59,61,63,65,-1,-1,67,69,-1,-1,71,-1,-1,-1,73,75,-1,-1,-1,-1,-1,-1,-1,-1,-1,-1,-1,-1,-1,-1,-1,-1,-1,-1,-1,-1,-1,-1,-1,-1],"loss_changes":[2.7248635E3,9.5850745E2,1.0784083E3,1.9420215E2,2.866758E2,3.4171063E2,1.149043E2,6.833374E0,1.9594836E2,3.0008698E0,8.845352E1,1.6681096E2,2.284198E1,7.948047E1,1.1336914E1,0E0,1.0284424E0,8.091309E0,1.05106094E2,0E0,0E0,2.3376892E1,2.9112396E1,9.658264E0,5.5112297E1,1.3792587E1,4.8253965E0,2.3574585E1,2.6886955E1,0E0,0E0,0E0,0E0,4.289795E0,0E0,3.776453E1,6.7460938E0,3.31428E0,1.6725006E0,5.7517805E0,3.0052795E0,0E0,0E0,7.7538986E0,2.3439974E1,0E0,0E0,1.5605855E-1,0E0,0E0,0E0,6.622307E0,1.063468E1,0E0,0E0,0E0,0E0,0E0,0E0,0E0,0E0,0E0,0E0,0E0,0E0,0E0,0E0,0E0,0E0,0E0,0E0,0E0,0E0,0E0,0E0,0E0,0E0],"parents":[2147483647,0,0,1,1,2,2,3,3,4,4,5,5,6,6,7,7,8,8,9,9,10,10,11,11,12,12,13,13,14,14,16,16,17,17,18,18,21,21,22,22,23,23,24,24,25,25,26,26,27,27,28,28,33,33,35,35,36,36,37,37,38,38,39,39,40,40,43,43,44,44,47,47,51,51,52,52],"right_children":[2,4,6,8,10,12,14,16,18,20,22,24,26,28,30,-1,32,34,36,-1,-1,38,40,42,44,46,48,50,52,-1,-1,-1,-1,54,-1,56,58,60,62,64,66,-1,-1,68,70,-1,-1,72,-1,-1,-1,74,76,-1,-1,-1,-1,-1,-1,-1,-1,-1,-1,-1,-1,-1,-1,-1,-1,-1,-1,-1,-1,-1,-1,-1,-1],"split_conditions":[1E0,7.882147E1,7.761473E1,-1.2E1,-1.2E1,1E1,8.15854E1,4E0,7.7E1,1.9E1,-7E0,6.8E1,7.9E1,7.928571E1,8.242857E1,-9.402233E-2,1.2E1,3E1,7.828571E1,-2.511531E-1,-8.7951764E-2,8.8E1,8.6E1,8E0,5E0,-7.818315E-1,6.234898E-1,9.1E1,1.9E1,4.5716134E-1,1.0724465E-1,-3.9567828E-1,-1.0903355E-1,7.722338E1,-6.9336854E-2,7.597299E1,2.9E1,8.9E1,-9E0,7.4E1,1E0,-2.967558E-1,-1.1545675E-1,6E0,7.2E1,8.1069164E-2,2.5012928E-1,8E0,1.01124786E-1,3.3614138E-1,1.21139124E-1,7.9E1,6.234898E-1,-3.4249023E-1,-1.5633295E-1,-1.3916507E-1,-1.3890161E-2,-2.7529186E-1,-5.3881228E-2,-7.2111875E-2,1.1263274E-3,3.32804E-2,9.475996E-2,-0E0,1.0456512E-1,5.6348383E-2,2.4568276E-1,9.641037E-3,-1.2610206E-1,-2.4828019E-2,1.20843984E-1,-5.139885E-3,1.3980636E-2,2.497112E-1,7.47477E-2,1.0682809E-1,-1.2718849E-2],"split_indices":[24,9,9,24,24,24,9,1,10,2,24,10,16,17,21,0,1,2,18,0,0,10,10,24,24,4,5,14,2,0,0,0,0,9,0,9,2,13,24,11,3,0,0,1,10,0,0,1,0,0,0,11,5,0,0,0,0,0,0,0,0,0,0,0,0,0,0,0,0,0,0,0,0,0,0,0,0],"split_type":[0,0,0,0,0,0,0,0,0,0,0,0,0,0,0,0,0,0,0,0,0,0,0,0,0,0,0,0,0,0,0,0,0,0,0,0,0,0,0,0,0,0,0,0,0,0,0,0,0,0,0,0,0,0,0,0,0,0,0,0,0,0,0,0,0,0,0,0,0,0,0,0,0,0,0,0,0],"sum_hessian":[2.18E2,1.17E2,1.01E2,8E1,3.7E1,4.4E1,5.7E1,2.4E1,5.6E1,7E0,3E1,2.7E1,1.7E1,3.9E1,1.8E1,1E0,2.3E1,2.2E1,3.4E1,5E0,2E0,1.4E1,1.6E1,1E1,1.7E1,1.1E1,6E0,2.7E1,1.2E1,1.7E1,1E0,2.2E1,1E0,2.1E1,1E0,2.5E1,9E0,6E0,8E0,5E0,1.1E1,7E0,3E0,7E0,1E1,3E0,8E0,2E0,4E0,2.4E1,3E0,6E0,6E0,1.8E1,3E0,9E0,1.6E1,8E0,1E0,4E0,2E0,4E0,4E0,2E0,3E0,1E0,1E1,1E0,6E0,4E0,6E0,1E0,1E0,4E0,2E0,3E0,3E0],"tree_param":{"num_deleted":"0","num_feature":"25","num_nodes":"77","size_leaf_vector":"1"}},{"base_weights":[2.0765777E-1,-3.0593925E0,3.8003366E0,-4.9406605E0,1.677469E0,-5.9260803E-1,5.974363E0,-6.1690283E0,-3.299304E0,-4.2901613E-2,3.8995812E0,-4.313901E0,7.144784E-1,4.743213E0,8.119032E0,-3.9026114E-1,-4.8460455E0,-4.3552437E0,-1.08336486E-1,-1.7509446E0,1.2560128E-1,1.07656896E-1,2.662074E-1,-2.4084334E-1,-8.3450675E-2,-1.3640118E0,2.6006136E0,2.4931622E0,6.4395275E0,4.146709E-1,1.0456349E-1,-2.0923383E0,-5.5284214E0,-1.9021506E0,-5.4705596E0,-7.286718E-1,6.3773316E-1,-1.3855202E-1,-6.121562E-1,-1.6495053E-1,-7.0319283E-1,3.0965207E0,5.617157E-1,-4.0518418E-1,3.4304695E0,6.7939324E0,7.712909E-2,-3.26651E-2,-1.2586462E-1,-6.760346E-2,-2.832318E-1,-1.23559944E-1,-2.0288926E-2,-1.3877463E-1,-3.0175933E-1,-2.6072313E-3,-6.7724206E-2,1.4705734E-2,4.7805175E-2,-0E0,-3.6534872E-2,2.0257186E-3,-6.73184E-2,3.0593071E-2,1.6369003E-1,-1.7171478E-3,4.0259145E-2,-5.083731E-2,2.5597993E-2,2.4543564E-1,1.1516016E-1,3.525699E-1,1.3468473E-1],"categories":[],"categories_nodes":[],"categories_segments":[],"categories_sizes":[],"default_left":[0,0,0,0,0,0,0,0,0,0,0,0,0,0,0,0,0,0,0,0,0,0,0,0,0,0,0,0,0,0,0,0,0,0,0,0,0,0,0,0,0,0,0,0,0,0,0,0,0,0,0,0,0,0,0,0,0,0,0,0,0,0,0,0,0,0,0,0,0,0,0,0,0],"id":7,"left_children":[1,3,5,7,9,11,13,15,17,19,21,23,25,27,29,-1,31,33,35,37,-1,-1,-1,-1,-1,39,41,43,45,-1,-1,47,49,51,53,55,57,-1,59,-1,61,63,65,67,69,71,-1,-1,-1,-1,-1,-1,-1,-1,-1,-1,-1,-1,-1,-1,-1,-1,-1,-1,-1,-1,-1,-1,-1,-1,-1,-1,-1],"loss_changes":[2.4648303E3,9.8885803E2,9.5911633E2,1.3797852E2,1.2288438E2,1.6881989E2,1.3711108E2,5.6155518E1,1.2038272E2,8.723689E1,2.2619583E1,3.2845764E0,1.0559908E2,1.5480762E2,5.7944336E0,0E0,3.8405273E1,6.272815E1,5.101926E0,1.1905449E1,0E0,0E0,0E0,0E0,0E0,1.3902832E1,1.205027E1,5.8741974E1,3.207373E1,0E0,0E0,2.3190594E0,3.5858154E0,7.224621E0,9.759094E0,2.3289816E0,1.4076376E-1,0E0,5.803652E-1,0E0,5.4468055E0,2.453598E0,6.852194E-1,3.9363544E0,1.4635025E1,4.3115234E0,0E0,0E0,0E0,0E0,0E0,0E0,0E0,0E0,0E0,0E0,0E0,0E0,0E0,0E0,0E0,0E0,0E0,0E0,0E0,0E0,0E0,0E0,0E0,0E0,0E0,0E0,0E0],"parents":[2147483647,0,0,1,1,2,2,3,3,4,4,5,5,6,6,7,7,8,8,9,9,10,10,11,11,12,12,13,13,14,14,16,16,17,17,18,18,19,19,25,25,26,26,27,27,28,28,31,31,32,32,33,33,34,34,35,35,36,36,38,38,40,40,41,41,42,42,43,43,44,44,45,45],"right_children":[2,4,6,8,10,12,14,16,18,20,22,24,26,28,30,-1,32,34,36,38,-1,-1,-1,-1,-1,40,42,44,46,-1,-1,48,50,52,54,56,58,-1,60,-1,62,64,66,68,70,72,-1,-1,-1,-1,-1,-1,-1,-1,-1,-1,-1,-1,-1,-1,-1,-1,-1,-1,-1,-1,-1,-1,-1,-1,-1,-1,-1],"split_conditions":[7.773544E1,5E0,-3E0,7.563101E1,1.1E1,-1.1E1,8.15854E1,-7E0,-1E0,7.2E1,4.3388373E-1,2E1,8.7E1,7E0,8.342857E1,-3.9026114E-1,6.9E1,7E1,7.8E1,6.7E1,1.2560128E-1,1.07656896E-1,2.662074E-1,-2.4084334E-1,-8.3450675E-2,8.1E1,8.8E1,7.6E1,9.1E1,4.146709E-1,1.0456349E-1,6.9E1,6.6E1,8.2E1,7E1,6E0,8E0,-1.3855202E-1,1.1E1,-1.6495053E-1,8.042857E1,-1E1,5E0,7E0,7.7E1,8.242857E1,7.712909E-2,-3.26651E-2,-1.2586462E-1,-6.760346E-2,-2.832318E-1,-1.23559944E-1,-2.0288926E-2,-1.3877463E-1,-3.0175933E-1,-2.6072313E-3,-6.7724206E-2,1.4705734E-2,4.7805175E-2,-0E0,-3.6534872E-2,2.0257186E-3,-6.73184E-2,3.0593071E-2,1.6369003E-1,-1.7171478E-3,4.0259145E-2,-5.083731E-2,2.5597993E-2,2.4543564E-1,1.1516016E-1,3.525699E-1,1.3468473E-1],"split_indices":[9,24,24,9,24,24,9,24,24,10,4,2,10,24,21,0,13,11,10,10,0,0,0,0,0,10,16,10,14,0,0,11,16,15,16,1,1,0,2,0,19,24,1,1,11,19,0,0,0,0,0,0,0,0,0,0,0,0,0,0,0,0,0,0,0,0,0,0,0,0,0,0,0],"split_type":[0,0,0,0,0,0,0,0,0,0,0,0,0,0,0,0,0,0,0,0,0,0,0,0,0,0,0,0,0,0,0,0,0,0,0,0,0,0,0,0,0,0,0,0,0,0,0,0,0,0,0,0,0,0,0,0,0,0,0,0,0,0,0,0,0,0,0,0,0,0,0,0,0],"sum_hessian":[2.08E2,1.09E2,9.9E1,7.8E1,3.1E1,3.3E1,6.6E1,4.3E1,3.5E1,1.8E1,1.3E1,8E0,2.5E1,4.4E1,2.2E1,1.7E1,2.6E1,2.6E1,9E0,1.1E1,7E0,7E0,6E0,6E0,2E0,1.2E1,1.3E1,2E1,2.4E1,2.1E1,1E0,6E0,2E1,9E0,1.7E1,5E0,4E0,5E0,6E0,2E0,1E1,1E1,3E0,5E0,1.5E1,2.2E1,2E0,2E0,4E0,1E0,1.9E1,6E0,3E0,4E0,1.3E1,3E0,2E0,3E0,1E0,1E0,5E0,5E0,5E0,1E0,9E0,1E0,2E0,3E0,2E0,5E0,1E1,2E1,2E0],"tree_param":{"num_deleted":"0","num_feature":"25","num_nodes":"73","size_leaf_vector":"1"}},{"base_weights":[2.5402686E-2,-3.031969E0,3.9345646E0,-4.850139E0,9.0494114E-1,3.041194E-1,5.887438E0,-6.635696E0,-3.5874646E0,-4.0890865E0,2.0912223E0,-1.3784746E0,2.646143E0,5.0386114E0,7.881991E0,-7.3306546E0,-4.224729E0,-1.3752888E0,-5.1605506E0,-2.3065324E-1,-8.223837E-2,1.1034219E-1,3.3682773E0,1.3683364E0,-2.8567612E0,1.0464606E0,3.5852134E0,5.761852E0,1.3336138E0,4.1401225E-1,1.6150294E-1,-9.917346E-2,-7.705042E0,-2.5741434E-1,-7.636603E-2,-1.7934607E-1,-8.591979E-1,-5.5116825E0,-1.2980346E-1,1.0115584E-1,-8.4707934E-1,1.1035984E0,4.4951353E0,-7.4417573E-1,1.1066016E-1,-3.348182E0,-7.661644E-1,-0E0,7.354292E-2,7.1706876E-2,1.990322E-1,5.943978E0,7.808403E-2,-7.896592E-2,1.907645E0,-3.9276013E-1,-1.07538E-1,-7.6659516E-2,6.1906944E-3,1.7804107E-2,-2.8729495E-1,-3.463665E-2,2.240139E-2,-8.909681E-2,-1.8906156E-2,7.26879E-2,1.0398863E-4,1.5928356E-1,2.9665717E-1,-4.5536194E-2,-7.7769854E-3,-1.9756526E-1,-6.399449E-2,-5.2729137E-2,-0E0,-1.1666451E-2,1.0939751E-2,5.150677E-2,3.0245405E-1,1.2315812E-1,6.369756E-3],"categories":[],"categories_nodes":[],"categories_segments":[],"categories_sizes":[],"default_left":[0,0,0,0,0,0,0,0,0,0,0,0,0,0,0,0,0,0,0,0,0,0,0,0,0,0,0,0,0,0,0,0,0,0,0,0,0,0,0,0,0,0,0,0,0,0,0,0,0,0,0,0,0,0,0,0,0,0,0,0,0,0,0,0,0,0,0,0,0,0,0,0,0,0,0,0,0,0,0,0,0],"id":8,"left_children":[1,3,5,7,9,11,13,15,17,19,21,23,25,27,29,31,33,35,37,-1,-1,39,41,43,45,47,49,51,53,-1,-1,-1,55,-1,-1,-1,57,59,61,-1,63,65,67,69,-1,71,73,75,-1,-1,-1,77,-1,-1,79,-1,-1,-1,-1,-1,-1,-1,-1,-1,-1,-1,-1,-1,-1,-1,-1,-1,-1,-1,-1,-1,-1,-1,-1,-1,-1],"loss_changes":[2.6414075E3,8.923722E2,6.853009E2,1.668114E2,2.4532425E2,1.4169801E2,6.565454E1,2.4842285E1,1.7320612E2,2.032959E0,8.276033E1,8.932991E1,1.8318268E1,1.1754773E2,3.5983887E0,3.3796387E1,1.6381485E1,2.2725792E1,5.171411E1,0E0,0E0,2.7469986E1,4.5518723E1,1.6072245E1,1.1406387E1,3.1515646E0,1.4051361E0,1.980017E1,1.8094637E1,0E0,0E0,0E0,1.2874756E0,0E0,0E0,0E0,1.3581615E1,4.10661E1,1.3106691E0,0E0,3.4942732E0,2.9370508E0,4.6663513E0,4.582858E-2,0E0,8.141426E0,9.884026E-1,2.0462736E-1,0E0,0E0,0E0,1.2169678E1,0E0,0E0,7.338829E0,0E0,0E0,0E0,0E0,0E0,0E0,0E0,0E0,0E0,0E0,0E0,0E0,0E0,0E0,0E0,0E0,0E0,0E0,0E0,0E0,0E0,0E0,0E0,0E0,0E0,0E0],"parents":[2147483647,0,0,1,1,2,2,3,3,4,4,5,5,6,6,7,7,8,8,9,9,10,10,11,11,12,12,13,13,14,14,15,15,16,16,17,17,18,18,21,21,22,22,23,23,24,24,25,25,26,26,27,27,28,28,32,32,36,36,37,37,38,38,40,40,41,41,42,42,43,43,45,45,46,46,47,47,51,51,54,54],"right_children":[2,4,6,8,10,12,14,16,18,20,22,24,26,28,30,32,34,36,38,-1,-1,40,42,44,46,48,50,52,54,-1,-1,-1,56,-1,-1,-1,58,60,62,-1,64,66,68,70,-1,72,74,76,-1,-1,-1,78,-1,-1,80,-1,-1,-1,-1,-1,-1,-1,-1,-1,-1,-1,-1,-1,-1,-1,-1,-1,-1,-1,-1,-1,-1,-1,-1,-1,-1],"split_conditions":[2E0,7.8804596E1,7.690002E1,7.5164E1,-1.2E1,1.1E1,8.15854E1,-1E0,7.728571E1,1.9E1,8.7E1,7.4E1,1.5E1,8.042857E1,8.228571E1,7.242857E1,7.2E1,-1.2E1,-1E0,-2.3065324E-1,-8.223837E-2,7.5E1,-7E0,7.371429E1,8.5E1,6.6E1,-4.3388373E-1,8.342857E1,7.957143E1,4.1401225E-1,1.6150294E-1,-9.917346E-2,8.8E1,-2.5741434E-1,-7.636603E-2,-1.7934607E-1,7.642611E1,-7.818315E-1,7E0,1.0115584E-1,7.959967E1,7.818315E-1,-3E0,1.6E1,1.1066016E-1,2.8E1,7.676339E1,8E0,7.354292E-2,7.1706876E-2,1.990322E-1,7.285714E1,7.808403E-2,-7.896592E-2,6.234898E-1,-3.9276013E-1,-1.07538E-1,-7.6659516E-2,6.1906944E-3,1.7804107E-2,-2.8729495E-1,-3.463665E-2,2.240139E-2,-8.909681E-2,-1.8906156E-2,7.26879E-2,1.0398863E-4,1.5928356E-1,2.9665717E-1,-4.5536194E-2,-7.7769854E-3,-1.9756526E-1,-6.399449E-2,-5.2729137E-2,-0E0,-1.1666451E-2,1.0939751E-2,5.150677E-2,3.0245405E-1,1.2315812E-1,6.369756E-3],"split_indices":[24,9,9,9,24,24,9,24,17,2,10,18,24,17,23,19,10,24,24,0,0,13,24,8,12,10,4,23,8,0,0,0,14,0,0,0,9,4,1,0,9,4,24,2,0,2,9,1,0,0,0,20,0,0,5,0,0,0,0,0,0,0,0,0,0,0,0,0,0,0,0,0,0,0,0,0,0,0,0,0,0],"split_type":[0,0,0,0,0,0,0,0,0,0,0,0,0,0,0,0,0,0,0,0,0,0,0,0,0,0,0,0,0,0,0,0,0,0,0,0,0,0,0,0,0,0,0,0,0,0,0,0,0,0,0,0,0,0,0,0,0,0,0,0,0,0,0,0,0,0,0,0,0,0,0,0,0,0,0,0,0,0,0,0,0],"sum_hessian":[2.19E2,1.23E2,9.6E1,8.4E1,3.9E1,3.4E1,6.2E1,3.3E1,5.1E1,7E0,3.2E1,2E1,1.4E1,4.6E1,1.6E1,2.4E1,9E0,2.2E1,2.9E1,5E0,2E0,1.3E1,1.9E1,7E0,1.3E1,6E0,8E0,3.8E1,8E0,1.4E1,2E0,2E0,2.2E1,6E0,3E0,3E0,1.9E1,2.7E1,2E0,4E0,9E0,7E0,1.2E1,2E0,5E0,1E1,3E0,2E0,4E0,2E0,6E0,3.6E1,2E0,1E0,7E0,2.1E1,1E0,1.1E1,8E0,1E0,2.6E1,1E0,1E0,2E0,7E0,5E0,2E0,8E0,4E0,1E0,1E0,7E0,3E0,2E0,1E0,1E0,1E0,1E0,3.5E1,5E0,2E0],"tree_param":{"num_deleted":"0","num_feature":"25","num_nodes":"81","size_leaf_vector":"1"}},{"base_weights":[-1.7844427E-1,-2.8620439E0,3.381095E0,-4.4340024E0,8.663476E-1,6.882426E-2,5.1448255E0,-6.12474E0,-3.0921767E0,-3.9955497E0,1.9394745E0,-1.3960904E0,2.757099E0,4.1907887E0,6.8383594E0,-9.586764E-2,-6.3075237E0,-5.0716457E0,-1.3521777E0,-2.4935853E-1,-9.9002056E-2,-8.04495E-2,3.2247133E0,-2.5625477E0,1.4552534E0,1.8430421E-1,1.1971E0,2.2391348E0,6.3274865E0,7.0539804E0,6.603905E-2,-3.598118E-1,-4.4532948E0,-1.7355374E0,-5.677377E0,-5.6132174E-1,-3.2466524E0,1.024967E-1,-9.34558E-1,4.698094E0,1.7169735E0,-3.1107194E0,-7.144253E-1,-3.6657917E-1,1.13865115E-1,-1.1374817E-2,7.737593E-2,-6.156384E-1,2.7031326E0,1.0763001E-1,3.343072E-1,1.3623363E-1,3.6985767E-1,-2.562088E-1,-7.350243E-2,-1.3066672E-1,-1.2294744E-2,-2.945543E-1,-4.3265685E-2,-8.123842E-2,1.0519844E-2,-5.5032708E-2,-1.8809381E-1,-1.664433E-2,-8.6442165E-2,2.535861E-1,4.022671E-2,1.0063156E-1,3.3570748E-2,-7.582627E-3,-1.6784242E-1,-4.589022E-2,-0E0,1.4404259E-2,-4.4397697E-2,3.090168E-2,-6.331035E-2,5.9549894E-2,1.7090258E-1],"categories":[],"categories_nodes":[],"categories_segments":[],"categories_sizes":[],"default_left":[0,0,0,0,0,0,0,0,0,0,0,0,0,0,0,0,0,0,0,0,0,0,0,0,0,0,0,0,0,0,0,0,0,0,0,0,0,0,0,0,0,0,0,0,0,0,0,0,0,0,0,0,0,0,0,0,0,0,0,0,0,0,0,0,0,0,0,0,0,0,0,0,0,0,0,0,0,0,0],"id":9,"left_children":[1,3,5,7,9,11,13,15,17,19,21,23,25,27,29,-1,31,33,35,-1,-1,37,39,41,43,-1,45,47,49,51,-1,-1,53,55,57,59,61,-1,63,65,67,69,71,73,-1,-1,-1,75,77,-1,-1,-1,-1,-1,-1,-1,-1,-1,-1,-1,-1,-1,-1,-1,-1,-1,-1,-1,-1,-1,-1,-1,-1,-1,-1,-1,-1,-1,-1],"loss_changes":[2.0442815E3,7.1922504E2,5.3658435E2,1.752456E2,2.0058865E2,1.3394232E2,6.718042E1,1.5538208E1,1.6471356E2,3.4188232E0,8.1052475E1,7.701123E1,1.2489662E1,1.5594916E2,1.3639954E1,0E0,2.4463745E1,3.5883484E1,3.9747967E1,0E0,0E0,2.5458767E1,3.35E1,1.3604538E1,1.1509332E1,0E0,3.4792871E0,3.2338905E1,1.3173279E1,7.0612793E0,0E0,0E0,1.9827454E1,5.6094885E0,1.376593E1,1.7717596E1,4.2185745E0,0E0,3.9973059E0,8.424698E0,1.7806854E0,7.8798065E0,8.174412E-1,1.3397697E0,0E0,0E0,0E0,4.0577283E0,1.7089264E1,0E0,0E0,0E0,0E0,0E0,0E0,0E0,0E0,0E0,0E0,0E0,0E0,0E0,0E0,0E0,0E0,0E0,0E0,0E0,0E0,0E0,0E0,0E0,0E0,0E0,0E0,0E0,0E0,0E0,0E0],"parents":[2147483647,0,0,1,1,2,2,3,3,4,4,5,5,6,6,7,7,8,8,9,9,10,10,11,11,12,12,13,13,14,14,16,16,17,17,18,18,21,21,22,22,23,23,24,24,26,26,27,27,28,28,29,29,32,32,33,33,34,34,35,35,36,36,38,38,39,39,40,40,41,41,42,42,43,43,47,47,48,48],"right_children":[2,4,6,8,10,12,14,16,18,20,22,24,26,28,30,-1,32,34,36,-1,-1,38,40,42,44,-1,46,48,50,52,-1,-1,54,56,58,60,62,-1,64,66,68,70,72,74,-1,-1,-1,76,78,-1,-1,-1,-1,-1,-1,-1,-1,-1,-1,-1,-1,-1,-1,-1,-1,-1,-1,-1,-1,-1,-1,-1,-1,-1,-1,-1,-1,-1,-1],"split_conditions":[2E0,7.882147E1,7.690002E1,7.5164E1,-1.2E1,1.1E1,1.5E1,7.242857E1,-9E0,2E0,8.7E1,7.3E1,7.7E1,7.8E1,9.1E1,-9.586764E-2,-3E0,7E1,7.8E1,-2.4935853E-1,-9.9002056E-2,7.5E1,8.2E1,8.5E1,3E0,1.8430421E-1,-2.2252093E-1,6.9E1,7.2E1,-2.2252093E-1,6.603905E-2,-3.598118E-1,7.2E1,5E-1,3E1,7.623481E1,2E0,1.024967E-1,8.4E1,5E-1,8.7E1,6.6E1,7.676339E1,7E0,1.13865115E-1,-1.1374817E-2,7.737593E-2,3E0,8E0,1.0763001E-1,3.343072E-1,1.3623363E-1,3.6985767E-1,-2.562088E-1,-7.350243E-2,-1.3066672E-1,-1.2294744E-2,-2.945543E-1,-4.3265685E-2,-8.123842E-2,1.0519844E-2,-5.5032708E-2,-1.8809381E-1,-1.664433E-2,-8.6442165E-2,2.535861E-1,4.022671E-2,1.0063156E-1,3.3570748E-2,-7.582627E-3,-1.6784242E-1,-4.589022E-2,-0E0,1.4404259E-2,-4.4397697E-2,3.090168E-2,-6.331035E-2,5.9549894E-2,1.7090258E-1],"split_indices":[24,9,9,9,24,24,24,19,24,3,10,10,16,10,16,0,24,11,18,0,0,13,13,12,24,0,5,10,15,5,0,0,10,7,2,9,3,0,14,7,11,11,9,2,0,0,0,2,24,0,0,0,0,0,0,0,0,0,0,0,0,0,0,0,0,0,0,0,0,0,0,0,0,0,0,0,0,0,0],"split_type":[0,0,0,0,0,0,0,0,0,0,0,0,0,0,0,0,0,0,0,0,0,0,0,0,0,0,0,0,0,0,0,0,0,0,0,0,0,0,0,0,0,0,0,0,0,0,0,0,0,0,0,0,0,0,0,0,0,0,0,0,0,0,0,0,0,0,0,0,0,0,0,0,0,0,0,0,0,0,0],"sum_hessian":[2.12E2,1.21E2,9.1E1,8.5E1,3.6E1,3.2E1,5.9E1,3.6E1,4.9E1,6E0,3E1,2.1E1,1.1E1,4E1,1.9E1,2E0,3.4E1,2.2E1,2.7E1,3E0,3E0,1.2E1,1.8E1,1.5E1,6E0,6E0,5E0,2.2E1,1.8E1,1.8E1,1E0,2.1E1,1.3E1,4E0,1.8E1,2E1,7E0,3E0,9E0,8E0,1E1,1.1E1,4E0,2E0,4E0,1E0,4E0,3E0,1.9E1,2E0,1.6E1,2E0,1.6E1,1E1,3E0,2E0,2E0,1.7E1,1E0,8E0,1.2E1,2E0,5E0,6E0,3E0,7E0,1E0,7E0,3E0,1E0,1E1,3E0,1E0,1E0,1E0,1E0,2E0,7E0,1.2E1],"tree_param":{"num_deleted":"0","num_feature":"25","num_nodes":"79","size_leaf_vector":"1"}},{"base_weights":[-2.1221377E-2,-2.7528338E0,3.1869955E0,-4.271435E0,8.075425E-1,-1.505681E-1,5.680273E0,-6.0151563E0,-2.7999175E0,-8.771949E-1,3.343637E0,-1.6163522E0,3.5741582E0,4.7539134E0,7.375034E0,-2.3538358E0,-6.3737283E0,-1.4495585E0,-4.779436E0,-1.8777789E-1,1.2543692E-1,3.3781585E-1,4.0586076E0,-4.121372E0,-1.7196164E-1,2.1533147E-1,9.9258535E-2,6.00203E0,3.5118213E0,3.7855577E-1,9.363915E-2,-1.1497841E-2,-1.4011581E-1,-6.948203E0,-1.9974153E-1,-2.0482174E-1,-4.6153384E-1,-2.5300074E-1,-7.815066E-2,-1.3579245E-1,1.1383649E0,-0E0,3.2718047E-2,1.17225006E-1,2.466878E-1,-4.7594023E0,-2.9374033E-2,-1.6403624E0,9.6311295E-1,3.0902183E-1,6.7267574E-2,2.1372063E0,5.0751E0,-1.6770275E-1,-3.6334142E-1,-4.504306E-3,-7.4114405E-2,9.098858E-2,-2.8402838E-3,-1.3023373E-4,1.1937714E-3,-2.698423E-1,-1.2145126E-1,-1.04539715E-1,3.7121836E-3,2.8211023E-3,9.9742435E-2,1.19103454E-1,2.0600993E-2,6.438805E-2,2.67086E-1],"categories":[],"categories_nodes":[],"categories_segments":[],"categories_sizes":[],"default_left":[0,0,0,0,0,0,0,0,0,0,0,0,0,0,0,0,0,0,0,0,0,0,0,0,0,0,0,0,0,0,0,0,0,0,0,0,0,0,0,0,0,0,0,0,0,0,0,0,0,0,0,0,0,0,0,0,0,0,0,0,0,0,0,0,0,0,0,0,0,0,0],"id":10,"left_children":[1,3,5,7,9,11,13,15,17,19,21,23,25,27,29,31,33,35,37,-1,39,41,43,45,47,-1,-1,49,51,-1,-1,-1,-1,53,-1,-1,55,-1,-1,-1,57,59,-1,-1,-1,61,-1,63,65,-1,-1,67,69,-1,-1,-1,-1,-1,-1,-1,-1,-1,-1,-1,-1,-1,-1,-1,-1,-1,-1],"loss_changes":[1.9630138E3,6.580176E2,8.585198E2,2.003794E2,1.6126784E2,2.512653E2,5.635437E1,3.4012695E1,1.2075595E2,6.721067E1,3.04254E1,1.18263435E2,5.95195E0,4.15318E1,5.3754883E0,3.8149529E0,1.7613892E1,7.610892E1,8.575562E0,0E0,5.4738205E1,3.9989832E-1,5.7061768E0,2.3725998E1,3.8315956E1,0E0,0E0,6.7174683E0,3.7857056E1,0E0,0E0,0E0,0E0,4.3394775E0,0E0,0E0,8.429836E0,0E0,0E0,0E0,1.1681231E1,1.1536407E-3,0E0,0E0,0E0,9.6318054E-1,0E0,8.080019E0,1.1843369E1,0E0,0E0,4.653202E0,2.5559998E0,0E0,0E0,0E0,0E0,0E0,0E0,0E0,0E0,0E0,0E0,0E0,0E0,0E0,0E0,0E0,0E0,0E0,0E0],"parents":[2147483647,0,0,1,1,2,2,3,3,4,4,5,5,6,6,7,7,8,8,9,9,10,10,11,11,12,12,13,13,14,14,15,15,16,16,17,17,18,18,20,20,21,21,22,22,23,23,24,24,27,27,28,28,33,33,36,36,40,40,41,41,45,45,47,47,48,48,51,51,52,52],"right_children":[2,4,6,8,10,12,14,16,18,20,22,24,26,28,30,32,34,36,38,-1,40,42,44,46,48,-1,-1,50,52,-1,-1,-1,-1,54,-1,-1,56,-1,-1,-1,58,60,-1,-1,-1,62,-1,64,66,-1,-1,68,70,-1,-1,-1,-1,-1,-1,-1,-1,-1,-1,-1,-1,-1,-1,-1,-1,-1,-1],"split_conditions":[1E0,7.882147E1,7.761473E1,7.561021E1,-6E0,1.4E1,8.15854E1,7.242857E1,7.828571E1,-1.3E1,8.3E1,6.8E1,7.3E1,7.671429E1,8.185714E1,3E0,-1E0,-1.2E1,-2E0,-1.8777789E-1,8.5E1,-2.4492937E-16,8.172424E1,9E0,5E0,2.1533147E-1,9.9258535E-2,8.8E1,1.3E1,3.7855577E-1,9.363915E-2,-1.1497841E-2,-1.4011581E-1,6.6E1,-1.9974153E-1,-2.0482174E-1,8.5E1,-2.5300074E-1,-7.815066E-2,-1.3579245E-1,7.818315E-1,-8.660254E-1,3.2718047E-2,1.17225006E-1,2.466878E-1,7E0,-2.9374033E-2,5E-1,7.2E1,3.0902183E-1,6.7267574E-2,6.123234E-17,7.685714E1,-1.6770275E-1,-3.6334142E-1,-4.504306E-3,-7.4114405E-2,9.098858E-2,-2.8402838E-3,-1.3023373E-4,1.1937714E-3,-2.698423E-1,-1.2145126E-1,-1.04539715E-1,3.7121836E-3,2.8211023E-3,9.9742435E-2,1.19103454E-1,2.0600993E-2,6.438805E-2,2.67086E-1],"split_indices":[24,9,9,9,24,24,9,18,18,24,10,10,11,19,22,3,24,24,24,0,10,6,9,24,24,0,0,16,24,0,0,0,0,13,0,0,13,0,0,0,4,6,0,0,0,24,0,6,10,0,0,7,8,0,0,0,0,0,0,0,0,0,0,0,0,0,0,0,0,0,0],"split_type":[0,0,0,0,0,0,0,0,0,0,0,0,0,0,0,0,0,0,0,0,0,0,0,0,0,0,0,0,0,0,0,0,0,0,0,0,0,0,0,0,0,0,0,0,0,0,0,0,0,0,0,0,0,0,0,0,0,0,0,0,0,0,0,0,0,0,0,0,0,0,0],"sum_hessian":[2.22E2,1.2E2,1.02E2,8.4E1,3.6E1,4.4E1,5.8E1,3.7E1,4.7E1,2.2E1,1.4E1,3.2E1,1.2E1,4E1,1.8E1,4E0,3.3E1,2.9E1,1.8E1,5E0,1.7E1,3E0,1.1E1,1.1E1,2.1E1,7E0,5E0,1.8E1,2.2E1,1.7E1,1E0,1E0,3E0,2.5E1,8E0,7E0,2.2E1,1.6E1,2E0,4E0,1.3E1,2E0,1E0,5E0,6E0,9E0,2E0,9E0,1.2E1,1.7E1,1E0,1.3E1,9E0,3E0,2.2E1,1.7E1,5E0,8E0,5E0,1E0,1E0,6E0,3E0,7E0,2E0,7E0,5E0,1.1E1,2E0,1E0,8E0],"tree_param":{"num_deleted":"0","num_feature":"25","num_nodes":"71","size_leaf_vector":"1"}},{"base_weights":[-6.2216283E-3,-2.682616E0,2.9444396E0,-6.0848274E0,-1.7015395E0,6.679149E-2,4.2254615E0,-6.4082537E0,-1.339461E-1,-3.6652553E0,1.3669289E0,-1.7783886E0,3.1919584E0,3.178155E0,3.275953E-1,-1.1896423E-1,-6.6739035E0,-5.0876966E0,-2.3048947E0,-6.3609964E-1,2.6181679E0,-3.431466E0,5.3845125E-1,9.848859E-1,2.0261684E-1,6.832965E-1,4.790928E0,-8.061997E-2,-6.8413587E0,-3.4454608E-1,-3.960501E0,-3.9653785E0,-2.6268655E-1,-1.4133986E0,1.181178E0,1.7202567E0,2.4294369E-1,-1.4473318E-2,-3.9673328E0,-6.9688517E-1,1.9331647E0,6.798342E-2,-1.0356102E-2,-2.117235E0,2.138027E0,1.507156E0,5.2026396E0,-8.8675275E-2,-3.5047412E-1,-2.2579943E-1,-9.938067E-2,-2.3637393E-1,-1.2522906E-1,-4.509674E-2,1.2629141E-2,-9.337408E-2,-2.3750138E-2,1.1457418E-2,8.530741E-2,9.9081345E-2,-1.0690155E-2,-2.1175604E-1,-2.973629E-2,-5.620764E-2,3.588333E-3,1.06750086E-1,2.5645409E-2,-1.4657371E-1,-2.7256375E-2,-3.5372507E-2,1.1994751E-1,8.982208E-2,6.2503438E-3,1.3441816E-1,2.880804E-1],"categories":[],"categories_nodes":[],"categories_segments":[],"categories_sizes":[],"default_left":[0,0,0,0,0,0,0,0,0,0,0,0,0,0,0,0,0,0,0,0,0,0,0,0,0,0,0,0,0,0,0,0,0,0,0,0,0,0,0,0,0,0,0,0,0,0,0,0,0,0,0,0,0,0,0,0,0,0,0,0,0,0,0,0,0,0,0,0,0,0,0,0,0,0,0],"id":11,"left_children":[1,3,5,7,9,11,13,15,-1,17,19,21,23,25,-1,-1,27,29,31,33,35,37,39,41,-1,43,45,-1,47,-1,49,51,53,55,57,59,-1,-1,61,63,65,-1,-1,67,69,71,73,-1,-1,-1,-1,-1,-1,-1,-1,-1,-1,-1,-1,-1,-1,-1,-1,-1,-1,-1,-1,-1,-1,-1,-1,-1,-1,-1,-1],"loss_changes":[1.7768307E3,3.8273175E2,3.9372583E2,1.0564514E1,5.6562067E2,2.0187875E2,1.58505E2,7.8323975E0,0E0,9.7831116E1,9.459553E1,8.639513E1,2.0191116E1,2.0943188E2,0E0,0E0,5.9226685E0,2.6503174E1,1.0365819E2,2.288122E1,3.7258545E1,2.031392E1,1.8700224E1,2.6305904E0,0E0,9.415719E1,3.4750793E1,0E0,3.730896E0,0E0,1.1195984E1,6.3621216E0,5.2335234E0,3.565897E0,1.9144449E0,9.699558E0,0E0,0E0,6.9328766E0,2.1564355E0,7.3451996E-2,0E0,0E0,8.294884E0,1.3003052E1,1.5824671E0,2.3016907E1,0E0,0E0,0E0,0E0,0E0,0E0,0E0,0E0,0E0,0E0,0E0,0E0,0E0,0E0,0E0,0E0,0E0,0E0,0E0,0E0,0E0,0E0,0E0,0E0,0E0,0E0,0E0,0E0],"parents":[2147483647,0,0,1,1,2,2,3,3,4,4,5,5,6,6,7,7,9,9,10,10,11,11,12,12,13,13,16,16,17,17,18,18,19,19,20,20,21,21,22,22,23,23,25,25,26,26,28,28,30,30,31,31,32,32,33,33,34,34,35,35,38,38,39,39,40,40,43,43,44,44,45,45,46,46],"right_children":[2,4,6,8,10,12,14,16,-1,18,20,22,24,26,-1,-1,28,30,32,34,36,38,40,42,-1,44,46,-1,48,-1,50,52,54,56,58,60,-1,-1,62,64,66,-1,-1,68,70,72,74,-1,-1,-1,-1,-1,-1,-1,-1,-1,-1,-1,-1,-1,-1,-1,-1,-1,-1,-1,-1,-1,-1,-1,-1,-1,-1,-1,-1],"split_conditions":[1E0,-1.2E1,7.6E1,8.071429E1,8.2E1,1E1,8E1,1E0,-1.339461E-1,7.7E1,-8E0,7.2E1,1.5E1,1E1,3.275953E-1,-1.1896423E-1,3E0,-4E0,-5E0,8.9E1,9E1,6.6E1,4E0,4.3388373E-1,2.0261684E-1,7.1E1,7.628571E1,-8.061997E-2,6.6E1,-3.4454608E-1,7.5E1,-7E0,-2E0,8.6E1,7.928571E1,9.749279E-1,2.4294369E-1,-1.4473318E-2,9E0,7.4E1,7.2E1,6.798342E-2,-1.0356102E-2,9E0,2E0,2.3E1,7.1E1,-8.8675275E-2,-3.5047412E-1,-2.2579943E-1,-9.938067E-2,-2.3637393E-1,-1.2522906E-1,-4.509674E-2,1.2629141E-2,-9.337408E-2,-2.3750138E-2,1.1457418E-2,8.530741E-2,9.9081345E-2,-1.0690155E-2,-2.1175604E-1,-2.973629E-2,-5.620764E-2,3.588333E-3,1.06750086E-1,2.5645409E-2,-1.4657371E-1,-2.7256375E-2,-3.5372507E-2,1.1994751E-1,8.982208E-2,6.2503438E-3,1.3441816E-1,2.880804E-1],"split_indices":[24,24,8,8,10,24,10,3,0,10,24,10,24,24,0,0,2,24,24,10,10,11,24,4,0,10,8,0,13,0,10,24,24,15,8,4,0,0,24,8,12,0,0,24,24,2,13,0,0,0,0,0,0,0,0,0,0,0,0,0,0,0,0,0,0,0,0,0,0,0,0,0,0,0,0],"split_type":[0,0,0,0,0,0,0,0,0,0,0,0,0,0,0,0,0,0,0,0,0,0,0,0,0,0,0,0,0,0,0,0,0,0,0,0,0,0,0,0,0,0,0,0,0,0,0,0,0,0,0,0,0,0,0,0,0,0,0,0,0,0,0,0,0,0,0,0,0,0,0,0,0,0,0],"sum_hessian":[2.23E2,1.17E2,1.06E2,2.5E1,9.2E1,3.3E1,7.3E1,2.2E1,3E0,5.6E1,3.6E1,2.1E1,1.2E1,5.2E1,2.1E1,2E0,2E1,2.6E1,3E1,1.4E1,2.2E1,1.2E1,9E0,4E0,8E0,2.1E1,3.1E1,1E0,1.9E1,8E0,1.8E1,1.6E1,1.4E1,1E1,4E0,1.7E1,5E0,2E0,1E1,5E0,4E0,3E0,1E0,7E0,1.4E1,4E0,2.7E1,1E0,1.8E1,1.3E1,5E0,9E0,7E0,6E0,8E0,6E0,4E0,2E0,2E0,1.5E1,2E0,9E0,1E0,3E0,2E0,3E0,1E0,4E0,3E0,1E0,1.3E1,3E0,1E0,6E0,2.1E1],"tree_param":{"num_deleted":"0","num_feature":"25","num_nodes":"75","size_leaf_vector":"1"}},{"base_weights":[1.0118786E-1,-2.49166E0,3.0397375E0,-3.9748638E0,4.2455325E-1,2.3431224E-1,5.0578427E0,-4.9133406E0,-2.4398093E0,-1.4782922E-1,1.0915078E0,-1.3690373E0,2.7209496E0,4.1929426E0,6.885495E0,-5.9339395E0,-3.817682E0,-3.7430484E0,-1.3458536E0,1.8447545E0,-1.2783998E0,-3.3777652E0,-5.9868198E-2,1.9817752E-1,1.5607902E0,5.278075E0,2.1531398E0,3.538439E-1,8.829953E-2,-4.9476776E-2,-3.0545804E-1,-2.7412093E0,-2.9422975E-1,-1.8194541E-2,-3.9672997E0,-3.183851E-1,-3.047459E0,6.618721E-1,2.6103692E0,1.9034699E-1,-1.2557334E-1,-4.507777E0,-1.100195E0,1.4205015E0,-1.1401491E0,-1.00972755E-2,1.7672583E0,2.8095558E-1,1.8020798E0,-1.8350562E-1,2.6741E0,-1.5273802E-1,-8.675639E-4,-5.468861E-2,-2.0536397E-1,-7.7529125E-2,9.81662E-3,-6.0532864E-2,-1.7600241E-1,6.644572E-2,-2.5888503E-2,5.7337303E-2,1.581156E-1,-1.6376344E-2,3.390526E-2,-5.675408E-2,-2.4320233E-1,-7.580424E-2,-1.4212011E-2,-3.926922E-2,9.310558E-2,-1.9379029E-2,-7.502669E-2,9.627121E-2,6.0941316E-3,2.0048676E-2,1.051062E-1,3.2380447E-2,-3.548734E-2,5.974514E-2,1.675999E-1],"categories":[],"categories_nodes":[],"categories_segments":[],"categories_sizes":[],"default_left":[0,0,0,0,0,0,0,0,0,0,0,0,0,0,0,0,0,0,0,0,0,0,0,0,0,0,0,0,0,0,0,0,0,0,0,0,0,0,0,0,0,0,0,0,0,0,0,0,0,0,0,0,0,0,0,0,0,0,0,0,0,0,0,0,0,0,0,0,0,0,0,0,0,0,0,0,0,0,0,0,0],"id":12,"left_children":[1,3,5,7,9,11,13,15,17,-1,19,21,23,25,27,29,31,33,35,37,39,41,43,-1,45,47,49,-1,-1,-1,-1,51,-1,-1,53,55,57,59,61,63,-1,65,67,69,71,-1,73,-1,75,77,79,-1,-1,-1,-1,-1,-1,-1,-1,-1,-1,-1,-1,-1,-1,-1,-1,-1,-1,-1,-1,-1,-1,-1,-1,-1,-1,-1,-1,-1,-1],"loss_changes":[1.7067131E3,5.167578E2,5.927582E2,1.0108545E2,9.549829E1,1.83273E2,6.644653E1,3.0045898E1,4.007547E1,0E0,6.489435E1,7.308742E1,1.9210358E1,8.5284546E1,4.2541504E0,1.3171265E1,4.0855865E1,8.732132E0,3.191172E1,2.239711E1,1.7009727E1,2.2790268E1,3.037742E1,0E0,4.516859E0,2.2324158E1,2.1433846E1,0E0,0E0,0E0,0E0,1.5867065E1,0E0,0E0,2.1653748E-1,8.684891E0,1.3417282E0,1.0211642E1,8.868103E0,1.5201416E0,0E0,2.2901E0,1.0857716E0,9.363277E0,2.2129679E0,0E0,2.1630154E0,0E0,5.8836937E-1,2.215319E0,9.57843E0,0E0,0E0,0E0,0E0,0E0,0E0,0E0,0E0,0E0,0E0,0E0,0E0,0E0,0E0,0E0,0E0,0E0,0E0,0E0,0E0,0E0,0E0,0E0,0E0,0E0,0E0,0E0,0E0,0E0,0E0],"parents":[2147483647,0,0,1,1,2,2,3,3,4,4,5,5,6,6,7,7,8,8,10,10,11,11,12,12,13,13,14,14,15,15,16,16,17,17,18,18,19,19,20,20,21,21,22,22,24,24,25,25,26,26,31,31,34,34,35,35,36,36,37,37,38,38,39,39,41,41,42,42,43,43,44,44,46,46,48,48,49,49,50,50],"right_children":[2,4,6,8,10,12,14,16,18,-1,20,22,24,26,28,30,32,34,36,38,40,42,44,-1,46,48,50,-1,-1,-1,-1,52,-1,-1,54,56,58,60,62,64,-1,66,68,70,72,-1,74,-1,76,78,80,-1,-1,-1,-1,-1,-1,-1,-1,-1,-1,-1,-1,-1,-1,-1,-1,-1,-1,-1,-1,-1,-1,-1,-1,-1,-1,-1,-1,-1,-1],"split_conditions":[1E0,7.882147E1,7.730656E1,-5E0,-1.2E1,1.1E1,8.15854E1,7.561021E1,7.529881E1,-1.4782922E-1,8.142857E1,7.4397125E1,7.3E1,7.814286E1,8.242857E1,6.6E1,8.071429E1,6.6E1,7.8E1,7.8E1,3E0,7E0,7.428571E1,1.9817752E-1,7.491754E1,9.1E1,3E0,3.538439E-1,8.829953E-2,-4.9476776E-2,-3.0545804E-1,8.342857E1,-2.9422975E-1,-1.8194541E-2,6.6E1,6.8E1,8.085714E1,8.2E1,6E0,-9E0,-1.2557334E-1,1E0,7.342857E1,7.328571E1,7.3E1,-1.00972755E-2,7.622992E1,2.8095558E-1,6E0,-7.818315E-1,7.985714E1,-1.5273802E-1,-8.675639E-4,-5.468861E-2,-2.0536397E-1,-7.7529125E-2,9.81662E-3,-6.0532864E-2,-1.7600241E-1,6.644572E-2,-2.5888503E-2,5.7337303E-2,1.581156E-1,-1.6376344E-2,3.390526E-2,-5.675408E-2,-2.4320233E-1,-7.580424E-2,-1.4212011E-2,-3.926922E-2,9.310558E-2,-1.9379029E-2,-7.502669E-2,9.627121E-2,6.0941316E-3,2.0048676E-2,1.051062E-1,3.2380447E-2,-3.548734E-2,5.974514E-2,1.675999E-1],"split_indices":[24,9,9,24,24,24,9,9,9,0,20,9,11,18,21,12,18,11,18,14,3,24,18,0,9,14,24,0,0,0,0,22,0,0,16,14,18,12,1,24,0,3,8,8,14,0,9,0,1,4,19,0,0,0,0,0,0,0,0,0,0,0,0,0,0,0,0,0,0,0,0,0,0,0,0,0,0,0,0,0,0],"split_type":[0,0,0,0,0,0,0,0,0,0,0,0,0,0,0,0,0,0,0,0,0,0,0,0,0,0,0,0,0,0,0,0,0,0,0,0,0,0,0,0,0,0,0,0,0,0,0,0,0,0,0,0,0,0,0,0,0,0,0,0,0,0,0,0,0,0,0,0,0,0,0,0,0,0,0,0,0,0,0,0,0],"sum_hessian":[2.22E2,1.18E2,1.04E2,7.8E1,4E1,4.4E1,6E1,4.7E1,3.1E1,6E0,3.4E1,2.7E1,1.7E1,4.3E1,1.7E1,2.2E1,2.5E1,1.3E1,1.8E1,2.6E1,8E0,1E1,1.7E1,7E0,1E1,2.7E1,1.6E1,1.6E1,1E0,1E0,2.1E1,1.8E1,7E0,1E0,1.2E1,1.2E1,6E0,1.1E1,1.5E1,4E0,4E0,6E0,4E0,7E0,1E1,1E0,9E0,2.4E1,3E0,3E0,1.3E1,1.6E1,2E0,1E0,1.1E1,3E0,9E0,2E0,4E0,7E0,4E0,5E0,1E1,2E0,2E0,1E0,5E0,2E0,2E0,1E0,6E0,4E0,6E0,8E0,1E0,1E0,2E0,1E0,2E0,5E0,8E0],"tree_param":{"num_deleted":"0","num_feature":"25","num_nodes":"81","size_leaf_vector":"1"}},{"base_weights":[1.2896912E-1,-2.2229545E0,3.050001E0,-3.531009E0,1.9097297E0,3.4241325E-1,4.4840007E0,-4.9607716E0,-2.4841158E0,5.1229097E-2,3.4103098E0,-8.032992E-1,3.182453E0,4.7898493E0,1.3823556E0,-1.7739639E-2,-5.076082E0,-1.1027143E0,-4.4387584E0,1.1069312E0,-2.0504208E0,1.0217882E0,4.7312436E0,1.5035154E-1,-2.861101E0,3.943115E-2,1.6748492E-1,5.4614377E0,3.1893113E0,-1.5355644E-2,1.7317859E0,-8.1446305E-2,-5.2280054E0,-2.6749678E0,-7.214239E-2,-2.858594E0,-5.5090127E0,1.9280726E-1,1.9624935E0,-1.6945228E-2,-1.18428685E-1,-0E0,7.153075E-2,7.69723E-2,2.6621315E-1,-1.1579273E0,1.0972496E0,-3.7900697E-2,-1.5194844E-1,3.753771E0,5.858515E0,3.397394E0,-1.1404381E-2,3.3419266E-2,1.03569485E-1,-2.7815986E-1,-1.3599554E-1,-1.7548817E-1,-5.4970603E-2,8.901953E-2,-3.0932186E-2,-2.8735314E-2,-1.509756E-1,-2.9630214E-1,-1.1246208E-1,-3.5076294E-2,2.6598955E-2,2.1331176E-2,1.1074026E-1,-2.9525375E-3,2.938614E-3,-2.157126E-2,-8.757866E-2,9.137403E-2,-6.226181E-3,2.239853E-2,2.0300983E-1,7.480103E-2,2.9786587E-1,2.3539364E-1,1.2617636E-1],"categories":[],"categories_nodes":[],"categories_segments":[],"categories_sizes":[],"default_left":[0,0,0,0,0,0,0,0,0,0,0,0,0,0,0,0,0,0,0,0,0,0,0,0,0,0,0,0,0,0,0,0,0,0,0,0,0,0,0,0,0,0,0,0,0,0,0,0,0,0,0,0,0,0,0,0,0,0,0,0,0,0,0,0,0,0,0,0,0,0,0,0,0,0,0,0,0,0,0,0,0],"id":13,"left_children":[1,3,5,7,9,11,13,15,17,19,21,23,25,27,29,-1,31,33,35,37,39,41,43,45,47,-1,-1,49,51,-1,53,-1,55,57,59,61,63,65,67,-1,-1,69,-1,-1,-1,71,73,-1,-1,75,77,79,-1,-1,-1,-1,-1,-1,-1,-1,-1,-1,-1,-1,-1,-1,-1,-1,-1,-1,-1,-1,-1,-1,-1,-1,-1,-1,-1,-1,-1],"loss_changes":[1.463312E3,6.4478705E2,3.668366E2,1.2164502E2,8.035517E1,1.1342593E2,5.1576782E1,1.7307373E1,1.4035907E2,3.323735E1,4.5071655E1,4.976185E1,9.4807434E-1,4.1911255E1,4.806781E0,0E0,9.651611E0,5.3002884E1,2.0621155E1,7.226988E0,1.6491528E0,2.9249372E0,1.0045166E1,2.356299E1,3.0928802E-1,0E0,0E0,2.814087E0,1.4602768E1,0E0,5.0834656E-1,0E0,1.2623901E1,1.2778885E1,2.22459E1,1.9479523E0,2.1664429E0,2.176238E0,7.285576E-1,0E0,0E0,1.3882344E-2,0E0,0E0,0E0,2.4763079E0,1.0211803E1,0E0,0E0,7.860138E0,2.842102E0,8.009705E0,0E0,0E0,0E0,0E0,0E0,0E0,0E0,0E0,0E0,0E0,0E0,0E0,0E0,0E0,0E0,0E0,0E0,0E0,0E0,0E0,0E0,0E0,0E0,0E0,0E0,0E0,0E0,0E0,0E0],"parents":[2147483647,0,0,1,1,2,2,3,3,4,4,5,5,6,6,7,7,8,8,9,9,10,10,11,11,12,12,13,13,14,14,16,16,17,17,18,18,19,19,20,20,21,21,22,22,23,23,24,24,27,27,28,28,30,30,32,32,33,33,34,34,35,35,36,36,37,37,38,38,41,41,45,45,46,46,49,49,50,50,51,51],"right_children":[2,4,6,8,10,12,14,16,18,20,22,24,26,28,30,-1,32,34,36,38,40,42,44,46,48,-1,-1,50,52,-1,54,-1,56,58,60,62,64,66,68,-1,-1,70,-1,-1,-1,72,74,-1,-1,76,78,80,-1,-1,-1,-1,-1,-1,-1,-1,-1,-1,-1,-1,-1,-1,-1,-1,-1,-1,-1,-1,-1,-1,-1,-1,-1,-1,-1,-1,-1],"split_conditions":[2E0,7.959967E1,7.676339E1,7.5164E1,-6E0,1.5E1,9E1,7.257143E1,8E1,9E1,8.148864E1,7.771429E1,6E0,8.4E1,4E0,-1.7739639E-2,7.242857E1,-1E1,7.7E1,9.1E1,7E0,8.005063E1,7E1,7.472457E1,9E0,3.943115E-2,1.6748492E-1,-2.2252093E-1,2.9E1,-1.5355644E-2,7E0,-8.1446305E-2,2.7E1,7.719934E1,-8.660254E-1,7.414286E1,8.257143E1,4E0,1E0,-1.6945228E-2,-1.18428685E-1,1E1,7.153075E-2,7.69723E-2,2.6621315E-1,7.2E1,8.1E1,-3.7900697E-2,-1.5194844E-1,6.6E1,7.6866104E1,5E0,-1.1404381E-2,3.3419266E-2,1.03569485E-1,-2.7815986E-1,-1.3599554E-1,-1.7548817E-1,-5.4970603E-2,8.901953E-2,-3.0932186E-2,-2.8735314E-2,-1.509756E-1,-2.9630214E-1,-1.1246208E-1,-3.5076294E-2,2.6598955E-2,2.1331176E-2,1.1074026E-1,-2.9525375E-3,2.938614E-3,-2.157126E-2,-8.757866E-2,9.137403E-2,-6.226181E-3,2.239853E-2,2.0300983E-1,7.480103E-2,2.9786587E-1,2.3539364E-1,1.2617636E-1],"split_indices":[24,9,9,9,24,24,12,22,11,11,9,19,1,14,1,0,19,24,19,10,2,9,14,9,2,0,0,5,2,0,2,0,2,9,6,8,19,1,3,0,0,1,0,0,0,11,16,0,0,14,9,1,0,0,0,0,0,0,0,0,0,0,0,0,0,0,0,0,0,0,0,0,0,0,0,0,0,0,0,0,0],"split_type":[0,0,0,0,0,0,0,0,0,0,0,0,0,0,0,0,0,0,0,0,0,0,0,0,0,0,0,0,0,0,0,0,0,0,0,0,0,0,0,0,0,0,0,0,0,0,0,0,0,0,0,0,0,0,0,0,0,0,0,0,0,0,0,0,0,0,0,0,0,0,0,0,0,0,0,0,0,0,0,0,0],"sum_hessian":[2.11E2,1.17E2,9.4E1,8.9E1,2.8E1,3.3E1,6.1E1,3.6E1,5.3E1,1.3E1,1.5E1,2.4E1,9E0,5.5E1,6E0,1E0,3.5E1,3.2E1,2.1E1,9E0,4E0,6E0,9E0,1.7E1,7E0,1E0,8E0,3.7E1,1.8E1,1E0,5E0,2E0,3.3E1,1.2E1,2E1,1E1,1.1E1,5E0,4E0,1E0,3E0,2E0,4E0,2E0,7E0,7E0,1E1,1E0,6E0,9E0,2.8E1,1.7E1,1E0,2E0,3E0,2.8E1,5E0,7E0,5E0,4E0,1.6E1,1E0,9E0,9E0,2E0,1E0,4E0,1E0,3E0,1E0,1E0,4E0,3E0,6E0,4E0,1E0,8E0,1E0,2.7E1,5E0,1.2E1],"tree_param":{"num_deleted":"0","num_feature":"25","num_nodes":"81","size_leaf_vector":"1"}},{"base_weights":[-1.5791184E-1,-1.9618618E0,3.1538687E0,-3.913911E0,7.1288013E-1,1.4175858E0,4.572208E0,-5.066413E0,-2.7487638E0,-3.9190993E0,1.5752747E0,-2.1508601E-1,2.6765304E0,2.0246515E0,4.927902E0,-7.194056E-1,-5.268326E0,-4.8207054E0,-1.9946425E0,-2.2531405E-1,-9.433783E-2,4.6157932E-1,4.115597E0,7.497322E-1,-2.1255414E0,1.7646148E0,2.116994E-1,5.6851923E-1,1.4748104E-1,5.1876597E0,7.3149376E-2,-4.6203766E-2,-5.251656E-3,-2.50323E0,-5.5099587E0,-3.7806474E-2,-2.5707752E-1,-1.3054812E0,-3.5080817E0,1.7825146E0,-1.0995996E0,1.5879929E0,2.73168E-1,-8.310944E-1,1.3801293E0,-2.8352698E-2,-1.15191415E-1,2.570019E0,9.3100977E-1,3.7066624E-2,-0E0,5.392063E0,1.1408098E-1,-1.7529027E-1,-3.164556E-2,-1.2388589E-1,-2.8568387E-1,-1.12781875E-1,-1.9533506E-2,-4.254719E-2,-1.8488294E-1,1.6920744E-1,5.3212233E-2,-0E0,-1.0945523E-1,9.794127E-2,2.0363718E-2,-1.3019281E-2,-6.1080515E-2,9.3043126E-2,-8.414561E-3,3.4742128E-2,1.3750374E-1,5.541662E-2,-9.689293E-3,2.7948472E-1,1.3178156E-1],"categories":[],"categories_nodes":[],"categories_segments":[],"categories_sizes":[],"default_left":[0,0,0,0,0,0,0,0,0,0,0,0,0,0,0,0,0,0,0,0,0,0,0,0,0,0,0,0,0,0,0,0,0,0,0,0,0,0,0,0,0,0,0,0,0,0,0,0,0,0,0,0,0,0,0,0,0,0,0,0,0,0,0,0,0,0,0,0,0,0,0,0,0,0,0,0,0],"id":14,"left_children":[1,3,5,7,9,11,13,15,17,19,21,23,25,27,29,31,33,35,37,-1,-1,39,41,43,45,47,-1,49,-1,51,-1,-1,-1,53,55,-1,-1,57,59,61,63,65,-1,67,69,-1,-1,71,73,-1,-1,75,-1,-1,-1,-1,-1,-1,-1,-1,-1,-1,-1,-1,-1,-1,-1,-1,-1,-1,-1,-1,-1,-1,-1,-1,-1],"loss_changes":[1.338334E3,7.601884E2,1.8746796E2,9.809009E1,2.5360411E2,7.687323E1,2.8292053E1,3.1597656E1,5.8452698E1,2.791977E0,1.4758727E2,3.3066288E1,2.175444E1,7.399416E0,2.5046814E1,1.77261E-1,1.1463379E1,9.86763E0,3.0401047E1,0E0,0E0,8.039256E1,4.5124847E1,1.3160503E1,7.3661804E-2,7.328018E0,0E0,3.5586536E-1,0E0,7.1261597E0,0E0,0E0,0E0,6.7429447E0,6.644287E0,0E0,0E0,2.0584488E1,1.4359741E0,2.0112114E1,2.1365463E1,2.030552E0,0E0,4.2519403E-1,7.18182E0,0E0,0E0,1.0809326E-1,2.1012998E0,0E0,0E0,1.3325806E0,0E0,0E0,0E0,0E0,0E0,0E0,0E0,0E0,0E0,0E0,0E0,0E0,0E0,0E0,0E0,0E0,0E0,0E0,0E0,0E0,0E0,0E0,0E0,0E0,0E0],"parents":[2147483647,0,0,1,1,2,2,3,3,4,4,5,5,6,6,7,7,8,8,9,9,10,10,11,11,12,12,13,13,14,14,15,15,16,16,17,17,18,18,21,21,22,22,23,23,24,24,25,25,27,27,29,29,33,33,34,34,37,37,38,38,39,39,40,40,41,41,43,43,44,44,47,47,48,48,51,51],"right_children":[2,4,6,8,10,12,14,16,18,20,22,24,26,28,30,32,34,36,38,-1,-1,40,42,44,46,48,-1,50,-1,52,-1,-1,-1,54,56,-1,-1,58,60,62,64,66,-1,68,70,-1,-1,72,74,-1,-1,76,-1,-1,-1,-1,-1,-1,-1,-1,-1,-1,-1,-1,-1,-1,-1,-1,-1,-1,-1,-1,-1,-1,-1,-1,-1],"split_conditions":[5E0,7.804402E1,7.765771E1,-6E0,-1.3E1,1.1E1,7E0,6.6E1,7.367602E1,8.021522E1,8.148864E1,8.1E1,1.7E1,8.0351074E1,9.1E1,7.285714E1,6.7E1,7.342857E1,8.2E1,-2.2531405E-1,-9.433783E-2,7.928571E1,-5E0,7.371429E1,5E0,7.6E1,2.116994E-1,1.1E1,1.4748104E-1,8.342857E1,7.3149376E-2,-4.6203766E-2,-5.251656E-3,9E0,-8.660254E-1,-3.7806474E-2,-2.5707752E-1,7.563101E1,-8.660254E-1,7.514286E1,8.042857E1,8.9E1,2.73168E-1,4.3388373E-1,7.728571E1,-2.8352698E-2,-1.15191415E-1,1E0,4.3388373E-1,3.7066624E-2,-0E0,1.1E1,1.1408098E-1,-1.7529027E-1,-3.164556E-2,-1.2388589E-1,-2.8568387E-1,-1.12781875E-1,-1.9533506E-2,-4.254719E-2,-1.8488294E-1,1.6920744E-1,5.3212233E-2,-0E0,-1.0945523E-1,9.794127E-2,2.0363718E-2,-1.3019281E-2,-6.1080515E-2,9.3043126E-2,-8.414561E-3,3.4742128E-2,1.3750374E-1,5.541662E-2,-9.689293E-3,2.7948472E-1,1.3178156E-1],"split_indices":[24,9,9,24,24,24,24,12,9,9,9,11,24,9,14,8,15,18,11,0,0,18,24,8,1,11,0,1,0,21,0,0,0,1,7,0,0,9,6,19,19,11,0,4,17,0,0,3,4,0,0,1,0,0,0,0,0,0,0,0,0,0,0,0,0,0,0,0,0,0,0,0,0,0,0,0,0],"split_type":[0,0,0,0,0,0,0,0,0,0,0,0,0,0,0,0,0,0,0,0,0,0,0,0,0,0,0,0,0,0,0,0,0,0,0,0,0,0,0,0,0,0,0,0,0,0,0,0,0,0,0,0,0,0,0,0,0,0,0,0,0,0,0,0,0,0,0,0,0,0,0,0,0,0,0,0,0],"sum_hessian":[2.22E2,1.44E2,7.8E1,8.3E1,6.1E1,3.6E1,4.2E1,4E1,4.3E1,9E0,5.2E1,1.6E1,2E1,6E0,3.6E1,2E0,3.8E1,1E1,3.3E1,6E0,3E0,3.7E1,1.5E1,1.1E1,5E0,1.4E1,6E0,3E0,3E0,3.3E1,3E0,1E0,1E0,4E0,3.4E1,1E0,9E0,2.4E1,9E0,2E1,1.7E1,6E0,9E0,3E0,8E0,1E0,4E0,6E0,8E0,2E0,1E0,3E1,3E0,2E0,2E0,3E0,3.1E1,1.1E1,1.3E1,1E0,8E0,5E0,1.5E1,9E0,8E0,4E0,2E0,2E0,1E0,6E0,2E0,1E0,5E0,7E0,1E0,2.7E1,3E0],"tree_param":{"num_deleted":"0","num_feature":"25","num_nodes":"77","size_leaf_vector":"1"}},{"base_weights":[-6.567434E-2,-2.6301112E0,2.4984505E0,-3.6650174E0,5.2800775E-1,-4.1851944E-1,4.3077335E0,-4.803881E0,-2.4915655E0,-4.0923646E-1,2.5632162E0,-3.4733572E0,4.8933047E-1,3.3511436E0,5.917684E0,-5.5483885E0,-3.4205542E0,-1.1791915E0,-3.9368358E0,-1.8659861E0,7.0909554E-1,1.4373964E-1,4.7423273E-2,-2.2757414E-1,-9.896799E-2,-1.473934E0,2.122115E0,2.008642E0,4.168047E0,3.0180484E-1,7.735497E-2,-7.488006E-2,-5.83117E0,-2.2681753E-1,-1.5857389E0,-1.4736855E-1,-5.534932E-1,-1.5802864E0,-4.610333E0,-1.0793026E-1,-2.6393993E-2,7.8798585E-2,6.616096E-2,-1.4955871E-1,-7.105896E-1,1.0357046E0,2.9863136E0,-4.5822868E-1,2.5060697E0,2.1194608E0,4.53275E0,-6.1236728E-2,-2.9901692E-1,-1.406189E-2,-8.588169E-2,2.914775E-3,-8.124437E-2,-6.459389E-3,-9.1233425E-2,-4.987752E-2,-2.5408596E-1,-1.703251E-2,1.9918885E-2,-1.5148672E-3,-5.889494E-2,9.946041E-3,6.758117E-2,3.81929E-2,1.5686344E-1,-3.1383235E-2,-0E0,1.6194297E-1,5.434656E-2,1.3891943E-1,5.3519994E-2,2.3507617E-1,9.3167216E-2],"categories":[],"categories_nodes":[],"categories_segments":[],"categories_sizes":[],"default_left":[0,0,0,0,0,0,0,0,0,0,0,0,0,0,0,0,0,0,0,0,0,0,0,0,0,0,0,0,0,0,0,0,0,0,0,0,0,0,0,0,0,0,0,0,0,0,0,0,0,0,0,0,0,0,0,0,0,0,0,0,0,0,0,0,0,0,0,0,0,0,0,0,0,0,0,0,0],"id":15,"left_children":[1,3,5,7,9,11,13,15,17,19,21,23,25,27,29,31,33,35,37,39,41,-1,-1,-1,-1,43,45,47,49,-1,-1,-1,51,-1,53,-1,55,57,59,-1,-1,-1,61,-1,63,65,67,69,71,73,75,-1,-1,-1,-1,-1,-1,-1,-1,-1,-1,-1,-1,-1,-1,-1,-1,-1,-1,-1,-1,-1,-1,-1,-1,-1,-1],"loss_changes":[1.4466267E3,3.6176807E2,5.827305E2,9.822266E1,5.4674004E1,1.2125139E2,8.396631E1,2.2350342E1,7.640573E1,3.4021442E1,1.4191017E0,6.4450607E0,1.12182655E2,4.036142E1,2.3240356E0,1.917157E1,2.6998108E1,2.4570892E1,2.383789E1,2.1158657E0,6.4196534E0,0E0,0E0,0E0,0E0,1.6035152E1,1.434346E1,2.466784E1,9.9002075E0,0E0,0E0,0E0,7.7592163E0,0E0,6.9350433E-1,0E0,1.2705254E1,1.6966238E0,1.9868011E1,0E0,0E0,0E0,1.2226758E0,0E0,3.6583743E0,2.219636E0,5.6838226E-1,3.4199482E-1,1.2685883E1,7.886658E-1,4.9453735E-1,0E0,0E0,0E0,0E0,0E0,0E0,0E0,0E0,0E0,0E0,0E0,0E0,0E0,0E0,0E0,0E0,0E0,0E0,0E0,0E0,0E0,0E0,0E0,0E0,0E0,0E0],"parents":[2147483647,0,0,1,1,2,2,3,3,4,4,5,5,6,6,7,7,8,8,9,9,10,10,11,11,12,12,13,13,14,14,15,15,16,16,17,17,18,18,19,19,20,20,25,25,26,26,27,27,28,28,32,32,34,34,36,36,37,37,38,38,42,42,44,44,45,45,46,46,47,47,48,48,49,49,50,50],"right_children":[2,4,6,8,10,12,14,16,18,20,22,24,26,28,30,32,34,36,38,40,42,-1,-1,-1,-1,44,46,48,50,-1,-1,-1,52,-1,54,-1,56,58,60,-1,-1,-1,62,-1,64,66,68,70,72,74,76,-1,-1,-1,-1,-1,-1,-1,-1,-1,-1,-1,-1,-1,-1,-1,-1,-1,-1,-1,-1,-1,-1,-1,-1,-1,-1],"split_conditions":[7.773544E1,5E0,-2E0,7.5164E1,1.4E1,-1.1E1,8.15854E1,-1E0,7.671429E1,6.8E1,7.6E1,-1.9E1,8.7E1,7E0,8.342857E1,7.242857E1,7.1E1,-1.2E1,6.9E1,2.1E1,7.357143E1,1.4373964E-1,4.7423273E-2,-2.2757414E-1,-9.896799E-2,8.1E1,-7E0,7.6E1,-8.660254E-1,3.0180484E-1,7.735497E-2,-7.488006E-2,3E0,-2.2681753E-1,7.414286E1,-1.4736855E-1,7.9E1,5E0,6.7E1,-1.0793026E-1,-2.6393993E-2,7.8798585E-2,7.446271E1,-1.4955871E-1,8.042857E1,7.3E1,7.898715E1,7E0,7.671429E1,8E1,8.242857E1,-6.1236728E-2,-2.9901692E-1,-1.406189E-2,-8.588169E-2,2.914775E-3,-8.124437E-2,-6.459389E-3,-9.1233425E-2,-4.987752E-2,-2.5408596E-1,-1.703251E-2,1.9918885E-2,-1.5148672E-3,-5.889494E-2,9.946041E-3,6.758117E-2,3.81929E-2,1.5686344E-1,-3.1383235E-2,-0E0,1.6194297E-1,5.434656E-2,1.3891943E-1,5.3519994E-2,2.3507617E-1,9.3167216E-2],"split_indices":[9,24,24,9,24,24,9,24,8,10,11,24,10,24,21,19,10,24,16,2,22,0,0,0,0,10,24,10,6,0,0,0,2,0,21,0,11,1,11,0,0,0,9,0,19,12,9,1,23,11,19,0,0,0,0,0,0,0,0,0,0,0,0,0,0,0,0,0,0,0,0,0,0,0,0,0,0],"split_type":[0,0,0,0,0,0,0,0,0,0,0,0,0,0,0,0,0,0,0,0,0,0,0,0,0,0,0,0,0,0,0,0,0,0,0,0,0,0,0,0,0,0,0,0,0,0,0,0,0,0,0,0,0,0,0,0,0,0,0,0,0,0,0,0,0,0,0,0,0,0,0,0,0,0,0,0,0],"sum_hessian":[2.18E2,1.09E2,1.09E2,8.2E1,2.7E1,4.2E1,6.7E1,4E1,4.2E1,1.9E1,8E0,9E0,3.3E1,4.4E1,2.3E1,2.4E1,1.6E1,2.3E1,1.9E1,8E0,1.1E1,6E0,2E0,4E0,5E0,1.5E1,1.8E1,1.8E1,2.6E1,2.2E1,1E0,2E0,2.2E1,9E0,7E0,5E0,1.8E1,5E0,1.4E1,6E0,2E0,4E0,7E0,4E0,1.1E1,9E0,9E0,3E0,1.5E1,5E0,2.1E1,1E0,2.1E1,1E0,6E0,1.2E1,6E0,1E0,4E0,2E0,1.2E1,3E0,4E0,5E0,6E0,3E0,6E0,1E0,8E0,2E0,1E0,9E0,6E0,2E0,3E0,1.9E1,2E0],"tree_param":{"num_deleted":"0","num_feature":"25","num_nodes":"77","size_leaf_vector":"1"}},{"base_weights":[3.76938E-2,-2.1141543E0,2.4540355E0,-3.531315E0,1.1193184E0,-1.1062133E-1,4.207859E0,-4.3429093E0,-2.4532979E0,-2.3244067E-1,2.417429E0,-3.5033772E0,7.3786265E-1,3.4404118E0,2.7870813E-1,-7.1103655E-2,-4.5112915E0,-8.622984E-1,-4.167614E0,1.4014966E0,-9.2323947E-1,2.8927326E0,4.8803222E-1,-2.1847105E-1,-9.5832884E-2,-4.7744384E-1,1.73898E0,4.346864E0,2.1756485E0,-2.1512704E0,-4.7625766E0,-1.234226E-1,-4.5191437E-1,-3.9202653E-2,-4.314644E0,-3.47694E-2,9.8997556E-2,4.171077E-2,-1.6646659E0,5.0991993E-2,1.633818E-1,4.4176586E-2,-3.681132E-2,1.3239795E0,-1.3467019E0,6.8970245E-1,2.5256886E0,2.557798E0,2.3977819E-1,1.9136009E-1,2.5086782E0,-4.5778885E-2,-1.257611E-1,-2.5862867E-1,-1.2830095E-1,3.8491033E-2,-3.2949753E-2,-7.254878E-2,-2.2965339E-1,-2.7732909E-2,5.275444E-2,-1.1510085E-1,-2.1340542E-2,-8.787117E-3,3.5262683E-3,1.0344277E-2,7.430106E-2,-1.1234961E-1,-3.015913E-2,5.4861438E-2,-8.544712E-3,6.1786946E-2,1.5359916E-1,1.9149551E-2,1.4198837E-1,-3.155514E-2,3.5460766E-2,1.5388806E-1,4.6786614E-2],"categories":[],"categories_nodes":[],"categories_segments":[],"categories_sizes":[],"default_left":[0,0,0,0,0,0,0,0,0,0,0,0,0,0,0,0,0,0,0,0,0,0,0,0,0,0,0,0,0,0,0,0,0,0,0,0,0,0,0,0,0,0,0,0,0,0,0,0,0,0,0,0,0,0,0,0,0,0,0,0,0,0,0,0,0,0,0,0,0,0,0,0,0,0,0,0,0,0,0],"id":16,"left_children":[1,3,5,7,9,11,13,15,17,19,21,23,25,27,-1,-1,29,31,33,35,37,39,41,-1,-1,43,45,47,49,51,53,-1,55,-1,57,-1,-1,59,61,-1,-1,-1,63,65,67,69,71,73,-1,75,77,-1,-1,-1,-1,-1,-1,-1,-1,-1,-1,-1,-1,-1,-1,-1,-1,-1,-1,-1,-1,-1,-1,-1,-1,-1,-1,-1,-1],"loss_changes":[1.1699327E3,5.494935E2,4.776585E2,6.128369E1,6.570552E1,1.295243E2,4.5980713E1,1.5614807E1,9.954733E1,2.2691809E1,1.567411E1,3.3642273E0,4.475634E1,3.9187744E1,0E0,0E0,1.456366E1,1.2434371E1,5.0619507E0,8.783005E0,1.0247886E1,6.7710953E0,1.1550729E0,0E0,0E0,2.8405605E1,1.4446003E1,6.264679E0,1.2466476E1,5.2433014E-2,2.0175232E1,0E0,5.0501842E0,0E0,6.285492E0,0E0,0E0,4.8656874E0,5.056175E0,0E0,0E0,0E0,6.765317E-2,6.093683E-1,6.392233E0,3.7873015E0,3.524681E0,2.8827171E0,0E0,2.1590655E0,1.1936012E1,0E0,0E0,0E0,0E0,0E0,0E0,0E0,0E0,0E0,0E0,0E0,0E0,0E0,0E0,0E0,0E0,0E0,0E0,0E0,0E0,0E0,0E0,0E0,0E0,0E0,0E0,0E0,0E0],"parents":[2147483647,0,0,1,1,2,2,3,3,4,4,5,5,6,6,7,7,8,8,9,9,10,10,11,11,12,12,13,13,16,16,17,17,18,18,19,19,20,20,21,21,22,22,25,25,26,26,27,27,28,28,29,29,30,30,32,32,34,34,37,37,38,38,42,42,43,43,44,44,45,45,46,46,47,47,49,49,50,50],"right_children":[2,4,6,8,10,12,14,16,18,20,22,24,26,28,-1,-1,30,32,34,36,38,40,42,-1,-1,44,46,48,50,52,54,-1,56,-1,58,-1,-1,60,62,-1,-1,-1,64,66,68,70,72,74,-1,76,78,-1,-1,-1,-1,-1,-1,-1,-1,-1,-1,-1,-1,-1,-1,-1,-1,-1,-1,-1,-1,-1,-1,-1,-1,-1,-1,-1,-1],"split_conditions":[7.773544E1,5E0,-2E0,7.516674E1,1.1E1,-1.3E1,8.15854E1,7.242857E1,7.728571E1,6.7E1,7.9E1,-1.9E1,7.986979E1,7.785714E1,2.7870813E-1,-7.1103655E-2,3E0,-1.2E1,6.9E1,7.342857E1,7.6E1,-7.818315E-1,1E0,-2.1847105E-1,-9.5832884E-2,7.771429E1,-7E0,7.820243E1,2E0,7.2E1,2.8E1,-1.234226E-1,1E0,-3.9202653E-2,6.7E1,-3.47694E-2,9.8997556E-2,4.3388373E-1,9E0,5.0991993E-2,1.633818E-1,4.4176586E-2,8E0,1E1,7.865234E1,-5E-1,7.5E1,-2.2252093E-1,2.3977819E-1,2E0,8.4E1,-4.5778885E-2,-1.257611E-1,-2.5862867E-1,-1.2830095E-1,3.8491033E-2,-3.2949753E-2,-7.254878E-2,-2.2965339E-1,-2.7732909E-2,5.275444E-2,-1.1510085E-1,-2.1340542E-2,-8.787117E-3,3.5262683E-3,1.0344277E-2,7.430106E-2,-1.1234961E-1,-3.015913E-2,5.4861438E-2,-8.544712E-3,6.1786946E-2,1.5359916E-1,1.9149551E-2,1.4198837E-1,-3.155514E-2,3.5460766E-2,1.5388806E-1,4.6786614E-2],"split_indices":[9,24,24,9,24,24,9,19,17,12,16,24,9,17,0,0,2,24,16,8,16,4,3,0,0,17,24,9,24,11,2,0,3,0,11,0,0,4,24,0,0,0,1,2,9,7,14,5,0,3,11,0,0,0,0,0,0,0,0,0,0,0,0,0,0,0,0,0,0,0,0,0,0,0,0,0,0,0,0],"split_type":[0,0,0,0,0,0,0,0,0,0,0,0,0,0,0,0,0,0,0,0,0,0,0,0,0,0,0,0,0,0,0,0,0,0,0,0,0,0,0,0,0,0,0,0,0,0,0,0,0,0,0,0,0,0,0,0,0,0,0,0,0,0,0,0,0,0,0,0,0,0,0,0,0,0,0,0,0,0,0],"sum_hessian":[2.23E2,1.18E2,1.05E2,8.2E1,3.6E1,4.3E1,6.2E1,4.5E1,3.7E1,1.8E1,1.8E1,8E0,3.5E1,4.2E1,2E1,3E0,4.2E1,2E1,1.7E1,5E0,1.3E1,1.4E1,4E0,4E0,4E0,1.6E1,1.9E1,2.3E1,1.9E1,5E0,3.7E1,3E0,1.7E1,1E0,1.6E1,1E0,4E0,6E0,7E0,3E0,1.1E1,2E0,2E0,5E0,1.1E1,9E0,1E1,6E0,1.7E1,3E0,1.6E1,2E0,3E0,3E1,7E0,2E0,1.5E1,2E0,1.4E1,4E0,2E0,4E0,3E0,1E0,1E0,1E0,4E0,4E0,7E0,6E0,3E0,4E0,6E0,1E0,5E0,1E0,2E0,1.1E1,5E0],"tree_param":{"num_deleted":"0","num_feature":"25","num_nodes":"79","size_leaf_vector":"1"}},{"base_weights":[-1.5032308E-1,-2.3298523E0,2.3202894E0,-4.754992E0,-1.4578391E0,1.647475E0,5.0923767E0,-1.0375841E-1,-4.9644313E0,-3.2154095E0,5.831422E-1,-2.758745E-1,3.408213E0,1.383454E-1,5.494562E0,-6.899849E-2,-5.042375E0,-2.0819695E0,-4.257934E0,-6.2207216E-1,2.0800898E0,-1.9988147E0,1.2299811E0,2.1207283E0,4.2636547E0,2.828827E-1,7.370468E-2,-5.1923156E0,-1.0393738E-1,-2.7611527E0,-2.81061E-1,-6.1139654E-2,-2.2368646E-1,-1.172437E0,8.677333E-1,2.9107055E-1,3.3456426E0,-2.6714969E0,-1.0489829E0,-2.4894123E-1,1.8988184E0,1.4304463E0,2.9648454E0,5.1164827E0,2.6264813E0,-2.6421365E-1,-7.2133414E-2,-4.8325237E-2,-1.5244912E-1,-6.382113E-2,1.2339833E-2,-9.897907E-2,-2.9778317E-2,6.9998056E-2,4.678612E-3,2.469958E-2,-3.0539322E-3,3.679348E-2,1.7615165E-1,-1.5836495E-1,-4.9350914E-2,-8.576308E-2,-1.5112673E-2,-3.586806E-2,1.869095E-2,1.04842834E-1,1.5418345E-2,8.764785E-2,1.2077885E-2,1.6620362E-1,6.1238836E-2,7.116143E-2,2.6305756E-1,4.595169E-2,1.4463441E-1],"categories":[],"categories_nodes":[],"categories_segments":[],"categories_sizes":[],"default_left":[0,0,0,0,0,0,0,0,0,0,0,0,0,0,0,0,0,0,0,0,0,0,0,0,0,0,0,0,0,0,0,0,0,0,0,0,0,0,0,0,0,0,0,0,0,0,0,0,0,0,0,0,0,0,0,0,0,0,0,0,0,0,0,0,0,0,0,0,0,0,0,0,0,0,0],"id":17,"left_children":[1,3,5,7,9,11,13,-1,15,17,19,21,23,-1,25,-1,27,29,31,33,35,37,39,41,43,-1,-1,45,-1,47,49,-1,-1,51,53,55,57,59,61,63,65,67,69,71,73,-1,-1,-1,-1,-1,-1,-1,-1,-1,-1,-1,-1,-1,-1,-1,-1,-1,-1,-1,-1,-1,-1,-1,-1,-1,-1,-1,-1,-1,-1],"loss_changes":[1.206211E3,2.441023E2,1.8677191E2,6.3931274E0,3.2139624E2,2.924937E2,2.6762695E0,0E0,2.2229004E-1,4.7219757E1,7.721375E1,1.1150436E2,3.9881042E1,0E0,1.4382019E0,0E0,4.7729492E-1,2.9498398E1,9.679138E0,2.0726309E1,4.168039E1,9.604294E0,2.3388325E1,6.9729996E0,2.2089264E1,0E0,0E0,3.2403564E-1,0E0,5.949539E0,4.6212535E0,0E0,0E0,6.9446373E0,2.6038594E0,7.165899E-1,2.0740433E0,5.645233E0,4.255105E0,2.6362238E0,4.152401E0,4.3616905E0,4.7450256E-1,3.9248657E-1,1.960228E0,0E0,0E0,0E0,0E0,0E0,0E0,0E0,0E0,0E0,0E0,0E0,0E0,0E0,0E0,0E0,0E0,0E0,0E0,0E0,0E0,0E0,0E0,0E0,0E0,0E0,0E0,0E0,0E0,0E0,0E0],"parents":[2147483647,0,0,1,1,2,2,3,3,4,4,5,5,6,6,8,8,9,9,10,10,11,11,12,12,14,14,16,16,17,17,18,18,19,19,20,20,21,21,22,22,23,23,24,24,27,27,29,29,30,30,33,33,34,34,35,35,36,36,37,37,38,38,39,39,40,40,41,41,42,42,43,43,44,44],"right_children":[2,4,6,8,10,12,14,-1,16,18,20,22,24,-1,26,-1,28,30,32,34,36,38,40,42,44,-1,-1,46,-1,48,50,-1,-1,52,54,56,58,60,62,64,66,68,70,72,74,-1,-1,-1,-1,-1,-1,-1,-1,-1,-1,-1,-1,-1,-1,-1,-1,-1,-1,-1,-1,-1,-1,-1,-1,-1,-1,-1,-1,-1,-1],"split_conditions":[1E0,-1.2E1,8E1,6.6E1,8.1E1,1.1E1,7.342857E1,-1.0375841E-1,6.6E1,7.771429E1,8.7E1,7.2E1,7.685714E1,1.383454E-1,9.1E1,-6.899849E-2,8.142857E1,7.528571E1,6.9E1,-4E0,-7E0,6.8E1,4E0,6.9E1,8.4E1,2.828827E-1,7.370468E-2,9.1E1,-1.0393738E-1,7.528571E1,6.7E1,-6.1139654E-2,-2.2368646E-1,-1E1,7.2E1,7.818315E-1,-7.818315E-1,9E0,5E0,7.6E1,8.4E1,2.3E1,7.857143E1,-2.2252093E-1,3E0,-2.6421365E-1,-7.2133414E-2,-4.8325237E-2,-1.5244912E-1,-6.382113E-2,1.2339833E-2,-9.897907E-2,-2.9778317E-2,6.9998056E-2,4.678612E-3,2.469958E-2,-3.0539322E-3,3.679348E-2,1.7615165E-1,-1.5836495E-1,-4.9350914E-2,-8.576308E-2,-1.5112673E-2,-3.586806E-2,1.869095E-2,1.04842834E-1,1.5418345E-2,8.764785E-2,1.2077885E-2,1.6620362E-1,6.1238836E-2,7.116143E-2,2.6305756E-1,4.595169E-2,1.4463441E-1],"split_indices":[24,24,10,16,10,24,23,0,13,18,10,10,8,0,12,0,8,8,16,24,24,10,24,10,12,0,0,13,0,23,14,0,0,24,13,4,4,24,24,10,12,2,22,5,2,0,0,0,0,0,0,0,0,0,0,0,0,0,0,0,0,0,0,0,0,0,0,0,0,0,0,0,0,0,0],"split_type":[0,0,0,0,0,0,0,0,0,0,0,0,0,0,0,0,0,0,0,0,0,0,0,0,0,0,0,0,0,0,0,0,0,0,0,0,0,0,0,0,0,0,0,0,0,0,0,0,0,0,0,0,0,0,0,0,0,0,0,0,0,0,0,0,0,0,0,0,0,0,0,0,0,0,0],"sum_hessian":[2.22E2,1.18E2,1.04E2,3E1,8.8E1,8.5E1,1.9E1,3E0,2.7E1,4.7E1,4.1E1,4.1E1,4.4E1,4E0,1.5E1,1E0,2.6E1,2.4E1,2.3E1,2.3E1,1.8E1,1.9E1,2.2E1,1.9E1,2.5E1,1.4E1,1E0,2.4E1,2E0,1.7E1,7E0,2E0,2.1E1,1.7E1,6E0,8E0,1E1,1E1,9E0,7E0,1.5E1,1.2E1,7E0,1.5E1,1E1,2.3E1,1E0,3E0,1.4E1,2E0,5E0,6E0,1.1E1,3E0,3E0,5E0,3E0,1E0,9E0,7E0,3E0,4E0,5E0,4E0,3E0,1.3E1,2E0,9E0,3E0,5E0,2E0,1E0,1.4E1,2E0,8E0],"tree_param":{"num_deleted":"0","num_feature":"25","num_nodes":"75","size_leaf_vector":"1"}},{"base_weights":[-1.2449076E-1,-2.14808E0,1.9375106E0,-3.3033197E0,-6.876219E-1,1.0289122E0,4.311068E0,-1.0665802E0,-4.0229754E0,9.704118E-1,-2.7711365E0,3.4199576E0,-1.6158019E-1,4.5858603E0,3.6758372E-1,-2.7057197E0,8.9827424E-1,-1.4035306E0,-4.24186E0,2.165484E0,-5.674009E-1,-7.814341E-1,-3.304494E0,4.1487565E0,1.8290038E0,2.0155535E0,-9.220375E-1,4.7334633E0,8.969406E-2,6.5832295E-2,-3.5763513E-2,-1.4059026E0,-1.9770077E-1,-3.8126716E-1,8.811262E-2,-1.3983637E-2,-1.0131057E-1,-4.053913E-2,-4.3048673E0,1.0648386E0,3.1205242E0,-1.272282E0,2.0425175E-1,-5.1670343E-2,-1.5165913E-1,-1.3154129E0,-4.0153265E0,4.374337E0,8.023005E-2,1.3979338E-1,7.0178324E-1,1.402094E-1,4.8000947E-1,-1.6118395E0,3.2842195E-1,1.2370741E-1,2.5206155E-1,-8.999405E-3,-7.97544E-2,-0E0,-2.4938812E-2,-1.2676385E-1,-2.2411862E-1,5.848812E-2,3.1362155E-3,3.3683166E-2,1.6797762E-1,-9.532903E-3,-8.2339995E-2,-1.7238503E-2,3.6360532E-2,-0E0,-1.04955295E-2,-8.6875826E-2,1.7377624E-2,-2.0985232E-1,-4.791027E-2,5.895325E-2,2.2556046E-1,4.2818587E-2,-0E0,2.981604E-2,-3.8680995E-5,-5.0159033E-2,-1.5531583E-1,4.9654588E-2,-5.8976807E-2],"categories":[],"categories_nodes":[],"categories_segments":[],"categories_sizes":[],"default_left":[0,0,0,0,0,0,0,0,0,0,0,0,0,0,0,0,0,0,0,0,0,0,0,0,0,0,0,0,0,0,0,0,0,0,0,0,0,0,0,0,0,0,0,0,0,0,0,0,0,0,0,0,0,0,0,0,0,0,0,0,0,0,0,0,0,0,0,0,0,0,0,0,0,0,0,0,0,0,0,0,0,0,0,0,0,0,0],"id":18,"left_children":[1,3,5,7,9,11,13,15,17,19,21,23,25,27,29,31,33,35,37,39,41,43,45,47,49,51,53,55,-1,-1,-1,57,-1,59,-1,-1,-1,-1,61,63,65,67,69,-1,71,73,75,77,-1,-1,79,-1,81,83,85,-1,-1,-1,-1,-1,-1,-1,-1,-1,-1,-1,-1,-1,-1,-1,-1,-1,-1,-1,-1,-1,-1,-1,-1,-1,-1,-1,-1,-1,-1,-1,-1],"loss_changes":[8.9295624E2,1.7954483E2,2.2363104E2,9.178119E1,1.7214154E2,2.2290707E2,2.9244446E1,5.4141953E1,1.9282837E1,5.284683E1,2.0356064E1,2.1960785E1,8.949677E1,1.9827881E0,4.084982E0,8.508049E0,9.6539545E0,2.7017603E0,4.8616943E0,1.3077179E1,7.437672E0,6.768844E-1,1.8221481E1,2.139557E0,8.586826E0,1.52793045E1,3.5160477E1,4.159363E0,0E0,0E0,0E0,9.2694664E-1,0E0,1.6487455E-1,0E0,0E0,0E0,0E0,4.985962E-1,7.496891E-1,2.0124207E0,2.3378925E0,2.2987752E0,0E0,1.9123428E-2,4.9545374E0,2.1293182E0,6.7211914E-1,0E0,0E0,7.118647E-1,0E0,3.9553916E-1,2.0123154E1,1.6187159E1,0E0,0E0,0E0,0E0,0E0,0E0,0E0,0E0,0E0,0E0,0E0,0E0,0E0,0E0,0E0,0E0,0E0,0E0,0E0,0E0,0E0,0E0,0E0,0E0,0E0,0E0,0E0,0E0,0E0,0E0,0E0,0E0],"parents":[2147483647,0,0,1,1,2,2,3,3,4,4,5,5,6,6,7,7,8,8,9,9,10,10,11,11,12,12,13,13,14,14,15,15,16,16,17,17,18,18,19,19,20,20,21,21,22,22,23,23,24,24,25,25,26,26,27,27,31,31,33,33,38,38,39,39,40,40,41,41,42,42,44,44,45,45,46,46,47,47,50,50,52,52,53,53,54,54],"right_children":[2,4,6,8,10,12,14,16,18,20,22,24,26,28,30,32,34,36,38,40,42,44,46,48,50,52,54,56,-1,-1,-1,58,-1,60,-1,-1,-1,-1,62,64,66,68,70,-1,72,74,76,78,-1,-1,80,-1,82,84,86,-1,-1,-1,-1,-1,-1,-1,-1,-1,-1,-1,-1,-1,-1,-1,-1,-1,-1,-1,-1,-1,-1,-1,-1,-1,-1,-1,-1,-1,-1,-1,-1],"split_conditions":[7.748058E1,7.561021E1,8.148864E1,7.342857E1,7.685714E1,7.771429E1,8.342857E1,7.382254E1,6.6E1,7.6E1,7.1E1,8.2E1,7.5E1,8.457143E1,3E0,7.1E1,7E1,8E0,6.6E1,7.571429E1,7.4E1,7.676339E1,7.614286E1,1.1E1,7E1,8E0,8.049371E1,7.5E1,8.969406E-2,6.5832295E-2,-3.5763513E-2,1E0,-1.9770077E-1,3E0,8.811262E-2,-1.3983637E-2,-1.0131057E-1,-4.053913E-2,1E0,8.2E1,-7.818315E-1,5E0,6.8E1,-5.1670343E-2,5E0,4.3388373E-1,1.1E1,7.271429E1,8.023005E-2,1.3979338E-1,9.749279E-1,1.402094E-1,1.1E1,8.071429E1,8.242857E1,1.2370741E-1,2.5206155E-1,-8.999405E-3,-7.97544E-2,-0E0,-2.4938812E-2,-1.2676385E-1,-2.2411862E-1,5.848812E-2,3.1362155E-3,3.3683166E-2,1.6797762E-1,-9.532903E-3,-8.2339995E-2,-1.7238503E-2,3.6360532E-2,-0E0,-1.04955295E-2,-8.6875826E-2,1.7377624E-2,-2.0985232E-1,-4.791027E-2,5.895325E-2,2.2556046E-1,4.2818587E-2,-0E0,2.981604E-2,-3.8680995E-5,-5.0159033E-2,-1.5531583E-1,4.9654588E-2,-5.8976807E-2],"split_indices":[9,9,9,17,17,17,21,9,15,10,10,10,10,8,3,12,15,1,16,22,16,9,8,1,13,1,9,23,0,0,0,3,0,3,0,0,0,0,3,12,4,1,15,0,1,4,1,22,0,0,4,0,1,8,8,0,0,0,0,0,0,0,0,0,0,0,0,0,0,0,0,0,0,0,0,0,0,0,0,0,0,0,0,0,0,0,0],"split_type":[0,0,0,0,0,0,0,0,0,0,0,0,0,0,0,0,0,0,0,0,0,0,0,0,0,0,0,0,0,0,0,0,0,0,0,0,0,0,0,0,0,0,0,0,0,0,0,0,0,0,0,0,0,0,0,0,0,0,0,0,0,0,0,0,0,0,0,0,0,0,0,0,0,0,0,0,0,0,0,0,0,0,0,0,0,0,0],"sum_hessian":[2.12E2,1.07E2,1.05E2,5.9E1,4.8E1,7.7E1,2.8E1,1.5E1,4.4E1,2.7E1,2.1E1,2.5E1,5.2E1,2.6E1,2E0,8E0,7E0,4E0,4E1,1.5E1,1.2E1,5E0,1.6E1,1.6E1,9E0,1.3E1,3.9E1,2.4E1,2E0,1E0,1E0,5E0,3E0,3E0,4E0,2E0,2E0,1E0,3.9E1,8E0,7E0,6E0,6E0,3E0,2E0,5E0,1.1E1,1.4E1,2E0,4E0,5E0,8E0,5E0,2.5E1,1.4E1,4E0,2E1,1E0,4E0,1E0,2E0,5E0,3.4E1,7E0,1E0,1E0,6E0,2E0,4E0,3E0,3E0,1E0,1E0,4E0,1E0,1E1,1E0,1E0,1.3E1,4E0,1E0,4E0,1E0,1.9E1,6E0,1E1,4E0],"tree_param":{"num_deleted":"0","num_feature":"25","num_nodes":"87","size_leaf_vector":"1"}},{"base_weights":[1.796777E-2,-2.396642E0,1.6543328E0,-3.5104024E0,-3.7600654E-1,-6.650685E-1,3.5756788E0,-4.5408864E0,-2.714007E0,-2.7368696E0,2.9607537E-1,-1.4237972E0,1.7598696E0,2.816876E0,4.9334726E0,-4.0416107E-2,-4.675374E0,-1.3353102E0,-3.6543462E0,-1.7496316E-1,-6.3262925E-2,1.6805859E0,-4.4843462E-1,-3.603696E0,-8.364948E-1,-8.519707E-3,9.645755E-2,3.4637554E0,1.0837401E0,2.5588647E-1,9.829264E-2,-2.399422E-1,-5.2649464E-2,6.377182E-2,-1.6987284E0,-4.1659036E0,-1.3688046E0,1.14471726E-1,7.156201E-1,-1.1046364E0,9.220413E-1,-4.802471E-2,-1.9007672E-1,-3.2363564E-1,-1.9635715E0,1.866738E0,4.0726004E0,-4.4337234E-1,1.5496228E0,-5.9380597E-3,1.7784271E-2,-1.566658E-3,-9.191852E-2,-2.9911194E-2,-2.1854325E-1,8.898316E-3,-9.124945E-2,4.1965373E-2,3.0217743E-3,-2.1026392E-2,-1.17136076E-1,1.2100195E-2,5.8827955E-2,5.4837395E-2,-2.4593271E-2,-1.23848036E-1,9.889322E-3,3.263739E-2,1.2264556E-1,3.6901195E-2,2.1751368E-1,-3.615987E-2,7.402573E-3,1.20725326E-1,4.554891E-2],"categories":[],"categories_nodes":[],"categories_segments":[],"categories_sizes":[],"default_left":[0,0,0,0,0,0,0,0,0,0,0,0,0,0,0,0,0,0,0,0,0,0,0,0,0,0,0,0,0,0,0,0,0,0,0,0,0,0,0,0,0,0,0,0,0,0,0,0,0,0,0,0,0,0,0,0,0,0,0,0,0,0,0,0,0,0,0,0,0,0,0,0,0,0,0],"id":19,"left_children":[1,3,5,7,9,11,13,15,17,19,21,23,25,27,29,-1,31,33,35,-1,-1,37,39,41,43,-1,-1,45,47,-1,-1,-1,-1,49,51,53,55,-1,57,59,61,-1,-1,63,65,67,69,71,73,-1,-1,-1,-1,-1,-1,-1,-1,-1,-1,-1,-1,-1,-1,-1,-1,-1,-1,-1,-1,-1,-1,-1,-1,-1,-1],"loss_changes":[8.2178546E2,1.8733371E2,5.5525934E2,3.1266785E1,5.0241898E1,1.07344696E2,5.5388184E1,6.7160645E0,3.740396E1,2.9497032E0,2.6646393E1,5.2872932E1,5.079197E0,4.7363434E1,1.8074341E0,0E0,3.7540588E0,7.8986034E0,1.59587555E1,0E0,0E0,3.348795E0,1.6325027E1,5.7878876E-1,1.9944937E1,0E0,0E0,2.3890686E1,1.0758059E1,0E0,0E0,0E0,0E0,2.790695E-1,2.549488E0,7.8568726E0,4.0175514E0,0E0,2.644918E-1,8.902311E0,6.1190176E-1,0E0,0E0,6.691685E0,1.2923622E1,5.9159966E0,1.7576721E1,8.26566E-1,3.5437756E0,0E0,0E0,0E0,0E0,0E0,0E0,0E0,0E0,0E0,0E0,0E0,0E0,0E0,0E0,0E0,0E0,0E0,0E0,0E0,0E0,0E0,0E0,0E0,0E0,0E0,0E0],"parents":[2147483647,0,0,1,1,2,2,3,3,4,4,5,5,6,6,7,7,8,8,9,9,10,10,11,11,12,12,13,13,14,14,16,16,17,17,18,18,21,21,22,22,23,23,24,24,27,27,28,28,33,33,34,34,35,35,36,36,38,38,39,39,40,40,43,43,44,44,45,45,46,46,47,47,48,48],"right_children":[2,4,6,8,10,12,14,16,18,20,22,24,26,28,30,-1,32,34,36,-1,-1,38,40,42,44,-1,-1,46,48,-1,-1,-1,-1,50,52,54,56,-1,58,60,62,-1,-1,64,66,68,70,72,74,-1,-1,-1,-1,-1,-1,-1,-1,-1,-1,-1,-1,-1,-1,-1,-1,-1,-1,-1,-1,-1,-1,-1,-1,-1,-1],"split_conditions":[-3E0,7.882147E1,7.719748E1,-1.3E1,-1.2E1,1.1E1,8.15854E1,4E0,7.4E1,2E0,8.042857E1,7.3041626E1,6.6E1,7.928571E1,8.242857E1,-4.0416107E-2,1.2E1,6.9E1,7.7457146E1,-1.7496316E-1,-6.3262925E-2,1.5E1,8.130596E1,7.1E1,8.2E1,-8.519707E-3,9.645755E-2,8E0,2E0,2.5588647E-1,9.829264E-2,-2.399422E-1,-5.2649464E-2,1.4E1,6.7E1,6.6E1,1E1,1.14471726E-1,2.5E1,8.257143E1,1.3E1,-4.802471E-2,-1.9007672E-1,7.285714E1,1.1E1,7.8241806E1,3E0,7E0,-2.2252093E-1,-5.9380597E-3,1.7784271E-2,-1.566658E-3,-9.191852E-2,-2.9911194E-2,-2.1854325E-1,8.898316E-3,-9.124945E-2,4.1965373E-2,3.0217743E-3,-2.1026392E-2,-1.17136076E-1,1.2100195E-2,5.8827955E-2,5.4837395E-2,-2.4593271E-2,-1.23848036E-1,9.889322E-3,3.263739E-2,1.2264556E-1,3.6901195E-2,2.1751368E-1,-3.615987E-2,7.402573E-3,1.20725326E-1,4.554891E-2],"split_indices":[24,9,9,24,24,24,9,1,11,3,17,9,15,17,21,0,1,15,9,0,0,2,9,15,11,0,0,24,3,0,0,0,0,2,16,13,2,0,2,17,2,0,0,21,1,9,2,1,5,0,0,0,0,0,0,0,0,0,0,0,0,0,0,0,0,0,0,0,0,0,0,0,0,0,0],"split_type":[0,0,0,0,0,0,0,0,0,0,0,0,0,0,0,0,0,0,0,0,0,0,0,0,0,0,0,0,0,0,0,0,0,0,0,0,0,0,0,0,0,0,0,0,0,0,0,0,0,0,0,0,0,0,0,0,0,0,0,0,0,0,0,0,0,0,0,0,0,0,0,0,0,0,0],"sum_hessian":[2.06E2,8.3E1,1.23E2,5.3E1,3E1,5.6E1,6.7E1,2.1E1,3.2E1,6E0,2.4E1,4.3E1,1.3E1,4.5E1,2.2E1,1E0,2E1,1.4E1,1.8E1,3E0,3E0,8E0,1.6E1,8E0,3.5E1,1E0,1.2E1,3.2E1,1.3E1,2E1,2E0,1.9E1,1E0,3E0,1.1E1,1.4E1,4E0,4E0,4E0,1.1E1,5E0,1E0,7E0,2.5E1,1E1,1E1,2.2E1,3E0,1E1,2E0,1E0,1E0,1E1,1E0,1.3E1,1E0,3E0,3E0,1E0,8E0,3E0,2E0,3E0,2E0,2.3E1,8E0,2E0,4E0,6E0,2E0,2E1,2E0,1E0,3E0,7E0],"tree_param":{"num_deleted":"0","num_feature":"25","num_nodes":"75","size_leaf_vector":"1"}},{"base_weights":[-1.0512993E-1,-1.7249045E0,2.1626115E0,-2.8038259E0,9.434152E-1,2.8315294E-1,3.2968693E0,-3.925073E0,-1.907048E0,-6.3786256E-1,2.0550983E0,1.9064159E0,-6.4230675E-1,3.8985708E0,2.0138786E0,-3.4632646E-2,-3.9892774E0,-1.1154487E0,-2.931254E0,-2.3233666E0,3.303998E-1,5.4582703E-1,2.8714087E0,2.499275E0,7.8153455E-1,-1.3118337E0,7.645357E-1,4.0858617E0,1.306955E0,-6.8576396E-2,2.2695067E0,-3.891083E-2,-2.0261636E-1,-1.3914512E-1,-5.0898707E-1,-3.176127E0,-5.051468E-2,-3.6001027E-1,-1.595021E-1,-4.5658693E-1,8.596189E-1,1.0750831E0,-3.5951385E-1,9.7552106E-2,1.878362E-1,4.781441E-2,1.418778E-1,-8.159599E-3,5.1155914E-2,-1.3534324E-1,-6.129181E-1,-8.306656E-3,9.355074E-1,4.2207384E0,1.9941002E0,8.493879E-2,7.8731537E-4,2.844951E0,1.110152E0,-2.7235325E-3,-6.993555E-2,-1.0965232E-1,-1.8413179E-1,-2.7252922E-2,-0E0,5.0389864E-3,-3.2306176E-2,6.0567457E-2,1.33992005E-2,1.3566589E-3,6.296232E-2,-3.8156472E-2,-0E0,-4.7864717E-2,3.529877E-2,8.309911E-3,5.9499573E-2,1.3911006E-1,2.297893E-1,1.24146245E-1,1.0690651E-2,2.608944E-2,1.4998107E-1,7.985342E-2,9.948425E-3],"categories":[],"categories_nodes":[],"categories_segments":[],"categories_sizes":[],"default_left":[0,0,0,0,0,0,0,0,0,0,0,0,0,0,0,0,0,0,0,0,0,0,0,0,0,0,0,0,0,0,0,0,0,0,0,0,0,0,0,0,0,0,0,0,0,0,0,0,0,0,0,0,0,0,0,0,0,0,0,0,0,0,0,0,0,0,0,0,0,0,0,0,0,0,0,0,0,0,0,0,0,0,0,0,0],"id":20,"left_children":[1,3,5,7,9,11,13,15,17,19,21,23,25,27,29,-1,31,33,35,37,39,41,43,45,47,49,51,53,55,-1,57,-1,-1,-1,59,61,-1,63,-1,65,67,69,71,-1,-1,-1,-1,-1,-1,-1,73,-1,75,77,79,-1,-1,81,83,-1,-1,-1,-1,-1,-1,-1,-1,-1,-1,-1,-1,-1,-1,-1,-1,-1,-1,-1,-1,-1,-1,-1,-1,-1,-1],"loss_changes":[7.9343097E2,3.6557358E2,1.9056967E2,8.242731E1,6.649414E1,5.393017E1,3.478827E1,4.862488E0,3.8485214E1,2.7079102E1,2.5195724E1,6.388298E0,2.2721813E1,1.2079895E1,2.051059E1,0E0,4.0567017E0,2.9602997E1,6.721161E0,8.7061E0,5.0141664E0,4.7704787E0,3.5070953E0,1.0828018E0,1.6223407E0,1.3609079E1,1.505301E0,5.5444336E-1,1.8254881E0,0E0,9.121902E0,0E0,0E0,0E0,9.483953E0,7.9707336E-1,0E0,2.0535523E-1,0E0,6.478574E-1,9.841161E-1,9.951587E-1,6.477322E-1,0E0,0E0,0E0,0E0,0E0,0E0,0E0,6.1513057E0,0E0,1.037045E0,3.2009277E0,2.680439E0,0E0,0E0,2.394577E0,3.0519915E0,0E0,0E0,0E0,0E0,0E0,0E0,0E0,0E0,0E0,0E0,0E0,0E0,0E0,0E0,0E0,0E0,0E0,0E0,0E0,0E0,0E0,0E0,0E0,0E0,0E0,0E0],"parents":[2147483647,0,0,1,1,2,2,3,3,4,4,5,5,6,6,7,7,8,8,9,9,10,10,11,11,12,12,13,13,14,14,16,16,17,17,18,18,19,19,20,20,21,21,22,22,23,23,24,24,25,25,26,26,27,27,28,28,30,30,34,34,35,35,37,37,39,39,40,40,41,41,42,42,50,50,52,52,53,53,54,54,57,57,58,58],"right_children":[2,4,6,8,10,12,14,16,18,20,22,24,26,28,30,-1,32,34,36,38,40,42,44,46,48,50,52,54,56,-1,58,-1,-1,-1,60,62,-1,64,-1,66,68,70,72,-1,-1,-1,-1,-1,-1,-1,74,-1,76,78,80,-1,-1,82,84,-1,-1,-1,-1,-1,-1,-1,-1,-1,-1,-1,-1,-1,-1,-1,-1,-1,-1,-1,-1,-1,-1,-1,-1,-1,-1],"split_conditions":[2E0,7.882147E1,7.719748E1,7.5164E1,-7E0,7.371429E1,9E0,6.6E1,7.842857E1,8.021522E1,8.6E1,7.8E1,1E1,8.342857E1,7.761473E1,-3.4632646E-2,6.6E1,-1.2E1,-2E0,7.7E1,8.9E1,7.742857E1,-3E0,7.185714E1,7.352932E1,6.6E1,-2.2252093E-1,9E1,2E0,-6.8576396E-2,8.4E1,-3.891083E-2,-2.0261636E-1,-1.3914512E-1,7.9E1,8.028571E1,-5.051468E-2,4E0,-1.595021E-1,-8.660254E-1,8.4E1,8.2E1,-8.660254E-1,9.7552106E-2,1.878362E-1,4.781441E-2,1.418778E-1,-8.159599E-3,5.1155914E-2,-1.3534324E-1,7.3E1,-8.306656E-3,7.485714E1,7E0,1E0,8.493879E-2,7.8731537E-4,7.685714E1,7.771429E1,-2.7235325E-3,-6.993555E-2,-1.0965232E-1,-1.8413179E-1,-2.7252922E-2,-0E0,5.0389864E-3,-3.2306176E-2,6.0567457E-2,1.33992005E-2,1.3566589E-3,6.296232E-2,-3.8156472E-2,-0E0,-4.7864717E-2,3.529877E-2,8.309911E-3,5.9499573E-2,1.3911006E-1,2.297893E-1,1.24146245E-1,1.0690651E-2,2.608944E-2,1.4998107E-1,7.985342E-2,9.948425E-3],"split_indices":[24,9,9,9,24,17,1,12,17,9,10,23,24,23,9,0,16,24,24,11,10,20,24,19,9,10,5,12,3,0,11,0,0,0,11,17,0,1,0,7,11,10,7,0,0,0,0,0,0,0,10,0,23,24,3,0,0,8,20,0,0,0,0,0,0,0,0,0,0,0,0,0,0,0,0,0,0,0,0,0,0,0,0,0,0],"split_type":[0,0,0,0,0,0,0,0,0,0,0,0,0,0,0,0,0,0,0,0,0,0,0,0,0,0,0,0,0,0,0,0,0,0,0,0,0,0,0,0,0,0,0,0,0,0,0,0,0,0,0,0,0,0,0,0,0,0,0,0,0,0,0,0,0,0,0,0,0,0,0,0,0,0,0,0,0,0,0,0,0,0,0,0,0],"sum_hessian":[2.14E2,1.25E2,8.9E1,8.9E1,3.6E1,3.4E1,5.5E1,3.8E1,5.1E1,1.5E1,2.1E1,1.2E1,2.2E1,3.6E1,1.9E1,1E0,3.7E1,3E1,2.1E1,5E0,1E1,8E0,1.3E1,7E0,5E0,1.5E1,7E0,3.3E1,3E0,1E0,1.8E1,1E0,3.6E1,7E0,2.3E1,1.8E1,3E0,2E0,3E0,4E0,6E0,5E0,3E0,8E0,5E0,2E0,5E0,1E0,4E0,4E0,1.1E1,1E0,6E0,3E1,3E0,2E0,1E0,1.1E1,7E0,1.6E1,7E0,8E0,1E1,1E0,1E0,1E0,3E0,3E0,3E0,1E0,4E0,1E0,2E0,9E0,2E0,2E0,4E0,8E0,2.2E1,2E0,1E0,1E0,1E1,4E0,3E0],"tree_param":{"num_deleted":"0","num_feature":"25","num_nodes":"85","size_leaf_vector":"1"}},{"base_weights":[2.2794291E-1,-1.6385216E0,2.1284168E0,-3.4571087E0,-7.1786875E-1,-1.087982E0,2.756133E0,-1.7949892E0,-3.7263663E0,-2.9583974E0,-2.2697133E-1,8.4107436E-2,-1.5456327E0,2.230469E0,4.5701346E0,-1.166268E-1,-2.6741487E-1,-2.909523E-2,-3.8112822E0,-3.2152736E0,-4.9852602E-2,-8.595973E-1,1.1078918E0,-6.3327605E-1,-2.36633E0,1.4524093E0,3.5174026E0,2.3470329E-1,5.5984464E-2,-1.7408524E-2,-1.475906E-4,-4.257681E0,-1.2636784E-1,-7.831038E-2,-1.8126987E-1,7.3681846E-2,-1.801147E0,2.4777693E-1,1.933229E0,-4.869431E-2,-1.4199498E-2,-1.3890666E-1,-3.603068E-2,2.3063676E0,5.6934893E-1,1.9225223E0,3.9985416E0,-2.1785636E-1,-5.6705058E-2,-1.3229859E-2,5.1826276E-2,2.5485738E-3,-1.00202635E-1,3.1227356E-2,-4.6589635E-2,1.13795035E-1,4.1262325E-2,5.8910634E-2,1.4701545E-1,-1.6730538E-2,4.835665E-2,1.0734023E-1,3.9989192E-2,2.5825888E-1,1.4396197E-1],"categories":[],"categories_nodes":[],"categories_segments":[],"categories_sizes":[],"default_left":[0,0,0,0,0,0,0,0,0,0,0,0,0,0,0,0,0,0,0,0,0,0,0,0,0,0,0,0,0,0,0,0,0,0,0,0,0,0,0,0,0,0,0,0,0,0,0,0,0,0,0,0,0,0,0,0,0,0,0,0,0,0,0,0,0],"id":21,"left_children":[1,3,5,7,9,11,13,15,17,19,21,-1,23,25,27,-1,29,-1,31,33,-1,35,37,39,41,43,45,-1,-1,-1,-1,47,-1,-1,-1,49,51,53,55,-1,-1,-1,-1,57,59,61,63,-1,-1,-1,-1,-1,-1,-1,-1,-1,-1,-1,-1,-1,-1,-1,-1,-1,-1],"loss_changes":[7.5908295E2,1.779238E2,2.1717804E2,8.870422E0,7.930048E1,2.5405872E1,7.399286E1,4.86425E0,5.353302E0,2.9226685E0,5.244012E1,0E0,1.0181797E1,6.5487366E1,2.2874756E0,0E0,2.7930647E-2,0E0,5.181946E0,1.2422562E0,0E0,3.721207E1,1.3500586E1,6.683719E-1,3.0698547E0,3.3087753E1,1.1671936E1,0E0,0E0,0E0,0E0,7.220154E-1,0E0,0E0,0E0,7.5170703E0,8.189369E0,5.439918E0,1.6084442E0,0E0,0E0,0E0,0E0,1.2573074E1,9.016804E0,2.8438568E-3,9.134308E0,0E0,0E0,0E0,0E0,0E0,0E0,0E0,0E0,0E0,0E0,0E0,0E0,0E0,0E0,0E0,0E0,0E0,0E0],"parents":[2147483647,0,0,1,1,2,2,3,3,4,4,5,5,6,6,7,7,8,8,9,9,10,10,12,12,13,13,14,14,16,16,18,18,19,19,21,21,22,22,23,23,24,24,25,25,26,26,31,31,35,35,36,36,37,37,38,38,43,43,44,44,45,45,46,46],"right_children":[2,4,6,8,10,12,14,16,18,20,22,-1,24,26,28,-1,30,-1,32,34,-1,36,38,40,42,44,46,-1,-1,-1,-1,48,-1,-1,-1,50,52,54,56,-1,-1,-1,-1,58,60,62,64,-1,-1,-1,-1,-1,-1,-1,-1,-1,-1,-1,-1,-1,-1,-1,-1,-1,-1],"split_conditions":[1E0,7.563101E1,7.516674E1,7.357143E1,-1.2E1,7.242857E1,8.15854E1,7.414286E1,6.6E1,2.2E1,8.021027E1,8.4107436E-2,7.728571E1,1.5E1,8.342857E1,-1.166268E-1,8E0,-2.909523E-2,-1E0,6E0,-4.9852602E-2,7.8E1,-6E0,7.414286E1,1E1,7.685714E1,7.622992E1,2.3470329E-1,5.5984464E-2,-1.7408524E-2,-1.475906E-4,3E1,-1.2636784E-1,-7.831038E-2,-1.8126987E-1,7.830746E1,7.614286E1,9E1,5E0,-4.869431E-2,-1.4199498E-2,-1.3890666E-1,-3.603068E-2,7.6552E1,7.7796074E1,5E0,7.585714E1,-2.1785636E-1,-5.6705058E-2,-1.3229859E-2,5.1826276E-2,2.5485738E-3,-1.00202635E-1,3.1227356E-2,-4.6589635E-2,1.13795035E-1,4.1262325E-2,5.8910634E-2,1.4701545E-1,-1.6730538E-2,4.835665E-2,1.0734023E-1,3.9989192E-2,2.5825888E-1,1.4396197E-1],"split_indices":[24,9,9,17,24,17,9,19,15,2,9,0,19,24,21,0,1,0,24,2,0,18,24,20,1,19,9,0,0,0,0,2,0,0,0,9,22,11,3,0,0,0,0,9,9,3,17,0,0,0,0,0,0,0,0,0,0,0,0,0,0,0,0,0,0],"split_type":[0,0,0,0,0,0,0,0,0,0,0,0,0,0,0,0,0,0,0,0,0,0,0,0,0,0,0,0,0,0,0,0,0,0,0,0,0,0,0,0,0,0,0,0,0,0,0,0,0,0,0,0,0,0,0,0,0,0,0,0,0,0,0,0,0],"sum_hessian":[2.12E2,1.07E2,1.05E2,3.5E1,7.2E1,1.7E1,8.8E1,6E0,2.9E1,1.2E1,6E1,2E0,1.5E1,7E1,1.8E1,4E0,2E0,1E0,2.8E1,1E1,2E0,4.1E1,1.9E1,8E0,7E0,4.5E1,2.5E1,1.7E1,1E0,1E0,1E0,1.9E1,9E0,3E0,7E0,2.1E1,2E1,1E1,9E0,3E0,5E0,5E0,2E0,2.2E1,2.3E1,7E0,1.8E1,1.8E1,1E0,1.6E1,5E0,2E0,1.8E1,8E0,2E0,6E0,3E0,9E0,1.3E1,7E0,1.6E1,5E0,2E0,7E0,1.1E1],"tree_param":{"num_deleted":"0","num_feature":"25","num_nodes":"65","size_leaf_vector":"1"}},{"base_weights":[7.968789E-2,-1.33243E0,2.6140409E0,-3.6520913E0,-6.941325E-1,5.016745E-1,2.9016912E0,-8.740218E-2,-3.8924308E0,-2.302784E0,1.4639391E0,-1.1416532E0,9.0208426E-2,2.5271237E0,2.2337984E-1,-4.3690386E0,-1.0482607E-1,-1.9841832E-1,-1.8458498E0,-1.978879E-1,2.8053162E0,-6.623133E-2,-7.743988E-3,1.3777717E0,3.4669864E0,-4.5928817E0,-8.427643E-2,-3.4718964E0,-9.4922423E-1,-1.0086391E0,2.723905E-1,6.649256E-2,3.195997E0,-7.2525784E-2,1.9211723E0,2.5224278E-2,3.6640427E0,-6.389958E-2,-2.3610042E-1,-9.947273E-2,-1.9577296E-1,-7.7035815E-2,-1.091096E-2,-5.6599744E-2,-1.1287307E-3,-2.292044E-2,3.102756E-2,8.953136E-2,1.9291219E-1,-2.2048173E-2,1.9057637E-2,5.527524E-2,1.1482598E-1,1.0949787E-1,2.0327373E-1],"categories":[],"categories_nodes":[],"categories_segments":[],"categories_sizes":[],"default_left":[0,0,0,0,0,0,0,0,0,0,0,0,0,0,0,0,0,0,0,0,0,0,0,0,0,0,0,0,0,0,0,0,0,0,0,0,0,0,0,0,0,0,0,0,0,0,0,0,0,0,0,0,0,0,0],"id":22,"left_children":[1,3,5,7,9,11,13,-1,15,17,19,21,-1,23,-1,25,-1,-1,27,29,31,-1,-1,33,35,37,-1,39,41,43,45,-1,47,49,51,-1,53,-1,-1,-1,-1,-1,-1,-1,-1,-1,-1,-1,-1,-1,-1,-1,-1,-1,-1],"loss_changes":[7.3010864E2,1.9099341E2,4.2560425E1,5.4451294E0,3.6449985E2,2.3530228E1,2.5548767E1,0E0,1.0736328E1,3.7757233E1,1.0112703E2,5.496578E-1,0E0,5.307141E1,0E0,2.4430542E0,0E0,0E0,6.770207E1,8.355224E0,9.708115E0,0E0,0E0,2.0814598E1,1.4664307E1,2.1395874E-1,0E0,2.7983398E0,1.3756556E1,8.320818E-1,3.8627777E0,0E0,1.0209778E1,1.5112734E0,2.937996E0,0E0,6.4483337E0,0E0,0E0,0E0,0E0,0E0,0E0,0E0,0E0,0E0,0E0,0E0,0E0,0E0,0E0,0E0,0E0,0E0,0E0],"parents":[2147483647,0,0,1,1,2,2,3,3,4,4,5,5,6,6,8,8,9,9,10,10,11,11,13,13,15,15,18,18,19,19,20,20,23,23,24,24,25,25,27,27,28,28,29,29,30,30,32,32,33,33,34,34,36,36],"right_children":[2,4,6,8,10,12,14,-1,16,18,20,22,-1,24,-1,26,-1,-1,28,30,32,-1,-1,34,36,38,-1,40,42,44,46,-1,48,50,52,-1,54,-1,-1,-1,-1,-1,-1,-1,-1,-1,-1,-1,-1,-1,-1,-1,-1,-1,-1],"split_conditions":[5E0,-1.3E1,6.6E1,6E0,8.2E1,1.4E1,1.9E1,-8.740218E-2,7.928571E1,7E1,-7E0,2E1,9.0208426E-2,7.4E1,2.2337984E-1,8.142857E1,-1.0482607E-1,-1.9841832E-1,-4E0,8.6E1,8.5E1,-6.623133E-2,-7.743988E-3,1E1,7.285714E1,-8.660254E-1,-8.427643E-2,7.7E1,7.6E1,2.7E1,-1.1E1,6.649256E-2,-3E0,7.2E1,6.9E1,2.5224278E-2,7E0,-6.389958E-2,-2.3610042E-1,-9.947273E-2,-1.9577296E-1,-7.7035815E-2,-1.091096E-2,-5.6599744E-2,-1.1287307E-3,-2.292044E-2,3.102756E-2,8.953136E-2,1.9291219E-1,-2.2048173E-2,1.9057637E-2,5.527524E-2,1.1482598E-1,1.0949787E-1,2.0327373E-1],"split_indices":[24,24,10,2,10,24,24,0,23,10,24,2,0,10,0,8,0,0,24,10,10,0,0,24,20,7,0,19,10,2,24,0,24,10,10,0,24,0,0,0,0,0,0,0,0,0,0,0,0,0,0,0,0,0,0],"split_type":[0,0,0,0,0,0,0,0,0,0,0,0,0,0,0,0,0,0,0,0,0,0,0,0,0,0,0,0,0,0,0,0,0,0,0,0,0,0,0,0,0,0,0,0,0,0,0,0,0,0,0,0,0,0,0],"sum_hessian":[2.02E2,1.3E2,7.2E1,2.7E1,1.03E2,9E0,6.3E1,4E0,2.3E1,5.9E1,4.4E1,4E0,5E0,5.3E1,1E1,1.7E1,6E0,1.1E1,4.8E1,2E1,2.4E1,3E0,1E0,2.5E1,2.8E1,1.5E1,2E0,1.6E1,3.2E1,7E0,1.3E1,6E0,1.8E1,7E0,1.8E1,2E0,2.6E1,1E0,1.4E1,5E0,1.1E1,1.7E1,1.5E1,6E0,1E0,4E0,9E0,7E0,1.1E1,4E0,3E0,7E0,1.1E1,7E0,1.9E1],"tree_param":{"num_deleted":"0","num_feature":"25","num_nodes":"55","size_leaf_vector":"1"}},{"base_weights":[-1.6826846E-1,-1.5998323E0,1.5622491E0,-3.4762278E0,-6.030057E-1,5.3432696E-2,2.7329314E0,-1.6558475E0,-3.7458286E0,-2.607448E0,9.685382E-2,-9.414692E-1,1.6363102E0,2.157984E0,3.7573826E0,-2.525075E-4,-1.1475783E-1,-3.8908238E0,-4.5863573E-2,-1.0586965E0,-3.0464523E0,-1.0398453E0,8.763946E-1,9.819348E-1,-1.3230149E0,2.0846002E0,4.503451E-1,2.9278097E0,1.1771786E0,1.9280225E-1,4.95031E-2,-4.3763084E0,-1.1875637E-1,2.223549E-3,-6.541121E-2,-6.65696E-2,-1.6779673E-1,-2.2150259E-1,-2.1533751E0,1.2450904E0,-1.5647976E0,-2.5354538E-2,7.52982E-2,-2.0049944E0,-6.3649267E-1,2.2962164E-2,2.3537474E0,-1.1119792E-1,3.9195806E-2,1.4851339E0,3.3030262E0,7.136194E-1,1.9686939E0,-8.797961E-2,-2.2684836E-1,1.2609473E-2,-3.400034E-2,-1.6526183E-2,-1.1540391E-1,4.0826123E-2,1.291767E-1,-2.4913637E-2,-1.03819504E-1,-3.5483308E-2,-1.3147578E-1,1.2972854E-2,-5.3731617E-2,5.953129E-2,1.3339266E-1,-7.5503923E-3,-0E0,2.0663936E-2,9.463709E-2,1.7691894E-1,5.7441175E-2,-2.4104653E-2,4.3088492E-2,1.08939126E-1,2.0456275E-2],"categories":[],"categories_nodes":[],"categories_segments":[],"categories_sizes":[],"default_left":[0,0,0,0,0,0,0,0,0,0,0,0,0,0,0,0,0,0,0,0,0,0,0,0,0,0,0,0,0,0,0,0,0,0,0,0,0,0,0,0,0,0,0,0,0,0,0,0,0,0,0,0,0,0,0,0,0,0,0,0,0,0,0,0,0,0,0,0,0,0,0,0,0,0,0,0,0,0,0],"id":23,"left_children":[1,3,5,7,9,