{"learner":{"attributes":{"best_iteration":"790","best_score":"0.25023022455372773"},"feature_names":["blood_glucose_lag1","blood_glucose_lag2","blood_glucose_lag3","blood_glucose_lag4","blood_glucose_lag5","blood_glucose_lag6","blood_glucose_lag7","blood_glucose_diff"],"feature_types":["float","float","float","float","float","float","float","float"],"gradient_booster":{"model":{"cats":{"enc":[],"feature_segments":[],"sorted_idx":[]},"gbtree_model_param":{"num_parallel_tree":"1","num_trees":"841"},"iteration_indptr":[0,1,2,3,4,5,6,7,8,9,10,11,12,13,14,15,16,17,18,19,20,21,22,23,24,25,26,27,28,29,30,31,32,33,34,35,36,37,38,39,40,41,42,43,44,45,46,47,48,49,50,51,52,53,54,55,56,57,58,59,60,61,62,63,64,65,66,67,68,69,70,71,72,73,74,75,76,77,78,79,80,81,82,83,84,85,86,87,88,89,90,91,92,93,94,95,96,97,98,99,100,101,102,103,104,105,106,107,108,109,110,111,112,113,114,115,116,117,118,119,120,121,122,123,124,125,126,127,128,129,130,131,132,133,134,135,136,137,138,139,140,141,142,143,144,145,146,147,148,149,150,151,152,153,154,155,156,157,158,159,160,161,162,163,164,165,166,167,168,169,170,171,172,173,174,175,176,177,178,179,180,181,182,183,184,185,186,187,188,189,190,191,192,193,194,195,196,197,198,199,200,201,202,203,204,205,206,207,208,209,210,211,212,213,214,215,216,217,218,219,220,221,222,223,224,225,226,227,228,229,230,231,232,233,234,235,236,237,238,239,240,241,242,243,244,245,246,247,248,249,250,251,252,253,254,255,256,257,258,259,260,261,262,263,264,265,266,267,268,269,270,271,272,273,274,275,276,277,278,279,280,281,282,283,284,285,286,287,288,289,290,291,292,293,294,295,296,297,298,299,300,301,302,303,304,305,306,307,308,309,310,311,312,313,314,315,316,317,318,319,320,321,322,323,324,325,326,327,328,329,330,331,332,333,334,335,336,337,338,339,340,341,342,343,344,345,346,347,348,349,350,351,352,353,354,355,356,357,358,359,360,361,362,363,364,365,366,367,368,369,370,371,372,373,374,375,376,377,378,379,380,381,382,383,384,385,386,387,388,389,390,391,392,393,394,395,396,397,398,399,400,401,402,403,404,405,406,407,408,409,410,411,412,413,414,415,416,417,418,419,420,421,422,423,424,425,426,427,428,429,430,431,432,433,434,435,436,437,438,439,440,441,442,443,444,445,446,447,448,449,450,451,452,453,454,455,456,457,458,459,460,461,462,463,464,465,466,467,468,469,470,471,472,473,474,475,476,477,478,479,480,481,482,483,484,485,486,487,488,489,490,491,492,493,494,495,496,497,498,499,500,501,502,503,504,505,506,507,508,509,510,511,512,513,514,515,516,517,518,519,520,521,522,523,524,525,526,527,528,529,530,531,532,533,534,535,536,537,538,539,540,541,542,543,544,545,546,547,548,549,550,551,552,553,554,555,556,557,558,559,560,561,562,563,564,565,566,567,568,569,570,571,572,573,574,575,576,577,578,579,580,581,582,583,584,585,586,587,588,589,590,591,592,593,594,595,596,597,598,599,600,601,602,603,604,605,606,607,608,609,610,611,612,613,614,615,616,617,618,619,620,621,622,623,624,625,626,627,628,629,630,631,632,633,634,635,636,637,638,639,640,641,642,643,644,645,646,647,648,649,650,651,652,653,654,655,656,657,658,659,660,661,662,663,664,665,666,667,668,669,670,671,672,673,674,675,676,677,678,679,680,681,682,683,684,685,686,687,688,689,690,691,692,693,694,695,696,697,698,699,700,701,702,703,704,705,706,707,708,709,710,711,712,713,714,715,716,717,718,719,720,721,722,723,724,725,726,727,728,729,730,731,732,733,734,735,736,737,738,739,740,741,742,743,744,745,746,747,748,749,750,751,752,753,754,755,756,757,758,759,760,761,762,763,764,765,766,767,768,769,770,771,772,773,774,775,776,777,778,779,780,781,782,783,784,785,786,787,788,789,790,791,792,793,794,795,796,797,798,799,800,801,802,803,804,805,806,807,808,809,810,811,812,813,814,815,816,817,818,819,820,821,822,823,824,825,826,827,828,829,830,831,832,833,834,835,836,837,838,839,840,841],"tree_info":[0,0,0,0,0,0,0,0,0,0,0,0,0,0,0,0,0,0,0,0,0,0,0,0,0,0,0,0,0,0,0,0,0,0,0,0,0,0,0,0,0,0,0,0,0,0,0,0,0,0,0,0,0,0,0,0,0,0,0,0,0,0,0,0,0,0,0,0,0,0,0,0,0,0,0,0,0,0,0,0,0,0,0,0,0,0,0,0,0,0,0,0,0,0,0,0,0,0,0,0,0,0,0,0,0,0,0,0,0,0,0,0,0,0,0,0,0,0,0,0,0,0,0,0,0,0,0,0,0,0,0,0,0,0,0,0,0,0,0,0,0,0,0,0,0,0,0,0,0,0,0,0,0,0,0,0,0,0,0,0,0,0,0,0,0,0,0,0,0,0,0,0,0,0,0,0,0,0,0,0,0,0,0,0,0,0,0,0,0,0,0,0,0,0,0,0,0,0,0,0,0,0,0,0,0,0,0,0,0,0,0,0,0,0,0,0,0,0,0,0,0,0,0,0,0,0,0,0,0,0,0,0,0,0,0,0,0,0,0,0,0,0,0,0,0,0,0,0,0,0,0,0,0,0,0,0,0,0,0,0,0,0,0,0,0,0,0,0,0,0,0,0,0,0,0,0,0,0,0,0,0,0,0,0,0,0,0,0,0,0,0,0,0,0,0,0,0,0,0,0,0,0,0,0,0,0,0,0,0,0,0,0,0,0,0,0,0,0,0,0,0,0,0,0,0,0,0,0,0,0,0,0,0,0,0,0,0,0,0,0,0,0,0,0,0,0,0,0,0,0,0,0,0,0,0,0,0,0,0,0,0,0,0,0,0,0,0,0,0,0,0,0,0,0,0,0,0,0,0,0,0,0,0,0,0,0,0,0,0,0,0,0,0,0,0,0,0,0,0,0,0,0,0,0,0,0,0,0,0,0,0,0,0,0,0,0,0,0,0,0,0,0,0,0,0,0,0,0,0,0,0,0,0,0,0,0,0,0,0,0,0,0,0,0,0,0,0,0,0,0,0,0,0,0,0,0,0,0,0,0,0,0,0,0,0,0,0,0,0,0,0,0,0,0,0,0,0,0,0,0,0,0,0,0,0,0,0,0,0,0,0,0,0,0,0,0,0,0,0,0,0,0,0,0,0,0,0,0,0,0,0,0,0,0,0,0,0,0,0,0,0,0,0,0,0,0,0,0,0,0,0,0,0,0,0,0,0,0,0,0,0,0,0,0,0,0,0,0,0,0,0,0,0,0,0,0,0,0,0,0,0,0,0,0,0,0,0,0,0,0,0,0,0,0,0,0,0,0,0,0,0,0,0,0,0,0,0,0,0,0,0,0,0,0,0,0,0,0,0,0,0,0,0,0,0,0,0,0,0,0,0,0,0,0,0,0,0,0,0,0,0,0,0,0,0,0,0,0,0,0,0,0,0,0,0,0,0,0,0,0,0,0,0,0,0,0,0,0,0,0,0,0,0,0,0,0,0,0,0,0,0,0,0,0,0,0,0,0,0,0,0,0,0,0,0,0,0,0,0,0,0,0,0,0,0,0,0,0,0,0,0,0,0,0,0,0,0,0,0,0,0,0,0,0,0,0,0,0,0,0,0,0,0,0,0,0,0,0,0,0,0,0,0,0,0,0,0,0,0,0,0,0,0,0,0,0,0,0,0,0,0,0,0,0,0,0,0,0,0,0,0,0,0,0,0,0,0,0,0,0,0,0,0,0,0,0,0,0,0,0,0,0,0,0,0,0,0,0,0,0,0,0,0,0,0,0,0,0,0,0,0,0,0,0,0,0,0,0,0,0,0,0,0,0,0,0,0,0,0,0,0,0,0,0,0,0,0,0,0,0,0,0,0,0,0,0,0,0,0,0,0,0,0,0,0,0,0,0,0,0,0],"trees":[{"base_weights":[5.78013E-2,-1.2152253E0,4.5636913E-1,-8.834227E-2,-1.035151E0,3.7912038E-4,1.0458156E0,-5.580886E-1,-1.1140143E0,-2.7095628E-1,2.8567737E-1,5.826466E-1,1.2019227E0,-3.79412E-2,-1.4264724E-1,-1.1647062E0,-4.1764733E-1,-1.15234174E-1,-8.411768E-1,-8.3627474E-1,4.4533676E-1,-2.988238E-1,8.279407E-1,7.386875E-2,8.8845277E-1,1.7646916E-2,-1.8088242E-2,-1.3088248E-2,-5.9137274E-2,6.9117644E-3,-3.4117665E-2,-5.5490226E-1,7.373908E-2,-9.431376E-1,-0E0,-0E0,-6.213237E-2,6.2725455E-1,-3.8235776E-2,4.4117547E-3,-4.426473E-1,3.988231E-1,1.3084029E0,3.6042747E-1,1.1719719E0,-5.8823585E-4,4.4117547E-3,-7.904424E-3,-5.2941192E-2,1.0831182E-2,-2.3480412E-2,-2.0882366E-2,-5.598041E-2,-8.088241E-3,6.9117644E-3,-1.24509875E-2,3.511553E-2,4.286762E-2,-2.2156883E-2,-3.4117658E-2,4.4117547E-3,-1.713237E-2,3.8991578E-2,9.41175E-3,7.235292E-2,8.954231E-3,3.754901E-2,1.911745E-3,6.170954E-2],"categories":[],"categories_nodes":[],"categories_segments":[],"categories_sizes":[],"default_left":[0,0,0,0,0,0,0,0,0,0,0,0,0,0,0,0,0,0,0,0,0,0,0,0,0,0,0,0,0,0,0,0,0,0,0,0,0,0,0,0,0,0,0,0,0,0,0,0,0,0,0,0,0,0,0,0,0,0,0,0,0,0,0,0,0,0,0,0,0],"id":0,"left_children":[1,3,5,-1,7,9,11,13,15,17,19,21,23,-1,25,27,29,31,33,35,37,39,41,-1,43,45,-1,-1,-1,-1,-1,47,49,51,-1,53,-1,55,57,-1,59,61,63,65,67,-1,-1,-1,-1,-1,-1,-1,-1,-1,-1,-1,-1,-1,-1,-1,-1,-1,-1,-1,-1,-1,-1,-1,-1],"loss_changes":[1.0855223E2,2.9568176E0,4.3706406E1,0E0,7.536011E-1,7.2781487E0,4.254822E0,4.6875882E-1,5.5553436E-1,4.0696306E0,8.57332E0,4.6247096E0,2.940834E0,0E0,1.8128893E-1,5.088806E-2,7.37319E-1,3.3293695E0,9.297924E-1,1.980557E0,3.6896734E0,3.528391E-1,2.6062536E0,0E0,3.4663906E0,1.491344E-2,0E0,0E0,0E0,0E0,0E0,2.1104772E0,2.250236E0,2.1327591E-1,0E0,9.05537E-2,0E0,2.1933079E0,4.690007E0,0E0,6.2864184E-1,3.1359906E0,6.513052E-1,5.515679E-1,1.024746E0,0E0,0E0,0E0,0E0,0E0,0E0,0E0,0E0,0E0,0E0,0E0,0E0,0E0,0E0,0E0,0E0,0E0,0E0,0E0,0E0,0E0,0E0,0E0,0E0],"parents":[2147483647,0,0,1,1,2,2,4,4,5,5,6,6,7,7,8,8,9,9,10,10,11,11,12,12,14,14,15,15,16,16,17,17,18,18,19,19,20,20,21,21,22,22,24,24,25,25,31,31,32,32,33,33,35,35,37,37,38,38,40,40,41,41,42,42,43,43,44,44],"right_children":[2,4,6,-1,8,10,12,14,16,18,20,22,24,-1,26,28,30,32,34,36,38,40,42,-1,44,46,-1,-1,-1,-1,-1,48,50,52,-1,54,-1,56,58,-1,60,62,64,66,68,-1,-1,-1,-1,-1,-1,-1,-1,-1,-1,-1,-1,-1,-1,-1,-1,-1,-1,-1,-1,-1,-1,-1,-1],"split_conditions":[-1.1E0,-3.1E0,9E-1,-8.834227E-2,7.1E0,8.3E0,7.1E0,6.3E0,1E1,7.8E0,6.6E0,1.4E0,7.9E0,-3.79412E-2,6.8E0,6.1E0,1.01E1,7.2E0,1.01E1,6.2E0,9.7E0,7.1E0,8E0,7.386875E-2,7.4E0,6.6E0,-1.8088242E-2,-1.3088248E-2,-5.9137274E-2,6.9117644E-3,-3.4117665E-2,4E-1,9.8E0,8E0,-0E0,7.1E0,-6.213237E-2,6.4E0,8.8E0,4.4117547E-3,7.5E0,1.7E0,6.4E0,2E0,6.2E0,-5.8823585E-4,4.4117547E-3,-7.904424E-3,-5.2941192E-2,1.0831182E-2,-2.3480412E-2,-2.0882366E-2,-5.598041E-2,-8.088241E-3,6.9117644E-3,-1.24509875E-2,3.511553E-2,4.286762E-2,-2.2156883E-2,-3.4117658E-2,4.4117547E-3,-1.713237E-2,3.8991578E-2,9.41175E-3,7.235292E-2,8.954231E-3,3.754901E-2,1.911745E-3,6.170954E-2],"split_indices":[7,7,7,0,2,6,6,2,2,6,5,7,2,0,2,6,2,4,4,5,2,3,5,0,3,2,0,0,0,0,0,7,2,4,0,2,0,3,6,0,3,7,2,7,5,0,0,0,0,0,0,0,0,0,0,0,0,0,0,0,0,0,0,0,0,0,0,0,0],"split_type":[0,0,0,0,0,0,0,0,0,0,0,0,0,0,0,0,0,0,0,0,0,0,0,0,0,0,0,0,0,0,0,0,0,0,0,0,0,0,0,0,0,0,0,0,0,0,0,0,0,0,0,0,0,0,0,0,0,0,0,0,0,0,0,0,0,0,0,0,0],"sum_hessian":[2.12E2,5E1,1.62E2,1E1,4E1,9.2E1,7E1,7E0,3.3E1,4.7E1,4.5E1,1.9E1,5.1E1,4E0,3E0,3E1,3E0,3.8E1,9E0,5E0,4E1,4E0,1.5E1,2.5E1,2.6E1,2E0,1E0,1E0,2.9E1,1E0,2E0,1.1E1,2.7E1,8E0,1E0,2E0,3E0,2.9E1,1.1E1,1E0,3E0,9E0,6E0,1E1,1.6E1,1E0,1E0,7E0,4E0,2.2E1,5E0,3E0,5E0,1E0,1E0,2E0,2.7E1,3E0,8E0,2E0,1E0,3E0,6E0,1E0,5E0,8E0,2E0,1E0,1.5E1],"tree_param":{"num_deleted":"0","num_feature":"8","num_nodes":"69","size_leaf_vector":"1"}},{"base_weights":[8.163406E-3,-1.7944519E-1,1.7784603E-1,-1.3349585E-1,-9.9659365E-1,3.4480342E-1,-3.7097028E-1,2.850982E-1,-2.5025558E-1,-6.5631054E-2,4.187904E-3,6.2271398E-2,5.2098197E-1,5.364958E-1,-1.1942624E0,5.206271E-1,-5.5271965E-1,-1.23839766E-1,-8.3594334E-1,8.484191E-1,-9.9078864E-2,1.0283478E0,2.191898E-1,-2.2878945E-1,1.2394245E0,3.3533867E-2,-1.3970021E0,4.627619E-2,9.2601943E-1,-4.5529317E-2,-0E0,-4.6357524E-1,2.0133875E-2,-6.738437E-2,2.3238467E-1,4.749159E-2,6.0338834E-3,-1.0475377E0,2.4577338E-1,-5.995845E-1,1.2610214E0,-5.007956E-2,3.7286508E-1,-0E0,-3.910981E-2,-7.89064E-3,7.576331E-2,-6.6098073E-3,-1.483053E0,-1.380194E-2,2.7158981E-2,6.143502E-2,1.0774659E-2,1.8639421E-3,-2.6599264E-3,1.3002239E-2,-3.7386425E-2,1.1457992E-2,-1.2380328E-2,4.3825362E-2,-2.2793308E-2,-0E0,-6.0154688E-2,3.2250045E-6,5.3058535E-2,1.640973E-3,-4.9109813E-2,7.843646E-2,2.0938454E-2,7.043189E-2,1.2470525E-2,-7.517503E-3,9.404443E-3,-7.983925E-2,-2.8813083E-2],"categories":[],"categories_nodes":[],"categories_segments":[],"categories_sizes":[],"default_left":[0,0,0,0,0,0,0,0,0,0,0,0,0,0,0,0,0,0,0,0,0,0,0,0,0,0,0,0,0,0,0,0,0,0,0,0,0,0,0,0,0,0,0,0,0,0,0,0,0,0,0,0,0,0,0,0,0,0,0,0,0,0,0,0,0,0,0,0,0,0,0,0,0,0,0],"id":1,"left_children":[1,3,5,7,9,11,13,15,17,-1,-1,19,21,23,25,27,29,31,33,35,37,39,41,43,45,-1,47,49,51,-1,53,55,57,-1,59,-1,-1,61,63,65,67,-1,69,71,-1,-1,-1,-1,73,-1,-1,-1,-1,-1,-1,-1,-1,-1,-1,-1,-1,-1,-1,-1,-1,-1,-1,-1,-1,-1,-1,-1,-1,-1,-1],"loss_changes":[6.653209E0,3.4711459E0,1.0204478E1,4.7109814E0,1.9399328E0,4.1401987E0,2.0131344E1,4.4284887E0,5.3535137E0,0E0,0E0,4.471729E0,7.612034E0,7.377863E0,6.3029327E0,3.1289873E0,9.600072E-1,3.1351938E0,7.531949E0,2.2113943E-1,9.8229E0,8.018991E0,6.689117E0,8.572496E-1,3.0727873E0,0E0,1.0573101E0,1.6180874E0,1.5263686E0,0E0,8.439591E-3,4.1499715E0,2.5733082E0,0E0,2.6582239E0,0E0,0E0,1.3533611E0,4.3015156E0,8.5306835E-1,3.5501614E0,0E0,3.4468646E0,1.9655284E-1,0E0,0E0,0E0,0E0,1.0010719E-1,0E0,0E0,0E0,0E0,0E0,0E0,0E0,0E0,0E0,0E0,0E0,0E0,0E0,0E0,0E0,0E0,0E0,0E0,0E0,0E0,0E0,0E0,0E0,0E0,0E0,0E0],"parents":[2147483647,0,0,1,1,2,2,3,3,4,4,5,5,6,6,7,7,8,8,11,11,12,12,13,13,14,14,15,15,16,16,17,17,18,18,19,19,20,20,21,21,22,22,23,23,24,24,26,26,27,27,28,28,30,30,31,31,32,32,34,34,37,37,38,38,39,39,40,40,42,42,43,43,48,48],"right_children":[2,4,6,8,10,12,14,16,18,-1,-1,20,22,24,26,28,30,32,34,36,38,40,42,44,46,-1,48,50,52,-1,54,56,58,-1,60,-1,-1,62,64,66,68,-1,70,72,-1,-1,-1,-1,74,-1,-1,-1,-1,-1,-1,-1,-1,-1,-1,-1,-1,-1,-1,-1,-1,-1,-1,-1,-1,-1,-1,-1,-1,-1,-1],"split_conditions":[8.1E0,1.01E1,9.4E0,6.9E0,8.4E0,9E0,9.4E0,9.9E0,9.5E0,-6.5631054E-2,4.187904E-3,7E0,9.5E0,7.9E0,6.7E0,7.8E0,1.01E1,7.6E0,8.6E0,1.01E1,7.4E0,7.5E0,6.3E0,9.9E0,6.4E0,3.3533867E-2,9.5E0,9.5E0,8.7E0,-4.5529317E-2,6.4E0,6.8E0,8.2E0,-6.738437E-2,6.7E0,4.749159E-2,6.0338834E-3,8.2E0,9.7E0,6.7E0,9.4E0,-5.007956E-2,6.7E0,9.4E0,-3.910981E-2,-7.89064E-3,7.576331E-2,-6.6098073E-3,9.5E0,-1.380194E-2,2.7158981E-2,6.143502E-2,1.0774659E-2,1.8639421E-3,-2.6599264E-3,1.3002239E-2,-3.7386425E-2,1.1457992E-2,-1.2380328E-2,4.3825362E-2,-2.2793308E-2,-0E0,-6.0154688E-2,3.2250045E-6,5.3058535E-2,1.640973E-3,-4.9109813E-2,7.843646E-2,2.0938454E-2,7.043189E-2,1.2470525E-2,-7.517503E-3,9.404443E-3,-7.983925E-2,-2.8813083E-2],"split_indices":[0,6,1,5,1,0,0,1,2,0,0,2,0,5,2,3,1,5,3,6,2,5,2,3,2,0,1,6,1,0,0,2,3,0,0,0,0,0,3,1,5,0,5,2,0,0,0,0,5,0,0,0,0,0,0,0,0,0,0,0,0,0,0,0,0,0,0,0,0,0,0,0,0,0,0],"split_type":[0,0,0,0,0,0,0,0,0,0,0,0,0,0,0,0,0,0,0,0,0,0,0,0,0,0,0,0,0,0,0,0,0,0,0,0,0,0,0,0,0,0,0,0,0,0,0,0,0,0,0,0,0,0,0,0,0,0,0,0,0,0,0,0,0,0,0,0,0,0,0,0,0,0,0],"sum_hessian":[2.07E2,9.8E1,1.09E2,9.4E1,4E0,8.4E1,2.5E1,2E1,7.4E1,3E0,1E0,3.3E1,5.1E1,1.2E1,1.3E1,1.6E1,4E0,6.2E1,1.2E1,5E0,2.8E1,1.8E1,3.3E1,6E0,6E0,1E0,1.2E1,8E0,8E0,2E0,2E0,1.8E1,4.4E1,8E0,4E0,4E0,1E0,7E0,2.1E1,2E0,1.6E1,3E0,3E1,5E0,1E0,1E0,5E0,1E0,1.1E1,5E0,3E0,5E0,3E0,1E0,1E0,5E0,1.3E1,2.5E1,1.9E1,2E0,2E0,1E0,6E0,1.7E1,4E0,1E0,1E0,1.1E1,5E0,2E0,2.8E1,3E0,2E0,9E0,2E0],"tree_param":{"num_deleted":"0","num_feature":"8","num_nodes":"75","size_leaf_vector":"1"}},{"base_weights":[-2.5915738E-2,-5.108077E-1,1.0051531E0,-1.2001567E0,-9.363378E-2,3.6934793E-1,1.3701892E0,-1.5149221E0,-8.735292E-1,-8.3684164E-1,8.440722E-1,-1.899415E-1,9.939628E-1,1.0476928E0,8.3437376E-2,-7.7165455E-2,-1.6921565E-2,-7.315933E-2,-8.7979004E-2,-1.3154241E0,-3.5898504E-1,3.4364012E-1,1.238184E0,-4.6936378E-1,1.8216452E-1,5.4395057E-2,1.4243403E-2,2.643752E-1,6.442778E-2,-2.0877806E-2,3.077441E-2,-7.5290345E-2,-8.5023123E-1,-3.3123914E-2,-1.4801778E-1,-1.8184705E-2,5.947054E-1,5.9357595E-1,6.686934E-2,-2.6284948E-2,-0E0,-0E0,1.0992452E-2,-0E0,1.9034257E-2,-5.461096E-3,7.0330575E-3,-5.4086715E-2,-2.4947008E-2,-1.5791602E-2,7.326177E-3,-7.652764E-3,2.9046568E-3,3.5144776E-2,8.880059E-3,4.978166E-3,3.3359416E-2],"categories":[],"categories_nodes":[],"categories_segments":[],"categories_sizes":[],"default_left":[0,0,0,0,0,0,0,0,0,0,0,0,0,0,0,0,0,0,0,0,0,0,0,0,0,0,0,0,0,0,0,0,0,0,0,0,0,0,0,0,0,0,0,0,0,0,0,0,0,0,0,0,0,0,0,0,0],"id":2,"left_children":[1,3,5,7,9,11,13,15,17,19,21,23,25,27,-1,-1,-1,-1,29,31,33,35,37,39,41,-1,-1,43,-1,-1,45,-1,47,-1,49,51,53,55,-1,-1,-1,-1,-1,-1,-1,-1,-1,-1,-1,-1,-1,-1,-1,-1,-1,-1,-1],"loss_changes":[1.09454636E2,4.2607437E1,1.5566391E1,4.195244E0,6.621521E1,9.70139E0,2.2165146E0,1.9124222E-1,1.3612312E1,1.1481117E1,7.6998253E0,1.6738422E0,4.187603E-1,4.032175E0,0E0,0E0,0E0,0E0,5.9946597E-1,7.8679657E-1,1.6136515E0,1.8852994E0,4.8384476E-1,2.281537E-1,5.771415E-2,0E0,0E0,2.3534608E-1,0E0,0E0,1.8772836E-1,0E0,1.1546135E-1,0E0,9.5291597E-1,1.10976405E-1,3.286338E-1,3.872454E-2,0E0,0E0,0E0,0E0,0E0,0E0,0E0,0E0,0E0,0E0,0E0,0E0,0E0,0E0,0E0,0E0,0E0,0E0,0E0],"parents":[2147483647,0,0,1,1,2,2,3,3,4,4,5,5,6,6,7,7,8,8,9,9,10,10,11,11,12,12,13,13,18,18,19,19,20,20,21,21,22,22,23,23,24,24,27,27,30,30,32,32,34,34,35,35,36,36,37,37],"right_children":[2,4,6,8,10,12,14,16,18,20,22,24,26,28,-1,-1,-1,-1,30,32,34,36,38,40,42,-1,-1,44,-1,-1,46,-1,48,-1,50,52,54,56,-1,-1,-1,-1,-1,-1,-1,-1,-1,-1,-1,-1,-1,-1,-1,-1,-1,-1,-1],"split_conditions":[9E-1,-1.1E0,6.8E0,-2.3E0,8.4E0,2.3E0,7.9E0,9.5E0,9.1E0,7.4E0,9.3E0,1.7E0,1.04E1,1.5E0,8.3437376E-2,-7.7165455E-2,-1.6921565E-2,-7.315933E-2,-2.1E0,3E-1,0E0,-4E-1,-8E-1,6.6E0,6.6E0,5.4395057E-2,1.4243403E-2,6.3E0,6.442778E-2,-2.0877806E-2,9.9E0,-7.5290345E-2,6.3E0,-3.3123914E-2,7.9E0,9E0,9.4E0,9.6E0,6.686934E-2,-2.6284948E-2,-0E0,-0E0,1.0992452E-2,-0E0,1.9034257E-2,-5.461096E-3,7.0330575E-3,-5.4086715E-2,-2.4947008E-2,-1.5791602E-2,7.326177E-3,-7.652764E-3,2.9046568E-3,3.5144776E-2,8.880059E-3,4.978166E-3,3.3359416E-2],"split_indices":[7,7,0,7,0,7,0,5,0,0,0,7,5,7,0,0,0,0,7,7,7,7,7,0,3,0,0,3,0,0,0,0,0,0,0,0,3,0,0,0,0,0,0,0,0,0,0,0,0,0,0,0,0,0,0,0,0],"split_type":[0,0,0,0,0,0,0,0,0,0,0,0,0,0,0,0,0,0,0,0,0,0,0,0,0,0,0,0,0,0,0,0,0,0,0,0,0,0,0,0,0,0,0,0,0,0,0,0,0,0,0,0,0,0,0,0,0],"sum_hessian":[2.17E2,1.48E2,6.9E1,5.5E1,9.3E1,2.6E1,4.3E1,2.6E1,2.9E1,5.2E1,4.1E1,1.4E1,1.2E1,2.3E1,2E1,2.5E1,1E0,1.6E1,1.3E1,2.5E1,2.7E1,1.9E1,2.2E1,8E0,6E0,1E1,2E0,6E0,1.7E1,3E0,1E1,1.6E1,9E0,1E1,1.7E1,8E0,1.1E1,4E0,1.8E1,7E0,1E0,1E0,5E0,2E0,4E0,4E0,6E0,4E0,5E0,1.1E1,6E0,3E0,5E0,8E0,3E0,1E0,3E0],"tree_param":{"num_deleted":"0","num_feature":"8","num_nodes":"57","size_leaf_vector":"1"}},{"base_weights":[-8.211039E-2,-4.932137E-1,9.054978E-1,-1.1554147E0,-1.2808354E-1,3.3372292E-1,1.2575082E0,-8.023811E-2,-9.5434386E-1,-7.84065E-1,6.9598013E-1,-1.498706E-1,8.737368E-1,9.322448E-1,7.737111E-2,-6.720476E-2,-2.9623345E-1,-1.2959485E0,-3.666228E-1,2.6261672E-1,1.0961777E0,-3.769051E-1,1.4915526E-1,7.822452E-3,4.5607E-2,3.894292E-1,6.351959E-2,-3.4981634E-2,-3.5036171E-3,-7.843109E-2,-9.430412E-1,-4.6522748E-2,-1.535031E-1,-6.929254E-2,6.7026335E-1,5.3080183E-1,6.459367E-2,-4.2168295E-1,-0E0,9.066911E-3,-0E0,-0E0,2.1879083E-2,-1.0828333E-2,4.5482926E-3,-5.6125104E-2,-2.9446855E-2,-1.2978508E-2,1.6194625E-2,-1.5144596E-2,2.22182E-3,1.5014701E-2,3.7948254E-2,5.379111E-3,3.1863898E-2,-2.2828653E-2,-1.9363022E-3],"categories":[],"categories_nodes":[],"categories_segments":[],"categories_sizes":[],"default_left":[0,0,0,0,0,0,0,0,0,0,0,0,0,0,0,0,0,0,0,0,0,0,0,0,0,0,0,0,0,0,0,0,0,0,0,0,0,0,0,0,0,0,0,0,0,0,0,0,0,0,0,0,0,0,0,0,0],"id":3,"left_children":[1,3,5,7,9,11,13,-1,15,17,19,21,23,25,-1,-1,27,29,31,33,35,37,39,-1,-1,41,-1,-1,43,-1,45,-1,47,49,51,53,-1,55,-1,-1,-1,-1,-1,-1,-1,-1,-1,-1,-1,-1,-1,-1,-1,-1,-1,-1,-1],"loss_changes":[9.256943E1,3.865178E1,1.2906349E1,3.3625793E0,5.7314404E1,7.2543087E0,2.1756973E0,0E0,1.021077E1,1.1965847E1,7.727501E0,1.0973303E0,1.08537674E-1,3.3774223E0,0E0,0E0,1.934714E0,7.7149963E-1,3.834344E0,3.3537812E0,1.7874069E0,1.4401484E-1,4.157023E-2,0E0,0E0,2.0674789E-1,0E0,0E0,2.5366774E-1,0E0,5.7442665E-2,0E0,1.394175E0,4.1124308E-1,2.714777E-2,2.1745682E-1,0E0,3.9680004E-2,0E0,0E0,0E0,0E0,0E0,0E0,0E0,0E0,0E0,0E0,0E0,0E0,0E0,0E0,0E0,0E0,0E0,0E0,0E0],"parents":[2147483647,0,0,1,1,2,2,3,3,4,4,5,5,6,6,8,8,9,9,10,10,11,11,12,12,13,13,16,16,17,17,18,18,19,19,20,20,21,21,22,22,25,25,28,28,30,30,32,32,33,33,34,34,35,35,37,37],"right_children":[2,4,6,8,10,12,14,-1,16,18,20,22,24,26,-1,-1,28,30,32,34,36,38,40,-1,-1,42,-1,-1,44,-1,46,-1,48,50,52,54,-1,56,-1,-1,-1,-1,-1,-1,-1,-1,-1,-1,-1,-1,-1,-1,-1,-1,-1,-1,-1],"split_conditions":[9E-1,-1.4E0,6.8E0,-2.9E0,8.4E0,2.2E0,8E0,-8.023811E-2,9.6E0,7.4E0,9.3E0,1.7E0,2.5E0,1.6E0,7.737111E-2,-6.720476E-2,-2.4E0,1E-1,-5E-1,-1E-1,-8E-1,6.6E0,1.03E1,7.822452E-3,4.5607E-2,7.2E0,6.351959E-2,-3.4981634E-2,1E1,-7.843109E-2,6.7E0,-4.6522748E-2,7E-1,-1E0,8.6E0,9.6E0,6.459367E-2,1.03E1,-0E0,9.066911E-3,-0E0,-0E0,2.1879083E-2,-1.0828333E-2,4.5482926E-3,-5.6125104E-2,-2.9446855E-2,-1.2978508E-2,1.6194625E-2,-1.5144596E-2,2.22182E-3,1.5014701E-2,3.7948254E-2,5.379111E-3,3.1863898E-2,-2.2828653E-2,-1.9363022E-3],"split_indices":[7,7,0,7,0,7,0,0,0,0,0,7,7,7,0,0,7,7,7,7,7,0,4,0,0,0,0,0,0,0,0,0,7,7,0,0,0,1,0,0,0,0,0,0,0,0,0,0,0,0,0,0,0,0,0,0,0],"split_type":[0,0,0,0,0,0,0,0,0,0,0,0,0,0,0,0,0,0,0,0,0,0,0,0,0,0,0,0,0,0,0,0,0,0,0,0,0,0,0,0,0,0,0,0,0,0,0,0,0,0,0,0,0,0,0,0,0],"sum_hessian":[2.26E2,1.6E2,6.6E1,5.6E1,1.04E2,2.6E1,4E1,1.5E1,4.1E1,5.8E1,4.6E1,1.4E1,1.2E1,2.1E1,1.9E1,2.5E1,1.6E1,2.5E1,3.3E1,2.3E1,2.3E1,8E0,6E0,1E0,1.1E1,9E0,1.2E1,6E0,1E1,1.2E1,1.3E1,8E0,2.5E1,1.3E1,1E1,7E0,1.6E1,7E0,1E0,5E0,1E0,1E0,8E0,3E0,7E0,7E0,6E0,2.1E1,4E0,4E0,9E0,3E0,7E0,2E0,5E0,6E0,1E0],"tree_param":{"num_deleted":"0","num_feature":"8","num_nodes":"57","size_leaf_vector":"1"}},{"base_weights":[-1.2593297E-2,-4.6208546E-1,8.7913567E-1,-1.0886483E0,-7.458973E-2,1.7043453E-1,1.1190426E0,-1.2532065E0,-6.660698E-1,-7.3857415E-1,8.0455434E-1,-4.7128743E-1,8.692852E-1,8.6305094E-1,7.43823E-2,-1.3223876E0,-4.9829748E-1,-1.1779846E0,1.0857175E-1,-1.107428E0,-2.7716076E-1,2.8632975E-1,1.1339403E0,-5.1402193E-1,-0E0,2.7077138E-2,6.0025662E-2,4.015914E-1,1.184066E0,-1.3924572E-2,-6.709792E-2,-4.130729E-2,-0E0,-7.194486E-2,-2.7855495E-2,-4.4373656E-3,1.0290134E-2,-6.71457E-2,-8.2591355E-1,-5.5293125E-1,1.2237468E-2,2.1939486E-2,3.233051E-2,4.7192434E-3,5.853435E-2,-1.8879032E-3,-2.7581682E-2,2.0842108E-1,3.0294655E-2,2.1435458E-2,6.19311E-2,-9.067392E-4,5.8048725E-4,-4.4573616E-2,-1.056675E-2,-3.6722977E-2,-1.675843E-2,-3.2909214E-3,1.638483E-2,-1.1010494E-2,5.5664666E-3,1.3335183E-2,-0E0],"categories":[],"categories_nodes":[],"categories_segments":[],"categories_sizes":[],"default_left":[0,0,0,0,0,0,0,0,0,0,0,0,0,0,0,0,0,0,0,0,0,0,0,0,0,0,0,0,0,0,0,0,0,0,0,0,0,0,0,0,0,0,0,0,0,0,0,0,0,0,0,0,0,0,0,0,0,0,0,0,0,0,0],"id":4,"left_children":[1,3,5,7,9,11,13,15,17,19,21,23,25,27,-1,29,31,33,35,37,39,41,43,45,-1,-1,-1,47,49,-1,-1,-1,51,-1,-1,-1,-1,-1,53,55,57,59,-1,-1,-1,-1,-1,61,-1,-1,-1,-1,-1,-1,-1,-1,-1,-1,-1,-1,-1,-1,-1],"loss_changes":[8.8546074E1,3.549267E1,1.2261982E1,2.8675232E0,5.4291523E1,9.418839E0,3.670784E0,1.1957779E0,7.3727446E0,8.57489E0,6.361128E0,1.989553E-1,2.6124E-1,4.550665E0,0E0,1.7927551E-1,8.060485E-1,7.807121E-1,1.8345408E-1,5.964775E-1,2.0560231E0,1.5382875E0,6.7980003E-1,9.936333E-2,0E0,0E0,0E0,4.2372775E-1,1.2644196E-1,0E0,0E0,0E0,9.273131E-4,0E0,0E0,0E0,0E0,0E0,3.4597588E-1,1.607604E-1,3.678611E-1,2.517304E-1,0E0,0E0,0E0,0E0,0E0,1.3465327E-1,0E0,0E0,0E0,0E0,0E0,0E0,0E0,0E0,0E0,0E0,0E0,0E0,0E0,0E0,0E0],"parents":[2147483647,0,0,1,1,2,2,3,3,4,4,5,5,6,6,7,7,8,8,9,9,10,10,11,11,12,12,13,13,15,15,16,16,17,17,18,18,19,19,20,20,21,21,22,22,23,23,27,27,28,28,32,32,38,38,39,39,40,40,41,41,47,47],"right_children":[2,4,6,8,10,12,14,16,18,20,22,24,26,28,-1,30,32,34,36,38,40,42,44,46,-1,-1,-1,48,50,-1,-1,-1,52,-1,-1,-1,-1,-1,54,56,58,60,-1,-1,-1,-1,-1,62,-1,-1,-1,-1,-1,-1,-1,-1,-1,-1,-1,-1,-1,-1,-1],"split_conditions":[9E-1,-1.1E0,6.6E0,9.9E0,8.4E0,2E0,8E0,-1.2E0,-2.6E0,7.5E0,9.3E0,1.02E1,3.2E0,2.1E0,7.43823E-2,6.1E0,8.5E0,-3.3E0,-2E0,6.7E0,1E-1,1E-1,6.1E0,6.1E0,-0E0,2.7077138E-2,6.0025662E-2,7.5E0,6.2E0,-1.3924572E-2,-6.709792E-2,-4.130729E-2,9.3E0,-7.194486E-2,-2.7855495E-2,-4.4373656E-3,1.0290134E-2,-6.71457E-2,6E-1,-5E-1,8.2E0,-1E0,3.233051E-2,4.7192434E-3,5.853435E-2,-1.8879032E-3,-2.7581682E-2,9.2E0,3.0294655E-2,2.1435458E-2,6.19311E-2,-9.067392E-4,5.8048725E-4,-4.4573616E-2,-1.056675E-2,-3.6722977E-2,-1.675843E-2,-3.2909214E-3,1.638483E-2,-1.1010494E-2,5.5664666E-3,1.3335183E-2,-0E0],"split_indices":[7,7,0,0,0,7,0,7,7,0,0,4,7,7,0,4,0,7,7,0,7,7,4,5,0,0,0,0,2,0,0,0,0,0,0,0,0,0,7,7,0,7,0,0,0,0,0,6,0,0,0,0,0,0,0,0,0,0,0,0,0,0,0],"split_type":[0,0,0,0,0,0,0,0,0,0,0,0,0,0,0,0,0,0,0,0,0,0,0,0,0,0,0,0,0,0,0,0,0,0,0,0,0,0,0,0,0,0,0,0,0,0,0,0,0,0,0,0,0,0,0,0,0,0,0,0,0,0,0],"sum_hessian":[2.19E2,1.46E2,7.3E1,5.5E1,9.1E1,1.9E1,5.4E1,3.8E1,1.7E1,5.2E1,3.9E1,1E1,9E0,3.4E1,2E1,3.4E1,4E0,1E1,7E0,2.8E1,2.4E1,1.6E1,2.3E1,9E0,1E0,6E0,3E0,1.5E1,1.9E1,1E0,3.3E1,2E0,2E0,6E0,4E0,2E0,5E0,1.3E1,1.5E1,1.2E1,1.2E1,1E1,6E0,1E0,2.2E1,1E0,8E0,9E0,6E0,2E0,1.7E1,1E0,1E0,1.3E1,2E0,5E0,7E0,1E1,2E0,2E0,8E0,7E0,2E0],"tree_param":{"num_deleted":"0","num_feature":"8","num_nodes":"63","size_leaf_vector":"1"}},{"base_weights":[6.3723517E-3,-4.1645968E-1,8.7122124E-1,-1.0176606E0,-4.742106E-2,1.8107164E-1,1.0668817E0,-7.092026E-2,-8.437868E-1,-6.598008E-1,7.130372E-1,-5.045295E-1,6.099931E-1,8.790019E-1,6.99345E-2,-1.2006149E0,-2.6352268E-1,-1.0559138E0,-2.6488876E-1,2.910184E-1,1.026312E0,-0E0,-2.9064698E-2,2.6809397E-1,4.7332663E-2,4.1521353E-1,6.149578E-2,-6.866624E-2,-4.234318E-2,-3.098235E-2,3.7729062E-2,-1.8444149E-2,-5.4763474E-2,-4.6524206E-1,1.1223606E-1,-1.2658157E-2,5.755931E-1,4.6012737E-3,5.3002555E-2,2.57445E-3,1.6221909E-2,2.7426127E-2,5.1690805E-1,-4.934968E-3,8.089895E-3,-2.9282162E-2,-8.904559E-3,-2.5511377E-3,1.5284972E-2,-7.816366E-3,7.113823E-3,1.2316613E-2,3.3361446E-2,-3.7834153E-3,7.7355923E-3,2.7951727E-2,-0E0],"categories":[],"categories_nodes":[],"categories_segments":[],"categories_sizes":[],"default_left":[0,0,0,0,0,0,0,0,0,0,0,0,0,0,0,0,0,0,0,0,0,0,0,0,0,0,0,0,0,0,0,0,0,0,0,0,0,0,0,0,0,0,0,0,0,0,0,0,0,0,0,0,0,0,0,0,0],"id":5,"left_children":[1,3,5,7,9,11,13,-1,15,17,19,21,23,25,-1,27,29,31,33,35,37,-1,-1,39,-1,41,-1,-1,-1,-1,43,-1,-1,45,47,49,51,-1,-1,-1,-1,53,55,-1,-1,-1,-1,-1,-1,-1,-1,-1,-1,-1,-1,-1,-1],"loss_changes":[7.903076E1,3.2015858E1,9.269501E0,2.409298E0,4.2842865E1,5.3174796E0,1.9714813E0,0E0,8.02643E0,7.566139E0,4.9901104E0,2.4556613E-1,8.9087486E-1,5.5092983E0,0E0,1.4237213E-1,1.9053828E0,1.255207E-1,2.1275892E0,1.7055342E0,5.122471E-1,0E0,0E0,3.1133235E-2,0E0,6.4123535E-1,0E0,0E0,0E0,0E0,1.9154437E-1,0E0,0E0,4.41648E-1,3.569113E-1,2.4624005E-1,4.6004772E-2,0E0,0E0,0E0,0E0,8.5223384E-2,3.2203937E-1,0E0,0E0,0E0,0E0,0E0,0E0,0E0,0E0,0E0,0E0,0E0,0E0,0E0,0E0],"parents":[2147483647,0,0,1,1,2,2,3,3,4,4,5,5,6,6,8,8,9,9,10,10,11,11,12,12,13,13,15,15,16,16,17,17,18,18,19,19,20,20,23,23,25,25,30,30,33,33,34,34,35,35,36,36,41,41,42,42],"right_children":[2,4,6,8,10,12,14,-1,16,18,20,22,24,26,-1,28,30,32,34,36,38,-1,-1,40,-1,42,-1,-1,-1,-1,44,-1,-1,46,48,50,52,-1,-1,-1,-1,54,56,-1,-1,-1,-1,-1,-1,-1,-1,-1,-1,-1,-1,-1,-1],"split_conditions":[9E-1,-1.1E0,6.5E0,-3E0,8.4E0,2E0,8E0,-7.092026E-2,9.5E0,7.4E0,9.3E0,6.6E0,2.9E0,2.2E0,6.99345E-2,8.7E0,-2.2E0,6.4E0,3E-1,-1E-1,6.1E0,-0E0,-2.9064698E-2,6.7E0,4.7332663E-2,6.8E0,6.149578E-2,-6.866624E-2,-4.234318E-2,-3.098235E-2,-1.8E0,-1.8444149E-2,-5.4763474E-2,8.4E0,7E-1,9E0,8.7E0,4.6012737E-3,5.3002555E-2,2.57445E-3,1.6221909E-2,1.6E0,1.02E1,-4.934968E-3,8.089895E-3,-2.9282162E-2,-8.904559E-3,-2.5511377E-3,1.5284972E-2,-7.816366E-3,7.113823E-3,1.2316613E-2,3.3361446E-2,-3.7834153E-3,7.7355923E-3,2.7951727E-2,-0E0],"split_indices":[7,7,0,7,0,7,0,0,0,0,0,3,7,7,0,0,7,3,7,7,4,0,0,4,0,0,0,0,0,0,7,0,0,3,7,0,0,0,0,0,0,7,4,0,0,0,0,0,0,0,0,0,0,0,0,0,0],"split_type":[0,0,0,0,0,0,0,0,0,0,0,0,0,0,0,0,0,0,0,0,0,0,0,0,0,0,0,0,0,0,0,0,0,0,0,0,0,0,0,0,0,0,0,0,0,0,0,0,0,0,0,0,0,0,0,0,0],"sum_hessian":[2.14E2,1.44E2,7E1,5.4E1,9E1,1.6E1,5.4E1,1.4E1,4E1,5E1,4E1,6E0,1E1,3.7E1,1.7E1,2.4E1,1.6E1,2.4E1,2.6E1,1.8E1,2.2E1,1E0,5E0,6E0,4E0,1.7E1,2E1,1.4E1,1E1,7E0,9E0,2E0,2.2E1,1.7E1,9E0,9E0,9E0,1E0,2.1E1,2E0,4E0,4E0,1.3E1,4E0,5E0,1.1E1,6E0,5E0,4E0,5E0,4E0,3E0,6E0,2E0,2E0,1.2E1,1E0],"tree_param":{"num_deleted":"0","num_feature":"8","num_nodes":"57","size_leaf_vector":"1"}},{"base_weights":[-2.3569582E-2,-4.4113225E-1,8.049692E-1,-9.264425E-1,-1.0242373E-1,1.9639E-1,1.0519947E0,-1.1046436E0,-5.5578405E-1,-6.881413E-1,6.991483E-1,-3.484884E-1,8.315745E-1,8.110207E-1,6.750695E-2,-1.1624662E0,-4.4739208E-1,-1.0405744E0,1.4513094E-2,-1.0798588E0,-3.1024563E-1,3.559573E-1,9.8522234E-1,-4.7357237E-1,2.6343679E-2,4.7508813E-3,4.4286422E-2,4.2300564E-1,1.0837543E0,-6.1797E-3,-1.1857599E0,-3.764149E-2,-0E0,-6.576714E-2,-2.6495783E-2,-1.4938274E-1,1.9265674E-1,-1.3086858E0,-7.1457237E-1,-4.82152E-1,9.512906E-2,-0E0,5.26823E-1,4.4862367E-3,1.0223682E0,-1.7461156E-3,-2.5365997E-2,-0E0,2.4886194E-3,2.1384953E-1,3.0860279E-2,1.9230133E-2,5.7043027E-2,-1.2517879E-2,-6.0148355E-2,-0E0,3.6371706E-4,-1.0172252E-2,5.2321906E-4,1.0627645E-2,-0E0,-6.959531E-2,-2.5312105E-2,-4.3377932E-2,-2.001631E-2,-3.3634182E-2,-1.28009245E-2,-1.3782665E-3,1.915198E-2,-5.9535448E-3,8.497404E-3,1.2170064E-2,3.3051822E-2,9.410201E-3,5.2634966E-2,1.4073436E-2,-0E0],"categories":[],"categories_nodes":[],"categories_segments":[],"categories_sizes":[],"default_left":[0,0,0,0,0,0,0,0,0,0,0,0,0,0,0,0,0,0,0,0,0,0,0,0,0,0,0,0,0,0,0,0,0,0,0,0,0,0,0,0,0,0,0,0,0,0,0,0,0,0,0,0,0,0,0,0,0,0,0,0,0,0,0,0,0,0,0,0,0,0,0,0,0,0,0,0,0],"id":6,"left_children":[1,3,5,7,9,11,13,15,17,19,21,23,25,27,-1,29,31,33,35,37,39,41,43,45,47,-1,-1,49,51,-1,53,-1,55,-1,-1,57,59,61,63,65,67,69,71,-1,73,-1,-1,-1,-1,75,-1,-1,-1,-1,-1,-1,-1,-1,-1,-1,-1,-1,-1,-1,-1,-1,-1,-1,-1,-1,-1,-1,-1,-1,-1,-1,-1],"loss_changes":[7.746932E1,2.4294651E1,1.0943653E1,3.2491722E0,4.226505E1,8.298364E0,2.4966812E0,8.3909607E-1,6.2001486E0,7.223442E0,3.2459488E0,6.667098E-1,2.5652742E-1,2.7772808E0,0E0,5.936775E-1,6.994599E-1,8.02207E-1,3.54274E-1,9.5220757E-1,2.0357902E0,1.2006457E0,4.6234322E-1,7.609248E-2,4.6559144E-3,0E0,0E0,3.9417696E-1,1.2734413E-1,0E0,1.1684799E-1,0E0,1.0583207E-4,0E0,0E0,7.327719E-2,3.1939745E-3,4.045868E-2,1.0280943E-1,5.96622E-1,3.640311E-1,1.5753642E-1,2.4316621E-1,0E0,1.585064E-1,0E0,0E0,0E0,0E0,1.4298785E-1,0E0,0E0,0E0,0E0,0E0,0E0,0E0,0E0,0E0,0E0,0E0,0E0,0E0,0E0,0E0,0E0,0E0,0E0,0E0,0E0,0E0,0E0,0E0,0E0,0E0,0E0,0E0],"parents":[2147483647,0,0,1,1,2,2,3,3,4,4,5,5,6,6,7,7,8,8,9,9,10,10,11,11,12,12,13,13,15,15,16,16,17,17,18,18,19,19,20,20,21,21,22,22,23,23,24,24,27,27,28,28,30,30,32,32,35,35,36,36,37,37,38,38,39,39,40,40,41,41,42,42,44,44,49,49],"right_children":[2,4,6,8,10,12,14,16,18,20,22,24,26,28,-1,30,32,34,36,38,40,42,44,46,48,-1,-1,50,52,-1,54,-1,56,-1,-1,58,60,62,64,66,68,70,72,-1,74,-1,-1,-1,-1,76,-1,-1,-1,-1,-1,-1,-1,-1,-1,-1,-1,-1,-1,-1,-1,-1,-1,-1,-1,-1,-1,-1,-1,-1,-1,-1,-1],"split_conditions":[9E-1,-1.1E0,6.6E0,9.9E0,8.4E0,2.2E0,8E0,-1.2E0,-2.4E0,7.4E0,9.3E0,1.7E0,2.3E0,2.1E0,6.750695E-2,6.2E0,8.5E0,-3.3E0,-2E0,1E-1,3E-1,-4E-1,6.1E0,6.1E0,8.1E0,4.7508813E-3,4.4286422E-2,7.5E0,6.2E0,-6.1797E-3,6.1E0,-3.764149E-2,9.3E0,-6.576714E-2,-2.6495783E-2,1.03E1,9.9E0,7.3E0,7E0,-1E-1,8.1E0,9.2E0,8.7E0,4.4862367E-3,6.3E0,-1.7461156E-3,-2.5365997E-2,-0E0,2.4886194E-3,9.2E0,3.0860279E-2,1.9230133E-2,5.7043027E-2,-1.2517879E-2,-6.0148355E-2,-0E0,3.6371706E-4,-1.0172252E-2,5.2321906E-4,1.0627645E-2,-0E0,-6.959531E-2,-2.5312105E-2,-4.3377932E-2,-2.001631E-2,-3.3634182E-2,-1.28009245E-2,-1.3782665E-3,1.915198E-2,-5.9535448E-3,8.497404E-3,1.2170064E-2,3.3051822E-2,9.410201E-3,5.2634966E-2,1.4073436E-2,-0E0],"split_indices":[7,7,0,0,0,7,0,7,7,0,0,7,7,7,0,2,0,7,7,7,7,7,4,5,2,0,0,0,2,0,4,0,0,0,0,0,6,0,0,7,0,0,0,0,6,0,0,0,0,6,0,0,0,0,0,0,0,0,0,0,0,0,0,0,0,0,0,0,0,0,0,0,0,0,0,0,0],"split_type":[0,0,0,0,0,0,0,0,0,0,0,0,0,0,0,0,0,0,0,0,0,0,0,0,0,0,0,0,0,0,0,0,0,0,0,0,0,0,0,0,0,0,0,0,0,0,0,0,0,0,0,0,0,0,0,0,0,0,0,0,0,0,0,0,0,0,0,0,0,0,0,0,0,0,0,0,0],"sum_hessian":[2.22E2,1.48E2,7.4E1,6E1,8.8E1,2.2E1,5.2E1,3.9E1,2.1E1,5.1E1,3.7E1,1.2E1,1E1,3.1E1,2.1E1,3.5E1,4E0,1.1E1,1E1,2.4E1,2.7E1,1.8E1,1.9E1,9E0,3E0,1E0,9E0,1.4E1,1.7E1,1E0,3.4E1,2E0,2E0,6E0,5E0,5E0,5E0,1.3E1,1.1E1,1.9E1,8E0,6E0,1.2E1,1E0,1.8E1,1E0,8E0,1E0,2E0,8E0,6E0,2E0,1.5E1,1E0,3.3E1,1E0,1E0,4E0,1E0,4E0,1E0,1.1E1,2E0,6E0,5E0,9E0,1E1,6E0,2E0,4E0,2E0,5E0,7E0,1E0,1.7E1,6E0,2E0],"tree_param":{"num_deleted":"0","num_feature":"8","num_nodes":"77","size_leaf_vector":"1"}},{"base_weights":[-3.3472728E-2,-9.1834265E-1,3.165957E-1,-6.61518E-2,-7.6751834E-1,-3.0327043E-2,7.6902264E-1,-1.1145263E0,-2.8005484E-1,-5.990496E-1,6.9701797E-1,1.039577E-1,9.9106556E-1,-1.2204931E-2,-5.6738485E-2,-3.0330753E-2,7.083249E-3,-9.124276E-1,-1.5418546E-1,2.7236816E-1,1.0432717E0,-2.4024105E-2,5.2864504E-1,7.8457654E-1,6.5450706E-2,8.252601E-3,-5.2801017E-2,-5.9523385E-2,-6.7082155E-1,-4.423739E-1,1.6512787E-1,5.33775E-2,2.7715405E-2,4.3740845E-3,5.4084357E-2,5.370288E-3,3.30342E-2,4.141914E-1,5.3233232E-2,-5.882978E-3,4.140129E-3,-4.114893E-2,-2.0805566E-2,-2.4658058E-2,-4.61459E-3,1.860019E-3,1.7735045E-2,-1.6090944E-3,1.2877087E-2,1.0813116E-2,2.8629383E-2],"categories":[],"categories_nodes":[],"categories_segments":[],"categories_sizes":[],"default_left":[0,0,0,0,0,0,0,0,0,0,0,0,0,0,0,0,0,0,0,0,0,0,0,0,0,0,0,0,0,0,0,0,0,0,0,0,0,0,0,0,0,0,0,0,0,0,0,0,0,0,0],"id":7,"left_children":[1,3,5,-1,7,9,11,13,15,17,19,21,23,-1,-1,-1,25,27,29,31,33,-1,35,37,-1,-1,39,-1,41,43,45,47,-1,-1,-1,-1,-1,49,-1,-1,-1,-1,-1,-1,-1,-1,-1,-1,-1,-1,-1],"loss_changes":[6.664063E1,2.498783E0,2.42686E1,0E0,7.49864E0,3.6809612E1,9.681557E0,6.086731E-2,2.0333755E0,6.7231884E0,5.3187084E0,4.7264957E0,2.0462685E0,0E0,0E0,0E0,1.3345815E-1,9.6338654E-1,2.1252658E0,1.082746E0,5.59515E-1,0E0,4.6405005E-1,2.8345737E0,0E0,0E0,9.238368E-2,0E0,2.312479E-1,1.0929632E-1,2.143825E-1,2.4044217E-1,0E0,0E0,0E0,0E0,0E0,2.9890537E-1,0E0,0E0,0E0,0E0,0E0,0E0,0E0,0E0,0E0,0E0,0E0,0E0,0E0],"parents":[2147483647,0,0,1,1,2,2,4,4,5,5,6,6,7,7,8,8,9,9,10,10,11,11,12,12,16,16,17,17,18,18,19,19,20,20,22,22,23,23,26,26,28,28,29,29,30,30,31,31,37,37],"right_children":[2,4,6,-1,8,10,12,14,16,18,20,22,24,-1,-1,-1,26,28,30,32,34,-1,36,38,-1,-1,40,-1,42,44,46,48,-1,-1,-1,-1,-1,50,-1,-1,-1,-1,-1,-1,-1,-1,-1,-1,-1,-1,-1],"split_conditions":[-1.1E0,-2.9E0,9E-1,-6.61518E-2,9.5E0,8.4E0,6.6E0,6.1E0,-2.2E0,7.6E0,9.3E0,1.7E0,8E0,-1.2204931E-2,-5.6738485E-2,-3.0330753E-2,7.2E0,6.7E0,2E-1,1E-1,6.1E0,-2.4024105E-2,2.3E0,2.1E0,6.5450706E-2,8.252601E-3,-1.7E0,-5.9523385E-2,2E-1,1E-1,8.2E0,9.2E0,2.7715405E-2,4.3740845E-3,5.4084357E-2,5.370288E-3,3.30342E-2,7.5E0,5.3233232E-2,-5.882978E-3,4.140129E-3,-4.114893E-2,-2.0805566E-2,-2.4658058E-2,-4.61459E-3,1.860019E-3,1.7735045E-2,-1.6090944E-3,1.2877087E-2,1.0813116E-2,2.8629383E-2],"split_indices":[7,7,7,0,0,0,0,4,7,0,0,7,0,0,0,0,4,0,7,7,4,0,7,7,0,0,7,0,7,7,0,0,0,0,0,0,0,0,0,0,0,0,0,0,0,0,0,0,0,0,0],"split_type":[0,0,0,0,0,0,0,0,0,0,0,0,0,0,0,0,0,0,0,0,0,0,0,0,0,0,0,0,0,0,0,0,0,0,0,0,0,0,0,0,0,0,0,0,0,0,0,0,0,0,0],"sum_hessian":[2.13E2,6E1,1.53E2,1.4E1,4.6E1,8.7E1,6.6E1,2.6E1,2E1,4.9E1,3.8E1,1.7E1,4.9E1,1E0,2.5E1,9E0,1.1E1,2.8E1,2.1E1,1.8E1,2E1,7E0,1E1,3.2E1,1.7E1,3E0,8E0,1.1E1,1.7E1,1.1E1,1E1,1.1E1,7E0,1E0,1.9E1,3E0,7E0,1.5E1,1.7E1,6E0,2E0,9E0,8E0,9E0,2E0,7E0,3E0,8E0,3E0,8E0,7E0],"tree_param":{"num_deleted":"0","num_feature":"8","num_nodes":"51","size_leaf_vector":"1"}},{"base_weights":[5.6883927E-2,-8.544998E-2,2.2894458E-1,9.376535E-2,-2.7077973E-1,-1.0080818E-1,4.042006E-1,-1.3106109E-1,3.8305056E-1,-1.0570519E-1,-6.859312E-1,-4.7054031E-1,3.8451576E-1,1.1981331E-1,6.579315E-1,-3.3506298E-1,4.2285016E-1,4.7500867E-1,-2.5413487E-2,3.7776053E-1,-2.3984274E-1,3.1979118E-2,-8.149997E-1,3.0062068E-1,-8.0571276E-1,4.9991533E-2,-1.9404368E-1,-1.7645156E-1,3.8205913E-1,-2.1109588E-1,7.800994E-1,2.4188204E-1,-5.161845E-1,5.4496294E-1,-1.0400581E-2,5.983031E-1,-3.276864E-1,-3.6953172E-1,7.651046E-1,-6.722379E-1,-6.710964E-2,-3.075849E-1,-1.0085896E0,-3.3774473E-2,2.9243035E-2,-8.908184E-1,-1.3501737E-1,4.7333E-1,-4.6662617E-1,2.56497E-1,-3.5047582E-1,8.9260244E-1,4.4070594E-2,1.5425691E-2,-2.215634E-2,9.675851E-1,4.383819E-1,2.9234236E-2,-6.819557E-3,-4.1269492E-2,-4.1759894E-3,8.54133E-4,3.507046E-2,-1.101861E-3,-0E0,-1.1398886E-2,3.4630727E-2,-0E0,-3.288673E-2,-2.6554195E-2,3.7811752E-4,4.1235577E-2,7.6865773E-3,-5.429185E-2,-1.0735645E-3,2.692023E-2,-7.0543475E-3,-2.3140011E-2,9.212289E-3,-5.5337913E-2,-1.7227704E-2,-1.0595332E-2,3.1452558E-3,-6.463704E-3,-4.6758715E-2,5.2061654E-3,-1.7832467E-2,2.8871188E-2,4.1285614E-3,-9.182041E-3,-3.0397749E-2,3.6608353E-2,-1.3566938E-2,-2.975451E-2,-0E0,4.6114065E-3,4.9698006E-2,-3.646189E-3,3.577522E-2,5.1908076E-2,-5.0697546E-3,6.1428957E-3,3.8467515E-2],"categories":[],"categories_nodes":[],"categories_segments":[],"categories_sizes":[],"default_left":[0,0,0,0,0,0,0,0,0,0,0,0,0,0,0,0,0,0,0,0,0,0,0,0,0,0,0,0,0,0,0,0,0,0,0,0,0,0,0,0,0,0,0,0,0,0,0,0,0,0,0,0,0,0,0,0,0,0,0,0,0,0,0,0,0,0,0,0,0,0,0,0,0,0,0,0,0,0,0,0,0,0,0,0,0,0,0,0,0,0,0,0,0,0,0,0,0,0,0,0,0,0,0],"id":8,"left_children":[1,3,5,7,9,11,13,15,17,19,21,23,25,27,29,31,33,35,-1,37,39,-1,41,43,45,-1,47,49,51,53,55,57,59,61,63,65,67,69,71,73,75,77,79,81,-1,83,85,87,89,91,93,95,97,-1,-1,99,101,-1,-1,-1,-1,-1,-1,-1,-1,-1,-1,-1,-1,-1,-1,-1,-1,-1,-1,-1,-1,-1,-1,-1,-1,-1,-1,-1,-1,-1,-1,-1,-1,-1,-1,-1,-1,-1,-1,-1,-1,-1,-1,-1,-1,-1,-1],"loss_changes":[5.5196877E0,4.128405E0,5.965785E0,4.1728573E0,4.028717E0,6.6493673E0,4.677973E0,4.200865E0,2.533101E0,2.9951024E0,3.4471965E0,5.720633E0,5.9705296E0,2.651885E0,3.9374304E0,2.9737096E0,5.881785E-1,2.7962818E0,0E0,3.2168796E0,2.5697544E0,0E0,1.1298418E0,7.402013E-1,6.3334084E-1,0E0,1.8574271E0,1.3047907E0,2.973035E0,7.5299954E-1,1.4213123E0,1.0322866E0,2.649599E0,5.768485E-1,6.4676185E-4,1.9967012E0,4.3571603E-1,3.0004984E-1,3.0466557E-2,2.55752E0,1.2456768E0,5.711623E-1,1.9059181E-1,9.711713E-2,0E0,2.1178722E-1,2.2139178E-1,8.348525E-3,8.915305E-2,1.5001265E0,1.0049273E0,3.675785E-1,1.0590831E0,0E0,0E0,1.632391E0,1.1738284E0,0E0,0E0,0E0,0E0,0E0,0E0,0E0,0E0,0E0,0E0,0E0,0E0,0E0,0E0,0E0,0E0,0E0,0E0,0E0,0E0,0E0,0E0,0E0,0E0,0E0,0E0,0E0,0E0,0E0,0E0,0E0,0E0,0E0,0E0,0E0,0E0,0E0,0E0,0E0,0E0,0E0,0E0,0E0,0E0,0E0,0E0],"parents":[2147483647,0,0,1,1,2,2,3,3,4,4,5,5,6,6,7,7,8,8,9,9,10,10,11,11,12,12,13,13,14,14,15,15,16,16,17,17,19,19,20,20,22,22,23,23,24,24,26,26,27,27,28,28,29,29,30,30,31,31,32,32,33,33,34,34,35,35,36,36,37,37,38,38,39,39,40,40,41,41,42,42,43,43,45,45,46,46,47,47,48,48,49,49,50,50,51,51,52,52,55,55,56,56],"right_children":[2,4,6,8,10,12,14,16,18,20,22,24,26,28,30,32,34,36,-1,38,40,-1,42,44,46,-1,48,50,52,54,56,58,60,62,64,66,68,70,72,74,76,78,80,82,-1,84,86,88,90,92,94,96,98,-1,-1,100,102,-1,-1,-1,-1,-1,-1,-1,-1,-1,-1,-1,-1,-1,-1,-1,-1,-1,-1,-1,-1,-1,-1,-1,-1,-1,-1,-1,-1,-1,-1,-1,-1,-1,-1,-1,-1,-1,-1,-1,-1,-1,-1,-1,-1,-1,-1],"split_conditions":[8.4E0,8.5E0,7.5E0,7.6E0,7.8E0,8.6E0,8.3E0,7.8E0,1.04E1,6.9E0,6.3E0,6.9E0,7.1E0,7.8E0,6.3E0,7.6E0,8.7E0,1E1,-2.5413487E-2,6.7E0,9.1E0,3.1979118E-2,7.9E0,6.7E0,9.8E0,4.9991533E-2,8.9E0,8.4E0,9.3E0,8.4E0,9.7E0,6.7E0,8.8E0,7.1E0,6.6E0,6.7E0,8.3E0,6.3E0,9.5E0,7.1E0,6.5E0,7.8E0,1E1,7.1E0,2.9243035E-2,6.4E0,1.02E1,6.9E0,8.6E0,7.3E0,7.2E0,6.5E0,1.01E1,1.5425691E-2,-2.215634E-2,1.04E1,1.01E1,2.9234236E-2,-6.819557E-3,-4.1269492E-2,-4.1759894E-3,8.54133E-4,3.507046E-2,-1.101861E-3,-0E0,-1.1398886E-2,3.4630727E-2,-0E0,-3.288673E-2,-2.6554195E-2,3.7811752E-4,4.1235577E-2,7.6865773E-3,-5.429185E-2,-1.0735645E-3,2.692023E-2,-7.0543475E-3,-2.3140011E-2,9.212289E-3,-5.5337913E-2,-1.7227704E-2,-1.0595332E-2,3.1452558E-3,-6.463704E-3,-4.6758715E-2,5.2061654E-3,-1.7832467E-2,2.8871188E-2,4.1285614E-3,-9.182041E-3,-3.0397749E-2,3.6608353E-2,-1.3566938E-2,-2.975451E-2,-0E0,4.6114065E-3,4.9698006E-2,-3.646189E-3,3.577522E-2,5.1908076E-2,-5.0697546E-3,6.1428957E-3,3.8467515E-2],"split_indices":[5,3,4,5,5,3,0,3,1,0,4,3,4,1,2,1,1,0,0,4,3,0,0,4,0,0,3,4,4,0,5,5,2,4,0,0,2,0,4,5,1,0,0,0,0,2,0,0,0,0,0,0,1,0,0,0,5,0,0,0,0,0,0,0,0,0,0,0,0,0,0,0,0,0,0,0,0,0,0,0,0,0,0,0,0,0,0,0,0,0,0,0,0,0,0,0,0,0,0,0,0,0,0],"split_type":[0,0,0,0,0,0,0,0,0,0,0,0,0,0,0,0,0,0,0,0,0,0,0,0,0,0,0,0,0,0,0,0,0,0,0,0,0,0,0,0,0,0,0,0,0,0,0,0,0,0,0,0,0,0,0,0,0,0,0,0,0,0,0,0,0,0,0,0,0,0,0,0,0,0,0,0,0,0,0,0,0,0,0,0,0,0,0,0,0,0,0,0,0,0,0,0,0,0,0,0,0,0,0],"sum_hessian":[2.23E2,1.22E2,1.01E2,6.2E1,6E1,3.5E1,6.6E1,3.5E1,2.7E1,4.4E1,1.6E1,2E1,1.5E1,3.2E1,3.4E1,2.6E1,9E0,2.5E1,2E0,9E0,3.5E1,1E0,1.5E1,6E0,1.4E1,7E0,8E0,1.5E1,1.7E1,4E0,3E1,6E0,2E1,7E0,2E0,2.2E1,3E0,3E0,6E0,9E0,2.6E1,5E0,1E1,3E0,3E0,1.2E1,2E0,2E0,6E0,4E0,1.1E1,6E0,1.1E1,1E0,3E0,1.8E1,1.2E1,3E0,3E0,1.1E1,9E0,2E0,5E0,1E0,1E0,2E0,2E1,2E0,1E0,2E0,1E0,5E0,1E0,5E0,4E0,2E0,2.4E1,4E0,1E0,8E0,2E0,1E0,2E0,1E0,1.1E1,1E0,1E0,1E0,1E0,3E0,3E0,2E0,2E0,6E0,5E0,1E0,5E0,1E1,1E0,1.7E1,1E0,7E0,5E0],"tree_param":{"num_deleted":"0","num_feature":"8","num_nodes":"103","size_leaf_vector":"1"}},{"base_weights":[-5.991072E-3,-3.6288413E-1,7.016183E-1,-8.8163E-1,-7.099403E-2,-1.4949462E-1,7.4165875E-1,-5.9094965E-2,-7.698041E-1,-2.7670583E-1,8.465742E-2,2.0737266E-3,-2.603092E-1,6.4676684E-1,5.5013984E-2,-7.840501E-1,-2.4991012E-3,-5.9255636E-1,4.7559258E-2,3.9588746E-1,-6.633713E-2,-1.5948866E-2,-1.0743237E-3,4.365018E-1,7.8980094E-1,-8.2843196E-1,-3.7781426E-1,-4.686934E-2,-7.539042E-1,3.5366848E-1,-3.1452775E-1,1.1539258E-1,6.5244985E-1,-6.4332944E-1,6.286556E-2,-2.2251377E-2,4.935641E-1,9.198284E-1,3.297466E-1,-2.9722203E-2,-4.756776E-2,-3.868866E-4,-3.5598915E-2,-3.1063065E-2,8.613066E-3,-1.9538634E-2,-4.6135295E-2,3.6080647E-3,4.368213E-2,-2.2015177E-2,1.7936358E-2,1.6633803E-2,-1.34350825E-2,3.0196572E-3,3.993478E-2,-4.7959425E-3,-3.5095572E-2,1.5594323E-2,-1.4911579E-2,-0E0,2.7996574E-2,3.4131114E-3,4.9328096E-2,-8.003139E-4,2.2255274E-2],"categories":[],"categories_nodes":[],"categories_segments":[],"categories_sizes":[],"default_left":[0,0,0,0,0,0,0,0,0,0,0,0,0,0,0,0,0,0,0,0,0,0,0,0,0,0,0,0,0,0,0,0,0,0,0,0,0,0,0,0,0,0,0,0,0,0,0,0,0,0,0,0,0,0,0,0,0,0,0,0,0,0,0,0,0],"id":9,"left_children":[1,3,5,7,9,11,13,-1,15,17,19,-1,21,23,-1,25,-1,27,29,31,33,-1,-1,35,37,39,41,43,45,47,49,51,53,55,57,-1,59,61,63,-1,-1,-1,-1,-1,-1,-1,-1,-1,-1,-1,-1,-1,-1,-1,-1,-1,-1,-1,-1,-1,-1,-1,-1,-1,-1],"loss_changes":[5.5022102E1,2.1797579E1,2.6578522E0,6.4104843E-1,3.052448E0,1.17328316E-1,1.4957848E0,0E0,2.9784775E-1,4.2818727E0,2.5968952E0,0E0,1.1337698E-3,1.2769756E0,0E0,2.8756142E-1,0E0,1.7335424E0,2.442754E0,1.1432879E0,2.8568015E0,0E0,0E0,1.5323572E0,1.545784E0,2.8658104E-1,6.645168E-1,9.071206E-1,4.888382E-1,1.5988938E0,1.0128983E0,9.303613E-1,6.4512753E-1,7.7368975E-2,2.8819225E0,0E0,8.0737305E-1,1.2478714E0,4.0900534E-1,0E0,0E0,0E0,0E0,0E0,0E0,0E0,0E0,0E0,0E0,0E0,0E0,0E0,0E0,0E0,0E0,0E0,0E0,0E0,0E0,0E0,0E0,0E0,0E0,0E0,0E0],"parents":[2147483647,0,0,1,1,2,2,3,3,4,4,5,5,6,6,8,8,9,9,10,10,12,12,13,13,15,15,17,17,18,18,19,19,20,20,23,23,24,24,25,25,26,26,27,27,28,28,29,29,30,30,31,31,32,32,33,33,34,34,36,36,37,37,38,38],"right_children":[2,4,6,8,10,12,14,-1,16,18,20,-1,22,24,-1,26,-1,28,30,32,34,-1,-1,36,38,40,42,44,46,48,50,52,54,56,58,-1,60,62,64,-1,-1,-1,-1,-1,-1,-1,-1,-1,-1,-1,-1,-1,-1,-1,-1,-1,-1,-1,-1,-1,-1,-1,-1,-1,-1],"split_conditions":[9E-1,-1.2E0,6.2E0,-2.9E0,7.6E0,8.4E0,2.9E0,-5.9094965E-2,1.04E1,0E0,8.4E0,2.0737266E-3,1E1,8E0,5.5013984E-2,9.7E0,-2.4991012E-3,6.9E0,8.3E0,8.4E0,6.7E0,-1.5948866E-2,-1.0743237E-3,1E0,9.9E0,8.3E0,6.9E0,6.6E0,7.4E0,7.6E0,1.01E1,9E0,7.7E0,6.1E0,7.9E0,-2.2251377E-2,6.6E0,6.1E0,6.3E0,-2.9722203E-2,-4.756776E-2,-3.868866E-4,-3.5598915E-2,-3.1063065E-2,8.613066E-3,-1.9538634E-2,-4.6135295E-2,3.6080647E-3,4.368213E-2,-2.2015177E-2,1.7936358E-2,1.6633803E-2,-1.34350825E-2,3.0196572E-3,3.993478E-2,-4.7959425E-3,-3.5095572E-2,1.5594323E-2,-1.4911579E-2,-0E0,2.7996574E-2,3.4131114E-3,4.9328096E-2,-8.003139E-4,2.2255274E-2],"split_indices":[7,7,5,7,4,1,7,0,1,7,4,0,1,5,0,4,0,3,5,5,3,0,0,7,5,3,5,4,1,5,5,3,1,3,1,0,4,3,3,0,0,0,0,0,0,0,0,0,0,0,0,0,0,0,0,0,0,0,0,0,0,0,0,0,0],"split_type":[0,0,0,0,0,0,0,0,0,0,0,0,0,0,0,0,0,0,0,0,0,0,0,0,0,0,0,0,0,0,0,0,0,0,0,0,0,0,0,0,0,0,0,0,0,0,0,0,0,0,0,0,0,0,0,0,0,0,0,0,0,0,0,0,0],"sum_hessian":[2.16E2,1.44E2,7.2E1,5.1E1,9.3E1,3E0,6.9E1,1.1E1,4E1,4E1,5.3E1,1E0,2E0,5.7E1,1.2E1,3.9E1,1E0,2E1,2E1,1.7E1,3.6E1,1E0,1E0,2.5E1,3.2E1,3.4E1,5E0,5E0,1.5E1,1.1E1,9E0,9E0,8E0,6E0,3E1,1E0,2.4E1,2.4E1,8E0,1.4E1,2E1,3E0,2E0,1E0,4E0,6E0,9E0,8E0,3E0,8E0,1E0,6E0,3E0,2E0,6E0,1E0,5E0,1.8E1,1.2E1,3E0,2.1E1,2E0,2.2E1,2E0,6E0],"tree_param":{"num_deleted":"0","num_feature":"8","num_nodes":"65","size_leaf_vector":"1"}},{"base_weights":[8.247369E-3,-3.3719656E-1,7.095704E-1,-9.193216E-1,-8.2851246E-2,7.4298255E-2,9.219967E-1,-9.7139204E-1,-1.0473392E-1,-6.975319E-1,5.315118E-1,-4.350845E-1,4.5847714E-1,5.6351167E-1,1.0369666E0,-5.7092417E-2,-7.847038E-1,-2.3069879E-2,6.730992E-3,-9.271607E-1,-3.43373E-1,1.9514348E-1,8.1130713E-1,-2.4993856E-2,-5.2770125E-3,4.8878957E-3,2.7837187E-2,1.870628E-1,7.085282E-1,4.635616E-1,5.5047583E-2,-9.034571E-1,-1.3274963E-1,-5.5714365E-2,-6.641412E-1,-3.962845E-2,-0E0,-6.157867E-2,4.2673236E-1,1.6215095E-1,8.7612706E-1,1.7122714E-2,1.2137609E-2,3.7110154E-2,6.794486E-3,4.52233E-3,3.0125374E-2,-5.4552045E-2,-2.9838461E-2,-0E0,-7.945686E-3,-4.0308405E-2,-2.0442167E-2,-3.6968812E-3,1.0517805E-2,-1.1050924E-2,2.6599253E-3,7.6482804E-3,2.7535886E-2,1.0133003E-2,-0E0,3.487299E-2,5.4112434E-2,2.5225258E-3,-0E0],"categories":[],"categories_nodes":[],"categories_segments":[],"categories_sizes":[],"default_left":[0,0,0,0,0,0,0,0,0,0,0,0,0,0,0,0,0,0,0,0,0,0,0,0,0,0,0,0,0,0,0,0,0,0,0,0,0,0,0,0,0,0,0,0,0,0,0,0,0,0,0,0,0,0,0,0,0,0,0,0,0,0,0,0,0],"id":10,"left_children":[1,3,5,7,9,11,13,15,17,19,21,23,25,27,29,-1,31,-1,-1,33,35,37,39,-1,-1,-1,-1,41,43,45,-1,47,49,-1,51,-1,53,55,57,59,61,63,-1,-1,-1,-1,-1,-1,-1,-1,-1,-1,-1,-1,-1,-1,-1,-1,-1,-1,-1,-1,-1,-1,-1],"loss_changes":[5.5029022E1,2.2328852E1,9.953007E0,1.7417831E0,4.0794518E1,4.1156974E0,1.5636482E0,2.7968597E-1,4.3626624E-1,3.9461384E0,4.823203E0,7.886946E-2,3.0548358E-1,6.513624E-1,8.3745193E-1,0E0,1.6345673E0,0E0,0E0,6.570854E-1,3.56984E0,1.608597E0,9.743767E-1,0E0,0E0,0E0,0E0,2.663906E-2,2.3451805E-2,1.8726659E-1,0E0,3.3071327E-1,1.2901939E-2,0E0,1.2904882E-1,0E0,2.3713323E-1,2.6644048E-1,3.205936E-1,1.8041566E-2,2.4709702E-2,4.210947E-3,0E0,0E0,0E0,0E0,0E0,0E0,0E0,0E0,0E0,0E0,0E0,0E0,0E0,0E0,0E0,0E0,0E0,0E0,0E0,0E0,0E0,0E0,0E0],"parents":[2147483647,0,0,1,1,2,2,3,3,4,4,5,5,6,6,7,7,8,8,9,9,10,10,11,11,12,12,13,13,14,14,16,16,19,19,20,20,21,21,22,22,27,27,28,28,29,29,31,31,32,32,34,34,36,36,37,37,38,38,39,39,40,40,41,41],"right_children":[2,4,6,8,10,12,14,16,18,20,22,24,26,28,30,-1,32,-1,-1,34,36,38,40,-1,-1,-1,-1,42,44,46,-1,48,50,-1,52,-1,54,56,58,60,62,64,-1,-1,-1,-1,-1,-1,-1,-1,-1,-1,-1,-1,-1,-1,-1,-1,-1,-1,-1,-1,-1,-1,-1],"split_conditions":[9E-1,-1.7E0,6.6E0,1.03E1,8.5E0,1.7E0,7.5E0,9.5E0,6.1E0,7.6E0,-5E-1,6.5E0,2.5E0,7.2E0,6.6E0,-5.7092417E-2,-2.3E0,-2.3069879E-2,6.730992E-3,1E-1,-5E-1,9.4E0,8.7E0,-2.4993856E-2,-5.2770125E-3,4.8878957E-3,2.7837187E-2,6.8E0,9.9E0,7.3E0,5.5047583E-2,-3E0,9.9E0,-5.5714365E-2,7E0,-3.962845E-2,7E-1,-1E0,-1.1E0,9.4E0,9.8E0,6.7E0,1.2137609E-2,3.7110154E-2,6.794486E-3,4.52233E-3,3.0125374E-2,-5.4552045E-2,-2.9838461E-2,-0E0,-7.945686E-3,-4.0308405E-2,-2.0442167E-2,-3.6968812E-3,1.0517805E-2,-1.1050924E-2,2.6599253E-3,7.6482804E-3,2.7535886E-2,1.0133003E-2,-0E0,3.487299E-2,5.4112434E-2,2.5225258E-3,-0E0],"split_indices":[7,7,0,0,0,7,5,0,4,0,7,0,7,3,2,0,7,0,0,7,7,0,0,0,0,0,0,0,4,0,0,7,0,0,0,0,7,7,7,2,0,0,0,0,0,0,0,0,0,0,0,0,0,0,0,0,0,0,0,0,0,0,0,0,0],"split_type":[0,0,0,0,0,0,0,0,0,0,0,0,0,0,0,0,0,0,0,0,0,0,0,0,0,0,0,0,0,0,0,0,0,0,0,0,0,0,0,0,0,0,0,0,0,0,0,0,0,0,0,0,0,0,0,0,0,0,0,0,0,0,0,0,0],"sum_hessian":[2.25E2,1.51E2,7.4E1,4.5E1,1.06E2,1.9E1,5.5E1,4.2E1,3E0,5.3E1,5.3E1,8E0,1.1E1,1.5E1,4E1,1.9E1,2.3E1,1E0,2E0,3.1E1,2.2E1,2.5E1,2.8E1,6E0,2E0,3E0,8E0,5E0,1E1,5E0,3.5E1,1.9E1,4E0,1.6E1,1.5E1,9E0,1.3E1,1.2E1,1.3E1,3E0,2.5E1,2E0,3E0,9E0,1E0,2E0,3E0,1E1,9E0,1E0,3E0,8E0,7E0,1E1,3E0,5E0,7E0,5E0,8E0,2E0,1E0,1.6E1,9E0,1E0,1E0],"tree_param":{"num_deleted":"0","num_feature":"8","num_nodes":"65","size_leaf_vector":"1"}},{"base_weights":[-3.4292642E-2,-4.311423E-1,4.821508E-1,-8.1422114E-1,-1.340672E-1,2.405373E-1,1.0011566E0,-6.1622776E-2,-6.943342E-1,-7.0593953E-1,4.5418188E-1,-2.5908774E-1,7.085016E-1,7.9483867E-1,6.266283E-2,-9.592598E-1,-2.2337998E-1,-9.789638E-1,-3.4263682E-1,1.2257298E-1,6.9623756E-1,-5.3416127E-1,1.1828279E-1,4.152361E-1,8.934419E-1,2.6623268E-2,4.9698275E-2,-1.0257981E-2,-4.8764672E-2,-2.5058275E-2,3.8965024E-2,-2.4250297E-2,-1.0607771E0,-4.5474902E-1,-8.721064E-2,-8.1524765E-3,3.2477397E-1,5.048933E-3,3.7415933E-2,-7.557435E-1,-2.7507186E-1,-0E0,2.2405355E-1,1.5429565E-1,3.221948E-2,4.7372434E-2,1.10125765E-2,5.595126E-3,-6.759499E-3,-5.4715313E-2,-1.0607753E-2,-2.4336832E-2,-7.213112E-5,-1.014465E-2,1.2637186E-3,-7.541918E-3,4.032247E-3,1.8903766E-2,4.7173565E-3,-3.9659478E-2,-7.968233E-3,-1.435906E-3,-1.5775757E-2,-2.5165433E-3,4.7299764E-3,1.20884245E-2,1.2254343E-6,-0E0,9.303394E-3],"categories":[],"categories_nodes":[],"categories_segments":[],"categories_sizes":[],"default_left":[0,0,0,0,0,0,0,0,0,0,0,0,0,0,0,0,0,0,0,0,0,0,0,0,0,0,0,0,0,0,0,0,0,0,0,0,0,0,0,0,0,0,0,0,0,0,0,0,0,0,0,0,0,0,0,0,0,0,0,0,0,0,0,0,0,0,0,0,0],"id":11,"left_children":[1,3,5,7,9,11,13,-1,15,17,19,21,23,25,-1,27,29,31,33,35,37,39,41,43,45,-1,-1,-1,-1,-1,47,-1,49,51,53,55,57,-1,-1,59,61,63,65,67,-1,-1,-1,-1,-1,-1,-1,-1,-1,-1,-1,-1,-1,-1,-1,-1,-1,-1,-1,-1,-1,-1,-1,-1,-1],"loss_changes":[4.6726513E1,1.4476625E1,1.2049496E1,1.7594719E0,2.523965E1,1.6361166E1,4.1144753E-1,0E0,5.4067745E0,3.301649E0,2.8026886E0,3.6341279E0,1.4506588E0,3.6301708E-1,0E0,3.2503128E-2,1.3775098E0,1.7959595E-1,4.2159986E-1,4.8366782E-1,4.9054146E-1,8.372264E-1,1.9173768E-1,7.774315E-1,4.380474E-1,0E0,0E0,0E0,0E0,0E0,1.3982366E-1,0E0,1.2090111E-1,1.24482155E-1,1.13977574E-1,1.585552E-1,3.0617714E-3,0E0,0E0,1.6584396E-3,6.611246E-2,4.2046387E-2,7.564038E-3,6.270568E-2,0E0,0E0,0E0,0E0,0E0,0E0,0E0,0E0,0E0,0E0,0E0,0E0,0E0,0E0,0E0,0E0,0E0,0E0,0E0,0E0,0E0,0E0,0E0,0E0,0E0],"parents":[2147483647,0,0,1,1,2,2,3,3,4,4,5,5,6,6,8,8,9,9,10,10,11,11,12,12,13,13,15,15,16,16,17,17,18,18,19,19,20,20,21,21,22,22,23,23,24,24,30,30,32,32,33,33,34,34,35,35,36,36,39,39,40,40,41,41,42,42,43,43],"right_children":[2,4,6,8,10,12,14,-1,16,18,20,22,24,26,-1,28,30,32,34,36,38,40,42,44,46,-1,-1,-1,-1,-1,48,-1,50,52,54,56,58,-1,-1,60,62,64,66,68,-1,-1,-1,-1,-1,-1,-1,-1,-1,-1,-1,-1,-1,-1,-1,-1,-1,-1,-1,-1,-1,-1,-1,-1,-1],"split_conditions":[3E-1,-1.2E0,8.1E0,-3.2E0,8.5E0,1.7E0,8.9E0,-6.1622776E-2,9.8E0,7.6E0,9.3E0,7.2E0,2.6E0,1.2E0,6.266283E-2,6.1E0,-2.2E0,6.3E0,0E0,-4E-1,7.4E0,6.3E0,1E0,6.8E0,1.01E1,2.6623268E-2,4.9698275E-2,-1.0257981E-2,-4.8764672E-2,-2.5058275E-2,9.4E0,-2.4250297E-2,1.01E1,9.1E0,7.9E0,9E0,8.6E0,5.048933E-3,3.7415933E-2,1E1,6.8E0,7.8E0,9.6E0,6.4E0,3.221948E-2,4.7372434E-2,1.10125765E-2,5.595126E-3,-6.759499E-3,-5.4715313E-2,-1.0607753E-2,-2.4336832E-2,-7.213112E-5,-1.014465E-2,1.2637186E-3,-7.541918E-3,4.032247E-3,1.8903766E-2,4.7173565E-3,-3.9659478E-2,-7.968233E-3,-1.435906E-3,-1.5775757E-2,-2.5165433E-3,4.7299764E-3,1.20884245E-2,1.2254343E-6,-0E0,9.303394E-3],"split_indices":[7,7,0,7,0,7,0,0,0,0,0,0,7,7,0,4,7,1,7,7,5,0,7,0,5,0,0,0,0,0,1,0,1,3,0,0,3,0,0,3,5,0,4,0,0,0,0,0,0,0,0,0,0,0,0,0,0,0,0,0,0,0,0,0,0,0,0,0,0],"split_type":[0,0,0,0,0,0,0,0,0,0,0,0,0,0,0,0,0,0,0,0,0,0,0,0,0,0,0,0,0,0,0,0,0,0,0,0,0,0,0,0,0,0,0,0,0,0,0,0,0,0,0,0,0,0,0,0,0,0,0,0,0,0,0,0,0,0,0,0,0],"sum_hessian":[2.26E2,1.28E2,9.8E1,5.5E1,7.3E1,6.8E1,3E1,1E1,4.5E1,3.7E1,3.6E1,3.3E1,3.5E1,1.9E1,1.1E1,2.8E1,1.7E1,2E1,1.7E1,1.6E1,2E1,1.9E1,1.4E1,1.5E1,2E1,1E1,9E0,1E0,2.7E1,8E0,9E0,4E0,1.6E1,1.1E1,6E0,1E1,6E0,2E0,1.8E1,9E0,1E1,7E0,7E0,8E0,7E0,1.8E1,2E0,7E0,2E0,1.5E1,1E0,1E1,1E0,3E0,3E0,4E0,6E0,4E0,2E0,8E0,1E0,2E0,8E0,5E0,2E0,6E0,1E0,1E0,7E0],"tree_param":{"num_deleted":"0","num_feature":"8","num_nodes":"69","size_leaf_vector":"1"}},{"base_weights":[-3.553508E-2,-7.2627866E-1,2.3784217E-1,-5.2890696E-2,-6.0366184E-1,-4.8381675E-2,5.966744E-1,-6.3427263E-1,-2.5680366E-1,-2.3783569E-1,1.2815608E-1,4.689659E-1,9.066536E-1,-4.9773976E-1,-3.7492078E-2,9.250695E-3,-2.7448297E-2,6.709E-2,-4.1183227E-1,-1.7107052E-1,4.1428736E-1,1.11152455E-1,5.889218E-1,4.8317622E-2,1.0645475E-2,-6.7028785E-1,-1.24572106E-1,-1.05850495E-1,2.8737938E-1,1.5750873E-1,-5.1322716E-1,6.4735286E-2,-5.823841E-1,-2.372214E-2,5.615889E-1,-3.398163E-1,2.60546E-1,2.5290066E-1,7.3763937E-1,-3.9668273E-2,-1.1042203E-2,-2.5132034E-2,2.0483795E-3,1.0363321E-2,-1.4196934E-2,-6.6985353E-3,2.3341225E-2,1.0481874E-2,-0E0,-3.8174193E-2,-1.0789963E-2,1.2879829E-2,-1.41483145E-2,-3.2937475E-2,-0E0,-1.3269382E-2,3.5569753E-2,-2.432189E-2,1.2015925E-6,-0E0,1.9796578E-2,-4.2213337E-3,2.0313714E-2,4.2219188E-2,1.03318365E-2],"categories":[],"categories_nodes":[],"categories_segments":[],"categories_sizes":[],"default_left":[0,0,0,0,0,0,0,0,0,0,0,0,0,0,0,0,0,0,0,0,0,0,0,0,0,0,0,0,0,0,0,0,0,0,0,0,0,0,0,0,0,0,0,0,0,0,0,0,0,0,0,0,0,0,0,0,0,0,0,0,0,0,0,0,0],"id":12,"left_children":[1,3,5,-1,7,9,11,13,15,17,19,21,23,25,-1,-1,-1,27,29,31,33,35,37,-1,-1,39,41,43,45,47,49,51,53,-1,55,57,59,61,63,-1,-1,-1,-1,-1,-1,-1,-1,-1,-1,-1,-1,-1,-1,-1,-1,-1,-1,-1,-1,-1,-1,-1,-1,-1,-1],"loss_changes":[4.327564E1,1.8376541E0,1.6927536E1,0E0,2.788887E-1,3.1184604E0,2.3270988E0,2.1207047E-1,9.1245604E-1,2.4496255E0,4.2048626E0,2.182312E0,5.046425E-1,1.3823595E0,0E0,0E0,0E0,6.9622034E-1,1.7905297E0,2.4172287E0,3.5479393E0,1.0911882E0,1.7132854E0,0E0,0E0,6.084318E-1,6.300275E-1,6.241424E-1,7.007E-1,5.1746503E-2,1.598145E0,1.143285E0,4.190657E-1,0E0,2.9588919E0,2.4796459E-1,4.3948358E-1,7.908046E-1,1.2508192E0,0E0,0E0,0E0,0E0,0E0,0E0,0E0,0E0,0E0,0E0,0E0,0E0,0E0,0E0,0E0,0E0,0E0,0E0,0E0,0E0,0E0,0E0,0E0,0E0,0E0,0E0],"parents":[2147483647,0,0,1,1,2,2,4,4,5,5,6,6,7,7,8,8,9,9,10,10,11,11,12,12,13,13,17,17,18,18,19,19,20,20,21,21,22,22,25,25,26,26,27,27,28,28,29,29,30,30,31,31,32,32,34,34,35,35,36,36,37,37,38,38],"right_children":[2,4,6,-1,8,10,12,14,16,18,20,22,24,26,-1,-1,-1,28,30,32,34,36,38,-1,-1,40,42,44,46,48,50,52,54,-1,56,58,60,62,64,-1,-1,-1,-1,-1,-1,-1,-1,-1,-1,-1,-1,-1,-1,-1,-1,-1,-1,-1,-1,-1,-1,-1,-1,-1,-1],"split_conditions":[-1.1E0,-2.9E0,9E-1,-5.2890696E-2,1E1,7.9E0,2.6E0,8.7E0,1.01E1,7.4E0,8.4E0,7.1E0,1.01E1,7.6E0,-3.7492078E-2,9.250695E-3,-2.7448297E-2,7.9E0,6.9E0,7.8E0,6.4E0,1.4E0,7.6E0,4.8317622E-2,1.0645475E-2,9.5E0,-2.5E0,-1E0,0E0,9.1E0,0E0,9.5E0,1.01E1,-2.372214E-2,6.4E0,7.5E0,6.5E0,7.1E0,9.9E0,-3.9668273E-2,-1.1042203E-2,-2.5132034E-2,2.0483795E-3,1.0363321E-2,-1.4196934E-2,-6.6985353E-3,2.3341225E-2,1.0481874E-2,-0E0,-3.8174193E-2,-1.0789963E-2,1.2879829E-2,-1.41483145E-2,-3.2937475E-2,-0E0,-1.3269382E-2,3.5569753E-2,-2.432189E-2,1.2015925E-6,-0E0,1.9796578E-2,-4.2213337E-3,2.0313714E-2,4.2219188E-2,1.03318365E-2],"split_indices":[7,7,7,0,2,4,7,6,2,2,6,6,5,6,0,0,0,6,3,6,2,7,5,0,0,3,7,7,7,5,7,2,4,0,3,3,6,4,4,0,0,0,0,0,0,0,0,0,0,0,0,0,0,0,0,0,0,0,0,0,0,0,0,0,0],"split_type":[0,0,0,0,0,0,0,0,0,0,0,0,0,0,0,0,0,0,0,0,0,0,0,0,0,0,0,0,0,0,0,0,0,0,0,0,0,0,0,0,0,0,0,0,0,0,0,0,0,0,0,0,0,0,0,0,0,0,0,0,0,0,0,0,0],"sum_hessian":[2.27E2,6.4E1,1.63E2,1.5E1,4.9E1,9.1E1,7.2E1,4.4E1,5E0,4.4E1,4.7E1,5.3E1,1.9E1,2.3E1,2.1E1,2E0,3E0,1.6E1,2.8E1,2.3E1,2.4E1,1.4E1,3.9E1,1.7E1,2E0,1.5E1,8E0,9E0,7E0,4E0,2.4E1,1.5E1,8E0,3E0,2.1E1,3E0,1.1E1,1.3E1,2.6E1,1.1E1,4E0,2E0,6E0,3E0,6E0,2E0,5E0,3E0,1E0,1.2E1,1.2E1,1E1,5E0,7E0,1E0,3E0,1.8E1,2E0,1E0,4E0,7E0,4E0,9E0,2.1E1,5E0],"tree_param":{"num_deleted":"0","num_feature":"8","num_nodes":"65","size_leaf_vector":"1"}},{"base_weights":[-1.3051421E-2,-3.2707518E-1,7.510265E-2,7.717341E-2,-5.544752E-1,-2.6949042E-1,1.6080382E-1,3.484421E-1,-5.0677097E-1,-8.51772E-1,-2.1627364E-1,1.6064547E-1,-4.5957392E-1,3.102603E-1,-5.9128914E-2,5.211134E-1,4.3473385E-2,-3.4677852E-2,8.178983E-3,-2.2715426E-3,-8.958327E-1,-4.1288468E-1,4.5178065E-1,-5.66569E-1,4.388762E-2,2.0286956E-1,-6.4984167E-1,8.3668076E-2,6.247532E-1,1.1089051E-1,-7.7383476E-1,7.0390534E-1,1.3734505E-1,2.2563735E-2,-2.4824592E-1,-1.0088203E0,-3.0791184E-1,-4.3085117E-2,-1.2160826E-2,4.0569004E-2,2.8120803E-2,-4.478907E-2,-1.5301749E-1,2.9034585E-2,-1.6759155E-2,-4.3543477E-2,-9.136342E-3,1.546133E-1,-2.7578628E-2,-1.0382871E-1,6.7665917E-1,2.1532649E-1,-3.3127144E-1,-8.60586E-1,-0E0,3.9600294E-2,6.2875845E-3,1.8600455E-2,-1.1666177E-2,-0E0,-1.7943604E-2,-5.361138E-2,-5.2834847E-3,2.0935375E-4,-3.3605214E-2,5.2643497E-3,-2.335739E-2,-0E0,2.675209E-3,-9.351062E-3,-0E0,1.0812144E-2,-1.6996494E-2,-5.372726E-3,1.5317802E-2,-1.07258065E-2,4.38652E-4,4.1967716E-2,1.8330803E-2,-1.0262956E-2,1.3689267E-2,-2.9298408E-2,5.4295766E-3,-4.100058E-3,-4.6343654E-2],"categories":[],"categories_nodes":[],"categories_segments":[],"categories_sizes":[],"default_left":[0,0,0,0,0,0,0,0,0,0,0,0,0,0,0,0,0,0,0,0,0,0,0,0,0,0,0,0,0,0,0,0,0,0,0,0,0,0,0,0,0,0,0,0,0,0,0,0,0,0,0,0,0,0,0,0,0,0,0,0,0,0,0,0,0,0,0,0,0,0,0,0,0,0,0,0,0,0,0,0,0,0,0,0,0],"id":13,"left_children":[1,3,5,7,9,11,13,15,17,19,21,23,25,27,29,31,33,-1,-1,-1,35,37,39,41,-1,43,45,47,49,51,53,55,57,-1,59,61,63,-1,65,-1,67,-1,69,-1,-1,-1,71,73,-1,75,77,79,81,83,-1,-1,-1,-1,-1,-1,-1,-1,-1,-1,-1,-1,-1,-1,-1,-1,-1,-1,-1,-1,-1,-1,-1,-1,-1,-1,-1,-1,-1,-1,-1],"loss_changes":[6.056858E0,4.502976E0,5.0529113E0,3.0120525E0,2.8259125E0,2.8836203E0,4.5466986E0,6.0545814E-1,9.177226E-1,4.3362236E-1,2.2841933E0,6.264821E0,3.2015295E0,5.72034E0,6.9568825E0,3.803954E-1,8.4611106E-1,0E0,0E0,0E0,5.541153E-1,2.2402096E0,5.0262463E-1,5.7492757E-1,0E0,1.4389181E0,2.5947037E0,2.253882E0,1.4133444E0,2.183907E0,8.190603E-1,6.330633E-2,4.4859737E-1,0E0,1.398633E-1,4.5610523E-1,5.242622E-1,0E0,5.1286846E-1,0E0,3.3530558E-3,0E0,1.1273399E-2,0E0,0E0,0E0,5.332E-1,1.8423195E0,0E0,5.9847046E-2,1.1858416E0,9.973537E-1,1.1196537E0,3.3920908E-1,0E0,0E0,0E0,0E0,0E0,0E0,0E0,0E0,0E0,0E0,0E0,0E0,0E0,0E0,0E0,0E0,0E0,0E0,0E0,0E0,0E0,0E0,0E0,0E0,0E0,0E0,0E0,0E0,0E0,0E0,0E0],"parents":[2147483647,0,0,1,1,2,2,3,3,4,4,5,5,6,6,7,7,8,8,9,9,10,10,11,11,12,12,13,13,14,14,15,15,16,16,20,20,21,21,22,22,23,23,25,25,26,26,27,27,28,28,29,29,30,30,31,31,32,32,34,34,35,35,36,36,38,38,40,40,42,42,46,46,47,47,49,49,50,50,51,51,52,52,53,53],"right_children":[2,4,6,8,10,12,14,16,18,20,22,24,26,28,30,32,34,-1,-1,-1,36,38,40,42,-1,44,46,48,50,52,54,56,58,-1,60,62,64,-1,66,-1,68,-1,70,-1,-1,-1,72,74,-1,76,78,80,82,84,-1,-1,-1,-1,-1,-1,-1,-1,-1,-1,-1,-1,-1,-1,-1,-1,-1,-1,-1,-1,-1,-1,-1,-1,-1,-1,-1,-1,-1,-1,-1],"split_conditions":[7.1E0,7.6E0,7E0,6.7E0,9E0,7.3E0,8.4E0,7.1E0,9E0,6.1E0,9.2E0,8.1E0,6.7E0,9E0,9.9E0,8.8E0,6.3E0,-3.4677852E-2,8.178983E-3,-2.2715426E-3,9.1E0,6.5E0,9.8E0,7.6E0,4.388762E-2,8.4E0,9.7E0,9.9E0,7.5E0,9.4E0,9.4E0,6.9E0,7.7E0,2.2563735E-2,6.5E0,9.3E0,7.4E0,-4.3085117E-2,6.7E0,4.0569004E-2,9.9E0,-4.478907E-2,8.3E0,2.9034585E-2,-1.6759155E-2,-4.3543477E-2,8.3E0,7.9E0,-2.7578628E-2,9.5E0,9.8E0,6.6E0,1E1,6.6E0,-0E0,3.9600294E-2,6.2875845E-3,1.8600455E-2,-1.1666177E-2,-0E0,-1.7943604E-2,-5.361138E-2,-5.2834847E-3,2.0935375E-4,-3.3605214E-2,5.2643497E-3,-2.335739E-2,-0E0,2.675209E-3,-9.351062E-3,-0E0,1.0812144E-2,-1.6996494E-2,-5.372726E-3,1.5317802E-2,-1.07258065E-2,4.38652E-4,4.1967716E-2,1.8330803E-2,-1.0262956E-2,1.3689267E-2,-2.9298408E-2,5.4295766E-3,-4.100058E-3,-4.6343654E-2],"split_indices":[5,1,4,5,3,1,3,1,3,5,0,3,2,0,4,3,5,0,0,0,2,5,0,0,0,5,2,2,5,0,5,1,0,0,0,4,0,0,5,0,0,0,0,0,0,0,3,5,0,0,0,0,0,1,0,0,0,0,0,0,0,0,0,0,0,0,0,0,0,0,0,0,0,0,0,0,0,0,0,0,0,0,0,0,0],"split_type":[0,0,0,0,0,0,0,0,0,0,0,0,0,0,0,0,0,0,0,0,0,0,0,0,0,0,0,0,0,0,0,0,0,0,0,0,0,0,0,0,0,0,0,0,0,0,0,0,0,0,0,0,0,0,0,0,0,0,0,0,0,0,0,0,0,0,0,0,0,0,0,0,0,0,0,0,0,0,0,0,0,0,0,0,0],"sum_hessian":[2.16E2,4.7E1,1.69E2,1.7E1,3E1,3.3E1,1.36E2,1.2E1,5E0,1.5E1,1.5E1,1E1,2.3E1,8.1E1,5.5E1,7E0,5E0,4E0,1E0,1E0,1.4E1,1.2E1,3E0,5E0,5E0,5E0,1.8E1,4.8E1,3.3E1,4.5E1,1E1,4E0,3E0,2E0,3E0,1.1E1,3E0,5E0,7E0,1E0,2E0,2E0,3E0,3E0,2E0,1.3E1,5E0,4.4E1,4E0,2E0,3.1E1,3.7E1,8E0,9E0,1E0,3E0,1E0,2E0,1E0,1E0,2E0,1E1,1E0,2E0,1E0,6E0,1E0,1E0,1E0,2E0,1E0,3E0,2E0,1.6E1,2.8E1,1E0,1E0,1.9E1,1.2E1,4E0,3.3E1,5E0,3E0,1E0,8E0],"tree_param":{"num_deleted":"0","num_feature":"8","num_nodes":"85","size_leaf_vector":"1"}},{"base_weights":[-2.6782816E-2,-3.4197304E-1,6.026342E-1,-6.716571E-1,-1.1249626E-1,4.2519134E-1,5.211782E-2,-8.70214E-1,-4.4180295E-1,-5.991376E-1,4.6713623E-1,8.043791E-2,7.3994666E-1,-2.1685405E-2,-9.13511E-1,-7.2828823E-1,3.1988362E-3,-8.6645097E-1,-2.6927936E-1,1.8026876E-1,7.996459E-1,-2.4993163E-1,2.834172E-1,5.2785003E-1,9.526925E-1,-9.776578E-3,-4.645786E-2,-4.958204E-2,-4.8369586E-1,-9.30879E-2,8.751403E-2,-4.4755316E-3,-4.4452224E-2,-4.9131134E-1,-9.66394E-2,-4.824672E-2,2.3190474E-2,4.977076E-1,5.058098E-2,-3.5819858E-1,4.085159E-3,8.789343E-2,4.580639E-1,1.4702777E-2,3.4594174E-2,4.984072E-2,8.080754E-3,-2.5345532E-2,-3.2083371E-3,-7.6437755E-3,-0E0,-1.1719211E-3,7.2535626E-3,-2.2147512E-3,-2.6247352E-2,-9.767851E-3,8.2906474E-5,-1.1558591E-2,6.7833293E-4,7.7149137E-3,2.7588634E-2,-1.9377705E-2,-1.317749E-3,-6.3830375E-4,2.3645465E-3,-3.625362E-3,9.064023E-3,1.1456923E-2,2.8768828E-2],"categories":[],"categories_nodes":[],"categories_segments":[],"categories_sizes":[],"default_left":[0,0,0,0,0,0,0,0,0,0,0,0,0,0,0,0,0,0,0,0,0,0,0,0,0,0,0,0,0,0,0,0,0,0,0,0,0,0,0,0,0,0,0,0,0,0,0,0,0,0,0,0,0,0,0,0,0,0,0,0,0,0,0,0,0,0,0,0,0],"id":14,"left_children":[1,3,5,7,9,11,-1,13,15,17,19,21,23,-1,25,27,29,31,33,35,37,39,41,43,45,-1,-1,-1,47,49,51,-1,-1,53,55,57,-1,59,-1,61,63,65,67,-1,-1,-1,-1,-1,-1,-1,-1,-1,-1,-1,-1,-1,-1,-1,-1,-1,-1,-1,-1,-1,-1,-1,-1,-1,-1],"loss_changes":[4.5213657E1,1.1345562E1,5.3399887E0,2.313961E0,2.5961737E1,5.935169E0,0E0,7.386017E-2,4.026918E0,4.061886E0,3.7640781E0,1.9518121E0,6.5762424E-1,0E0,2.0397186E-2,5.9668064E-1,1.1312876E-1,2.9651642E-1,8.1368303E-1,1.6189761E0,5.616331E-1,3.3939242E-1,5.1979995E-1,3.49905E-1,1.7680645E-1,0E0,0E0,0E0,2.72367E-2,4.1491557E-2,6.665245E-2,0E0,0E0,7.018018E-2,1.6524927E-1,1.831978E-1,0E0,2.9919624E-2,0E0,2.6326656E-2,6.968487E-3,1.7381491E-1,2.9410362E-2,0E0,0E0,0E0,0E0,0E0,0E0,0E0,0E0,0E0,0E0,0E0,0E0,0E0,0E0,0E0,0E0,0E0,0E0,0E0,0E0,0E0,0E0,0E0,0E0,0E0,0E0],"parents":[2147483647,0,0,1,1,2,2,3,3,4,4,5,5,7,7,8,8,9,9,10,10,11,11,12,12,14,14,15,15,16,16,17,17,18,18,19,19,20,20,21,21,22,22,23,23,24,24,28,28,29,29,30,30,33,33,34,34,35,35,37,37,39,39,40,40,41,41,42,42],"right_children":[2,4,6,8,10,12,-1,14,16,18,20,22,24,-1,26,28,30,32,34,36,38,40,42,44,46,-1,-1,-1,48,50,52,-1,-1,54,56,58,-1,60,-1,62,64,66,68,-1,-1,-1,-1,-1,-1,-1,-1,-1,-1,-1,-1,-1,-1,-1,-1,-1,-1,-1,-1,-1,-1,-1,-1,-1,-1],"split_conditions":[9E-1,-1.1E0,8E0,9.5E0,8.2E0,2.2E0,5.211782E-2,6.4E0,-2.3E0,7.4E0,9.3E0,6.6E0,3E0,-2.1685405E-2,6.3E0,-3.3E0,-2E0,6.1E0,1E-1,1E-1,-3E-1,1.7E0,7.5E0,6.7E0,9.5E0,-9.776578E-3,-4.645786E-2,-4.958204E-2,1.03E1,1.02E1,6.7E0,-4.4755316E-3,-4.4452224E-2,6.1E0,7.8E0,-9E-1,2.3190474E-2,7.1E0,5.058098E-2,9E0,8.1E0,6.8E0,1.4E0,1.4702777E-2,3.4594174E-2,4.984072E-2,8.080754E-3,-2.5345532E-2,-3.2083371E-3,-7.6437755E-3,-0E0,-1.1719211E-3,7.2535626E-3,-2.2147512E-3,-2.6247352E-2,-9.767851E-3,8.2906474E-5,-1.1558591E-2,6.7833293E-4,7.7149137E-3,2.7588634E-2,-1.9377705E-2,-1.317749E-3,-6.3830375E-4,2.3645465E-3,-3.625362E-3,9.064023E-3,1.1456923E-2,2.8768828E-2],"split_indices":[7,7,0,0,0,7,0,6,7,0,0,0,7,0,2,7,7,3,7,7,7,7,0,0,5,0,0,0,0,0,6,0,0,5,3,7,0,3,0,2,2,3,7,0,0,0,0,0,0,0,0,0,0,0,0,0,0,0,0,0,0,0,0,0,0,0,0,0,0],"split_type":[0,0,0,0,0,0,0,0,0,0,0,0,0,0,0,0,0,0,0,0,0,0,0,0,0,0,0,0,0,0,0,0,0,0,0,0,0,0,0,0,0,0,0,0,0,0,0,0,0,0,0,0,0,0,0,0,0,0,0,0,0,0,0,0,0,0,0,0,0],"sum_hessian":[2.26E2,1.51E2,7.5E1,6.1E1,9E1,5.5E1,2E1,3.1E1,3E1,4.9E1,4.1E1,2.7E1,2.8E1,4E0,2.7E1,1.8E1,1.2E1,2.6E1,2.3E1,2.3E1,1.8E1,1E1,1.7E1,1.6E1,1.2E1,1E0,2.6E1,7E0,1.1E1,5E0,7E0,1E0,2.5E1,9E0,1.4E1,1.3E1,1E1,9E0,9E0,7E0,3E0,9E0,8E0,8E0,8E0,1.1E1,1E0,1E1,1E0,3E0,2E0,2E0,5E0,1E0,8E0,7E0,7E0,3E0,1E1,2E0,7E0,6E0,1E0,1E0,2E0,3E0,6E0,4E0,4E0],"tree_param":{"num_deleted":"0","num_feature":"8","num_nodes":"69","size_leaf_vector":"1"}},{"base_weights":[1.0074474E-2,-3.9814532E-1,5.274709E-2,-6.1974055E-1,-2.271381E-2,1.677605E-1,-1.07715786E-1,-4.3516282E-2,-1.6567038E-1,-2.5190476E-1,1.910199E-1,-3.390846E-1,2.5075668E-1,3.672155E-2,-3.6372668E-1,-2.8015852E-2,3.8241526E-1,-1.9593172E-2,5.19825E-3,1.349992E-2,-6.223535E-4,-4.4224888E-2,-5.851571E-1,-4.9017075E-2,3.7024933E-1,2.9613692E-2,-4.796347E-3,-1.5880571E-1,-7.1278244E-1,2.478424E-2,1.396904E-3,1.778988E-1,-2.9055258E-2,-6.7349166E-1,5.379772E-4,-6.960634E-1,7.345403E-2,-5.0769202E-2,4.4615367E-1,-2.9361745E-2,2.8245896E-2,2.2883767E-2,-6.3351E-1,-1.3197502E-1,-4.507942E-2,-1.5536338E-2,2.2774719E-2,-2.8237796E-3,-3.696416E-2,8.6039066E-4,-4.518416E-2,2.353326E-2,-1.9385392E-3,1.6219722E-2,-1.896855E-2,2.9430464E-2,5.272182E-3,-2.397006E-2,3.6488294E-3,-9.163529E-3,2.0684306E-2,-3.6580067E-2,-1.0763382E-3,-1.2892827E-2,-0E0],"categories":[],"categories_nodes":[],"categories_segments":[],"categories_sizes":[],"default_left":[0,0,0,0,0,0,0,0,0,0,0,0,0,0,0,0,0,0,0,0,0,0,0,0,0,0,0,0,0,0,0,0,0,0,0,0,0,0,0,0,0,0,0,0,0,0,0,0,0,0,0,0,0,0,0,0,0,0,0,0,0,0,0,0,0],"id":15,"left_children":[1,3,5,7,9,11,13,-1,15,17,19,21,23,25,27,-1,29,-1,-1,-1,-1,31,33,35,37,-1,39,41,43,-1,-1,45,-1,47,-1,49,51,53,55,-1,57,59,61,63,-1,-1,-1,-1,-1,-1,-1,-1,-1,-1,-1,-1,-1,-1,-1,-1,-1,-1,-1,-1,-1],"loss_changes":[3.871078E0,1.6687486E0,3.7705178E0,1.2313948E0,4.9507976E-1,5.0820737E0,3.1891468E0,0E0,1.5298649E0,3.1856522E-1,1.0946341E-1,1.1446502E0,3.7398105E0,1.3301834E0,2.0170422E0,0E0,5.4243654E-2,0E0,0E0,0E0,0E0,1.2169831E0,5.4727983E-1,2.490724E0,2.4270172E0,0E0,1.0732298E0,1.8867842E0,9.8391485E-1,0E0,0E0,1.1054932E0,0E0,2.0342803E-1,0E0,8.4464383E-1,1.2204381E0,1.607917E0,2.926301E0,0E0,1.1297129E0,1.3879077E0,2.6911926E-1,6.331037E-2,0E0,0E0,0E0,0E0,0E0,0E0,0E0,0E0,0E0,0E0,0E0,0E0,0E0,0E0,0E0,0E0,0E0,0E0,0E0,0E0,0E0],"parents":[2147483647,0,0,1,1,2,2,3,3,4,4,5,5,6,6,8,8,9,9,10,10,11,11,12,12,13,13,14,14,16,16,21,21,22,22,23,23,24,24,26,26,27,27,28,28,31,31,33,33,35,35,36,36,37,37,38,38,40,40,41,41,42,42,43,43],"right_children":[2,4,6,8,10,12,14,-1,16,18,20,22,24,26,28,-1,30,-1,-1,-1,-1,32,34,36,38,-1,40,42,44,-1,-1,46,-1,48,-1,50,52,54,56,-1,58,60,62,64,-1,-1,-1,-1,-1,-1,-1,-1,-1,-1,-1,-1,-1,-1,-1,-1,-1,-1,-1,-1,-1],"split_conditions":[6.4E0,8.9E0,8.5E0,8.6E0,7.9E0,6.6E0,8.8E0,-4.3516282E-2,6.3E0,6.3E0,6.3E0,8.4E0,7.6E0,6.5E0,9.1E0,-2.8015852E-2,7.6E0,-1.9593172E-2,5.19825E-3,1.349992E-2,-6.223535E-4,1E1,8.3E0,6.7E0,7.2E0,2.9613692E-2,8.6E0,9.7E0,6.7E0,2.478424E-2,1.396904E-3,7.2E0,-2.9055258E-2,6.1E0,5.379772E-4,6.7E0,7.1E0,9.3E0,9.1E0,-2.9361745E-2,6.5E0,8.3E0,1.04E1,7.7E0,-4.507942E-2,-1.5536338E-2,2.2774719E-2,-2.8237796E-3,-3.696416E-2,8.6039066E-4,-4.518416E-2,2.353326E-2,-1.9385392E-3,1.6219722E-2,-1.896855E-2,2.9430464E-2,5.272182E-3,-2.397006E-2,3.6488294E-3,-9.163529E-3,2.0684306E-2,-3.6580067E-2,-1.0763382E-3,-1.2892827E-2,-0E0],"split_indices":[0,4,3,3,6,4,0,0,0,0,0,5,5,4,4,0,1,0,0,0,0,0,3,3,0,0,3,1,6,0,0,0,0,4,0,1,1,4,6,0,6,6,1,1,0,0,0,0,0,0,0,0,0,0,0,0,0,0,0,0,0,0,0,0,0],"split_type":[0,0,0,0,0,0,0,0,0,0,0,0,0,0,0,0,0,0,0,0,0,0,0,0,0,0,0,0,0,0,0,0,0,0,0,0,0,0,0,0,0,0,0,0,0,0,0,0,0,0,0,0,0,0,0,0,0,0,0,0,0,0,0,0,0],"sum_hessian":[2.22E2,2E1,2.02E2,1.2E1,8E0,1.18E2,8.4E1,7E0,5E0,4E0,4E0,1.6E1,1.02E2,5.4E1,3E1,3E0,2E0,3E0,1E0,3E0,1E0,8E0,8E0,2.9E1,7.3E1,3E0,5.1E1,2E1,1E1,1E0,1E0,6E0,2E0,7E0,1E0,4E0,2.5E1,1.1E1,6.2E1,2E0,4.9E1,1.5E1,5E0,3E0,7E0,2E0,4E0,1E0,6E0,1E0,3E0,5E0,2E1,5E0,6E0,4.3E1,1.9E1,3E0,4.6E1,1E1,5E0,4E0,1E0,1E0,2E0],"tree_param":{"num_deleted":"0","num_feature":"8","num_nodes":"65","size_leaf_vector":"1"}},{"base_weights":[-1.8487258E-2,-2.751367E-1,5.3236824E-1,-7.62955E-1,-8.356527E-2,1.10530846E-1,6.768938E-1,-5.0149776E-2,-6.3847125E-1,-4.881092E-1,3.7311518E-1,-2.7701834E-1,4.0031517E-1,5.181975E-1,8.968357E-1,-4.1435767E-2,-2.4400483E-1,-7.6846683E-1,-2.6929232E-1,1.1951903E-1,6.377757E-1,-2.961117E-1,-6.067848E-4,2.4233012E-1,3.8008016E-2,2.2552752E-1,7.917187E-1,8.779154E-3,4.595596E-2,-1.7319107E-2,-6.723052E-2,-9.41499E-1,-5.457608E-1,-5.2668387E-1,-6.011255E-3,-1.0756289E-1,3.77647E-1,1.6064766E-1,7.126786E-1,-1.5853146E-2,-1.2363291E-3,-0E0,1.2924981E-2,1.1563605E-1,2.0468555E-2,1.3503591E-2,4.183001E-2,-4.972581E-3,-0E0,-5.0712503E-2,-1.6378943E-2,-3.2203946E-2,-1.4532839E-2,-3.2997884E-2,-1.7203452E-2,-4.9629877E-3,1.2746825E-2,-1.2842921E-2,1.299227E-3,2.2703579E-2,6.4634266E-3,9.339671E-3,-0E0,2.7571721E-2,4.8256993E-2,-3.293984E-3,9.333937E-3],"categories":[],"categories_nodes":[],"categories_segments":[],"categories_sizes":[],"default_left":[0,0,0,0,0,0,0,0,0,0,0,0,0,0,0,0,0,0,0,0,0,0,0,0,0,0,0,0,0,0,0,0,0,0,0,0,0,0,0,0,0,0,0,0,0,0,0,0,0,0,0,0,0,0,0,0,0,0,0,0,0,0,0,0,0,0,0],"id":16,"left_children":[1,3,5,7,9,11,13,-1,15,17,19,21,23,25,27,-1,29,31,33,35,37,39,-1,41,-1,43,45,-1,-1,-1,47,49,51,53,55,57,59,61,63,-1,-1,-1,-1,65,-1,-1,-1,-1,-1,-1,-1,-1,-1,-1,-1,-1,-1,-1,-1,-1,-1,-1,-1,-1,-1,-1,-1],"loss_changes":[3.249603E1,1.4523563E1,4.296978E0,5.1024246E-1,2.1254812E1,2.3693376E0,1.2785721E0,0E0,2.0919542E0,3.431447E0,3.4723558E0,1.1099279E-2,3.977431E-1,2.441471E0,6.665993E-2,0E0,1.525234E-1,3.3935833E-1,2.383152E0,1.7674992E0,7.273731E-1,3.467977E-3,0E0,1.415962E-2,0E0,2.6381248E-1,6.1400414E-2,0E0,0E0,0E0,2.233346E-2,1.1419296E-1,7.0459366E-2,1.1060619E-1,4.7206396E-1,3.487702E-1,1.4871955E-1,1.0528788E-2,2.1170616E-1,0E0,0E0,0E0,0E0,1.9201799E-1,0E0,0E0,0E0,0E0,0E0,0E0,0E0,0E0,0E0,0E0,0E0,0E0,0E0,0E0,0E0,0E0,0E0,0E0,0E0,0E0,0E0,0E0,0E0],"parents":[2147483647,0,0,1,1,2,2,3,3,4,4,5,5,6,6,8,8,9,9,10,10,11,11,12,12,13,13,14,14,16,16,17,17,18,18,19,19,20,20,21,21,23,23,25,25,26,26,30,30,31,31,32,32,33,33,34,34,35,35,36,36,37,37,38,38,43,43],"right_children":[2,4,6,8,10,12,14,-1,16,18,20,22,24,26,28,-1,30,32,34,36,38,40,-1,42,-1,44,46,-1,-1,-1,48,50,52,54,56,58,60,62,64,-1,-1,-1,-1,66,-1,-1,-1,-1,-1,-1,-1,-1,-1,-1,-1,-1,-1,-1,-1,-1,-1,-1,-1,-1,-1,-1,-1],"split_conditions":[9E-1,-1.7E0,6.6E0,9.4E0,8.5E0,2E0,8E0,-5.0149776E-2,-2.6E0,7.4E0,-4E-1,1.02E1,3.2E0,2.2E0,6.2E0,-4.1435767E-2,-2.2E0,1E-1,1E-1,9.4E0,8.6E0,1.01E1,-6.067848E-4,6.6E0,3.8008016E-2,7.5E0,6.2E0,8.779154E-3,4.595596E-2,-1.7319107E-2,1.02E1,7.3E0,7E0,-7E-1,8.1E0,9E0,8.4E0,9.5E0,9.8E0,-1.5853146E-2,-1.2363291E-3,-0E0,1.2924981E-2,6.8E0,2.0468555E-2,1.3503591E-2,4.183001E-2,-4.972581E-3,-0E0,-5.0712503E-2,-1.6378943E-2,-3.2203946E-2,-1.4532839E-2,-3.2997884E-2,-1.7203452E-2,-4.9629877E-3,1.2746825E-2,-1.2842921E-2,1.299227E-3,2.2703579E-2,6.4634266E-3,9.339671E-3,-0E0,2.7571721E-2,4.8256993E-2,-3.293984E-3,9.333937E-3],"split_indices":[7,7,0,0,0,7,0,0,7,0,7,4,7,7,4,0,7,7,7,0,0,1,0,4,0,0,1,0,0,0,0,0,0,7,0,0,4,3,0,0,0,0,0,3,0,0,0,0,0,0,0,0,0,0,0,0,0,0,0,0,0,0,0,0,0,0,0],"split_type":[0,0,0,0,0,0,0,0,0,0,0,0,0,0,0,0,0,0,0,0,0,0,0,0,0,0,0,0,0,0,0,0,0,0,0,0,0,0,0,0,0,0,0,0,0,0,0,0,0,0,0,0,0,0,0,0,0,0,0,0,0,0,0,0,0,0,0],"sum_hessian":[2.28E2,1.56E2,7.2E1,4.3E1,1.13E2,1.9E1,5.3E1,1.2E1,3.1E1,6E1,5.3E1,8E0,1.1E1,3.3E1,2E1,2E1,1.1E1,2.5E1,3.5E1,2.8E1,2.5E1,7E0,1E0,9E0,2E0,1.7E1,1.6E1,1E0,1.9E1,6E0,5E0,1.2E1,1.3E1,1.7E1,1.8E1,1.5E1,1.3E1,4E0,2.1E1,6E0,1E0,1E0,8E0,1.2E1,5E0,2E0,1.4E1,4E0,1E0,1E1,2E0,8E0,5E0,8E0,9E0,1.4E1,4E0,7E0,8E0,9E0,4E0,3E0,1E0,1.5E1,6E0,3E0,9E0],"tree_param":{"num_deleted":"0","num_feature":"8","num_nodes":"67","size_leaf_vector":"1"}},{"base_weights":[7.2644274E-3,-2.707187E-1,5.572147E-1,-6.409153E-1,-4.080161E-2,7.138293E-1,3.837484E-1,-4.465034E-2,-5.4602206E-1,-6.452456E-1,2.8794227E-2,-0E0,7.525947E-1,-2.7066386E-1,4.2914E-1,-5.794717E-1,-2.1535426E-1,3.579364E-3,-7.43959E-1,-1.20288834E-1,1.6952077E-1,1.0388469E-3,-1.20543E-3,5.303943E-1,8.3403516E-1,-4.3207165E-4,-1.7367719E-2,4.5066264E-1,-6.141875E-3,-2.8279996E-3,-5.8886534E-1,7.3834E-3,-2.2939121E-2,-5.0752065E-3,-4.4936564E-2,-4.5356157E-1,-1.2621675E-2,4.0800902E-1,6.740356E-2,1.8915808E-1,3.907871E-2,8.466039E-3,4.2525496E-2,-5.0343135E-3,4.7214934E-1,-3.7434734E-2,-2.4788236E-2,-4.01164E-2,-3.5331321E-3,1.1711946E-2,-1.479005E-2,2.9290909E-2,-0E0,-4.5312042E-3,2.0039415E-2,-6.308778E-4,1.46195935E-2,1.13495635E-2,2.6633902E-2],"categories":[],"categories_nodes":[],"categories_segments":[],"categories_sizes":[],"default_left":[0,0,0,0,0,0,0,0,0,0,0,0,0,0,0,0,0,0,0,0,0,0,0,0,0,0,0,0,0,0,0,0,0,0,0,0,0,0,0,0,0,0,0,0,0,0,0,0,0,0,0,0,0,0,0,0,0,0,0],"id":17,"left_children":[1,3,5,7,9,11,13,-1,15,17,19,21,23,25,27,29,31,-1,33,35,37,-1,-1,39,41,-1,-1,43,-1,-1,45,-1,-1,-1,-1,47,49,51,53,55,-1,-1,-1,-1,57,-1,-1,-1,-1,-1,-1,-1,-1,-1,-1,-1,-1,-1,-1],"loss_changes":[3.5035427E1,1.2843085E1,1.7081966E0,7.5595665E-1,4.0765696E0,1.084219E0,1.2904878E0,0E0,2.9345798E-1,8.2810545E-1,1.8295897E0,2.0258115E-3,9.074402E-2,2.1682665E-2,5.277014E-1,9.8633766E-2,6.29078E-1,0E0,7.036586E-1,1.4547234E0,1.0208764E0,0E0,0E0,8.693373E-1,2.7784348E-2,0E0,0E0,5.111656E-1,0E0,0E0,8.470535E-2,0E0,0E0,0E0,0E0,1.1914294E0,2.382336E0,9.245188E-1,1.8059095E0,1.7747712E-1,0E0,0E0,0E0,0E0,3.224883E-1,0E0,0E0,0E0,0E0,0E0,0E0,0E0,0E0,0E0,0E0,0E0,0E0,0E0,0E0],"parents":[2147483647,0,0,1,1,2,2,3,3,4,4,5,5,6,6,8,8,9,9,10,10,11,11,12,12,13,13,14,14,15,15,16,16,18,18,19,19,20,20,23,23,24,24,27,27,30,30,35,35,36,36,37,37,38,38,39,39,44,44],"right_children":[2,4,6,8,10,12,14,-1,16,18,20,22,24,26,28,30,32,-1,34,36,38,-1,-1,40,42,-1,-1,44,-1,-1,46,-1,-1,-1,-1,48,50,52,54,56,-1,-1,-1,-1,58,-1,-1,-1,-1,-1,-1,-1,-1,-1,-1,-1,-1,-1,-1],"split_conditions":[9E-1,-1.1E0,8.6E0,-2.9E0,6.6E0,6.2E0,1E0,-4.465034E-2,1E1,6.1E0,8.4E0,9.1E0,7.6E0,7E0,1.03E1,6.1E0,1.01E1,3.579364E-3,6.1E0,7.2E0,8.9E0,1.0388469E-3,-1.20543E-3,8E0,6.1E0,-4.3207165E-4,-1.7367719E-2,6.1E0,-6.141875E-3,-2.8279996E-3,7.9E0,7.3834E-3,-2.2939121E-2,-5.0752065E-3,-4.4936564E-2,8.7E0,7.3E0,9.3E0,3E-1,7.6E0,3.907871E-2,8.466039E-3,4.2525496E-2,-5.0343135E-3,9.1E0,-3.7434734E-2,-2.4788236E-2,-4.01164E-2,-3.5331321E-3,1.1711946E-2,-1.479005E-2,2.9290909E-2,-0E0,-4.5312042E-3,2.0039415E-2,-6.308778E-4,1.46195935E-2,1.13495635E-2,2.6633902E-2],"split_indices":[7,7,4,7,5,5,7,0,2,4,6,2,5,2,3,6,2,0,5,4,6,0,0,3,2,0,0,3,0,0,3,0,0,0,0,5,6,3,7,6,0,0,0,0,4,0,0,0,0,0,0,0,0,0,0,0,0,0,0],"split_type":[0,0,0,0,0,0,0,0,0,0,0,0,0,0,0,0,0,0,0,0,0,0,0,0,0,0,0,0,0,0,0,0,0,0,0,0,0,0,0,0,0,0,0,0,0,0,0,0,0,0,0,0,0,0,0,0,0,0,0],"sum_hessian":[2.27E2,1.51E2,7.6E1,5.7E1,9.4E1,3.8E1,3.8E1,1.3E1,4.4E1,9E0,8.5E1,2E0,3.6E1,2E0,3.6E1,3.9E1,5E0,1E0,8E0,4.1E1,4.4E1,1E0,1E0,1.2E1,2.4E1,1E0,1E0,3.5E1,1E0,1E0,3.8E1,2E0,3E0,2E0,6E0,9E0,3.2E1,1.2E1,3.2E1,6E0,6E0,1E0,2.3E1,1E0,3.4E1,1.1E1,2.7E1,4E0,5E0,1.7E1,1.5E1,8E0,4E0,2.2E1,1E1,2E0,4E0,8E0,2.6E1],"tree_param":{"num_deleted":"0","num_feature":"8","num_nodes":"59","size_leaf_vector":"1"}},{"base_weights":[-7.504116E-4,-2.6416907E-1,5.0017786E-1,-5.804816E-1,-6.460326E-2,3.9700645E-1,7.781037E-1,-7.314187E-1,-4.7047696E-1,-1.9220673E-1,5.668273E-2,4.431971E-1,-5.2813515E-2,4.0853962E-2,1.3227056E-2,-2.7572967E-3,-7.574751E-1,-1.6435121E-1,-5.126862E-1,-4.2694005E-1,-6.509984E-2,3.957741E-1,-1.0091269E-1,4.9038282E-1,1.5215608E-1,1.12986E-2,-2.7369925E-1,-4.0426552E-2,-1.6305929E-2,3.655637E-2,-1.4947205E-2,-5.33603E-1,-0E0,-6.864051E-1,-1.6658501E-1,4.3635964E-2,-3.820778E-1,-1.5199308E-1,4.9943006E-1,-3.0617815E-1,3.7128913E-1,3.0451906E-1,7.136499E-1,-1.6073272E-1,3.5205594E-1,-1.5796421E-2,-1.1752939E-3,4.012094E-3,-0E0,-1.8078713E-2,-3.4247495E-2,-3.7335742E-2,-5.6136707E-3,4.153641E-4,-2.061386E-2,-1.7492829E-2,6.257634E-3,-0E0,-2.1928092E-2,-9.398268E-3,-0E0,2.9924532E-2,5.0960532E-3,4.2589667E-4,-2.1181539E-2,2.5973693E-2,-5.7149874E-3,-4.340281E-3,1.9208008E-2,4.3062445E-2,5.406145E-3,1.1110163E-3,-1.3122859E-2,-0E0,2.074658E-2],"categories":[],"categories_nodes":[],"categories_segments":[],"categories_sizes":[],"default_left":[0,0,0,0,0,0,0,0,0,0,0,0,0,0,0,0,0,0,0,0,0,0,0,0,0,0,0,0,0,0,0,0,0,0,0,0,0,0,0,0,0,0,0,0,0,0,0,0,0,0,0,0,0,0,0,0,0,0,0,0,0,0,0,0,0,0,0,0,0,0,0,0,0,0,0],"id":18,"left_children":[1,3,5,7,9,11,13,15,17,19,21,23,25,-1,-1,-1,27,29,31,33,35,37,39,41,43,-1,45,-1,-1,47,-1,49,-1,51,53,55,57,59,61,63,65,67,69,71,73,-1,-1,-1,-1,-1,-1,-1,-1,-1,-1,-1,-1,-1,-1,-1,-1,-1,-1,-1,-1,-1,-1,-1,-1,-1,-1,-1,-1,-1,-1],"loss_changes":[2.8742516E1,8.924889E0,1.7241268E0,4.4890213E-1,1.4018569E0,1.2467613E0,5.599785E-2,2.4701214E-1,3.0028296E-1,1.2357961E0,2.52763E0,5.752468E-1,4.3609953E-1,0E0,0E0,0E0,6.3323975E-2,1.9941145E-1,3.718176E-1,8.1365156E-1,1.0845221E0,9.623437E-1,3.2088249E0,1.5067425E0,6.3863707E-1,0E0,8.922219E-4,0E0,0E0,8.868411E-3,0E0,4.0273285E-1,0E0,7.264495E-2,4.3054897E-1,7.5906813E-1,1.784879E-1,1.3562441E-3,3.80867E-1,8.952429E-1,8.1946146E-1,8.733864E-1,1.508071E0,1.0429877E-1,1.17180705E-1,0E0,0E0,0E0,0E0,0E0,0E0,0E0,0E0,0E0,0E0,0E0,0E0,0E0,0E0,0E0,0E0,0E0,0E0,0E0,0E0,0E0,0E0,0E0,0E0,0E0,0E0,0E0,0E0,0E0,0E0],"parents":[2147483647,0,0,1,1,2,2,3,3,4,4,5,5,6,6,7,7,8,8,9,9,10,10,11,11,12,12,16,16,17,17,18,18,19,19,20,20,21,21,22,22,23,23,24,24,26,26,29,29,31,31,33,33,34,34,35,35,36,36,37,37,38,38,39,39,40,40,41,41,42,42,43,43,44,44],"right_children":[2,4,6,8,10,12,14,16,18,20,22,24,26,-1,-1,-1,28,30,32,34,36,38,40,42,44,-1,46,-1,-1,48,-1,50,-1,52,54,56,58,60,62,64,66,68,70,72,74,-1,-1,-1,-1,-1,-1,-1,-1,-1,-1,-1,-1,-1,-1,-1,-1,-1,-1,-1,-1,-1,-1,-1,-1,-1,-1,-1,-1,-1,-1],"split_conditions":[8E-1,-1.1E0,2.6E0,-2.6E0,8.3E0,1.01E1,9.6E0,6.1E0,6.8E0,7.2E0,8.8E0,9.6E0,9.4E0,4.0853962E-2,1.3227056E-2,-2.7572967E-3,9.4E0,9.3E0,1.03E1,7.1E0,7.8E0,6.6E0,2E-1,7.7E0,7.8E0,1.12986E-2,1.04E1,-4.0426552E-2,-1.6305929E-2,8.3E0,-1.4947205E-2,7.9E0,-0E0,9.2E0,7.9E0,6.6E0,6.1E0,7E0,9.3E0,7.3E0,9.3E0,1E0,2.1E0,6.4E0,9.8E0,-1.5796421E-2,-1.1752939E-3,4.012094E-3,-0E0,-1.8078713E-2,-3.4247495E-2,-3.7335742E-2,-5.6136707E-3,4.153641E-4,-2.061386E-2,-1.7492829E-2,6.257634E-3,-0E0,-2.1928092E-2,-9.398268E-3,-0E0,2.9924532E-2,5.0960532E-3,4.2589667E-4,-2.1181539E-2,2.5973693E-2,-5.7149874E-3,-4.340281E-3,1.9208008E-2,4.3062445E-2,5.406145E-3,1.1110163E-3,-1.3122859E-2,-0E0,2.074658E-2],"split_indices":[7,7,7,7,6,1,4,6,2,4,6,3,2,0,0,0,4,6,6,6,6,2,7,3,2,0,1,0,0,1,0,4,0,1,1,3,1,1,3,1,1,7,7,2,3,0,0,0,0,0,0,0,0,0,0,0,0,0,0,0,0,0,0,0,0,0,0,0,0,0,0,0,0,0,0],"split_type":[0,0,0,0,0,0,0,0,0,0,0,0,0,0,0,0,0,0,0,0,0,0,0,0,0,0,0,0,0,0,0,0,0,0,0,0,0,0,0,0,0,0,0,0,0,0,0,0,0,0,0,0,0,0,0,0,0,0,0,0,0,0,0,0,0,0,0,0,0,0,0,0,0,0,0],"sum_hessian":[2.16E2,1.42E2,7.4E1,5.4E1,8.8E1,5.6E1,1.8E1,2E1,3.4E1,4.3E1,4.5E1,5.1E1,5E0,1.6E1,2E0,1E0,1.9E1,5E0,2.9E1,1.4E1,2.9E1,1.4E1,3.1E1,4.3E1,8E0,2E0,3E0,1.6E1,3E0,2E0,3E0,2.8E1,1E0,6E0,8E0,2.2E1,7E0,2E0,1.2E1,2.2E1,9E0,2.5E1,1.8E1,3E0,5E0,2E0,1E0,1E0,1E0,1.5E1,1.3E1,5E0,1E0,5E0,3E0,3E0,1.9E1,1E0,6E0,1E0,1E0,9E0,3E0,6E0,1.6E1,7E0,2E0,4E0,2.1E1,1.4E1,4E0,1E0,2E0,1E0,4E0],"tree_param":{"num_deleted":"0","num_feature":"8","num_nodes":"75","size_leaf_vector":"1"}},{"base_weights":[-3.9103955E-2,-5.3350576E-3,-2.24707E-1,4.3587333E-1,-2.6284954E-2,-8.8357724E-2,-5.5222654E-1,4.3728516E-2,1.2721258E-1,-4.8965205E-2,4.3511587E-1,-3.5705557E-1,2.52563E-1,-3.8411092E-2,1.025047E-1,1.7538618E-2,-4.726038E-2,-1.5452216E-2,-3.0217347E-1,5.867682E-1,-1.3161263E-2,-4.499753E-1,1.8772516E-2,-4.588817E-2,5.2558696E-1,-0E0,1.0041295E-2,-6.6452087E-3,2.7417755E-3,-3.285932E-1,6.467654E-3,-3.2866556E-2,-2.9332021E-2,1.1076014E-2,3.9016206E-2,-5.081518E-1,3.70358E-3,-1.6921002E-2,7.999139E-3,-4.8479894E-3,3.4474414E-2,2.1449018E-3,-2.5410889E-2,1.8692587E-2,-7.5447344E-4,-1.9083772E-2,1.0334606E-2,-0E0,-2.7353516E-2],"categories":[],"categories_nodes":[],"categories_segments":[],"categories_sizes":[],"default_left":[0,0,0,0,0,0,0,0,0,0,0,0,0,0,0,0,0,0,0,0,0,0,0,0,0,0,0,0,0,0,0,0,0,0,0,0,0,0,0,0,0,0,0,0,0,0,0,0,0],"id":19,"left_children":[1,3,5,7,9,11,13,-1,15,17,19,21,23,-1,25,-1,27,29,31,33,-1,35,-1,37,39,-1,-1,-1,-1,41,43,45,-1,-1,-1,47,-1,-1,-1,-1,-1,-1,-1,-1,-1,-1,-1,-1,-1],"loss_changes":[1.2982626E0,1.6342865E0,1.3161739E0,8.718338E-1,1.793081E0,2.2991402E0,1.418088E0,0E0,2.8095964E-1,1.3722051E0,1.0340471E0,1.1292952E0,9.684158E-1,0E0,4.9140435E-2,0E0,5.0070252E-2,1.0502112E0,1.3743379E0,2.2182918E-1,0E0,4.773817E-1,0E0,4.33328E-1,7.3832285E-1,0E0,0E0,0E0,0E0,7.356229E-1,1.1423618E0,1.0155498E0,0E0,0E0,0E0,1.9352603E-1,0E0,0E0,0E0,0E0,0E0,0E0,0E0,0E0,0E0,0E0,0E0,0E0,0E0],"parents":[2147483647,0,0,1,1,2,2,3,3,4,4,5,5,6,6,8,8,9,9,10,10,11,11,12,12,14,14,16,16,17,17,18,18,19,19,21,21,23,23,24,24,29,29,30,30,31,31,35,35],"right_children":[2,4,6,8,10,12,14,-1,16,18,20,22,24,-1,26,-1,28,30,32,34,-1,36,-1,38,40,-1,-1,-1,-1,42,44,46,-1,-1,-1,48,-1,-1,-1,-1,-1,-1,-1,-1,-1,-1,-1,-1,-1],"split_conditions":[9.9E0,6.3E0,9.4E0,6.5E0,1.03E1,8E0,8.4E0,4.3728516E-2,7.9E0,1E1,9.5E0,9.7E0,7.9E0,-3.8411092E-2,1.02E1,1.7538618E-2,8.3E0,6.6E0,8.1E0,8.7E0,-1.3161263E-2,9.5E0,1.8772516E-2,9.1E0,6.4E0,-0E0,1.0041295E-2,-6.6452087E-3,2.7417755E-3,6.4E0,6.8E0,7.5E0,-2.9332021E-2,1.1076014E-2,3.9016206E-2,6.6E0,3.70358E-3,-1.6921002E-2,7.999139E-3,-4.8479894E-3,3.4474414E-2,2.1449018E-3,-2.5410889E-2,1.8692587E-2,-7.5447344E-4,-1.9083772E-2,1.0334606E-2,-0E0,-2.7353516E-2],"split_indices":[1,5,0,2,0,0,5,0,0,3,1,3,5,0,0,0,1,5,6,5,0,5,0,2,2,0,0,0,0,5,5,2,0,0,0,2,0,0,0,0,0,0,0,0,0,0,0,0,0],"split_type":[0,0,0,0,0,0,0,0,0,0,0,0,0,0,0,0,0,0,0,0,0,0,0,0,0,0,0,0,0,0,0,0,0,0,0,0,0,0,0,0,0,0,0,0,0,0,0,0,0],"sum_hessian":[2.1E2,1.79E2,3.1E1,7E0,1.72E2,2.3E1,8E0,2E0,5E0,1.65E2,7E0,1.3E1,1E1,6E0,2E0,2E0,3E0,1.47E2,1.8E1,6E0,1E0,1.2E1,1E0,5E0,5E0,1E0,1E0,2E0,1E0,9E0,1.38E2,1E1,8E0,3E0,3E0,1.1E1,1E0,2E0,3E0,1E0,4E0,3E0,6E0,7E0,1.31E2,4E0,6E0,1E0,1E1],"tree_param":{"num_deleted":"0","num_feature":"8","num_nodes":"49","size_leaf_vector":"1"}},{"base_weights":[1.9417845E-3,-3.1651387E-1,4.1761902E-1,-6.1212623E-1,-1.0994393E-1,2.0241447E-1,7.6789284E-1,-6.520344E-1,-0E0,-4.7268805E-1,4.782946E-1,-1.1899843E-1,6.152677E-1,4.7293293E-1,8.747579E-1,-3.112111E-1,-7.099188E-1,7.5678886E-3,-9.371517E-3,-4.3502007E-2,-2.1518718E-1,2.3551425E-1,7.1445113E-1,-3.0733383E-1,1.459377E-1,3.6901686E-1,7.325319E-1,5.8509163E-3,2.8372899E-2,7.793055E-3,4.4702556E-2,-3.8889557E-1,-0E0,-4.5982115E-2,-6.060229E-1,-3.6037314E-1,-1.310421E-1,6.807681E-2,3.819421E-1,1.9964801E-2,4.1702997E-2,-3.6334023E-1,-0E0,-1.7059183E-2,1.9644184E-1,2.208039E-2,5.3290417E-3,1.1207237E-2,7.787072E-1,-2.1065794E-2,-2.3593402E-3,-2.7076955E-4,-0E0,-4.2859387E-2,-1.7882524E-2,-1.8995842E-2,-2.1120047E-3,-1.3341742E-2,3.786321E-4,6.544489E-3,-0E0,5.9709297E-3,2.1644007E-2,-2.2976045E-2,-1.2563444E-2,-1.8302536E-3,2.6554014E-3,-3.9000132E-3,-0E0,4.8071006E-3,1.3202568E-2,4.03342E-2,7.175813E-3],"categories":[],"categories_nodes":[],"categories_segments":[],"categories_sizes":[],"default_left":[0,0,0,0,0,0,0,0,0,0,0,0,0,0,0,0,0,0,0,0,0,0,0,0,0,0,0,0,0,0,0,0,0,0,0,0,0,0,0,0,0,0,0,0,0,0,0,0,0,0,0,0,0,0,0,0,0,0,0,0,0,0,0,0,0,0,0,0,0,0,0,0,0],"id":20,"left_children":[1,3,5,7,9,11,13,15,17,19,21,23,25,27,29,31,33,-1,-1,-1,35,37,39,41,43,45,47,-1,-1,-1,-1,49,51,-1,53,55,57,59,61,-1,-1,63,65,67,69,-1,-1,-1,71,-1,-1,-1,-1,-1,-1,-1,-1,-1,-1,-1,-1,-1,-1,-1,-1,-1,-1,-1,-1,-1,-1,-1,-1],"loss_changes":[2.9264738E1,7.4935713E0,6.984068E0,1.2975197E0,1.6229029E1,8.21732E0,5.862808E-1,6.239147E-1,1.3898778E-1,4.5132265E0,1.3994317E0,1.8073809E0,3.991909E-1,2.6886344E-1,1.02407455E-1,1.8700725E-1,1.6168404E-1,0E0,0E0,0E0,2.7013516E-1,3.2127672E-1,7.136202E-2,3.9275455E-1,1.447697E-1,1.0766947E-1,1.2424564E-1,0E0,0E0,0E0,0E0,1.0817289E-2,5.8652924E-5,0E0,1.4434147E0,3.911257E-3,4.232272E-1,4.3950602E-2,5.567074E-5,0E0,0E0,7.481575E-3,1.114125E-2,1.1004018E-2,1.9968867E-2,0E0,0E0,0E0,5.576706E-2,0E0,0E0,0E0,0E0,0E0,0E0,0E0,0E0,0E0,0E0,0E0,0E0,0E0,0E0,0E0,0E0,0E0,0E0,0E0,0E0,0E0,0E0,0E0,0E0],"parents":[2147483647,0,0,1,1,2,2,3,3,4,4,5,5,6,6,7,7,8,8,9,9,10,10,11,11,12,12,13,13,14,14,15,15,16,16,20,20,21,21,22,22,23,23,24,24,25,25,26,26,31,31,32,32,34,34,35,35,36,36,37,37,38,38,41,41,42,42,43,43,44,44,48,48],"right_children":[2,4,6,8,10,12,14,16,18,20,22,24,26,28,30,32,34,-1,-1,-1,36,38,40,42,44,46,48,-1,-1,-1,-1,50,52,-1,54,56,58,60,62,-1,-1,64,66,68,70,-1,-1,-1,72,-1,-1,-1,-1,-1,-1,-1,-1,-1,-1,-1,-1,-1,-1,-1,-1,-1,-1,-1,-1,-1,-1,-1,-1],"split_conditions":[3E-1,-1.4E0,8E0,1E1,9E0,2E0,8E-1,6.7E0,1.01E1,7.3E0,-4E-1,7.2E0,2.6E0,8.4E0,6.1E0,6.6E0,-3.1E0,7.5678886E-3,-9.371517E-3,-4.3502007E-2,7.8E0,9.6E0,9.5E0,1.7E0,7E-1,8.4E0,6.3E0,5.8509163E-3,2.8372899E-2,7.793055E-3,4.4702556E-2,1.03E1,9.7E0,-4.5982115E-2,9.2E0,1.02E1,-4E-1,7.8E0,7.7E0,1.9964801E-2,4.1702997E-2,6.3E0,6.4E0,7.5E0,7.7E0,2.208039E-2,5.3290417E-3,1.1207237E-2,1.02E1,-2.1065794E-2,-2.3593402E-3,-2.7076955E-4,-0E0,-4.2859387E-2,-1.7882524E-2,-1.8995842E-2,-2.1120047E-3,-1.3341742E-2,3.786321E-4,6.544489E-3,-0E0,5.9709297E-3,2.1644007E-2,-2.2976045E-2,-1.2563444E-2,-1.8302536E-3,2.6554014E-3,-3.9000132E-3,-0E0,4.8071006E-3,1.3202568E-2,4.03342E-2,7.175813E-3],"split_indices":[7,7,0,2,0,7,7,6,2,0,7,0,7,0,2,6,7,0,0,0,0,0,0,7,7,3,0,0,0,0,0,0,0,0,0,2,7,5,5,0,0,0,0,0,0,0,0,0,2,0,0,0,0,0,0,0,0,0,0,0,0,0,0,0,0,0,0,0,0,0,0,0,0],"split_type":[0,0,0,0,0,0,0,0,0,0,0,0,0,0,0,0,0,0,0,0,0,0,0,0,0,0,0,0,0,0,0,0,0,0,0,0,0,0,0,0,0,0,0,0,0,0,0,0,0,0,0,0,0,0,0,0,0,0,0,0,0,0,0,0,0,0,0,0,0,0,0,0,0],"sum_hessian":[2.19E2,1.24E2,9.5E1,5E1,7.4E1,6E1,3.5E1,4.7E1,3E0,4.6E1,2.8E1,3.4E1,2.6E1,1.1E1,2.4E1,8E0,3.9E1,2E0,1E0,1.7E1,2.9E1,1.5E1,1.3E1,2E1,1.4E1,1E1,1.6E1,3E0,8E0,1E0,2.3E1,6E0,2E0,1E1,2.9E1,9E0,2E1,8E0,7E0,5E0,8E0,1.7E1,3E0,3E0,1.1E1,7E0,3E0,2E0,1.4E1,5E0,1E0,1E0,1E0,1.3E1,1.6E1,8E0,1E0,1E1,1E1,4E0,4E0,2E0,5E0,7E0,1E1,1E0,2E0,1E0,2E0,6E0,5E0,1.3E1,1E0],"tree_param":{"num_deleted":"0","num_feature":"8","num_nodes":"73","size_leaf_vector":"1"}},{"base_weights":[-1.3859401E-2,-3.3450347E-1,3.7788698E-1,-6.3355905E-1,-1.028311E-1,1.919451E-1,7.5226885E-1,-7.99549E-1,-4.46548E-1,-6.941693E-1,2.2575302E-1,-1.8477887E-1,5.44515E-1,3.884494E-1,4.26595E-2,-8.224888E-1,-3.151343E-3,-5.9847355E-1,-0E0,-3.609779E-2,-1.0820824E-2,7.876162E-2,2.6923267E-2,-3.808003E-1,6.916685E-2,3.4198233E-1,6.743154E-1,2.01965E-3,2.3391897E-2,-5.569027E-3,-8.433108E-1,-4.022279E-2,-3.8578072E-1,-1.0398739E-1,5.4076365E-3,-1.7118439E-1,1.883572E-1,-2.728493E-2,-2.3080142E-1,-5.254333E-2,9.736558E-3,7.264271E-3,2.3385745E-2,3.96348E-2,3.269376E-1,-4.3276742E-2,-5.8039404E-3,-2.021364E-2,-2.059207E-3,-5.9900573E-3,-0E0,-1.2337021E-2,-1.3140144E-3,-0E0,1.4638843E-2,-1.2836242E-2,-1.7061456E-3,-5.46649E-3,-0E0,1.7636962E-2,1.8031931E-3],"categories":[],"categories_nodes":[],"categories_segments":[],"categories_sizes":[],"default_left":[0,0,0,0,0,0,0,0,0,0,0,0,0,0,0,0,0,0,0,0,0,0,0,0,0,0,0,0,0,0,0,0,0,0,0,0,0,0,0,0,0,0,0,0,0,0,0,0,0,0,0,0,0,0,0,0,0,0,0,0,0],"id":21,"left_children":[1,3,5,7,9,11,13,15,17,19,21,23,25,27,-1,29,-1,31,33,-1,-1,35,-1,37,39,41,43,-1,-1,-1,45,-1,47,49,-1,51,53,-1,55,57,-1,-1,-1,-1,59,-1,-1,-1,-1,-1,-1,-1,-1,-1,-1,-1,-1,-1,-1,-1,-1],"loss_changes":[2.7379688E1,8.17516E0,6.5832834E0,1.132534E0,1.3610552E1,9.035631E0,7.1936035E-1,2.988968E-1,1.7794724E0,8.17976E-2,1.9643378E0,1.7002025E0,5.8787537E-1,1.7896461E-1,0E0,1.8076897E-1,0E0,4.4685125E-1,1.0085493E-1,0E0,0E0,9.1053647E-1,0E0,2.663586E-1,2.5368744E-1,2.6644707E-1,4.5133018E-1,0E0,0E0,0E0,1.8925858E-1,0E0,1.52721405E-2,3.3423677E-3,0E0,7.569727E-2,4.697703E-1,0E0,2.333796E-2,2.5725607E-2,0E0,0E0,0E0,0E0,9.3376637E-4,0E0,0E0,0E0,0E0,0E0,0E0,0E0,0E0,0E0,0E0,0E0,0E0,0E0,0E0,0E0,0E0],"parents":[2147483647,0,0,1,1,2,2,3,3,4,4,5,5,6,6,7,7,8,8,9,9,10,10,11,11,12,12,13,13,15,15,17,17,18,18,21,21,23,23,24,24,25,25,26,26,30,30,32,32,33,33,35,35,36,36,38,38,39,39,44,44],"right_children":[2,4,6,8,10,12,14,16,18,20,22,24,26,28,-1,30,-1,32,34,-1,-1,36,-1,38,40,42,44,-1,-1,-1,46,-1,48,50,-1,52,54,-1,56,58,-1,-1,-1,-1,60,-1,-1,-1,-1,-1,-1,-1,-1,-1,-1,-1,-1,-1,-1,-1,-1],"split_conditions":[3E-1,8.7E0,8E0,-5E-1,-2.4E0,1.7E0,5E-1,1.02E1,7.8E0,-2.5E0,-5E-1,7.2E0,2.6E0,8.4E0,4.26595E-2,6.2E0,-3.151343E-3,6.7E0,0E0,-3.609779E-2,-1.0820824E-2,9.2E0,2.6923267E-2,6.3E0,1E0,6.8E0,9.2E0,2.01965E-3,2.3391897E-2,-5.569027E-3,1.03E1,-4.022279E-2,8.3E0,8.3E0,5.4076365E-3,-1E0,-1.5E0,-2.728493E-2,1.5E0,7.6E0,9.736558E-3,7.264271E-3,2.3385745E-2,3.96348E-2,1.04E1,-4.3276742E-2,-5.8039404E-3,-2.021364E-2,-2.059207E-3,-5.9900573E-3,-0E0,-1.2337021E-2,-1.3140144E-3,-0E0,1.4638843E-2,-1.2836242E-2,-1.7061456E-3,-5.46649E-3,-0E0,1.7636962E-2,1.8031931E-3],"split_indices":[7,0,0,7,7,7,7,1,0,7,7,0,7,0,0,4,0,0,7,0,0,0,0,0,7,0,4,0,0,0,5,0,1,0,0,7,7,0,7,0,0,0,0,0,5,0,0,0,0,0,0,0,0,0,0,0,0,0,0,0,0],"split_type":[0,0,0,0,0,0,0,0,0,0,0,0,0,0,0,0,0,0,0,0,0,0,0,0,0,0,0,0,0,0,0,0,0,0,0,0,0,0,0,0,0,0,0,0,0,0,0,0,0,0,0,0,0,0,0,0,0,0,0,0,0],"sum_hessian":[2.16E2,1.19E2,9.7E1,5.1E1,6.8E1,6.6E1,3.1E1,2.5E1,2.6E1,2.4E1,4.4E1,3.2E1,3.4E1,8E0,2.3E1,2.4E1,1E0,1.9E1,7E0,2.2E1,2E0,3.1E1,1.3E1,1.8E1,1.4E1,1.5E1,1.9E1,2E0,6E0,1E0,2.3E1,8E0,1.1E1,4E0,3E0,9E0,2.2E1,7E0,1.1E1,7E0,7E0,7E0,8E0,1.3E1,6E0,2.2E1,1E0,1E1,1E0,3E0,1E0,5E0,4E0,8E0,1.4E1,9E0,2E0,3E0,4E0,5E0,1E0],"tree_param":{"num_deleted":"0","num_feature":"8","num_nodes":"61","size_leaf_vector":"1"}},{"base_weights":[-2.3678927E-2,-4.1067713E-1,2.2254574E-1,-5.259223E-1,-1.274911E-1,1.0341753E-1,5.424136E-1,-7.0590097E-1,-4.14725E-1,-2.6282206E-1,5.9550278E-2,-1.5050036E-1,1.8448272E-1,5.642638E-1,-1.9661046E-3,-7.023523E-3,-3.615021E-2,-4.5517275E-1,-3.6735326E-2,1.21908724E-1,-4.773783E-1,3.317338E-1,-1.2908798E-1,-2.1687664E-1,3.3096707E-1,6.1890867E-2,3.3266345E-1,9.320297E-3,2.8970143E-2,-6.680275E-1,-3.6013943E-1,2.8870327E-3,-7.6149763E-3,-3.9554277E-4,1.0689812E-2,-8.679752E-3,-5.6848615E-1,8.390522E-4,1.9063836E-2,2.2030003E-2,-2.1394117E-1,-5.4909873E-1,-1.2544526E-1,2.3076972E-2,-0E0,3.0566785E-1,-4.6074353E-2,5.022121E-1,-2.7585108E-2,-4.892967E-3,-3.572831E-2,-1.4577621E-3,-2.2648847E-2,-3.1304173E-2,-3.0725575E-3,2.127323E-3,-0E0,-1.4499842E-2,-0E0,-3.1516377E-2,-5.1353076E-3,4.725894E-3,-1.0109301E-2,2.233083E-2,-0E0,6.615214E-3,-1.1402401E-2,3.9181944E-2,1.3913988E-2,-5.8266954E-3,1.0756149E-2],"categories":[],"categories_nodes":[],"categories_segments":[],"categories_sizes":[],"default_left":[0,0,0,0,0,0,0,0,0,0,0,0,0,0,0,0,0,0,0,0,0,0,0,0,0,0,0,0,0,0,0,0,0,0,0,0,0,0,0,0,0,0,0,0,0,0,0,0,0,0,0,0,0,0,0,0,0,0,0,0,0,0,0,0,0,0,0,0,0,0,0],"id":22,"left_children":[1,3,5,7,9,11,13,15,17,19,21,23,25,27,-1,-1,-1,29,31,33,35,37,39,41,43,45,47,-1,-1,49,51,-1,-1,-1,-1,-1,53,-1,-1,55,57,59,61,-1,-1,63,65,67,69,-1,-1,-1,-1,-1,-1,-1,-1,-1,-1,-1,-1,-1,-1,-1,-1,-1,-1,-1,-1,-1,-1],"loss_changes":[1.9834927E1,2.5111084E0,4.7186937E0,7.359333E-1,6.6879046E-1,1.9660496E0,5.068579E-1,5.5036545E-3,5.150633E-1,1.3319397E0,6.2787384E-1,7.9540443E-1,1.2478898E0,4.1885376E-3,0E0,0E0,0E0,3.4436274E-1,7.2839975E-2,9.385264E-2,1.0387564E-1,3.1814396E-2,1.1366416E-1,5.015498E-1,9.741974E-2,1.1191396E0,2.0158658E0,0E0,0E0,8.76441E-2,7.3750114E-1,0E0,0E0,0E0,0E0,0E0,9.719968E-2,0E0,0E0,2.1644398E-3,1.07538536E-1,6.9978237E-3,3.337194E-1,0E0,0E0,5.805707E-1,9.8109233E-1,1.0621896E0,2.5268474E-1,0E0,0E0,0E0,0E0,0E0,0E0,0E0,0E0,0E0,0E0,0E0,0E0,0E0,0E0,0E0,0E0,0E0,0E0,0E0,0E0,0E0,0E0],"parents":[2147483647,0,0,1,1,2,2,3,3,4,4,5,5,6,6,7,7,8,8,9,9,10,10,11,11,12,12,13,13,17,17,18,18,19,19,20,20,21,21,22,22,23,23,24,24,25,25,26,26,29,29,30,30,36,36,39,39,40,40,41,41,42,42,45,45,46,46,47,47,48,48],"right_children":[2,4,6,8,10,12,14,16,18,20,22,24,26,28,-1,-1,-1,30,32,34,36,38,40,42,44,46,48,-1,-1,50,52,-1,-1,-1,-1,-1,54,-1,-1,56,58,60,62,-1,-1,64,66,68,70,-1,-1,-1,-1,-1,-1,-1,-1,-1,-1,-1,-1,-1,-1,-1,-1,-1,-1,-1,-1,-1,-1],"split_conditions":[-5E-1,-1.1E0,1.6E0,-2.6E0,8E0,7.1E0,1.02E1,6.1E0,9.8E0,6.9E0,8.4E0,1.01E1,5E-1,6.2E0,-1.9661046E-3,-7.023523E-3,-3.615021E-2,7.7E0,8.7E0,7.1E0,7.1E0,6.7E0,6.7E0,6.4E0,7.1E0,7.3E0,9.4E0,9.320297E-3,2.8970143E-2,6.3E0,8.3E0,2.8870327E-3,-7.6149763E-3,-3.9554277E-4,1.0689812E-2,-8.679752E-3,7.6E0,8.390522E-4,1.9063836E-2,6.4E0,1.01E1,7.9E0,7.5E0,2.3076972E-2,-0E0,9.4E0,8.8E0,1.1E0,1.02E1,-4.892967E-3,-3.572831E-2,-1.4577621E-3,-2.2648847E-2,-3.1304173E-2,-3.0725575E-3,2.127323E-3,-0E0,-1.4499842E-2,-0E0,-3.1516377E-2,-5.1353076E-3,4.725894E-3,-1.0109301E-2,2.233083E-2,-0E0,6.615214E-3,-1.1402401E-2,3.9181944E-2,1.3913988E-2,-5.8266954E-3,1.0756149E-2],"split_indices":[7,7,7,7,4,6,4,1,4,3,4,4,7,2,0,0,0,3,1,1,2,1,6,4,1,1,4,0,0,6,3,0,0,0,0,0,4,0,0,1,1,1,4,0,0,3,6,7,4,0,0,0,0,0,0,0,0,0,0,0,0,0,0,0,0,0,0,0,0,0,0],"split_type":[0,0,0,0,0,0,0,0,0,0,0,0,0,0,0,0,0,0,0,0,0,0,0,0,0,0,0,0,0,0,0,0,0,0,0,0,0,0,0,0,0,0,0,0,0,0,0,0,0,0,0,0,0,0,0,0,0,0,0,0,0,0,0,0,0,0,0,0,0,0,0],"sum_hessian":[2.06E2,8E1,1.26E2,5.6E1,2.4E1,9.3E1,3.3E1,1.9E1,3.7E1,1.4E1,1E1,2.2E1,7.1E1,3.2E1,1E0,1E0,1.8E1,3.3E1,4E0,5E0,9E0,4E0,6E0,2E1,2E0,4E1,3.1E1,2E0,3E1,8E0,2.5E1,2E0,2E0,2E0,3E0,3E0,6E0,1E0,3E0,2E0,4E0,3E0,1.7E1,1E0,1E0,1.2E1,2.8E1,2.1E1,1E1,1E0,7E0,6E0,1.9E1,5E0,1E0,1E0,1E0,3E0,1E0,2E0,1E0,4E0,1.3E1,8E0,4E0,1.4E1,1.4E1,8E0,1.3E1,8E0,2E0],"tree_param":{"num_deleted":"0","num_feature":"8","num_nodes":"71","size_leaf_vector":"1"}},{"base_weights":[-4.338644E-2,-2.7217546E-1,4.3299332E-1,-4.9809554E-1,-6.755159E-2,4.4144966E-2,5.191492E-1,-6.528065E-1,-1.9569203E-1,-5.8170605E-1,3.0059296E-1,-1.6776275E-2,2.395657E-1,4.4208512E-1,3.960683E-2,-4.3891665E-2,-5.4134727E-1,-4.2314696E-1,1.2317306E-1,-7.4348736E-1,-4.4909355E-1,1.0903654E-1,5.618028E-1,3.985432E-3,1.817405E-2,1.2005993E-1,5.7203335E-1,-3.766074E-2,-3.173902E-1,-2.7936703E-2,-1.1108327E-2,9.788346E-3,-0E0,-6.84794E-3,-3.871424E-2,-2.6642753E-2,-2.3387419E-1,-1.4044712E-1,2.3986813E-1,2.0009825E-2,7.2148687E-1,-3.6651779E-3,1.8284276E-1,5.866395E-1,1.15904775E-4,-1.8337063E-2,9.139442E-4,-1.2508767E-2,-4.9415586E-4,-1.1646627E-2,-0E0,4.836113E-3,1.7451359E-2,1.20143E-2,4.125864E-2,-0E0,9.818712E-3,8.331591E-3,3.0287618E-2],"categories":[],"categories_nodes":[],"categories_segments":[],"categories_sizes":[],"default_left":[0,0,0,0,0,0,0,0,0,0,0,0,0,0,0,0,0,0,0,0,0,0,0,0,0,0,0,0,0,0,0,0,0,0,0,0,0,0,0,0,0,0,0,0,0,0,0,0,0,0,0,0,0,0,0,0,0,0,0],"id":23,"left_children":[1,3,5,7,9,11,13,15,17,19,21,-1,23,25,-1,-1,27,29,31,33,35,37,39,-1,-1,41,43,-1,45,-1,-1,-1,-1,-1,-1,-1,47,49,51,-1,53,-1,55,57,-1,-1,-1,-1,-1,-1,-1,-1,-1,-1,-1,-1,-1,-1,-1],"loss_changes":[2.3534718E1,6.659169E0,2.2658615E0,3.0155754E0,1.4967054E1,1.1095213E0,7.255249E-1,5.11528E-1,1.8953035E0,2.5483608E-1,2.1733341E0,0E0,1.24795794E-1,1.8289032E0,0E0,0E0,1.2197008E0,2.065332E-1,1.0138516E-1,4.5664787E-2,1.772747E-1,9.5756054E-1,8.94084E-2,0E0,0E0,2.0645557E-1,2.1434975E-1,0E0,3.3973098E-1,0E0,0E0,0E0,0E0,0E0,0E0,0E0,7.3212385E-4,1.2829149E-1,2.1855414E-1,0E0,9.432697E-2,0E0,2.3013532E-2,7.870388E-2,0E0,0E0,0E0,0E0,0E0,0E0,0E0,0E0,0E0,0E0,0E0,0E0,0E0,0E0,0E0],"parents":[2147483647,0,0,1,1,2,2,3,3,4,4,5,5,6,6,7,7,8,8,9,9,10,10,12,12,13,13,16,16,17,17,18,18,19,19,20,20,21,21,22,22,25,25,26,26,28,28,36,36,37,37,38,38,40,40,42,42,43,43],"right_children":[2,4,6,8,10,12,14,16,18,20,22,-1,24,26,-1,-1,28,30,32,34,36,38,40,-1,-1,42,44,-1,46,-1,-1,-1,-1,-1,-1,-1,48,50,52,-1,54,-1,56,58,-1,-1,-1,-1,-1,-1,-1,-1,-1,-1,-1,-1,-1,-1,-1],"split_conditions":[9E-1,8.7E0,6.5E0,1E-1,-2.2E0,1.7E0,8.5E0,7.3E0,7.6E0,-3.1E0,-5E-1,-1.6776275E-2,2.9E0,1.6E0,3.960683E-2,-4.3891665E-2,-1.1E0,6.7E0,7.9E0,6.1E0,9.9E0,9.2E0,9.8E0,3.985432E-3,1.817405E-2,7.2E0,1E1,-3.766074E-2,8.4E0,-2.7936703E-2,-1.1108327E-2,9.788346E-3,-0E0,-6.84794E-3,-3.871424E-2,-2.6642753E-2,1.03E1,-1E0,-1.1E0,2.0009825E-2,-3E-1,-3.6651779E-3,7E0,6.2E0,1.15904775E-4,-1.8337063E-2,9.139442E-4,-1.2508767E-2,-4.9415586E-4,-1.1646627E-2,-0E0,4.836113E-3,1.7451359E-2,1.20143E-2,4.125864E-2,-0E0,9.818712E-3,8.331591E-3,3.0287618E-2],"split_indices":[7,0,0,7,7,7,0,0,0,7,7,0,7,7,0,0,7,0,4,1,0,0,0,0,0,0,4,0,0,0,0,0,0,0,0,0,0,7,7,0,7,0,1,1,0,0,0,0,0,0,0,0,0,0,0,0,0,0,0],"split_type":[0,0,0,0,0,0,0,0,0,0,0,0,0,0,0,0,0,0,0,0,0,0,0,0,0,0,0,0,0,0,0,0,0,0,0,0,0,0,0,0,0,0,0,0,0,0,0,0,0,0,0,0,0,0,0,0,0,0,0],"sum_hessian":[2.14E2,1.45E2,6.9E1,6.8E1,7.7E1,1.3E1,5.6E1,4.4E1,2.4E1,3.2E1,4.5E1,4E0,9E0,4.6E1,1E1,1.2E1,3.2E1,1.4E1,1E1,1.2E1,2E1,2.7E1,1.8E1,5E0,4E0,1.4E1,3.2E1,1.5E1,1.7E1,7E0,7E0,6E0,4E0,1E0,1.1E1,1.3E1,7E0,9E0,1.8E1,1.1E1,7E0,3E0,1.1E1,3.1E1,1E0,1.5E1,2E0,6E0,1E0,5E0,4E0,9E0,9E0,2E0,5E0,1E0,1E1,2E0,2.9E1],"tree_param":{"num_deleted":"0","num_feature":"8","num_nodes":"59","size_leaf_vector":"1"}},{"base_weights":[-2.2060243E-2,-4.013063E-1,1.7849344E-1,-5.976678E-1,-2.0229644E-1,-4.9535293E-2,5.1922834E-1,-4.258388E-2,-4.7726178E-1,-4.9427116E-1,1.5653068E-1,-3.5736108E-1,4.415441E-1,3.5532895E-1,6.3952994E-1,-6.303934E-1,-2.3260802E-1,-3.1048557E-2,-2.9051018E-1,-0E0,2.9357713E-1,-5.1689273E-1,-8.2771555E-2,1.9221252E-1,6.1393213E-1,1.1059258E-1,5.2571917E-1,2.6689988E-1,7.4409556E-1,-1.3653397E-2,-3.401577E-2,-1.3578797E-2,-0E0,-1.53816985E-2,-4.8180576E-4,-3.7947286E-2,5.6981626E-3,7.7923015E-3,1.9006953E-2,-5.687167E-1,-1.2919867E-2,-2.4638185E-1,4.1757245E-2,-3.39621E-2,3.4131348E-1,6.6084844E-1,4.722856E-3,-2.9248504E-2,1.8710512E-1,1.6370324E-2,3.3530306E-2,4.894035E-3,1.592147E-2,8.285988E-1,1.9707233E-2,-3.820041E-3,9.1377733E-4,-3.4572076E-2,-2.0479618E-2,-1.3137989E-2,-0E0,4.5577115E-3,-3.3587266E-3,-5.8722603E-3,1.6505767E-3,1.2039756E-3,1.8138757E-2,5.0677396E-3,3.409577E-2,-4.990648E-3,8.866056E-4,1.0158136E-2,-0E0,6.482015E-3,4.2733602E-2],"categories":[],"categories_nodes":[],"categories_segments":[],"categories_sizes":[],"default_left":[0,0,0,0,0,0,0,0,0,0,0,0,0,0,0,0,0,0,0,0,0,0,0,0,0,0,0,0,0,0,0,0,0,0,0,0,0,0,0,0,0,0,0,0,0,0,0,0,0,0,0,0,0,0,0,0,0,0,0,0,0,0,0,0,0,0,0,0,0,0,0,0,0,0,0],"id":24,"left_children":[1,3,5,7,9,11,13,-1,15,17,19,21,23,25,27,29,31,-1,33,35,37,39,41,43,45,47,49,51,53,-1,-1,-1,-1,-1,-1,55,-1,-1,-1,57,-1,59,61,63,65,67,-1,69,71,-1,-1,-1,-1,73,-1,-1,-1,-1,-1,-1,-1,-1,-1,-1,-1,-1,-1,-1,-1,-1,-1,-1,-1,-1,-1],"loss_changes":[1.735935E1,2.8862486E0,1.1649592E1,6.534214E-1,4.4066486E0,1.3754393E1,8.563137E-1,0E0,8.5352755E-1,3.2223272E-1,3.9634013E-1,2.3503685E0,1.3057427E0,1.0458474E0,9.8612213E-1,2.214241E-2,1.079039E-1,0E0,1.8214524E-2,5.0482843E-2,6.3809752E-3,2.392044E-1,4.7898293E-1,5.8189255E-1,3.4948397E-1,1.6035296E-1,1.4036465E-1,5.5861473E-3,2.9043865E-1,0E0,0E0,0E0,0E0,0E0,0E0,2.4504527E-2,0E0,0E0,0E0,1.534853E-1,0E0,1.4344215E-2,7.8472935E-2,5.145858E-2,2.0662546E-2,6.472111E-2,0E0,2.6553785E-2,1.5125811E-2,0E0,0E0,0E0,0E0,1.3702679E-1,0E0,0E0,0E0,0E0,0E0,0E0,0E0,0E0,0E0,0E0,0E0,0E0,0E0,0E0,0E0,0E0,0E0,0E0,0E0,0E0,0E0],"parents":[2147483647,0,0,1,1,2,2,3,3,4,4,5,5,6,6,8,8,9,9,10,10,11,11,12,12,13,13,14,14,15,15,16,16,18,18,19,19,20,20,21,21,22,22,23,23,24,24,25,25,26,26,27,27,28,28,35,35,39,39,41,41,42,42,43,43,44,44,45,45,47,47,48,48,53,53],"right_children":[2,4,6,8,10,12,14,-1,16,18,20,22,24,26,28,30,32,-1,34,36,38,40,42,44,46,48,50,52,54,-1,-1,-1,-1,-1,-1,56,-1,-1,-1,58,-1,60,62,64,66,68,-1,70,72,-1,-1,-1,-1,74,-1,-1,-1,-1,-1,-1,-1,-1,-1,-1,-1,-1,-1,-1,-1,-1,-1,-1,-1,-1,-1],"split_conditions":[-7E-1,9.5E0,8E0,8.1E0,-2.3E0,1.5E0,8.9E0,-4.258388E-2,-1.8E0,-3E0,-1.5E0,7.4E0,2.3E0,4E-1,-3E-1,6.7E0,9E0,-3.1048557E-2,1.03E1,1.03E1,1.02E1,1E0,3E-1,6.6E0,1.01E1,8.3E0,1.5E0,9.3E0,9.5E0,-1.3653397E-2,-3.401577E-2,-1.3578797E-2,-0E0,-1.53816985E-2,-4.8180576E-4,-1.8E0,5.6981626E-3,7.7923015E-3,1.9006953E-2,6.7E0,-1.2919867E-2,7.9E0,9.7E0,2E0,6.7E0,6.1E0,4.722856E-3,9.6E0,9.7E0,1.6370324E-2,3.3530306E-2,4.894035E-3,1.592147E-2,6.4E0,1.9707233E-2,-3.820041E-3,9.1377733E-4,-3.4572076E-2,-2.0479618E-2,-1.3137989E-2,-0E0,4.5577115E-3,-3.3587266E-3,-5.8722603E-3,1.6505767E-3,1.2039756E-3,1.8138757E-2,5.0677396E-3,3.409577E-2,-4.990648E-3,8.866056E-4,1.0158136E-2,-0E0,6.482015E-3,4.2733602E-2],"split_indices":[7,0,0,0,7,7,0,0,7,7,7,0,7,7,7,4,0,0,0,0,0,7,7,0,5,0,7,0,5,0,0,0,0,0,0,7,0,0,0,0,0,0,4,7,6,1,0,5,5,0,0,0,0,6,0,0,0,0,0,0,0,0,0,0,0,0,0,0,0,0,0,0,0,0,0],"split_type":[0,0,0,0,0,0,0,0,0,0,0,0,0,0,0,0,0,0,0,0,0,0,0,0,0,0,0,0,0,0,0,0,0,0,0,0,0,0,0,0,0,0,0,0,0,0,0,0,0,0,0,0,0,0,0,0,0,0,0,0,0,0,0,0,0,0,0,0,0,0,0,0,0,0,0],"sum_hessian":[2.26E2,7.8E1,1.48E2,3.8E1,4E1,8.9E1,5.9E1,1E1,2.8E1,2.2E1,1.8E1,5.5E1,3.4E1,2.7E1,3.2E1,1.6E1,1.2E1,1.2E1,1E1,9E0,9E0,3.4E1,2.1E1,1.5E1,1.9E1,1.2E1,1.5E1,8E0,2.4E1,3E0,1.3E1,1E1,2E0,9E0,1E0,7E0,2E0,5E0,4E0,2.7E1,7E0,9E0,1.2E1,6E0,9E0,1.7E1,2E0,4E0,8E0,8E0,7E0,3E0,5E0,1.8E1,6E0,5E0,2E0,1.3E1,1.4E1,8E0,1E0,9E0,3E0,3E0,3E0,1E0,8E0,1E0,1.6E1,2E0,2E0,7E0,1E0,1E0,1.7E1],"tree_param":{"num_deleted":"0","num_feature":"8","num_nodes":"75","size_leaf_vector":"1"}},{"base_weights":[-1.5207017E-2,1.1397054E-1,-7.347161E-2,-7.899236E-2,1.8850778E-1,3.0437214E-2,-9.221578E-2,-1.4658925E-1,2.594379E-2,9.3105445E-3,3.1900176E-1,-2.0777002E-1,-0E0,2.2563323E-2,-2.1418467E-1,-1.825723E-2,1.1836417E-1,3.9950696E-1,5.5300403E-2,-3.7626353E-1,-9.752349E-2,-4.1833276E-1,4.3368343E-2,6.280357E-2,-3.431634E-1,2.788617E-1,-1.5939793E-1,1.5396927E-1,2.6553547E-2,1.9214955E-1,-1.01749E-2,-4.7725394E-1,-1.3258567E-1,-2.5662089E-2,-4.9577132E-1,-1.4879167E-1,-3.1283796E-2,1.3483252E-1,-2.1447295E-1,1.227309E-2,-8.417096E-3,-1.4576308E-3,-2.7450323E-2,2.0791132E-2,-1.1864764E-2,-1.996314E-2,1.3008808E-2,-2.4220694E-3,1.39957415E-2,-8.478784E-4,1.6297124E-2,-9.244672E-3,-3.5273757E-2,-1.1888712E-2,6.185808E-3,5.180108E-3,-9.9983765E-3,-1.844666E-3,-2.8008414E-2,-1.1172138E-2,1.2453174E-3,-1.1656258E-2,1.1503212E-2,2.0170515E-2,-1.7656177E-2],"categories":[],"categories_nodes":[],"categories_segments":[],"categories_sizes":[],"default_left":[0,0,0,0,0,0,0,0,0,0,0,0,0,0,0,0,0,0,0,0,0,0,0,0,0,0,0,0,0,0,0,0,0,0,0,0,0,0,0,0,0,0,0,0,0,0,0,0,0,0,0,0,0,0,0,0,0,0,0,0,0,0,0,0,0],"id":25,"left_children":[1,3,5,7,9,-1,11,13,-1,15,17,19,21,-1,23,-1,25,27,29,31,33,35,37,39,41,43,45,47,-1,49,-1,51,53,55,57,59,-1,61,63,-1,-1,-1,-1,-1,-1,-1,-1,-1,-1,-1,-1,-1,-1,-1,-1,-1,-1,-1,-1,-1,-1,-1,-1,-1,-1],"loss_changes":[1.6300429E0,9.89498E-1,1.9226177E0,8.0669945E-1,1.1100223E0,0E0,1.5558937E0,8.003677E-1,0E0,9.169272E-1,5.2684784E-1,1.1233552E0,1.54296E0,0E0,6.5692306E-1,0E0,8.588388E-1,5.281098E-1,3.2129794E-1,4.9096727E-1,1.1084986E0,2.765578E-1,1.8132802E0,3.0235726E-1,7.018224E-1,9.6484554E-1,8.2227486E-1,2.6614136E-1,0E0,2.0428802E-1,0E0,9.1481376E-1,2.8346246E-1,8.4148616E-1,9.692943E-2,9.025253E-2,0E0,2.0506787E0,1.8508226E0,0E0,0E0,0E0,0E0,0E0,0E0,0E0,0E0,0E0,0E0,0E0,0E0,0E0,0E0,0E0,0E0,0E0,0E0,0E0,0E0,0E0,0E0,0E0,0E0,0E0,0E0],"parents":[2147483647,0,0,1,1,2,2,3,3,4,4,6,6,7,7,9,9,10,10,11,11,12,12,14,14,16,16,17,17,18,18,19,19,20,20,21,21,22,22,23,23,24,24,25,25,26,26,27,27,29,29,31,31,32,32,33,33,34,34,35,35,37,37,38,38],"right_children":[2,4,6,8,10,-1,12,14,-1,16,18,20,22,-1,24,-1,26,28,30,32,34,36,38,40,42,44,46,48,-1,50,-1,52,54,56,58,60,-1,62,64,-1,-1,-1,-1,-1,-1,-1,-1,-1,-1,