{"learner":{"attributes":{"best_iteration":"549","best_score":"1.8822929202186047"},"feature_names":["diastolic_lag1","diastolic_lag2","diastolic_lag3","diastolic_lag4","diastolic_lag5","diastolic_lag6","diastolic_lag7","diastolic_diff"],"feature_types":["float","float","float","float","float","float","float","float"],"gradient_booster":{"model":{"cats":{"enc":[],"feature_segments":[],"sorted_idx":[]},"gbtree_model_param":{"num_parallel_tree":"1","num_trees":"600"},"iteration_indptr":[0,1,2,3,4,5,6,7,8,9,10,11,12,13,14,15,16,17,18,19,20,21,22,23,24,25,26,27,28,29,30,31,32,33,34,35,36,37,38,39,40,41,42,43,44,45,46,47,48,49,50,51,52,53,54,55,56,57,58,59,60,61,62,63,64,65,66,67,68,69,70,71,72,73,74,75,76,77,78,79,80,81,82,83,84,85,86,87,88,89,90,91,92,93,94,95,96,97,98,99,100,101,102,103,104,105,106,107,108,109,110,111,112,113,114,115,116,117,118,119,120,121,122,123,124,125,126,127,128,129,130,131,132,133,134,135,136,137,138,139,140,141,142,143,144,145,146,147,148,149,150,151,152,153,154,155,156,157,158,159,160,161,162,163,164,165,166,167,168,169,170,171,172,173,174,175,176,177,178,179,180,181,182,183,184,185,186,187,188,189,190,191,192,193,194,195,196,197,198,199,200,201,202,203,204,205,206,207,208,209,210,211,212,213,214,215,216,217,218,219,220,221,222,223,224,225,226,227,228,229,230,231,232,233,234,235,236,237,238,239,240,241,242,243,244,245,246,247,248,249,250,251,252,253,254,255,256,257,258,259,260,261,262,263,264,265,266,267,268,269,270,271,272,273,274,275,276,277,278,279,280,281,282,283,284,285,286,287,288,289,290,291,292,293,294,295,296,297,298,299,300,301,302,303,304,305,306,307,308,309,310,311,312,313,314,315,316,317,318,319,320,321,322,323,324,325,326,327,328,329,330,331,332,333,334,335,336,337,338,339,340,341,342,343,344,345,346,347,348,349,350,351,352,353,354,355,356,357,358,359,360,361,362,363,364,365,366,367,368,369,370,371,372,373,374,375,376,377,378,379,380,381,382,383,384,385,386,387,388,389,390,391,392,393,394,395,396,397,398,399,400,401,402,403,404,405,406,407,408,409,410,411,412,413,414,415,416,417,418,419,420,421,422,423,424,425,426,427,428,429,430,431,432,433,434,435,436,437,438,439,440,441,442,443,444,445,446,447,448,449,450,451,452,453,454,455,456,457,458,459,460,461,462,463,464,465,466,467,468,469,470,471,472,473,474,475,476,477,478,479,480,481,482,483,484,485,486,487,488,489,490,491,492,493,494,495,496,497,498,499,500,501,502,503,504,505,506,507,508,509,510,511,512,513,514,515,516,517,518,519,520,521,522,523,524,525,526,527,528,529,530,531,532,533,534,535,536,537,538,539,540,541,542,543,544,545,546,547,548,549,550,551,552,553,554,555,556,557,558,559,560,561,562,563,564,565,566,567,568,569,570,571,572,573,574,575,576,577,578,579,580,581,582,583,584,585,586,587,588,589,590,591,592,593,594,595,596,597,598,599,600],"tree_info":[0,0,0,0,0,0,0,0,0,0,0,0,0,0,0,0,0,0,0,0,0,0,0,0,0,0,0,0,0,0,0,0,0,0,0,0,0,0,0,0,0,0,0,0,0,0,0,0,0,0,0,0,0,0,0,0,0,0,0,0,0,0,0,0,0,0,0,0,0,0,0,0,0,0,0,0,0,0,0,0,0,0,0,0,0,0,0,0,0,0,0,0,0,0,0,0,0,0,0,0,0,0,0,0,0,0,0,0,0,0,0,0,0,0,0,0,0,0,0,0,0,0,0,0,0,0,0,0,0,0,0,0,0,0,0,0,0,0,0,0,0,0,0,0,0,0,0,0,0,0,0,0,0,0,0,0,0,0,0,0,0,0,0,0,0,0,0,0,0,0,0,0,0,0,0,0,0,0,0,0,0,0,0,0,0,0,0,0,0,0,0,0,0,0,0,0,0,0,0,0,0,0,0,0,0,0,0,0,0,0,0,0,0,0,0,0,0,0,0,0,0,0,0,0,0,0,0,0,0,0,0,0,0,0,0,0,0,0,0,0,0,0,0,0,0,0,0,0,0,0,0,0,0,0,0,0,0,0,0,0,0,0,0,0,0,0,0,0,0,0,0,0,0,0,0,0,0,0,0,0,0,0,0,0,0,0,0,0,0,0,0,0,0,0,0,0,0,0,0,0,0,0,0,0,0,0,0,0,0,0,0,0,0,0,0,0,0,0,0,0,0,0,0,0,0,0,0,0,0,0,0,0,0,0,0,0,0,0,0,0,0,0,0,0,0,0,0,0,0,0,0,0,0,0,0,0,0,0,0,0,0,0,0,0,0,0,0,0,0,0,0,0,0,0,0,0,0,0,0,0,0,0,0,0,0,0,0,0,0,0,0,0,0,0,0,0,0,0,0,0,0,0,0,0,0,0,0,0,0,0,0,0,0,0,0,0,0,0,0,0,0,0,0,0,0,0,0,0,0,0,0,0,0,0,0,0,0,0,0,0,0,0,0,0,0,0,0,0,0,0,0,0,0,0,0,0,0,0,0,0,0,0,0,0,0,0,0,0,0,0,0,0,0,0,0,0,0,0,0,0,0,0,0,0,0,0,0,0,0,0,0,0,0,0,0,0,0,0,0,0,0,0,0,0,0,0,0,0,0,0,0,0,0,0,0,0,0,0,0,0,0,0,0,0,0,0,0,0,0,0,0,0,0,0,0,0,0,0,0,0,0,0,0,0,0,0,0,0,0,0,0,0,0,0,0,0,0,0,0,0,0,0,0,0,0,0,0,0,0,0,0,0,0,0,0,0,0,0,0,0,0,0,0,0,0,0,0,0,0,0,0,0,0,0,0,0,0,0,0,0],"trees":[{"base_weights":[-2.1197183E-1,-5.3360577E0,2.7276654E0,-7.255592E0,-3.4243903E0,1.2296543E0,5.936628E0,-5.0416667E-2,-3.7859377E-1,3.03125E-1,-3.7292764E0,2.4520834E-1,2.8792858E0,4.816E0,7.093421E0,8.34375E-2,-3.375E-2,-2.2479167E0,-4.8166666E0,-2.6708335E-1,5.3168106E-1,4.1854167E0,1.4076389E0,5.196739E0,2.5833333E-1,3.648264E-1,8.34375E-2,-5.83E0,-8.0089283E-1,-1.61875E0,-5.708594E0,-2.4113636E0,1.1971354E0,4.582353E0,-6.1562505E-2,-1.4520833E0,2.626923E0,3.8927083E0,3.0296874E-1,5.8437504E-2,-3.65625E-2,-6.1562505E-2,-3.3234376E-1,-1.4760417E-1,3.5555556E-2,-1.015E-1,8.4375E-3,3.34375E-2,-3.0925E-1,2.0843749E-1,-1.748125E-1,-4.7187503E-2,1.0110714E-1,1.3726562E-1,2.791875E-1,6.2916666E-2,-1.5734375E-1,4.6666667E-2,2.565E-1,-4.1666665E-4,2.3418751E-1],"categories":[],"categories_nodes":[],"categories_segments":[],"categories_sizes":[],"default_left":[0,0,0,0,0,0,0,0,0,0,0,0,0,0,0,0,0,0,0,0,0,0,0,0,0,0,0,0,0,0,0,0,0,0,0,0,0,0,0,0,0,0,0,0,0,0,0,0,0,0,0,0,0,0,0,0,0,0,0,0,0],"id":0,"left_children":[1,3,5,7,9,11,13,-1,-1,15,17,19,21,23,25,-1,-1,27,29,-1,31,33,35,37,39,-1,-1,41,43,45,47,49,51,53,-1,55,57,59,-1,-1,-1,-1,-1,-1,-1,-1,-1,-1,-1,-1,-1,-1,-1,-1,-1,-1,-1,-1,-1,-1,-1],"loss_changes":[3.2232249E3,2.6030786E2,6.457438E2,6.659143E1,4.8068268E1,1.5163498E2,2.0389648E1,0E0,0E0,6.5687895E0,4.9677002E1,9.83883E1,6.082486E1,4.149402E1,7.861389E0,0E0,0E0,8.796817E1,4.9924988E1,0E0,1.163561E2,4.4678436E1,6.669466E1,1.2901611E0,3.601198E0,0E0,0E0,9.811249E0,4.785988E1,4.9393435E0,5.3299133E1,9.303317E1,8.679606E1,1.5111267E1,0E0,3.1710224E1,4.9715073E1,3.753723E1,0E0,0E0,0E0,0E0,0E0,0E0,0E0,0E0,0E0,0E0,0E0,0E0,0E0,0E0,0E0,0E0,0E0,0E0,0E0,0E0,0E0,0E0,0E0],"parents":[2147483647,0,0,1,1,2,2,3,3,4,4,5,5,6,6,9,9,10,10,11,11,12,12,13,13,14,14,17,17,18,18,20,20,21,21,22,22,23,23,24,24,27,27,28,28,29,29,30,30,31,31,32,32,33,33,35,35,36,36,37,37],"right_children":[2,4,6,8,10,12,14,-1,-1,16,18,20,22,24,26,-1,-1,28,30,-1,32,34,36,38,40,-1,-1,42,44,46,48,50,52,54,-1,56,58,60,-1,-1,-1,-1,-1,-1,-1,-1,-1,-1,-1,-1,-1,-1,-1,-1,-1,-1,-1,-1,-1,-1,-1],"split_conditions":[-4E0,-9E0,8E0,7.9E1,7.8E1,3E0,1.4E1,-5.0416667E-2,-3.7859377E-1,8E1,8.6E1,7.8E1,8.8E1,9.5E1,9.6E1,8.34375E-2,-3.375E-2,8.9E1,8.6E1,-2.6708335E-1,8.2E1,9.7E1,8.9E1,8.9E1,8.5E1,3.648264E-1,8.34375E-2,7.9E1,8.3E1,9.2E1,7.9E1,7.8E1,8.2E1,8.2E1,-6.1562505E-2,8.7E1,9.3E1,7.9E1,3.0296874E-1,5.8437504E-2,-3.65625E-2,-6.1562505E-2,-3.3234376E-1,-1.4760417E-1,3.5555556E-2,-1.015E-1,8.4375E-3,3.34375E-2,-3.0925E-1,2.0843749E-1,-1.748125E-1,-4.7187503E-2,1.0110714E-1,1.3726562E-1,2.791875E-1,6.2916666E-2,-1.5734375E-1,4.6666667E-2,2.565E-1,-4.1666665E-4,2.3418751E-1],"split_indices":[7,7,7,6,6,7,7,0,0,2,3,5,5,3,5,0,0,4,5,0,3,4,5,5,2,0,0,3,5,2,4,2,2,5,0,3,3,2,0,0,0,0,0,0,0,0,0,0,0,0,0,0,0,0,0,0,0,0,0,0,0],"split_type":[0,0,0,0,0,0,0,0,0,0,0,0,0,0,0,0,0,0,0,0,0,0,0,0,0,0,0,0,0,0,0,0,0,0,0,0,0,0,0,0,0,0,0,0,0,0,0,0,0,0,0,0,0,0,0,0,0,0,0,0,0],"sum_hessian":[2.12E2,7.7E1,1.35E2,3.7E1,4E1,9.3E1,4.2E1,2E0,3.5E1,3E0,3.7E1,5.9E1,3.4E1,2.4E1,1.8E1,1E0,2E0,1.7E1,2E1,2E0,5.7E1,1.7E1,1.7E1,2.2E1,2E0,1.7E1,1E0,4E0,1.3E1,5E0,1.5E1,1E1,4.7E1,1.6E1,1E0,5E0,1.2E1,1.1E1,1.1E1,1E0,1E0,1E0,3E0,5E0,8E0,4E0,1E0,1E0,1.4E1,1E0,9E0,1.3E1,3.4E1,7E0,9E0,2E0,3E0,8E0,4E0,2E0,9E0],"tree_param":{"num_deleted":"0","num_feature":"8","num_nodes":"61","size_leaf_vector":"1"}},{"base_weights":[3.6918402E-1,1.8424166E0,-2.9768613E-1,1.0305146E0,4.473389E0,2.543827E0,-6.988637E-1,1.156509E-2,3.4685557E0,5.306053E0,-1.7709766E-1,3.1442642E0,-1.8909012E-1,-3.387578E0,-3.0762896E-1,-4.6394835E0,7.1894926E-1,-9.171475E-1,5.1558247E0,3.0558625E-1,2.6134992E0,-1.1494762E-1,4.0299563E0,-4.201462E0,1.5064056E0,-2.0839927E0,3.369318E-1,-7.117396E-2,-3.13783E-1,2.2863786E0,-1.083093E0,-7.659986E-2,-0E0,6.7187686E0,-1.2182815E0,-3.909012E-2,1.8413876E-1,2.1818513E-1,5.3871293E0,-6.037968E0,-2.056836E0,1.2586324E-1,-1.0382805E-2,4.118414E0,-3.200456E0,2.014297E0,-6.998493E-1,2.0456265E-1,-1.6022727E-1,-2.2170813E-1,1.9755516E-2,-1.0718689E-2,1.0975037E-2,3.6802384E-1,3.7127648E-2,8.226547E-3,-1.0209767E-1,8.6925484E-2,-6.707672E-2,1.3883074E-1,3.0032477E-1,-1.2729225E-2,-3.4713838E-1,-1.7020053E-1,6.4489596E-2,3.43515E-2,2.3897512E-1,-2.211335E-1,7.9701796E-2,4.2749617E-2,2.6864186E-1,-1.294674E-1,2.3173926E-2],"categories":[],"categories_nodes":[],"categories_segments":[],"categories_sizes":[],"default_left":[0,0,0,0,0,0,0,0,0,0,0,0,0,0,0,0,0,0,0,0,0,0,0,0,0,0,0,0,0,0,0,0,0,0,0,0,0,0,0,0,0,0,0,0,0,0,0,0,0,0,0,0,0,0,0,0,0,0,0,0,0,0,0,0,0,0,0,0,0,0,0,0,0],"id":1,"left_children":[1,3,5,7,9,11,13,15,17,19,-1,21,-1,23,25,27,29,31,33,-1,35,-1,37,39,41,43,45,-1,-1,47,49,-1,51,53,55,-1,-1,57,59,61,63,-1,-1,65,67,69,71,-1,-1,-1,-1,-1,-1,-1,-1,-1,-1,-1,-1,-1,-1,-1,-1,-1,-1,-1,-1,-1,-1,-1,-1,-1,-1],"loss_changes":[2.0505353E2,1.3368567E2,1.6574629E2,1.26308136E2,1.1908151E2,8.01938E1,1.32182E2,1.2467638E2,1.1615045E2,1.3524902E1,0E0,9.1395035E1,0E0,7.032875E1,1.29114E2,1.6606567E1,9.580763E1,2.835248E0,1.1832147E2,0E0,2.1321873E1,0E0,7.5862595E1,4.191208E1,5.9517097E0,2.2083176E2,1.4588316E2,0E0,0E0,1.9158694E2,8.141289E1,0E0,1.8827337E-1,2.8239044E1,3.940658E0,0E0,0E0,1.4228367E1,2.2943115E-1,3.414238E1,4.0669827E1,0E0,0E0,7.5119247E0,1.5969003E2,1.1937776E2,1.1571421E2,0E0,0E0,0E0,0E0,0E0,0E0,0E0,0E0,0E0,0E0,0E0,0E0,0E0,0E0,0E0,0E0,0E0,0E0,0E0,0E0,0E0,0E0,0E0,0E0,0E0,0E0],"parents":[2147483647,0,0,1,1,2,2,3,3,4,4,5,5,6,6,7,7,8,8,9,9,11,11,13,13,14,14,15,15,16,16,17,17,18,18,20,20,22,22,23,23,24,24,25,25,26,26,29,29,30,30,32,32,33,33,34,34,37,37,38,38,39,39,40,40,43,43,44,44,45,45,46,46],"right_children":[2,4,6,8,10,12,14,16,18,20,-1,22,-1,24,26,28,30,32,34,-1,36,-1,38,40,42,44,46,-1,-1,48,50,-1,52,54,56,-1,-1,58,60,62,64,-1,-1,66,68,70,72,-1,-1,-1,-1,-1,-1,-1,-1,-1,-1,-1,-1,-1,-1,-1,-1,-1,-1,-1,-1,-1,-1,-1,-1,-1,-1],"split_conditions":[8.5E1,8.3E1,7.9E1,9.4E1,9.4E1,9.7E1,7.9E1,8E1,8.2E1,9E1,-1.7709766E-1,7.8E1,-1.8909012E-1,9.5E1,8.4E1,8.9E1,8.7E1,8.3E1,9.5E1,3.0558625E-1,9.1E1,-1.1494762E-1,8.3E1,8.7E1,8.1E1,7.9E1,8.9E1,-7.117396E-2,-3.13783E-1,9.3E1,8.9E1,-7.659986E-2,9.5E1,9.8E1,9.6E1,-3.909012E-2,1.8413876E-1,8.6E1,8.1E1,8.4E1,8.9E1,1.2586324E-1,-1.0382805E-2,8.6E1,9.5E1,9.5E1,9E1,2.0456265E-1,-1.6022727E-1,-2.2170813E-1,1.9755516E-2,-1.0718689E-2,1.0975037E-2,3.6802384E-1,3.7127648E-2,8.226547E-3,-1.0209767E-1,8.6925484E-2,-6.707672E-2,1.3883074E-1,3.0032477E-1,-1.2729225E-2,-3.4713838E-1,-1.7020053E-1,6.4489596E-2,3.43515E-2,2.3897512E-1,-2.211335E-1,7.9701796E-2,4.2749617E-2,2.6864186E-1,-1.294674E-1,2.3173926E-2],"split_indices":[5,5,6,0,0,3,2,6,1,0,0,3,0,6,1,2,0,2,1,0,0,0,1,0,0,0,2,0,0,1,0,0,0,0,0,0,0,0,3,1,6,0,0,2,0,6,1,0,0,0,0,0,0,0,0,0,0,0,0,0,0,0,0,0,0,0,0,0,0,0,0,0,0],"split_type":[0,0,0,0,0,0,0,0,0,0,0,0,0,0,0,0,0,0,0,0,0,0,0,0,0,0,0,0,0,0,0,0,0,0,0,0,0,0,0,0,0,0,0,0,0,0,0,0,0,0,0,0,0,0,0,0,0,0,0,0,0,0,0,0,0,0,0,0,0,0,0,0,0],"sum_hessian":[2.07E2,6.4E1,1.43E2,5E1,1.4E1,1.7E1,1.26E2,3.6E1,1.4E1,1.3E1,1E0,1.6E1,1E0,1.5E1,1.11E2,4E0,3.2E1,4E0,1E1,9E0,4E0,2E0,1.4E1,1.3E1,2E0,2.9E1,8.2E1,2E0,2E0,1.7E1,1.5E1,2E0,2E0,8E0,2E0,1E0,3E0,4E0,1E1,6E0,7E0,1E0,1E0,4E0,2.5E1,3.1E1,5.1E1,1.3E1,4E0,4E0,1.1E1,1E0,1E0,7E0,1E0,1E0,1E0,2E0,2E0,3E0,7E0,1E0,5E0,5E0,2E0,1E0,3E0,2E1,5E0,2.4E1,7E0,1.9E1,3.2E1],"tree_param":{"num_deleted":"0","num_feature":"8","num_nodes":"73","size_leaf_vector":"1"}},{"base_weights":[4.596601E-2,-4.1117883E0,3.41385E0,-6.75727E0,-1.4349806E0,1.9122837E0,5.6555595E0,-4.279243E-1,-4.153119E0,-5.3351035E0,9.2243546E-1,-3.1180243E0,4.391192E0,4.3236003E0,3.3062318E-1,-3.3333263E-1,-2.2334824E0,-3.390858E-1,-2.963122E0,-8.7560785E-1,2.566333E0,-5.462594E0,-8.7853396E-1,1.5569061E0,6.0748863E0,1.4348788E0,3.213813E-1,-1.5890823E-1,-1.1151998E0,-1.8038335E-1,-6.1526187E-2,-1.674982E0,5.9900578E-2,8.08949E-1,3.0371475E0,-3.4262797E-1,-1.4569345E-1,-1.7757914E0,5.9710795E-1,-6.483931E-2,3.1951354E0,4.4977336E0,3.551632E-1,3.700073E-2,1.1070474E-1,-1.8138098E-2,-6.444427E-2,-9.327555E-2,8.020936E-3,5.416069E-3,4.6601277E-2,7.056349E-2,1.7959204E-1,-3.632191E-2,-1.08136415E-1,-1.6141104E-2,5.8138926E-2,-2.9845148E-2,5.430425E-3,1.0140892E-1,2.206763E-1,1.317368E-1,2.8930074E-1,-2.5190203E-2,2.9940262E-2],"categories":[],"categories_nodes":[],"categories_segments":[],"categories_sizes":[],"default_left":[0,0,0,0,0,0,0,0,0,0,0,0,0,0,0,0,0,0,0,0,0,0,0,0,0,0,0,0,0,0,0,0,0,0,0,0,0,0,0,0,0,0,0,0,0,0,0,0,0,0,0,0,0,0,0,0,0,0,0,0,0,0,0,0,0],"id":2,"left_children":[1,3,5,7,9,11,13,-1,15,17,19,21,23,25,-1,-1,27,-1,29,31,33,35,37,39,41,43,-1,-1,45,-1,-1,47,-1,49,51,-1,-1,53,55,57,59,61,-1,63,-1,-1,-1,-1,-1,-1,-1,-1,-1,-1,-1,-1,-1,-1,-1,-1,-1,-1,-1,-1,-1],"loss_changes":[3.066585E3,6.8346606E2,3.957234E2,1.9302563E2,4.6507315E2,9.365748E2,3.1495483E1,0E0,9.037167E1,4.4125916E1,9.700174E1,1.25832855E2,2.2838239E2,1.2978366E2,0E0,0E0,1.0816277E1,0E0,5.1275024E0,2.8575909E1,1.1224327E1,2.1567596E1,1.9714638E1,5.365601E1,1.717041E1,1.1674704E1,0E0,0E0,4.127779E-1,0E0,0E0,4.6661377E0,0E0,2.2616124E-1,6.1548615E0,0E0,0E0,1.7942963E0,3.5816298E0,1.1287963E0,4.622513E0,1.9914246E1,0E0,1.8303134E0,0E0,0E0,0E0,0E0,0E0,0E0,0E0,0E0,0E0,0E0,0E0,0E0,0E0,0E0,0E0,0E0,0E0,0E0,0E0,0E0,0E0],"parents":[2147483647,0,0,1,1,2,2,3,3,4,4,5,5,6,6,8,8,9,9,10,10,11,11,12,12,13,13,16,16,18,18,19,19,20,20,21,21,22,22,23,23,24,24,25,25,28,28,31,31,33,33,34,34,37,37,38,38,39,39,40,40,41,41,43,43],"right_children":[2,4,6,8,10,12,14,-1,16,18,20,22,24,26,-1,-1,28,-1,30,32,34,36,38,40,42,44,-1,-1,46,-1,-1,48,-1,50,52,-1,-1,54,56,58,60,62,-1,64,-1,-1,-1,-1,-1,-1,-1,-1,-1,-1,-1,-1,-1,-1,-1,-1,-1,-1,-1,-1,-1],"split_conditions":[-1E0,9.2E1,8E0,-5E0,-9E0,8.5E1,8E1,-4.279243E-1,8.6E1,-1.2E1,-6E0,4E0,8.9E1,1.5E1,3.3062318E-1,-3.3333263E-1,8.9E1,-3.390858E-1,9.6E1,9.6E1,8.6E1,8E1,8.2E1,3E0,9.3E1,1.1E1,3.213813E-1,-1.5890823E-1,8.4E1,-1.8038335E-1,-6.1526187E-2,9.4E1,5.9900578E-2,9.3E1,-5E0,-3.4262797E-1,-1.4569345E-1,8.1E1,5E0,8.3E1,6E0,2E0,3.551632E-1,8.9E1,1.1070474E-1,-1.8138098E-2,-6.444427E-2,-9.327555E-2,8.020936E-3,5.416069E-3,4.6601277E-2,7.056349E-2,1.7959204E-1,-3.632191E-2,-1.08136415E-1,-1.6141104E-2,5.8138926E-2,-2.9845148E-2,5.430425E-3,1.0140892E-1,2.206763E-1,1.317368E-1,2.8930074E-1,-2.5190203E-2,2.9940262E-2],"split_indices":[7,0,7,7,7,0,0,0,0,7,7,7,0,7,0,0,0,0,0,0,5,0,0,7,0,7,0,0,2,0,0,1,0,0,7,0,0,2,7,1,7,7,0,1,0,0,0,0,0,0,0,0,0,0,0,0,0,0,0,0,0,0,0,0,0],"split_type":[0,0,0,0,0,0,0,0,0,0,0,0,0,0,0,0,0,0,0,0,0,0,0,0,0,0,0,0,0,0,0,0,0,0,0,0,0,0,0,0,0,0,0,0,0,0,0,0,0,0,0,0,0,0,0,0,0,0,0,0,0,0,0,0,0],"sum_hessian":[2.17E2,9.7E1,1.2E2,4.8E1,4.9E1,7.3E1,4.7E1,2.7E1,2.1E1,1.8E1,3.1E1,2.4E1,4.9E1,2.2E1,2.5E1,8E0,1.3E1,1E1,8E0,1.5E1,1.6E1,1.1E1,1.3E1,1.9E1,3E1,1E1,1.2E1,6E0,7E0,5E0,3E0,1.1E1,4E0,4E0,1.2E1,6E0,5E0,8E0,5E0,1E1,9E0,1.4E1,1.6E1,4E0,6E0,2E0,5E0,1E1,1E0,1E0,3E0,4E0,8E0,3E0,5E0,2E0,3E0,2E0,8E0,6E0,3E0,7E0,7E0,2E0,2E0],"tree_param":{"num_deleted":"0","num_feature":"8","num_nodes":"65","size_leaf_vector":"1"}},{"base_weights":[-4.3844292E-1,-5.0604663E0,2.159806E0,-3.8277987E-1,-2.8608942E0,9.4949305E-1,5.4534984E0,-3.2480073E-1,-1.0644035E0,-1.8870187E0,4.2795873E0,6.991752E-2,5.6322E0,-2.1035063E0,6.0840124E-1,-4.1584845E0,2.5605358E-2,1.530463E0,5.9119387E0,2.7294004E0,5.8983145E0,-2.859575E0,-8.505807E-1,-5.9396118E-2,1.5498698E0,-3.313605E-1,-1.3855819E0,-1.8775373E0,2.4412124E0,1.15909755E-1,1.812652E-1,3.6852314E0,3.2609352E-1,1.5512288E-1,2.1802722E-1,1.8450974E-1,3.1735158E-1,-1.7598176E-1,-9.3550645E-2,-7.466345E-2,-8.888092E-4,9.169E-2,1.6870474E-2,-7.964489E-2,3.0238112E-2,-1.805598E-1,-3.9595526E-2,6.445797E-2,1.5274484E-1,-5.196449E-2,4.901604E-2,7.512618E-2,2.5554463E-1,-2.2437668E-3,1.6377984E-2],"categories":[],"categories_nodes":[],"categories_segments":[],"categories_sizes":[],"default_left":[0,0,0,0,0,0,0,0,0,0,0,0,0,0,0,0,0,0,0,0,0,0,0,0,0,0,0,0,0,0,0,0,0,0,0,0,0,0,0,0,0,0,0,0,0,0,0,0,0,0,0,0,0,0,0],"id":3,"left_children":[1,3,5,-1,7,9,11,-1,13,15,17,-1,19,21,23,25,27,29,31,33,35,37,39,-1,41,-1,43,45,47,49,-1,51,-1,53,-1,-1,-1,-1,-1,-1,-1,-1,-1,-1,-1,-1,-1,-1,-1,-1,-1,-1,-1,-1,-1],"loss_changes":[2.7373008E3,4.4511694E2,5.761958E2,0E0,2.9273077E2,1.0284668E3,1.9682983E1,0E0,5.70522E1,2.568429E2,2.1458447E2,0E0,1.1620117E1,1.6142647E1,2.3862688E1,1.7484567E2,1.563489E2,5.8470955E1,1.704712E1,1.98671E1,8.271606E0,7.0578E-1,4.6394553E0,0E0,2.2624226E0,0E0,6.8389606E0,3.245997E1,6.2323E0,1.3994314E1,0E0,1.966565E1,0E0,1.4642894E-1,0E0,0E0,0E0,0E0,0E0,0E0,0E0,0E0,0E0,0E0,0E0,0E0,0E0,0E0,0E0,0E0,0E0,0E0,0E0,0E0,0E0],"parents":[2147483647,0,0,1,1,2,2,4,4,5,5,6,6,8,8,9,9,10,10,12,12,13,13,14,14,15,15,16,16,17,17,18,18,19,19,20,20,21,21,22,22,24,24,26,26,27,27,28,28,29,29,31,31,33,33],"right_children":[2,4,6,-1,8,10,12,-1,14,16,18,-1,20,22,24,26,28,30,32,34,36,38,40,-1,42,-1,44,46,48,50,-1,52,-1,54,-1,-1,-1,-1,-1,-1,-1,-1,-1,-1,-1,-1,-1,-1,-1,-1,-1,-1,-1,-1,-1],"split_conditions":[-4E0,9.2E1,9E0,-3.8277987E-1,-1.2E1,8.9E1,7.8E1,-3.2480073E-1,9.6E1,8.4E1,-1E0,6.991752E-2,7.9E1,-8E0,-9E0,4E0,2E0,9.4E1,9.1E1,7.9E1,8.5E1,9.4E1,9.4E1,-5.9396118E-2,8.3E1,-3.313605E-1,9.6E1,-1E0,5E0,9.1E1,1.812652E-1,2E0,3.2609352E-1,7.8E1,2.1802722E-1,1.8450974E-1,3.1735158E-1,-1.7598176E-1,-9.3550645E-2,-7.466345E-2,-8.888092E-4,9.169E-2,1.6870474E-2,-7.964489E-2,3.0238112E-2,-1.805598E-1,-3.9595526E-2,6.445797E-2,1.5274484E-1,-5.196449E-2,4.901604E-2,7.512618E-2,2.5554463E-1,-2.2437668E-3,1.6377984E-2],"split_indices":[7,0,7,0,7,0,4,0,0,0,7,0,2,7,7,7,7,0,0,0,6,0,0,0,6,0,2,7,7,0,0,7,0,0,0,0,0,0,0,0,0,0,0,0,0,0,0,0,0,0,0,0,0,0,0],"split_type":[0,0,0,0,0,0,0,0,0,0,0,0,0,0,0,0,0,0,0,0,0,0,0,0,0,0,0,0,0,0,0,0,0,0,0,0,0,0,0,0,0,0,0,0,0,0,0,0,0,0,0,0,0,0,0],"sum_hessian":[2.26E2,8.1E1,1.45E2,3.6E1,4.5E1,1.07E2,3.8E1,1.4E1,3.1E1,5.8E1,4.9E1,2E0,3.6E1,1.9E1,1.2E1,2.6E1,3.2E1,1.9E1,3E1,4E0,3.2E1,1.1E1,8E0,4E0,8E0,1.3E1,1.3E1,1.8E1,1.4E1,1.2E1,7E0,8E0,2.2E1,2E0,2E0,7E0,2.5E1,5E0,6E0,4E0,4E0,6E0,2E0,1.2E1,1E0,6E0,1.2E1,6E0,8E0,5E0,7E0,4E0,4E0,1E0,1E0],"tree_param":{"num_deleted":"0","num_feature":"8","num_nodes":"55","size_leaf_vector":"1"}},{"base_weights":[-4.8340946E-2,-4.798913E0,2.1078289E0,-3.6159834E-1,-2.4964888E0,7.992393E-1,4.8401856E0,-6.1453843E0,-4.952035E-1,-3.2859504E0,3.105776E0,3.6094134E0,5.7056518E0,-3.3597785E-1,-1.5743034E-1,-2.4112155E0,2.3149583E-1,-5.395573E0,-8.870873E-1,5.171714E-1,4.1175747E0,1.3079915E0,2.800859E-1,2.9037908E-1,7.388703E-2,-2.5701484E-2,-1.3125375E-1,7.461267E-1,-6.69348E-2,-3.3596957E-1,-3.9447446E0,-2.0040963E0,8.8681203E-1,-1.23614E0,2.4040968E0,1.6501207E0,5.5397096E0,1.5443211E0,-2.979084E-2,-5.617132E-3,7.619151E-2,-2.0503859E-1,-5.321118E-2,-3.1973153E-2,-1.18840575E-1,-0E0,7.175421E-2,-8.2040444E-2,1.782898E-2,5.388083E-2,1.5460739E-1,-1.8413129E-3,1.7698546E-1,1.4770666E-1,2.96733E-1,7.520523E-3,9.131279E-2],"categories":[],"categories_nodes":[],"categories_segments":[],"categories_sizes":[],"default_left":[0,0,0,0,0,0,0,0,0,0,0,0,0,0,0,0,0,0,0,0,0,0,0,0,0,0,0,0,0,0,0,0,0,0,0,0,0,0,0,0,0,0,0,0,0,0,0,0,0,0,0,0,0,0,0,0,0],"id":4,"left_children":[1,3,5,-1,7,9,11,13,15,17,19,21,23,-1,-1,25,27,29,31,33,35,37,-1,-1,-1,-1,-1,39,-1,-1,41,43,45,47,49,51,53,55,-1,-1,-1,-1,-1,-1,-1,-1,-1,-1,-1,-1,-1,-1,-1,-1,-1,-1,-1],"loss_changes":[2.263853E3,3.6750525E2,5.390487E2,0E0,2.6648456E2,9.901421E2,3.0668823E1,2.246399E-1,3.5585274E1,1.8689178E2,1.7288983E2,9.744006E1,2.3250122E0,0E0,0E0,1.1768379E0,1.6292896E1,1.0839966E1,3.953675E1,6.925595E1,1.5857428E2,6.414097E0,0E0,0E0,0E0,0E0,0E0,1.0326859E1,0E0,0E0,5.126343E-1,4.281925E0,4.0058494E0,7.8032627E0,5.3777313E0,6.1045715E1,1.2214478E1,3.8505516E0,0E0,0E0,0E0,0E0,0E0,0E0,0E0,0E0,0E0,0E0,0E0,0E0,0E0,0E0,0E0,0E0,0E0,0E0,0E0],"parents":[2147483647,0,0,1,1,2,2,4,4,5,5,6,6,7,7,8,8,9,9,10,10,11,11,12,12,15,15,16,16,17,17,18,18,19,19,20,20,21,21,27,27,30,30,31,31,32,32,33,33,34,34,35,35,36,36,37,37],"right_children":[2,4,6,-1,8,10,12,14,16,18,20,22,24,-1,-1,26,28,30,32,34,36,38,-1,-1,-1,-1,-1,40,-1,-1,42,44,46,48,50,52,54,56,-1,-1,-1,-1,-1,-1,-1,-1,-1,-1,-1,-1,-1,-1,-1,-1,-1,-1,-1],"split_conditions":[-4E0,9.2E1,8E0,-3.6159834E-1,-1.2E1,8.6E1,1.3E1,-1.3E1,9.4E1,4E0,-1E0,8.3E1,9.7E1,-3.3597785E-1,-1.5743034E-1,8E1,9.5E1,8.2E1,8.2E1,9.2E1,8.9E1,9.4E1,2.800859E-1,2.9037908E-1,7.388703E-2,-2.5701484E-2,-1.3125375E-1,9.6E1,-6.69348E-2,-3.3596957E-1,9.7E1,8.1E1,5E0,8.9E1,9.4E1,3E0,0E0,7.9E1,-2.979084E-2,-5.617132E-3,7.619151E-2,-2.0503859E-1,-5.321118E-2,-3.1973153E-2,-1.18840575E-1,-0E0,7.175421E-2,-8.2040444E-2,1.782898E-2,5.388083E-2,1.5460739E-1,-1.8413129E-3,1.7698546E-1,1.4770666E-1,2.96733E-1,7.520523E-3,9.131279E-2],"split_indices":[7,0,7,0,7,0,7,7,0,7,7,0,5,0,0,2,4,0,0,0,0,2,0,0,0,0,0,0,0,0,4,2,7,6,0,7,7,2,0,0,0,0,0,0,0,0,0,0,0,0,0,0,0,0,0,0,0],"split_type":[0,0,0,0,0,0,0,0,0,0,0,0,0,0,0,0,0,0,0,0,0,0,0,0,0,0,0,0,0,0,0,0,0,0,0,0,0,0,0,0,0,0,0,0,0,0,0,0,0,0,0,0,0,0,0,0,0],"sum_hessian":[2.19E2,6.8E1,1.51E2,3.2E1,3.6E1,1.03E2,4.8E1,1.2E1,2.4E1,3.7E1,6.6E1,2.2E1,2.6E1,9E0,3E0,6E0,1.8E1,1.9E1,1.8E1,1.9E1,4.7E1,1.1E1,1.1E1,2.5E1,1E0,1E0,5E0,1.4E1,4E0,8E0,1.1E1,1.1E1,7E0,1E1,9E0,1.8E1,2.9E1,1E1,1E0,7E0,7E0,1E1,1E0,3E0,8E0,3E0,4E0,8E0,2E0,4E0,5E0,1E1,8E0,5E0,2.4E1,2E0,8E0],"tree_param":{"num_deleted":"0","num_feature":"8","num_nodes":"57","size_leaf_vector":"1"}},{"base_weights":[1.5376203E-1,-4.188246E0,2.3243926E0,-6.253652E0,-1.4079363E0,8.752777E-1,5.029223E0,-3.450728E-1,-4.1046715E0,-2.3985255E-1,-7.418753E-2,-3.8014927E0,2.88798E0,3.8515704E0,2.81177E-1,-2.9528472E-1,-9.801351E-2,-1.2803534E0,1.0372108E0,-5.377872E0,-1.4399583E0,4.076631E-1,4.0092626E0,1.0840251E0,5.250708E0,-9.083494E-2,-1.4613007E-1,1.0220751E-1,1.8097553E0,-5.534746E0,-6.919724E-2,-1.711041E0,4.282585E-2,-1.2313683E0,2.5076377E0,1.6621449E0,5.3243957E0,-4.5229036E-1,1.6881788E0,1.6124998E-1,3.050576E-1,-4.0431824E-2,2.658765E-2,1.6714077E-2,-6.5209195E-3,3.713478E-2,1.0340201E-1,-2.8530392E-1,-7.1619E-2,-1.0551452E-1,-3.5501696E-2,-1.2301276E-1,-2.0036181E-2,7.864613E-2,1.7457397E-1,6.5054046E-3,1.7742138E-1,2.1325257E-1,3.1462154E-1,-2.3757552E-3,-2.904602E-2,9.323477E-2,1.7639885E-2],"categories":[],"categories_nodes":[],"categories_segments":[],"categories_sizes":[],"default_left":[0,0,0,0,0,0,0,0,0,0,0,0,0,0,0,0,0,0,0,0,0,0,0,0,0,0,0,0,0,0,0,0,0,0,0,0,0,0,0,0,0,0,0,0,0,0,0,0,0,0,0,0,0,0,0,0,0,0,0,0,0,0,0],"id":5,"left_children":[1,3,5,7,9,11,13,-1,15,-1,17,19,21,23,-1,-1,-1,25,27,29,31,33,35,37,39,-1,41,43,45,47,-1,49,-1,51,53,55,57,59,61,-1,-1,-1,-1,-1,-1,-1,-1,-1,-1,-1,-1,-1,-1,-1,-1,-1,-1,-1,-1,-1,-1,-1,-1],"loss_changes":[2.035901E3,4.0388684E2,5.594314E2,2.7648071E1,1.4380428E2,9.051173E2,1.2388062E1,0E0,3.398201E1,0E0,3.3525047E1,9.953186E1,1.8425995E2,7.1118164E1,0E0,0E0,0E0,6.8382683E0,9.014146E0,2.29953E0,9.643938E0,7.893778E1,1.3244293E2,8.3125E0,1.7869263E0,0E0,2.7031927E0,4.418878E-1,1.1223984E-1,2.3587952E0,0E0,3.0154076E0,0E0,1.1998009E1,3.1978493E0,5.1187847E1,1.8457031E0,6.5752745E-2,5.3469086E-1,0E0,0E0,0E0,0E0,0E0,0E0,0E0,0E0,0E0,0E0,0E0,0E0,0E0,0E0,0E0,0E0,0E0,0E0,0E0,0E0,0E0,0E0,0E0,0E0],"parents":[2147483647,0,0,1,1,2,2,3,3,4,4,5,5,6,6,8,8,10,10,11,11,12,12,13,13,17,17,18,18,19,19,20,20,21,21,22,22,23,23,24,24,26,26,27,27,28,28,29,29,31,31,33,33,34,34,35,35,36,36,37,37,38,38],"right_children":[2,4,6,8,10,12,14,-1,16,-1,18,20,22,24,-1,-1,-1,26,28,30,32,34,36,38,40,-1,42,44,46,48,-1,50,-1,52,54,56,58,60,62,-1,-1,-1,-1,-1,-1,-1,-1,-1,-1,-1,-1,-1,-1,-1,-1,-1,-1,-1,-1,-1,-1,-1,-1],"split_conditions":[-4E0,9.4E1,8E0,-8E0,-1.2E1,8.5E1,1.2E1,-3.450728E-1,8.7E1,-2.3985255E-1,-8E0,4E0,8.9E1,8.3E1,2.81177E-1,-2.9528472E-1,-9.801351E-2,9.7E1,9.6E1,9.6E1,8.3E1,3E0,-1E0,7.9E1,8.6E1,-9.083494E-2,-1E1,8E1,8.2E1,9.6E1,-6.919724E-2,8E1,4.282585E-2,-1E0,8.7E1,9.4E1,9.2E1,7.8E1,9.2E1,1.6124998E-1,3.050576E-1,-4.0431824E-2,2.658765E-2,1.6714077E-2,-6.5209195E-3,3.713478E-2,1.0340201E-1,-2.8530392E-1,-7.1619E-2,-1.0551452E-1,-3.5501696E-2,-1.2301276E-1,-2.0036181E-2,7.864613E-2,1.7457397E-1,6.5054046E-3,1.7742138E-1,2.1325257E-1,3.1462154E-1,-2.3757552E-3,-2.904602E-2,9.323477E-2,1.7639885E-2],"split_indices":[7,0,7,7,7,0,7,0,0,0,7,7,0,0,0,0,0,0,0,2,0,7,7,0,0,0,7,3,1,1,0,0,0,7,0,0,0,0,1,0,0,0,0,0,0,0,0,0,0,0,0,0,0,0,0,0,0,0,0,0,0,0,0],"split_type":[0,0,0,0,0,0,0,0,0,0,0,0,0,0,0,0,0,0,0,0,0,0,0,0,0,0,0,0,0,0,0,0,0,0,0,0,0,0,0,0,0,0,0,0,0,0,0,0,0,0,0,0,0,0,0,0,0,0,0,0,0,0,0],"sum_hessian":[2.14E2,7.1E1,1.43E2,4E1,3.1E1,9.4E1,4.9E1,2.9E1,1.1E1,8E0,2.3E1,2.8E1,6.6E1,1.9E1,3E1,5E0,6E0,1.1E1,1.2E1,1.6E1,1.2E1,2.1E1,4.5E1,7E0,1.2E1,7E0,4E0,6E0,6E0,1.5E1,1E0,1.1E1,1E0,1.2E1,9E0,1.7E1,2.8E1,2E0,5E0,5E0,7E0,2E0,2E0,3E0,3E0,2E0,4E0,1.4E1,1E0,7E0,4E0,4E0,8E0,6E0,3E0,1E1,7E0,1.6E1,1.2E1,1E0,1E0,4E0,1E0],"tree_param":{"num_deleted":"0","num_feature":"8","num_nodes":"63","size_leaf_vector":"1"}},{"base_weights":[2.145086E-1,-4.1272817E0,2.3127613E0,-5.7150016E0,-1.5178096E0,1.1766003E0,4.5154967E0,-5.9206257E0,-4.1469548E-2,-2.9305056E-1,-3.6460045E-1,-2.5807483E0,3.0394423E0,3.4154572E0,5.2935486E0,-3.3136156E-1,-3.9764261E0,-1.4911981E0,1.3517561E0,-4.8111386E0,-3.2533807E-1,1.3858773E0,4.3057866E0,1.3008518E0,4.825829E0,2.694795E-1,6.501042E-2,-2.960547E-1,-2.2270446E0,-7.434372E-1,-8.903675E-2,1.4631539E-2,1.7495769E0,-3.098253E-1,-3.7091935E0,-1.6849804E0,9.208739E-1,-3.8559112E-1,3.8760328E0,2.2753196E0,5.5267296E0,1.5542166E0,-2.8319893E-2,5.516125E-2,2.509814E-1,-2.2608528E-2,-1.1899413E-1,1.2882081E-2,-6.666935E-2,3.589704E-2,9.993216E-2,-1.9372901E-1,-4.474846E-2,-2.9442865E-2,-1.0591163E-1,-8.3616254E-4,6.69688E-2,-9.2275396E-2,2.112432E-2,9.2519216E-2,2.279806E-1,4.559378E-2,1.6116726E-1,1.6489846E-1,3.056735E-1,1.6506538E-2,8.212169E-2],"categories":[],"categories_nodes":[],"categories_segments":[],"categories_sizes":[],"default_left":[0,0,0,0,0,0,0,0,0,0,0,0,0,0,0,0,0,0,0,0,0,0,0,0,0,0,0,0,0,0,0,0,0,0,0,0,0,0,0,0,0,0,0,0,0,0,0,0,0,0,0,0,0,0,0,0,0,0,0,0,0,0,0,0,0,0,0],"id":6,"left_children":[1,3,5,7,9,11,13,15,-1,-1,17,19,21,23,25,-1,27,29,31,33,35,37,39,41,43,-1,-1,-1,45,47,-1,-1,49,-1,51,53,55,57,59,61,63,65,-1,-1,-1,-1,-1,-1,-1,-1,-1,-1,-1,-1,-1,-1,-1,-1,-1,-1,-1,-1,-1,-1,-1,-1,-1],"loss_changes":[2.0409327E3,2.9304956E2,3.7201984E2,3.9621338E1,1.4249048E2,7.14824E2,2.4699463E1,3.1659668E1,0E0,0E0,4.8437122E1,1.6895625E2,1.3585431E2,6.46868E1,3.0621948E0,0E0,3.3626175E1,1.6712799E0,3.497219E0,1.9776001E0,3.2127308E1,1.385918E2,8.0849915E1,6.183134E0,3.9500122E0,0E0,0E0,0E0,1.0820923E0,3.9946277E0,0E0,0E0,9.205437E-2,0E0,1.6406403E0,2.756033E0,4.0785284E0,2.3336796E1,8.922958E0,1.7328468E1,8.973999E0,3.403778E-1,0E0,0E0,0E0,0E0,0E0,0E0,0E0,0E0,0E0,0E0,0E0,0E0,0E0,0E0,0E0,0E0,0E0,0E0,0E0,0E0,0E0,0E0,0E0,0E0,0E0],"parents":[2147483647,0,0,1,1,2,2,3,3,4,4,5,5,6,6,7,7,10,10,11,11,12,12,13,13,14,14,16,16,17,17,18,18,19,19,20,20,21,21,22,22,23,23,24,24,28,28,29,29,32,32,34,34,35,35,36,36,37,37,38,38,39,39,40,40,41,41],"right_children":[2,4,6,8,10,12,14,16,-1,-1,18,20,22,24,26,-1,28,30,32,34,36,38,40,42,44,-1,-1,-1,46,48,-1,-1,50,-1,52,54,56,58,60,62,64,66,-1,-1,-1,-1,-1,-1,-1,-1,-1,-1,-1,-1,-1,-1,-1,-1,-1,-1,-1,-1,-1,-1,-1,-1,-1],"split_conditions":[-4E0,9.4E1,8E0,9.7E1,-1.5E1,8.6E1,1.3E1,9.1E1,-4.1469548E-2,-2.9305056E-1,-8E0,4E0,9.1E1,8.3E1,9.7E1,-3.3136156E-1,-1.1E1,8.8E1,9.6E1,7.9E1,8.2E1,3E0,-1E0,9.4E1,7.9E1,2.694795E-1,6.501042E-2,-2.960547E-1,8E1,8.7E1,-8.903675E-2,1.4631539E-2,8.1E1,-3.098253E-1,9.7E1,8.1E1,5E0,-1E0,4E0,9.4E1,9.2E1,7.9E1,-2.8319893E-2,5.516125E-2,2.509814E-1,-2.2608528E-2,-1.1899413E-1,1.2882081E-2,-6.666935E-2,3.589704E-2,9.993216E-2,-1.9372901E-1,-4.474846E-2,-2.9442865E-2,-1.0591163E-1,-8.3616254E-4,6.69688E-2,-9.2275396E-2,2.112432E-2,9.2519216E-2,2.279806E-1,4.559378E-2,1.6116726E-1,1.6489846E-1,3.056735E-1,1.6506538E-2,8.212169E-2],"split_indices":[7,0,7,4,7,0,7,0,0,0,7,7,0,0,5,0,7,4,0,0,0,7,7,2,5,0,0,0,2,2,0,0,4,0,4,2,7,7,7,0,0,2,0,0,0,0,0,0,0,0,0,0,0,0,0,0,0,0,0,0,0,0,0,0,0,0,0],"split_type":[0,0,0,0,0,0,0,0,0,0,0,0,0,0,0,0,0,0,0,0,0,0,0,0,0,0,0,0,0,0,0,0,0,0,0,0,0,0,0,0,0,0,0,0,0,0,0,0,0,0,0,0,0,0,0,0,0,0,0,0,0,0,0,0,0,0,0],"sum_hessian":[2.22E2,7.2E1,1.5E2,4.4E1,2.8E1,1E2,5E1,4.2E1,2E0,5E0,2.3E1,3.3E1,6.7E1,2.3E1,2.7E1,2.9E1,1.3E1,1.4E1,9E0,1.6E1,1.7E1,3E1,3.7E1,1E1,1.3E1,2.6E1,1E0,5E0,8E0,5E0,9E0,3E0,6E0,5E0,1.1E1,8E0,9E0,1.8E1,1.2E1,1.5E1,2.2E1,9E0,1E0,1E0,1.2E1,1E0,7E0,2E0,3E0,2E0,4E0,1E1,1E0,3E0,5E0,3E0,6E0,6E0,1.2E1,4E0,8E0,7E0,8E0,6E0,1.6E1,1E0,8E0],"tree_param":{"num_deleted":"0","num_feature":"8","num_nodes":"67","size_leaf_vector":"1"}},{"base_weights":[-7.487687E-2,-3.0623198E0,2.2899728E0,-5.5399933E0,-1.1578302E0,-2.1743074E-1,3.2447054E0,-3.3135042E-1,-3.4210944E0,-3.8598993E0,7.5748557E-1,-3.8167477E0,3.1884482E0,2.5820892E0,5.815356E0,-2.2545747E-1,-1.3637159E0,-4.950523E0,-2.2109902E0,-5.980431E-1,1.6734813E0,-2.8019428E-1,-1.9953628E0,1.0319402E0,2.2289339E-1,6.9538933E-1,4.8566484E0,7.956711E-2,2.9868242E-1,-7.649268E-2,-6.672249E-3,-2.8991327E-1,-1.4892228E-1,-2.7280903E0,-5.1242586E-2,-1.420494E0,7.186404E-1,-0E0,2.0950408E0,-2.1904334E-2,-2.1086059E0,4.0153474E-1,7.684811E-2,-9.5642924E-1,2.240198E0,3.4892807E0,2.8016534E-1,-1.458468E-1,-3.7375413E-2,-8.159027E-3,-7.723802E-2,4.3308433E-2,1.2452799E-2,-2.0371603E-2,1.952118E-2,1.3459162E-1,5.7463493E-2,-1.11081116E-1,-2.7611885E-2,-2.729187E-3,2.7710516E-2,-1.068444E-1,9.728616E-3,-1.3479828E-2,1.4262395E-1,7.421868E-2,2.3974572E-1],"categories":[],"categories_nodes":[],"categories_segments":[],"categories_sizes":[],"default_left":[0,0,0,0,0,0,0,0,0,0,0,0,0,0,0,0,0,0,0,0,0,0,0,0,0,0,0,0,0,0,0,0,0,0,0,0,0,0,0,0,0,0,0,0,0,0,0,0,0,0,0,0,0,0,0,0,0,0,0,0,0,0,0,0,0,0,0],"id":7,"left_children":[1,3,5,7,9,11,13,-1,15,17,19,21,23,25,27,-1,29,31,33,35,37,-1,39,41,-1,43,45,-1,-1,-1,-1,-1,-1,47,-1,49,51,53,55,-1,57,59,-1,61,63,65,-1,-1,-1,-1,-1,-1,-1,-1,-1,-1,-1,-1,-1,-1,-1,-1,-1,-1,-1,-1,-1],"loss_changes":[1.5189686E3,4.411927E2,2.8827618E2,7.075781E1,2.878764E2,4.290328E2,1.3233643E2,0E0,2.9080185E1,2.9700073E1,4.2083084E1,4.3394394E1,4.412599E1,3.007577E2,1.104065E0,0E0,1.0602789E0,3.58609E0,3.575695E0,1.625171E1,1.4216335E1,0E0,5.8509064E-1,1.7359543E0,0E0,1.0434071E2,1.2209839E1,0E0,0E0,0E0,0E0,0E0,0E0,7.128906E-2,0E0,9.833107E-1,8.841467E-2,9.552944E-1,5.5531006E0,0E0,7.8804016E-2,4.2840415E-1,0E0,2.7784208E1,3.329799E1,2.890207E1,0E0,0E0,0E0,0E0,0E0,0E0,0E0,0E0,0E0,0E0,0E0,0E0,0E0,0E0,0E0,0E0,0E0,0E0,0E0,0E0,0E0],"parents":[2147483647,0,0,1,1,2,2,3,3,4,4,5,5,6,6,8,8,9,9,10,10,11,11,12,12,13,13,14,14,16,16,17,17,18,18,19,19,20,20,22,22,23,23,25,25,26,26,33,33,35,35,36,36,37,37,38,38,40,40,41,41,43,43,44,44,45,45],"right_children":[2,4,6,8,10,12,14,-1,16,18,20,22,24,26,28,-1,30,32,34,36,38,-1,40,42,-1,44,46,-1,-1,-1,-1,-1,-1,48,-1,50,52,54,56,-1,58,60,-1,62,64,66,-1,-1,-1,-1,-1,-1,-1,-1,-1,-1,-1,-1,-1,-1,-1,-1,-1,-1,-1,-1,-1],"split_conditions":[-1E0,9.1E1,8E1,-5E0,-9E0,9E0,1E1,-3.3135042E-1,8.8E1,-1.1E1,-6E0,4E0,1.5E1,8.9E1,7.8E1,-2.2545747E-1,9.5E1,9.7E1,9.6E1,9.5E1,8.1E1,-2.8019428E-1,8.2E1,1.2E1,2.2289339E-1,5E0,9.2E1,7.956711E-2,2.9868242E-1,-7.649268E-2,-6.672249E-3,-2.8991327E-1,-1.4892228E-1,9.8E1,-5.1242586E-2,7.8E1,8.2E1,9.2E1,8.4E1,-2.1904334E-2,8E0,7.8E1,7.684811E-2,8.6E1,8.2E1,2E0,2.8016534E-1,-1.458468E-1,-3.7375413E-2,-8.159027E-3,-7.723802E-2,4.3308433E-2,1.2452799E-2,-2.0371603E-2,1.952118E-2,1.3459162E-1,5.7463493E-2,-1.11081116E-1,-2.7611885E-2,-2.729187E-3,2.7710516E-2,-1.068444E-1,9.728616E-3,-1.3479828E-2,1.4262395E-1,7.421868E-2,2.3974572E-1],"split_indices":[7,0,0,7,7,7,7,0,0,7,7,7,7,0,6,0,6,0,0,0,5,0,1,7,0,7,0,0,0,0,0,0,0,5,0,1,6,0,6,0,7,0,0,0,0,7,0,0,0,0,0,0,0,0,0,0,0,0,0,0,0,0,0,0,0,0,0],"split_type":[0,0,0,0,0,0,0,0,0,0,0,0,0,0,0,0,0,0,0,0,0,0,0,0,0,0,0,0,0,0,0,0,0,0,0,0,0,0,0,0,0,0,0,0,0,0,0,0,0,0,0,0,0,0,0,0,0,0,0,0,0,0,0,0,0,0,0],"sum_hessian":[2.13E2,9.4E1,1.19E2,4E1,5.4E1,3.3E1,8.6E1,2.5E1,1.5E1,2.2E1,3.2E1,1.6E1,1.7E1,7E1,1.6E1,9E0,6E0,1.2E1,1E1,1.3E1,1.9E1,7E0,9E0,7E0,1E1,3.9E1,3.1E1,1E0,1.5E1,5E0,1E0,7E0,5E0,6E0,4E0,8E0,5E0,4E0,1.5E1,1E0,8E0,4E0,3E0,1.9E1,2E1,1.3E1,1.8E1,5E0,1E0,1E0,7E0,3E0,2E0,2E0,2E0,8E0,7E0,7E0,1E0,1E0,3E0,9E0,1E1,4E0,1.6E1,6E0,7E0],"tree_param":{"num_deleted":"0","num_feature":"8","num_nodes":"67","size_leaf_vector":"1"}},{"base_weights":[-5.363249E-2,6.7801344E-1,-6.942091E-1,-3.2585987E-1,1.7492883E0,-2.9927206E-1,-3.4321501E0,6.88759E-1,-1.8836409E0,3.0715904E0,4.5644233E-1,-6.6149324E-1,1.5027813E0,7.9201095E-2,-3.9107354E0,-2.5216684E-1,1.2077444E0,-2.7909446E0,9.843264E-1,4.2143E0,-4.5456237E-1,-8.6292297E-1,3.2021644E0,8.8671696E-1,-1.0407473E0,-1.7808226E-1,2.759776E0,-5.0512094E0,-2.704782E0,3.6154613E0,2.5036106E-1,-3.7656636E0,1.2933079E0,2.537614E0,-1.670528E-1,2.4929948E-1,2.164834E0,1.8547207E0,-2.0925902E-1,-1.894399E0,1.7268561E-1,3.9279516E0,-6.260335E-2,-1.4961859E0,3.4469738E0,-1.6586086E0,4.6747785E-2,3.409727E0,-4.7163494E-2,-2.9130393E-1,-2.6921615E-2,8.050763E-2,-3.457918E0,1.9889444E-1,1.5401038E-2,-7.087478E-2,1.17970936E-1,-2.6609038E-3,-2.0197251E-1,-6.200787E-2,1.2922578E-1,1.7036563E-1,3.943555E-2,-4.014852E-2,1.766275E-1,2.1304993E-1,-5.6823194E-2,-1.679043E-2,-1.5291065E-1,5.9655357E-2,2.3120244E-1,9.200514E-2,-1.6015908E-1,-6.7519764E-3,1.9620527E-1,-3.8042348E-2,-1.5697233E-1,-2.4226199E-1,3.179582E-2,2.0222579E-1,4.726618E-2,-2.0755766E-1,-4.427373E-2],"categories":[],"categories_nodes":[],"categories_segments":[],"categories_sizes":[],"default_left":[0,0,0,0,0,0,0,0,0,0,0,0,0,0,0,0,0,0,0,0,0,0,0,0,0,0,0,0,0,0,0,0,0,0,0,0,0,0,0,0,0,0,0,0,0,0,0,0,0,0,0,0,0,0,0,0,0,0,0,0,0,0,0,0,0,0,0,0,0,0,0,0,0,0,0,0,0,0,0,0,0,0,0],"id":8,"left_children":[1,3,5,7,9,11,13,15,17,19,21,23,25,-1,27,-1,29,31,33,35,37,39,41,43,45,-1,47,49,51,53,55,57,59,61,-1,-1,63,65,-1,67,-1,69,-1,71,73,75,77,79,-1,-1,-1,-1,81,-1,-1,-1,-1,-1,-1,-1,-1,-1,-1,-1,-1,-1,-1,-1,-1,-1,-1,-1,-1,-1,-1,-1,-1,-1,-1,-1,-1,-1,-1],"loss_changes":[1.0545557E2,1.1363191E2,1.2835742E2,8.8347336E1,8.5431366E1,7.010059E1,4.2437347E1,1.068532E2,6.017443E1,1.0302585E2,1.00807625E2,5.3195927E1,1.24336395E2,0E0,4.8170013E0,0E0,7.2471695E1,7.279437E1,4.8709343E1,1.8540558E1,6.830076E1,9.098439E1,3.4281075E1,1.1516759E2,4.861705E1,0E0,3.956491E1,1.7207474E1,3.5000137E1,9.134506E0,8.786119E1,1.3605621E1,1.642456E1,4.498104E0,0E0,0E0,3.1523285E1,4.114303E1,0E0,2.765617E1,0E0,9.131027E0,0E0,6.2980793E1,1.6290634E1,5.8375534E1,8.047978E1,1.6014526E1,0E0,0E0,0E0,0E0,1.0087067E1,0E0,0E0,0E0,0E0,0E0,0E0,0E0,0E0,0E0,0E0,0E0,0E0,0E0,0E0,0E0,0E0,0E0,0E0,0E0,0E0,0E0,0E0,0E0,0E0,0E0,0E0,0E0,0E0,0E0,0E0],"parents":[2147483647,0,0,1,1,2,2,3,3,4,4,5,5,6,6,7,7,8,8,9,9,10,10,11,11,12,12,14,14,16,16,17,17,18,18,19,19,20,20,21,21,22,22,23,23,24,24,26,26,27,27,28,28,29,29,30,30,31,31,32,32,33,33,36,36,37,37,39,39,41,41,43,43,44,44,45,45,46,46,47,47,52,52],"right_children":[2,4,6,8,10,12,14,16,18,20,22,24,26,-1,28,-1,30,32,34,36,38,40,42,44,46,-1,48,50,52,54,56,58,60,62,-1,-1,64,66,-1,68,-1,70,-1,72,74,76,78,80,-1,-1,-1,-1,82,-1,-1,-1,-1,-1,-1,-1,-1,-1,-1,-1,-1,-1,-1,-1,-1,-1,-1,-1,-1,-1,-1,-1,-1,-1,-1,-1,-1,-1,-1],"split_conditions":[8.8E1,8.9E1,9.5E1,8.6E1,8.9E1,9.6E1,7.8E1,7.8E1,9.2E1,9.2E1,9.3E1,8.1E1,8.2E1,7.9201095E-2,9.1E1,-2.5216684E-1,8.3E1,9.6E1,9.7E1,8.6E1,8.3E1,9.7E1,9.8E1,8.9E1,9.2E1,-1.7808226E-1,9.4E1,9.3E1,9.6E1,9.1E1,8.4E1,7.8E1,8.9E1,9E1,-1.670528E-1,2.4929948E-1,8.8E1,9.2E1,-2.0925902E-1,8.5E1,1.7268561E-1,8.7E1,-6.260335E-2,8E1,8.4E1,8.9E1,7.8E1,9.1E1,-4.7163494E-2,-2.9130393E-1,-2.6921615E-2,8.050763E-2,9.3E1,1.9889444E-1,1.5401038E-2,-7.087478E-2,1.17970936E-1,-2.6609038E-3,-2.0197251E-1,-6.200787E-2,1.2922578E-1,1.7036563E-1,3.943555E-2,-4.014852E-2,1.766275E-1,2.1304993E-1,-5.6823194E-2,-1.679043E-2,-1.5291065E-1,5.9655357E-2,2.3120244E-1,9.200514E-2,-1.6015908E-1,-6.7519764E-3,1.9620527E-1,-3.8042348E-2,-1.5697233E-1,-2.4226199E-1,3.179582E-2,2.0222579E-1,4.726618E-2,-2.0755766E-1,-4.427373E-2],"split_indices":[5,3,4,3,1,1,1,4,2,0,0,0,2,0,5,0,0,4,2,4,4,2,0,4,0,0,3,2,4,1,3,0,0,0,0,0,4,3,0,4,0,4,0,4,1,0,4,4,0,0,0,0,0,0,0,0,0,0,0,0,0,0,0,0,0,0,0,0,0,0,0,0,0,0,0,0,0,0,0,0,0,0,0],"split_type":[0,0,0,0,0,0,0,0,0,0,0,0,0,0,0,0,0,0,0,0,0,0,0,0,0,0,0,0,0,0,0,0,0,0,0,0,0,0,0,0,0,0,0,0,0,0,0,0,0,0,0,0,0,0,0,0,0,0,0,0,0,0,0,0,0,0,0,0,0,0,0,0,0,0,0,0,0,0,0,0,0,0,0],"sum_hessian":[2.23E2,1.04E2,1.19E2,5.4E1,5E1,1.05E2,1.4E1,3.3E1,2.1E1,2.4E1,2.6E1,8.8E1,1.7E1,1E0,1.3E1,2E0,3.1E1,1.6E1,5E0,1.8E1,6E0,1.8E1,8E0,1.7E1,7.1E1,3E0,1.4E1,5E0,8E0,8E0,2.3E1,1.3E1,3E0,4E0,1E0,1.2E1,6E0,4E0,2E0,1.5E1,3E0,7E0,1E0,9E0,8E0,4.5E1,2.6E1,1.2E1,2E0,4E0,1E0,1E0,7E0,7E0,1E0,1.3E1,1E1,1E0,1.2E1,1E0,2E0,2E0,2E0,2E0,4E0,2E0,2E0,7E0,8E0,2E0,5E0,3E0,6E0,1E0,7E0,2.9E1,1.6E1,2E0,2.4E1,9E0,3E0,5E0,2E0],"tree_param":{"num_deleted":"0","num_feature":"8","num_nodes":"83","size_leaf_vector":"1"}},{"base_weights":[-2.2195911E-1,-4.097355E0,1.389387E0,-4.993822E0,-2.911565E0,3.9532074E-1,3.7862291E0,-5.2158046E0,-4.2703602E-2,-1.7920078E0,-4.4332337E0,1.2738708E0,-3.8400006E-1,3.0224595E0,4.272347E0,-2.6698145E-1,-1.0821747E-1,-4.3951786E-1,-3.5842416E0,-1.4764175E-2,-4.773476E0,-4.3884763E-1,2.0500472E0,2.4913691E-1,-3.1785195E0,3.3485203E0,-1.6746012E-2,4.35193E0,5.6558765E-2,2.328743E-1,-9.6735144E-1,3.275524E-2,-4.2977347E0,-5.0745535E0,-4.1567575E-2,-1.2188373E0,8.352572E-1,5.810665E-1,3.0668871E0,-9.5391357E-1,9.8167956E-1,7.90906E-2,-4.4232388E0,4.3288326E0,2.407602E0,2.2492561E-2,-2.6248513E-2,8.787178E-2,2.2516821E-1,-3.4261856E-2,2.86772E-2,-2.9058075E-3,-5.46269E-2,-2.3790029E-1,-3.590275E-2,-2.6861513E-1,-5.7370342E-2,-8.774706E-2,3.8121007E-2,1.2197788E-1,-4.7642883E-2,1.3089089E-1,-6.414154E-2,1.713173E-1,-1.00557104E-1,2.1821119E-2,-1.0069163E-1,1.313973E-1,-2.508217E-3,-2.375844E-1,-4.2391166E-2,5.198857E-2,2.3179369E-1,6.614405E-3,1.4197181E-1],"categories":[],"categories_nodes":[],"categories_segments":[],"categories_sizes":[],"default_left":[0,0,0,0,0,0,0,0,0,0,0,0,0,0,0,0,0,0,0,0,0,0,0,0,0,0,0,0,0,0,0,0,0,0,0,0,0,0,0,0,0,0,0,0,0,0,0,0,0,0,0,0,0,0,0,0,0,0,0,0,0,0,0,0,0,0,0,0,0,0,0,0,0,0,0],"id":9,"left_children":[1,3,5,7,9,11,13,15,-1,17,19,21,23,25,27,-1,-1,29,31,-1,33,35,37,39,41,43,45,47,-1,49,51,-1,53,55,-1,57,59,61,63,65,67,-1,69,71,73,-1,-1,-1,-1,-1,-1,-1,-1,-1,-1,-1,-1,-1,-1,-1,-1,-1,-1,-1,-1,-1,-1,-1,-1,-1,-1,-1,-1,-1,-1],"loss_changes":[1.3610427E3,5.2703003E1,3.650085E2,2.7101685E1,4.2540924E1,7.589211E1,3.0652466E0,1.6168213E-1,0E0,4.407787E1,1.497847E1,7.0188095E1,1.0547432E2,2.119954E1,7.785034E-1,0E0,0E0,4.5576525E0,2.7377686E1,0E0,8.246399E0,1.7950806E1,5.1627E1,4.4122215E1,7.245893E1,6.429718E0,9.550785E-1,8.890686E-1,0E0,2.2584808E0,6.182084E-1,0E0,7.569229E0,4.8768616E0,0E0,1.312101E1,2.2553932E1,6.423244E1,4.5364548E1,2.903585E1,5.3049004E1,0E0,5.98053E0,2.691208E0,1.1117897E1,0E0,0E0,0E0,0E0,0E0,0E0,0E0,0E0,0E0,0E0,0E0,0E0,0E0,0E0,0E0,0E0,0E0,0E0,0E0,0E0,0E0,0E0,0E0,0E0,0E0,0E0,0E0,0E0,0E0,0E0],"parents":[2147483647,0,0,1,1,2,2,3,3,4,4,5,5,6,6,7,7,9,9,10,10,11,11,12,12,13,13,14,14,17,17,18,18,20,20,21,21,22,22,23,23,24,24,25,25,26,26,27,27,29,29,30,30,32,32,33,33,35,35,36,36,37,37,38,38,39,39,40,40,42,42,43,43,44,44],"right_children":[2,4,6,8,10,12,14,16,-1,18,20,22,24,26,28,-1,-1,30,32,-1,34,36,38,40,42,44,46,48,-1,50,52,-1,54,56,-1,58,60,62,64,66,68,-1,70,72,74,-1,-1,-1,-1,-1,-1,-1,-1,-1,-1,-1,-1,-1,-1,-1,-1,-1,-1,-1,-1,-1,-1,-1,-1,-1,-1,-1,-1,-1,-1],"split_conditions":[-6E0,-9E0,8E0,9.7E1,8.8E1,8.8E1,1.2E1,9.5E1,-4.2703602E-2,8.8E1,8.5E1,0E0,9.3E1,9.5E1,9.7E1,-2.6698145E-1,-1.0821747E-1,8.8E1,7.9E1,-1.4764175E-2,9.7E1,8.7E1,8.8E1,8.5E1,7.8E1,8.8E1,7.8E1,7.8E1,5.6558765E-2,8.5E1,7.8E1,3.275524E-2,8.6E1,9.8E1,-4.1567575E-2,9.6E1,8.7E1,8.1E1,9.5E1,8E1,8.6E1,7.90906E-2,9.2E1,8.1E1,7.9E1,2.2492561E-2,-2.6248513E-2,8.787178E-2,2.2516821E-1,-3.4261856E-2,2.86772E-2,-2.9058075E-3,-5.46269E-2,-2.3790029E-1,-3.590275E-2,-2.6861513E-1,-5.7370342E-2,-8.774706E-2,3.8121007E-2,1.2197788E-1,-4.7642883E-2,1.3089089E-1,-6.414154E-2,1.713173E-1,-1.00557104E-1,2.1821119E-2,-1.0069163E-1,1.313973E-1,-2.508217E-3,-2.375844E-1,-4.2391166E-2,5.198857E-2,2.3179369E-1,6.614405E-3,1.4197181E-1],"split_indices":[7,7,7,3,1,5,7,1,0,2,3,7,4,3,5,0,0,4,3,0,1,3,4,2,1,4,1,4,0,2,1,0,1,3,0,2,2,4,3,2,4,0,1,3,2,0,0,0,0,0,0,0,0,0,0,0,0,0,0,0,0,0,0,0,0,0,0,0,0,0,0,0,0,0,0],"split_type":[0,0,0,0,0,0,0,0,0,0,0,0,0,0,0,0,0,0,0,0,0,0,0,0,0,0,0,0,0,0,0,0,0,0,0,0,0,0,0,0,0,0,0,0,0,0,0,0,0,0,0,0,0,0,0,0,0,0,0,0,0,0,0,0,0,0,0,0,0,0,0,0,0,0,0],"sum_hessian":[2.16E2,6.3E1,1.53E2,3.4E1,2.9E1,1.09E2,4.4E1,3.2E1,2E0,1.8E1,1.1E1,5.1E1,5.8E1,2E1,2.4E1,3E1,2E0,1.1E1,7E0,1E0,1E1,1.6E1,3.5E1,4.8E1,1E1,1.8E1,2E0,2.3E1,1E0,5E0,6E0,1E0,6E0,9E0,1E0,1E1,6E0,1.5E1,2E1,1.8E1,3E1,2E0,8E0,7E0,1.1E1,1E0,1E0,2E0,2.1E1,1E0,4E0,1E0,5E0,5E0,1E0,8E0,1E0,8E0,2E0,3E0,3E0,7E0,8E0,1.9E1,1E0,8E0,1E1,1.1E1,1.9E1,7E0,1E0,1E0,6E0,2E0,9E0],"tree_param":{"num_deleted":"0","num_feature":"8","num_nodes":"75","size_leaf_vector":"1"}},{"base_weights":[-7.048547E-2,-3.1059442E0,2.4506657E0,-4.8804984E0,-1.3378649E0,1.664684E0,2.3276082E-1,-6.097833E0,-3.2527535E0,-3.8763442E0,7.341809E-1,-7.8362304E-1,3.881197E0,-6.2371073E0,-5.5936016E-2,-2.2544622E-1,-1.0332221E0,-2.6889727E-1,-2.4124901E0,-4.7794178E-1,1.8309096E0,-2.5883906E0,6.309529E-1,2.6641169E0,4.5598774E0,-1.1723478E-1,-3.225356E-1,-1.4217746E0,3.1399232E-1,-1.696344E-1,-6.2037792E-2,-1.0617418E0,8.820065E-1,9.9022657E-1,1.2676571E-1,-3.7385113E0,-1.0544188E0,-3.1360796E-1,2.1836112E0,2.7977732E-1,3.65885E0,8.49426E-2,2.3499957E-1,-9.37826E-2,-3.7715897E-2,-7.2610476E-3,3.331047E-2,-2.8331375E-3,-5.7329174E-2,5.073431E-2,6.2821964E-3,2.1000467E-2,7.864979E-2,-7.520979E-2,-2.0283912E-1,-6.454544E-2,2.4349747E-2,-3.6756996E-2,1.8965738E-2,6.3248985E-2,1.6101567E-1,2.568447E-2,-2.5592385E-2,1.296231E-1,2.3159783E-1],"categories":[],"categories_nodes":[],"categories_segments":[],"categories_sizes":[],"default_left":[0,0,0,0,0,0,0,0,0,0,0,0,0,0,0,0,0,0,0,0,0,0,0,0,0,0,0,0,0,0,0,0,0,0,0,0,0,0,0,0,0,0,0,0,0,0,0,0,0,0,0,0,0,0,0,0,0,0,0,0,0,0,0,0,0],"id":10,"left_children":[1,3,5,7,9,11,-1,13,15,17,19,21,23,25,-1,-1,27,-1,29,31,33,35,37,39,41,-1,-1,43,45,-1,-1,47,49,51,-1,53,55,57,59,61,63,-1,-1,-1,-1,-1,-1,-1,-1,-1,-1,-1,-1,-1,-1,-1,-1,-1,-1,-1,-1,-1,-1,-1,-1],"loss_changes":[1.7372213E3,3.160166E2,2.0647778E2,8.028723E1,2.8193198E2,5.080347E2,0E0,1.1703735E1,6.1701706E1,3.900174E1,4.0891457E1,1.1671305E2,2.7603943E1,6.444336E0,0E0,0E0,5.7918415E0,0E0,1.1406609E1,1.2863504E1,6.611809E0,3.0863815E1,3.9002884E1,4.601808E1,3.4016113E0,0E0,0E0,7.457142E-1,6.3407475E-1,0E0,0E0,7.5270367E-1,2.602477E-1,2.1307707E0,0E0,1.1639862E0,4.3543434E0,5.2799454E0,5.001316E0,1.5593097E0,1.7973175E0,0E0,0E0,0E0,0E0,0E0,0E0,0E0,0E0,0E0,0E0,0E0,0E0,0E0,0E0,0E0,0E0,0E0,0E0,0E0,0E0,0E0,0E0,0E0,0E0],"parents":[2147483647,0,0,1,1,2,2,3,3,4,4,5,5,7,7,8,8,9,9,10,10,11,11,12,12,13,13,16,16,18,18,19,19,20,20,21,21,22,22,23,23,24,24,27,27,28,28,31,31,32,32,33,33,35,35,36,36,37,37,38,38,39,39,40,40],"right_children":[2,4,6,8,10,12,-1,14,16,18,20,22,24,26,-1,-1,28,-1,30,32,34,36,38,40,42,-1,-1,44,46,-1,-1,48,50,52,-1,54,56,58,60,62,64,-1,-1,-1,-1,-1,-1,-1,-1,-1,-1,-1,-1,-1,-1,-1,-1,-1,-1,-1,-1,-1,-1,-1,-1],"split_conditions":[-1E0,9.2E1,8.9E1,-6E0,-9E0,8E0,2.3276082E-1,9.8E1,8.8E1,-1.3E1,-6E0,8.4E1,1.2E1,7.8E1,-5.5936016E-2,-2.2544622E-1,-2E0,-2.6889727E-1,9.5E1,9.6E1,9.5E1,6E0,5E0,8E1,7.8E1,-1.1723478E-1,-3.225356E-1,8.9E1,9E1,-1.696344E-1,-6.2037792E-2,7.9E1,9.7E1,9.2E1,1.2676571E-1,8.3E1,8.2E1,1E0,8.7E1,9.4E1,8.6E1,8.49426E-2,2.3499957E-1,-9.37826E-2,-3.7715897E-2,-7.2610476E-3,3.331047E-2,-2.8331375E-3,-5.7329174E-2,5.073431E-2,6.2821964E-3,2.1000467E-2,7.864979E-2,-7.520979E-2,-2.0283912E-1,-6.454544E-2,2.4349747E-2,-3.6756996E-2,1.8965738E-2,6.3248985E-2,1.6101567E-1,2.568447E-2,-2.5592385E-2,1.296231E-1,2.3159783E-1],"split_indices":[7,0,0,7,7,7,0,3,0,7,7,0,7,2,0,0,7,0,0,0,0,7,7,0,4,0,0,0,0,0,0,5,3,2,0,2,0,7,0,2,0,0,0,0,0,0,0,0,0,0,0,0,0,0,0,0,0,0,0,0,0,0,0,0,0],"split_type":[0,0,0,0,0,0,0,0,0,0,0,0,0,0,0,0,0,0,0,0,0,0,0,0,0,0,0,0,0,0,0,0,0,0,0,0,0,0,0,0,0,0,0,0,0,0,0,0,0,0,0,0,0,0,0,0,0,0,0,0,0,0,0,0,0],"sum_hessian":[2.25E2,1.02E2,1.23E2,5E1,5.2E1,9.2E1,3.1E1,2.7E1,2.3E1,2.3E1,2.9E1,4.4E1,4.8E1,2.6E1,1E0,1.4E1,9E0,1E1,1.3E1,1.4E1,1.5E1,1.9E1,2.5E1,1.9E1,2.9E1,2E0,2.4E1,7E0,2E0,6E0,7E0,1E1,4E0,8E0,7E0,1E1,9E0,1.6E1,9E0,6E0,1.3E1,2E0,2.7E1,3E0,4E0,1E0,1E0,1E0,9E0,3E0,1E0,5E0,3E0,2E0,8E0,8E0,1E0,1E1,6E0,6E0,3E0,5E0,1E0,8E0,5E0],"tree_param":{"num_deleted":"0","num_feature":"8","num_nodes":"65","size_leaf_vector":"1"}},{"base_weights":[-1.4333501E-1,-3.0480094E0,2.0861695E0,-4.5303855E0,-1.2393938E0,1.05585E0,3.6909575E0,-2.9363507E-1,-3.1672614E0,-4.3887577E0,2.724766E-1,-2.1936543E0,3.158468E0,3.1144483E0,2.3575683E-1,-2.6237872E-1,-1.5988714E0,-4.8860693E0,-8.8731654E-2,-7.467185E-1,1.8272017E0,-4.1448383E0,-6.352209E-1,1.4780439E0,3.9253998E0,1.5275654E0,2.1825548E-1,-1.1847883E-1,-1.0077208E0,-2.5667465E-1,-5.161034E-2,-3.0453715E-1,-1.3594234E0,9.970886E-1,1.1910001E-1,-2.5565118E-1,-9.925441E-2,-1.4133528E0,5.9887964E-1,2.3451742E-2,1.3786489E-1,3.1594627E0,2.5804797E-1,2.9223353E-1,2.0096009E0,-5.322487E-2,-7.079468E-3,-4.8820328E-2,4.5724995E-3,-7.3263645E-2,-1.2961921E-2,2.0767806E-2,8.004733E-2,-1.5794348E-2,-7.9562865E-2,3.5780717E-3,4.4047914E-2,-4.8156083E-3,1.6420847E-2,8.6240955E-2,2.161242E-1,-2.0569712E-2,3.85948E-2,2.128807E-2,1.0528948E-1],"categories":[],"categories_nodes":[],"categories_segments":[],"categories_sizes":[],"default_left":[0,0,0,0,0,0,0,0,0,0,0,0,0,0,0,0,0,0,0,0,0,0,0,0,0,0,0,0,0,0,0,0,0,0,0,0,0,0,0,0,0,0,0,0,0,0,0,0,0,0,0,0,0,0,0,0,0,0,0,0,0,0,0,0,0],"id":11,"left_children":[1,3,5,7,9,11,13,-1,15,17,19,21,23,25,-1,-1,27,29,-1,31,33,35,37,39,41,43,-1,-1,45,-1,-1,47,49,51,-1,-1,-1,53,55,57,-1,59,-1,61,63,-1,-1,-1,-1,-1,-1,-1,-1,-1,-1,-1,-1,-1,-1,-1,-1,-1,-1,-1,-1],"loss_changes":[1.4765033E3,2.592318E2,2.089226E2,7.930176E1,2.2063324E2,5.536224E2,1.4054382E1,0E0,8.554468E1,1.0163483E1,5.2178635E1,9.419441E1,5.6807526E1,6.2205597E1,0E0,0E0,5.4752502E0,5.5270386E0,0E0,4.8381433E0,3.2741203E0,1.8414932E1,1.9173443E1,3.1290745E1,1.40920105E1,9.305595E0,0E0,0E0,3.187809E-1,0E0,0E0,3.636459E0,3.7932587E-1,1.5923929E0,0E0,0E0,0E0,1.649559E0,1.031667E0,3.8355544E-1,0E0,3.0315735E1,0E0,2.3786268E0,6.7845535E-1,0E0,0E0,0E0,0E0,0E0,0E0,0E0,0E0,0E0,0E0,0E0,0E0,0E0,0E0,0E0,0E0,0E0,0E0,0E0,0E0],"parents":[2147483647,0,0,1,1,2,2,3,3,4,4,5,5,6,6,8,8,9,9,10,10,11,11,12,12,13,13,16,16,17,17,19,19,20,20,21,21,22,22,23,23,24,24,25,25,28,28,31,31,32,32,33,33,37,37,38,38,39,39,41,41,43,43,44,44],"right_children":[2,4,6,8,10,12,14,-1,16,18,20,22,24,26,-1,-1,28,30,-1,32,34,36,38,40,42,44,-1,-1,46,-1,-1,48,50,52,-1,-1,-1,54,56,58,-1,60,-1,62,64,-1,-1,-1,-1,-1,-1,-1,-1,-1,-1,-1,-1,-1,-1,-1,-1,-1,-1,-1,-1],"split_conditions":[-1E0,9.3E1,8E0,-7E0,-1.2E1,8.6E1,8.3E1,-2.9363507E-1,8.6E1,-1.3E1,-6E0,4E0,8.9E1,1.5E1,2.3575683E-1,-2.6237872E-1,8.9E1,9.8E1,-8.8731654E-2,9.3E1,9.5E1,8.3E1,8.2E1,2E0,9.4E1,1.1E1,2.1825548E-1,-1.1847883E-1,-2E0,-2.5667465E-1,-5.161034E-2,-9E0,9.4E1,-3E0,1.1910001E-1,-2.5565118E-1,-9.925441E-2,8.4E1,5E0,8.6E1,1.3786489E-1,2E0,2.5804797E-1,7.9E1,7.8E1,-5.322487E-2,-7.079468E-3,-4.8820328E-2,4.5724995E-3,-7.3263645E-2,-1.2961921E-2,2.0767806E-2,8.004733E-2,-1.5794348E-2,-7.9562865E-2,3.5780717E-3,4.4047914E-2,-4.8156083E-3,1.6420847E-2,8.6240955E-2,2.161242E-1,-2.0569712E-2,3.85948E-2,2.128807E-2,1.0528948E-1],"split_indices":[7,0,7,7,7,0,0,0,0,7,7,7,0,7,0,0,0,0,0,5,0,0,0,7,0,7,0,0,7,0,0,7,1,7,0,0,0,1,7,3,0,7,0,0,1,0,0,0,0,0,0,0,0,0,0,0,0,0,0,0,0,0,0,0,0],"split_type":[0,0,0,0,0,0,0,0,0,0,0,0,0,0,0,0,0,0,0,0,0,0,0,0,0,0,0,0,0,0,0,0,0,0,0,0,0,0,0,0,0,0,0,0,0,0,0,0,0,0,0,0,0,0,0,0,0,0,0,0,0,0,0,0,0],"sum_hessian":[2.26E2,9.8E1,1.28E2,5.3E1,4.5E1,7.9E1,4.9E1,2.5E1,2.8E1,1.4E1,3.1E1,3.1E1,4.8E1,3.4E1,1.5E1,1.1E1,1.7E1,1.1E1,3E0,1.9E1,1.2E1,1.3E1,1.8E1,1.6E1,3.2E1,1.6E1,1.8E1,6E0,1.1E1,1E1,1E0,1.2E1,7E0,6E0,6E0,8E0,5E0,1.1E1,7E0,8E0,8E0,2.2E1,1E1,5E0,1.1E1,1E1,1E0,4E0,8E0,6E0,1E0,4E0,2E0,2E0,9E0,3E0,4E0,6E0,2E0,1.1E1,1.1E1,2E0,3E0,1E0,1E1],"tree_param":{"num_deleted":"0","num_feature":"8","num_nodes":"65","size_leaf_vector":"1"}},{"base_weights":[-1.0815844E-1,-3.3443332E0,1.5312731E0,-4.46589E0,-2.1344602E0,5.3521204E-1,3.4914098E0,-2.2796117E-1,-2.0480499E-2,-1.4538463E0,-4.2305236E0,-5.817416E-1,8.690307E-1,2.5462222E0,4.1171994E0,-1.082425E0,-2.2631517E-1,-1.5526347E0,-2.3797722E-1,6.216541E-1,-1.8452752E0,-3.7786582E-1,1.3287323E0,2.872815E0,2.5170287E-1,4.2503314E0,7.5663984E-2,-3.4642664E-1,-2.2462018E0,-1.0130974E-1,-1.2637863E-2,-2.1775717E-1,2.0282636E0,2.8736266E-1,-2.5991948E0,-2.2440374E0,1.6832184E0,1.0914001E0,3.1870446E0,3.6555028E0,1.7145766E0,3.473915E-2,-2.4438439E-2,5.866791E-2,2.1598506E-1,3.8325E-2,-4.6336945E-2,-2.214051E-1,-1.7626507E-2,4.6326663E-2,-6.69248E-2,1.238487E-1,3.3355334E-3,-1.5701829E-2,3.1292062E-2,-2.7656252E-2,-1.7566876E-1,-1.7518159E-2,-1.7661624E-1,9.260731E-3,1.104659E-1,8.5067704E-2,2.6224753E-2,1.8868767E-1,3.8375475E-3,9.8198E-2,2.1636239E-1,9.372282E-2,4.3914416E-3],"categories":[],"categories_nodes":[],"categories_segments":[],"categories_sizes":[],"default_left":[0,0,0,0,0,0,0,0,0,0,0,0,0,0,0,0,0,0,0,0,0,0,0,0,0,0,0,0,0,0,0,0,0,0,0,0,0,0,0,0,0,0,0,0,0,0,0,0,0,0,0,0,0,0,0,0,0,0,0,0,0,0,0,0,0,0,0,0,0],"id":12,"left_children":[1,3,5,7,9,11,13,-1,-1,15,17,19,21,23,25,27,-1,29,-1,31,33,35,37,39,41,43,-1,45,47,-1,-1,49,51,53,55,57,59,61,63,65,67,-1,-1,-1,-1,-1,-1,-1,-1,-1,-1,-1,-1,-1,-1,-1,-1,-1,-1,-1,-1,-1,-1,-1,-1,-1,-1,-1,-1],"loss_changes":[1.2149534E3,9.4292175E1,2.9449585E2,1.2400452E1,4.8918823E1,3.8566E1,1.9016296E1,0E0,0E0,2.9916191E1,4.7288666E0,3.7762226E1,4.5879993E1,1.6200043E1,3.044983E0,2.3802193E1,0E0,1.1066799E0,0E0,1.597213E1,2.027214E1,8.84527E1,2.167398E1,1.1326141E1,1.6725427E0,1.4526367E-1,0E0,1.2997423E1,4.341072E1,0E0,0E0,1.2823414E1,3.9812374E0,1.0419607E0,1.4484306E1,2.7649284E1,8.020439E0,1.7211723E1,1.0274326E1,3.37146E0,2.2399826E0,0E0,0E0,0E0,0E0,0E0,0E0,0E0,0E0,0E0,0E0,0E0,0E0,0E0,0E0,0E0,0E0,0E0,0E0,0E0,0E0,0E0,0E0,0E0,0E0,0E0,0E0,0E0,0E0],"parents":[2147483647,0,0,1,1,2,2,3,3,4,4,5,5,6,6,9,9,10,10,11,11,12,12,13,13,14,14,15,15,17,17,19,19,20,20,21,21,22,22,23,23,24,24,25,25,27,27,28,28,31,31,32,32,33,33,34,34,35,35,36,36,37,37,38,38,39,39,40,40],"right_children":[2,4,6,8,10,12,14,-1,-1,16,18,20,22,24,26,28,-1,30,-1,32,34,36,38,40,42,44,-1,46,48,-1,-1,50,52,54,56,58,60,62,64,66,68,-1,-1,-1,-1,-1,-1,-1,-1,-1,-1,-1,-1,-1,-1,-1,-1,-1,-1,-1,-1,-1,-1,-1,-1,-1,-1,-1,-1],"split_conditions":[-4E0,-9E0,8E0,9.8E1,9.5E1,8.4E1,1.3E1,-2.2796117E-1,-2.0480499E-2,9.5E1,8.5E1,8.8E1,-1E0,9.5E1,9.6E1,8.8E1,-2.2631517E-1,8.2E1,-2.3797722E-1,8.8E1,7.8E1,9E1,9.5E1,8.7E1,8.6E1,7.8E1,7.5663984E-2,8.3E1,8.7E1,-1.0130974E-1,-1.2637863E-2,8.6E1,9.3E1,8.1E1,-1E0,-3E0,8.5E1,8.7E1,9E1,7.9E1,9.4E1,3.473915E-2,-2.4438439E-2,5.866791E-2,2.1598506E-1,3.8325E-2,-4.6336945E-2,-2.214051E-1,-1.7626507E-2,4.6326663E-2,-6.69248E-2,1.238487E-1,3.3355334E-3,-1.5701829E-2,3.1292062E-2,-2.7656252E-2,-1.7566876E-1,-1.7518159E-2,-1.7661624E-1,9.260731E-3,1.104659E-1,8.5067704E-2,2.6224753E-2,1.8868767E-1,3.8375475E-3,9.8198E-2,2.1636239E-1,9.372282E-2,4.3914416E-3],"split_indices":[7,7,7,3,5,3,7,0,0,6,3,6,7,3,5,2,0,2,0,4,3,2,2,2,2,3,0,6,6,0,0,4,4,2,7,7,5,6,4,2,3,0,0,0,0,0,0,0,0,0,0,0,0,0,0,0,0,0,0,0,0,0,0,0,0,0,0,0,0],"split_type":[0,0,0,0,0,0,0,0,0,0,0,0,0,0,0,0,0,0,0,0,0,0,0,0,0,0,0,0,0,0,0,0,0,0,0,0,0,0,0,0,0,0,0,0,0,0,0,0,0,0,0,0,0,0,0,0,0,0,0,0,0,0,0,0,0,0,0,0,0],"sum_hessian":[2.27E2,7.6E1,1.51E2,3.8E1,3.8E1,1.01E2,5E1,3.7E1,1E0,3E1,8E0,2.3E1,7.8E1,2.2E1,2.8E1,2.8E1,2E0,2E0,6E0,1.2E1,1.1E1,2.1E1,5.7E1,1.9E1,3E0,2.6E1,2E0,1.8E1,1E1,1E0,1E0,8E0,4E0,3E0,8E0,1.1E1,1E1,5.2E1,5E0,1E1,9E0,2E0,1E0,1E0,2.5E1,6E0,1.2E1,4E0,6E0,4E0,4E0,3E0,1E0,1E0,2E0,3E0,5E0,5E0,6E0,3E0,7E0,2.4E1,2.8E1,4E0,1E0,4E0,6E0,8E0,1E0],"tree_param":{"num_deleted":"0","num_feature":"8","num_nodes":"69","size_leaf_vector":"1"}},{"base_weights":[-4.9851336E-2,-3.401508E-1,1.0970113E0,2.152509E0,-4.738483E-1,-2.0402296E-1,1.577813E0,2.7627087E0,5.4590363E-2,7.36284E-2,-9.7297806E-1,6.1448914E-1,2.4612412E0,1.6147554E-1,1.9887505E-2,9.0066195E-1,-9.0915823E-1,-6.897547E-1,-3.671089E0,-4.9891523E-1,1.8991256E0,3.5385678E0,9.1232514E-1,1.5585815E0,-1.8199784E0,-2.99338E-1,-3.465625E0,-3.576456E-1,-2.7313807E0,-1.0072113E0,-2.5239867E-1,-8.745983E-2,1.01089306E-1,-3.418091E-2,3.21036E0,1.1366928E0,3.8952734E0,1.52849E-1,-1.8237256E0,-1.6310936E-1,8.9619E-2,-1.8698157E-1,2.2183519E-2,-6.504386E-2,8.154064E-2,-1.9284737E-1,-2.5442276E-2,-2.5654703E-2,1.625867E-1,-1.7474204E-1,1.2008053E-1,-1.081764E-1,5.9043467E-2,4.7428437E-2,-5.852011E-2,3.1005327E-2,-3.55204E-2,2.9322967E-2,1.798924E-1,7.5415194E-2,7.3367693E-3,7.061701E-2,2.1634822E-1,-1.02748565E-1,-1.9968567E-2],"categories":[],"categories_nodes":[],"categories_segments":[],"categories_sizes":[],"default_left":[0,0,0,0,0,0,0,0,0,0,0,0,0,0,0,0,0,0,0,0,0,0,0,0,0,0,0,0,0,0,0,0,0,0,0,0,0,0,0,0,0,0,0,0,0,0,0,0,0,0,0,0,0,0,0,0,0,0,0,0,0,0,0,0,0],"id":13,"left_children":[1,3,5,7,9,-1,11,13,-1,15,17,19,21,-1,-1,23,25,27,29,31,33,35,37,39,41,43,45,47,49,51,-1,-1,53,55,57,59,61,-1,63,-1,-1,-1,-1,-1,-1,-1,-1,-1,-1,-1,-1,-1,-1,-1,-1,-1,-1,-1,-1,-1,-1,-1,-1,-1,-1],"loss_changes":[7.254407E1,5.8839752E1,1.15718765E2,2.4233665E0,4.5523052E1,0E0,3.3072136E1,3.8725739E0,0E0,6.58418E1,6.3514374E1,3.112424E1,3.1369034E1,0E0,0E0,8.156879E1,5.6268562E1,5.295764E1,2.3652908E1,9.34373E0,2.5777527E1,5.3502197E0,6.437726E1,4.6275322E1,4.1097534E1,6.201526E1,5.700203E0,4.0669647E1,5.160975E1,1.2773566E1,0E0,0E0,1.0786089E1,2.6617932E0,3.5719566E0,7.168124E-1,4.0335236E0,0E0,5.807476E-1,0E0,0E0,0E0,0E0,0E0,0E0,0E0,0E0,0E0,0E0,0E0,0E0,0E0,0E0,0E0,0E0,0E0,0E0,0E0,0E0,0E0,0E0,0E0,0E0,0E0,0E0],"parents":[2147483647,0,0,1,1,2,2,3,3,4,4,6,6,7,7,9,9,10,10,11,11,12,12,15,15,16,16,17,17,18,18,19,19,20,20,21,21,22,22,23,23,24,24,25,25,26,26,27,27,28,28,29,29,32,32,33,33,34,34,35,35,36,36,38,38],"right_children":[2,4,6,8,10,-1,12,14,-1,16,18,20,22,-1,-1,24,26,28,30,32,34,36,38,40,42,44,46,48,50,52,-1,-1,54,56,58,60,62,-1,64,-1,-1,-1,-1,-1,-1,-1,-1,-1,-1,-1,-1,-1,-1,-1,-1,-1,-1,-1,-1,-1,-1,-1,-1,-1,-1],"split_conditions":[9.4E1,7.8E1,7.8E1,8.1E1,8.7E1,-2.0402296E-1,8.8E1,9.6E1,5.4590363E-2,8.7E1,9.6E1,8.8E1,9.3E1,1.6147554E-1,1.9887505E-2,9.3E1,9.5E1,9.5E1,8.9E1,8.5E1,8.1E1,8E1,8.7E1,7.9E1,8E1,8.9E1,9.7E1,9.8E1,9.8E1,8.6E1,-2.5239867E-1,-8.745983E-2,8.6E1,9E1,9.5E1,9E1,8E1,1.52849E-1,9.6E1,-1.6310936E-1,8.9619E-2,-1.8698157E-1,2.2183519E-2,-6.504386E-2,8.154064E-2,-1.9284737E-1,-2.5442276E-2,-2.5654703E-2,1.625867E-1,-1.7474204E-1,1.2008053E-1,-1.081764E-1,5.9043467E-2,4.7428437E-2,-5.852011E-2,3.1005327E-2,-3.55204E-2,2.9322967E-2,1.798924E-1,7.5415194E-2,7.3367693E-3,7.061701E-2,2.1634822E-1,-1.02748565E-1,-1.9968567E-2],"split_indices":[0,1,4,0,5,0,1,5,0,0,2,2,1,0,0,1,2,4,1,3,3,3,3,1,5,3,3,1,4,0,0,0,2,2,0,1,2,0,1,0,0,0,0,0,0,0,0,0,0,0,0,0,0,0,0,0,0,0,0,0,0,0,0,0,0],"split_type":[0,0,0,0,0,0,0,0,0,0,0,0,0,0,0,0,0,0,0,0,0,0,0,0,0,0,0,0,0,0,0,0,0,0,0,0,0,0,0,0,0,0,0,0,0,0,0,0,0,0,0,0,0,0,0,0,0,0,0,0,0,0,0,0,0],"sum_hessian":[2.16E2,1.73E2,4.3E1,8E0,1.65E2,3E0,4E1,4E0,4E0,7.9E1,8.6E1,2E1,2E1,3E0,1E0,4.3E1,3.6E1,7.9E1,7E0,1.1E1,9E0,1.1E1,9E0,3.5E1,8E0,3E1,6E0,6.9E1,1E1,3E0,4E0,3E0,8E0,4E0,5E0,2E0,9E0,5E0,4E0,1E0,3.4E1,4E0,4E0,2E1,1E1,5E0,1E0,6.7E1,2E0,9E0,1E0,2E0,1E0,5E0,3E0,2E0,2E0,1E0,4E0,1E0,1E0,2E0,7E0,3E0,1E0],"tree_param":{"num_deleted":"0","num_feature":"8","num_nodes":"65","size_leaf_vector":"1"}},{"base_weights":[-6.262391E-2,-2.3716898E0,1.8737105E0,-4.200944E0,-9.035983E-1,9.2209005E-1,3.4110017E0,-5.066909E0,-2.9239905E0,-4.18856E0,3.0919677E-1,-2.0806236E0,2.8442159E0,7.096535E-1,3.5767832E0,-5.1790457E0,-5.408722E-2,-1.9492634E-1,-1.1803282E0,-2.3363297E-1,-2.1690092E0,-7.297875E-1,1.5974673E0,-3.7582479E0,-8.180059E-1,1.0270698E0,3.8043582E0,2.173055E-2,6.683556E-2,3.6806514E0,4.4851787E-2,-9.8112464E-2,-2.684552E-1,-1.397719E0,-2.4630687E-1,-4.130666E-2,-1.3777743E-1,-1.1974168E0,2.2348854E-1,-9.4524E-2,9.537484E-2,-2.3160473E-1,-9.750391E-2,-1.5226574E0,5.932048E-1,-3.162509E-2,2.3668916E0,2.863417E0,5.0472302E0,-7.5831986E-3,1.171299E-2,1.0178985E-1,1.9226024E-1,-1.6536102E-2,-7.518824E-2,-8.611297E-4,-1.5111885E-2,-7.6166324E-2,-2.4996392E-2,-2.4843387E-2,3.415723E-2,-1.0946121E-2,4.466782E-3,-2.6361639E-2,-8.792808E-2,1.9350816E-3,4.872034E-2,-1.7022114E-2,5.711832E-3,6.306868E-2,1.5660332E-1,6.6072844E-2,1.9978987E-1,1.0040014E-1,2.722138E-1],"categories":[],"categories_nodes":[],"categories_segments":[],"categories_sizes":[],"default_left":[0,0,0,0,0,0,0,0,0,0,0,0,0,0,0,0,0,0,0,0,0,0,0,0,0,0,0,0,0,0,0,0,0,0,0,0,0,0,0,0,0,0,0,0,0,0,0,0,0,0,0,0,0,0,0,0,0,0,0,0,0,0,0,0,0,0,0,0,0,0,0,0,0,0,0],"id":14,"left_children":[1,3,5,7,9,11,13,15,17,19,21,23,25,27,29,31,-1,-1,33,-1,35,37,39,41,43,45,47,49,-1,51,-1,-1,-1,53,55,-1,-1,57,59,61,-1,-1,-1,63,65,67,69,71,73,-1,-1,-1,-1,-1,-1,-1,-1,-1,-1,-1,-1,-1,-1,-1,-1,-1,-1,-1,-1,-1,-1,-1,-1,-1,-1],"loss_changes":[1.01943866E3,2.7498694E2,1.7782324E2,3.5251953E1,2.3673816E2,4.561784E2,1.8081238E1,5.390442E0,3.0575089E1,4.823395E0,6.0146267E1,6.2132248E1,7.935599E1,1.5605776E0,8.487488E0,4.015869E0,0E0,0E0,1.318759E0,0E0,1.3036308E0,1.1509496E1,1.0852943E1,1.0849655E1,1.9890018E1,2.5840706E1,2.1010162E1,1.5434256E-1,0E0,2.9518433E0,0E0,0E0,0E0,1.1127663E-1,1.2872666E-3,0E0,0E0,2.9005337E0,3.3381054E0,1.2400364E-1,0E0,0E0,0E0,1.8969727E0,1.340622E0,5.5700225E-1,2.377266E0,2.9109726E1,2.8031921E0,0E0,0E0,0E0,0E0,0E0,0E0,0E0,0E0,0E0,0E0,0E0,0E0,0E0,0E0,0E0,0E0,0E0,0E0,0E0,0E0,0E0,0E0,0E0,0E0,0E0,0E0],"parents":[2147483647,0,0,1,1,2,2,3,3,4,4,5,5,6,6,7,7,8,8,9,9,10,10,11,11,12,12,13,13,14,14,15,15,18,18,20,20,21,21,22,22,23,23,24,24,25,25,26,26,27,27,29,29,33,33,34,34,37,37,38,38,39,39,43,43,44,44,45,45,46,46,47,47,48,48],"right_children":[2,4,6,8,10,12,14,16,18,20,22,24,26,28,30,32,-1,-1,34,-1,36,38,40,42,44,46,48,50,-1,52,-1,-1,-1,54,56,-1,-1,58,60,62,-1,-1,-1,64,66,68,70,72,74,-1,-1,-1,-1,-1,-1,-1,-1,-1,-1,-1,-1,-1,-1,-1,-1,-1,-1,-1,-1,-1,-1,-1,-1,-1,-1],"split_conditions":[-1E0,9.1E1,8E0,-5E0,-1.1E1,8.6E1,7.9E1,9.8E1,8.8E1,9.7E1,-6E0,4E0,8.9E1,7.9E1,9.7E1,7.8E1,-5.408722E-2,-1.9492634E-1,-3E0,-2.3363297E-1,8.2E1,9.6E1,8.1E1,8E1,8.2E1,3E0,3E0,7.8E1,6.683556E-2,7.9E1,4.4851787E-2,-9.8112464E-2,-2.684552E-1,7.8E1,7.8E1,-4.130666E-2,-1.3777743E-1,-7E0,-9E0,9.2E1,9.537484E-2,-2.3160473E-1,-9.750391E-2,8.1E1,9.5E1,8.7E1,6E0,9.2E1,8E1,-7.5831986E-3,1.171299E-2,1.0178985E-1,1.9226024E-1,-1.6536102E-2,-7.518824E-2,-8.611297E-4,-1.5111885E-2,-7.6166324E-2,-2.4996392E-2,-2.4843387E-2,3.415723E-2,-1.0946121E-2,4.466782E-3,-2.6361639E-2,-8.792808E-2,1.9350816E-3,4.872034E-2,-1.7022114E-2,5.711832E-3,6.306868E-2,1.5660332E-1,6.6072844E-2,1.9978987E-1,1.0040014E-1,2.722138E-1],"split_indices":[7,0,7,7,7,0,2,3,0,0,7,7,0,0,5,2,0,0,7,0,3,0,5,0,0,7,7,0,0,5,0,0,0,2,2,0,0,7,7,0,0,0,0,2,6,0,7,0,6,0,0,0,0,0,0,0,0,0,0,0,0,0,0,0,0,0,0,0,0,0,0,0,0,0,0],"split_type":[0,0,0,0,0,0,0,0,0,0,0,0,0,0,0,0,0,0,0,0,0,0,0,0,0,0,0,0,0,0,0,0,0,0,0,0,0,0,0,0,0,0,0,0,0,0,0,0,0,0,0,0,0,0,0,0,0,0,0,0,0,0,0,0,0,0,0,0,0,0,0,0,0,0,0],"sum_hessian":[2.26E2,1.03E2,1.23E2,4.5E1,5.8E1,7.7E1,4.6E1,2.5E1,2E1,1.5E1,4.3E1,3E1,4.7E1,3E0,4.3E1,2.4E1,1E0,1.2E1,8E0,1.1E1,4E0,2.4E1,1.9E1,1.2E1,1.8E1,1.7E1,3E1,2E0,1E0,4.1E1,2E0,2E0,2.2E1,6E0,2E0,2E0,2E0,1.6E1,8E0,3E0,1.6E1,7E0,5E0,1.2E1,6E0,1E1,7E0,1.9E1,1.1E1,1E0,1E0,5E0,3.6E1,1E0,5E0,1E0,1E0,1E1,6E0,3E0,5E0,2E0,1E0,3E0,9E0,3E0,3E0,3E0,7E0,4E0,3E0,9E0,1E1,2E0,9E0],"tree_param":{"num_deleted":"0","num_feature":"8","num_nodes":"75","size_leaf_vector":"1"}},{"base_weights":[-1.2037118E-1,4.9925694E-1,-6.5721244E-1,-1.6280673E-1,1.339746E0,-3.215005E-1,-2.5361633E0,-2.3872375E0,6.475046E-1,-2.021251E-3,2.0587559E0,-8.4553754E-1,4.8912957E-1,-2.4402241E-1,-1.2514037E0,7.210785E-1,-3.167701E0,1.5186775E0,-8.195746E-1,8.047243E-1,-1.631842E0,4.1446533E0,6.277284E-1,-1.3535372E0,9.2441656E-2,-1.7131407E0,1.1651788E0,9.778732E-1,-2.7794359E0,5.956126E-2,-1.4734039E-2,-1.2154175E0,-3.6218443E0,4.0094474E-1,2.453983E0,-2.9797568E0,6.2050265E-1,1.7971224E0,-8.021763E-2,-1.6124551E-1,5.0143152E-2,2.1966873E-1,3.2718047E-2,-4.118346E-1,2.4829557E0,-6.320294E-1,-2.5553486E0,-1.7329717E0,1.9184849E0,6.73306E-1,-3.4329896E0,2.9866734E0,6.261156E-1,-3.769339E-2,1.4971183E-1,-3.656817E0,-6.486206E-2,-9.543709E-2,1.9113883E-2,-2.2972648E-1,-1.0954831E-1,1.3559435E-1,-2.3337826E-2,2.1381472E-1,5.525989E-2,-2.0652568E-1,-5.2953035E-2,-2.4153605E-2,1.3487633E-1,1.16503276E-1,-5.916058E-2,3.349413E-2,-9.010759E-2,1.6325079E-1,-5.27351E-2,-4.815808E-2,1.1523741E-1,-0E0,-1.738525E-1,9.1488615E-2,-1.1161458E-1,-9.43504E-2,1.2225379E-1,7.441937E-2,3.6219407E-3,-2.1709554E-1,2.529045E-2,1.644062E-1,2.6949272E-2,-3.197616E-2,6.698305E-2,-2.0568196E-1,-3.181759E-2,6.516472E-2,-7.2529376E-2],"categories":[],"categories_nodes":[],"categories_segments":[],"categories_sizes":[],"default_left":[0,0,0,0,0,0,0,0,0,0,0,0,0,0,0,0,0,0,0,0,0,0,0,0,0,0,0,0,0,0,0,0,0,0,0,0,0,0,0,0,0,0,0,0,0,0,0,0,0,0,0,0,0,0,0,0,0,0,0,0,0,0,0,0,0,0,0,0,0,0,0,0,0,0,0,0,0,0,0,0,0,0,0,0,0,0,0,0,0,0,0,0,0,0,0],"id":15,"left_children":[1,3,5,7,9,11,13,15,17,19,21,23,25,-1,27,29,31,33,35,37,39,41,43,45,47,49,51,53,55,-1,-1,57,59,61,63,65,67,69,-1,-1,-1,-1,-1,71,73,75,77,79,81,83,85,87,89,-1,-1,91,93,-1,-1,-1,-1,-1,-1,-1,-1,-1,-1,-1,-1,-1,-1,-1,-1,-1,-1,-1,-1,-1,-1,-1,-1,-1,-1,-1,-1,-1,-1,-1,-1,-1,-1,-1,-1,-1,-1],"loss_changes":[7.452306E1,5.820737E1,7.45932E1,1.08066124E2,4.458806E1,4.4203636E1,4.749257E1,4.1343666E1,5.7550087E1,2.3748356E1,8.647034E1,3.0270302E1,6.298388E1,0E0,4.718138E1,2.3509092E0,6.6402283E0,2.8002396E1,5.4968967E1,3.1591656E1,2.8639938E1,7.037674E0,3.7873566E1,3.3617973E1,8.000876E1,4.363069E1,2.9189537E1,2.343221E1,1.8444363E1,0E0,0E0,5.3132E0,3.1729279E0,2.956321E1,3.1604301E1,1.0578358E1,2.6738207E1,1.7166782E1,0E0,0E0,0E0,0E0,0E0,2.0871546E1,2.303127E1,2.834214E1,3.5041534E1,2.547221E1,2.8716946E1,2.1848783E0,2.4060143E1,3.0100327E0,2.4407116E1,0E0,0E0,5.1861877E0,7.592939E0,0E0,0E0,0E0,0E0,0E0,0E0,0E0,0E0,0E0,0E0,0E0,0E0,0E0,0E0,0E0,0E0,0E0,0E0,0E0,0E0,0E0,0E0,0E0,0E0,0E0,0E0,0E0,0E0,0E0,0E0,0E0,0E0,0E0,0E0,0E0,0E0,0E0,0E0],"parents":[2147483647,0,0,1,1,2,2,3,3,4,4,5,5,6,6,7,7,8,8,9,9,10,10,11,11,12,12,14,14,15,15,16,16,17,17,18,18,19,19,20,20,21,21,22,22,23,23,24,24,25,25,26,26,27,27,28,28,31,31,32,32,33,33,34,34,35,35,36,36,37,37,43,43,44,44,45,45,46,46,47,47,48,48,49,49,50,50,51,51,52,52,55,55,56,56],"right_children":[2,4,6,8,10,12,14,16,18,20,22,24,26,-1,28,30,32,34,36,38,40,42,44,46,48,50,52,54,56,-1,-1,58,60,62,64,66,68,70,-1,-1,-1,-1,-1,72,74,76,78,80,82,84,86,88,90,-1,-1,92,94,-1,-1,-1,-1,-1,-1,-1,-1,-1,-1,-1,-1,-1,-1,-1,-1,-1,-1,-1,-1,-1,-1,-1,-1,-1,-1,-1,-1,-1,-1,-1,-1,-1,-1,-1,-1,-1,-1],"split_conditions":[8.8E1,8.9E1,9.5E1,8.7E1,8.6E1,8.9E1,9.2E1,7.9E1,8.6E1,8.8E1,8.9E1,9.2E1,8.2E1,-2.4402241E-1,9.6E1,8.4E1,8.5E1,8.8E1,8.9E1,9.1E1,9.5E1,9.7E1,9.4E1,9.2E1,8.9E1,8.7E1,8.1E1,8.1E1,9.3E1,5.956126E-2,-1.4734039E-2,8.3E1,8.9E1,8.2E1,8E1,7.9E1,9.6E1,9.7E1,-8.021763E-2,-1.6124551E-1,5.0143152E-2,2.1966873E-1,3.2718047E-2,9.5E1,9.8E1,9.7E1,8.5E1,8.9E1,7.8E1,7.9E1,9.1E1,9.2E1,9.3E1,-3.769339E-2,1.4971183E-1,9.6E1,8.1E1,-9.543709E-2,1.9113883E-2,-2.2972648E-1,-1.0954831E-1,1.3559435E-1,-2.3337826E-2,2.1381472E-1,5.525989E-2,-2.0652568E-1,-5.2953035E-2,-2.4153605E-2,1.3487633E-1,1.16503276E-1,-5.916058E-2,3.349413E-2,-9.010759E-2,1.6325079E-1,-5.27351E-2,-4.815808E-2,1.1523741E-1,-0E0,-1.738525E-1,9.1488615E-2,-1.1161458E-1,-9.43504E-2,1.2225379E-1,7.441937E-2,3.6219407E-3,-2.1709554E-1,2.529045E-2,1.644062E-1,2.6949272E-2,-3.197616E-2,6.698305E-2,-2.0568196E-1,-3.181759E-2,6.516472E-2,-7.2529376E-2],"split_indices":[5,3,4,4,6,4,5,5,3,0,1,0,1,0,5,0,0,1,0,1,0,3,4,1,1,3,3,1,6,0,0,0,0,0,5,5,4,4,0,0,0,0,0,3,3,6,3,5,3,0,0,5,5,0,0,1,0,0,0,0,0,0,0,0,0,0,0,0,0,0,0,0,0,0,0,0,0,0,0,0,0,0,0,0,0,0,0,0,0,0,0,0,0,0,0],"split_type":[0,0,0,0,0,0,0,0,0,0,0,0,0,0,0,0,0,0,0,0,0,0,0,0,0,0,0,0,0,0,0,0,0,0,0,0,0,0,0,0,0,0,0,0,0,0,0,0,0,0,0,0,0,0,0,0,0,0,0,0,0,0,0,0,0,0,0,0,0,0,0,0,0,0,0,0,0,0,0,0,0,0,0,0,0,0,0,0,0,0,0,0,0,0,0],"sum_hessian":[2.22E2,1.03E2,1.19E2,5.8E1,4.5E1,1.02E2,1.7E1,1.5E1,4.3E1,1.6E1,2.9E1,6.2E1,4E1,5E0,1.2E1,3E0,1.2E1,2.7E1,1.6E1,1.1E1,5E0,1.1E1,1.8E1,4E1,2.2E1,9E0,3.1E1,5E0,7E0,2E0,1E0,3E0,9E0,1.3E1,1.4E1,6E0,1E1,8E0,3E0,3E0,2E0,1E1,1E0,1.2E1,6E0,2.6E1,1.4E1,1.1E1,1.1E1,4E0,5E0,6E0,2.5E1,3E0,2E0,5E0,2E0,2E0,1E0,4E0,5E0,3E0,1E1,5E0,9E0,3E0,3E0,7E0,3E0,7E0,1E0,7E0,5E0,5E0,1E0,2.4E1,2E0,4E0,1E1,1E0,1E1,1E0,1E1,1E0,3E0,4E0,1E0,5E0,1E0,9E0,1.6E1,4E0,1E0,1E0,1E0],"tree_param":{"num_deleted":"0","num_feature":"8","num_nodes":"95","size_leaf_vector":"1"}},{"base_weights":[9.625513E-2,-2.1519973E0,1.9196705E0,-4.0781507E0,-8.6272293E-1,9.605191E-1,3.196662E0,-4.814928E0,-2.7488816E0,-3.0190814E0,5.391151E-1,-2.074093E0,2.55316E0,2.3537626E0,3.8386867E0,-2.4628444E-1,-5.1416744E-2,-3.18936E0,-4.949871E-1,-3.8417683E0,-1.3908744E0,-3.8566962E-1,1.441944E0,-3.4086573E0,-6.7956257E-1,9.420648E-1,3.3764896E0,6.0511416E-1,1.7012993E-1,2.465833E0,4.239496E0,-1.956823E-1,-1.07221976E-1,-2.5611874E-4,-3.116173E-2,-2.2588275E-1,-1.945681E0,-9.147516E-2,-2.8317247E-2,-8.513005E-1,8.2601905E-1,5.4405004E-1,1.8758831E0,-2.1782771E-1,-9.7976185E-2,-1.2952777E0,3.406039E-1,-3.1003267E-1,1.7761298E0,2.573981E0,4.2172875E0,-8.6239316E-2,5.133895E-2,4.549406E-2,1.5377477E-1,5.328537E-2,2.16995E-1,-3.7680537E-2,-1.1641567E-1,-5.0754666E-2,-6.104832E-3,4.5951217E-2,6.524811E-3,2.6766052E-3,4.9809247E-2,4.3639738E-2,1.0397651E-1,-1.2143301E-2,-7.73493E-2,-1.0002111E-2,3.4296878E-2,-3.2686982E-2,8.605461E-3,2.1284446E-2,9.293025E-2,5.0814044E-2,1.6948079E-1,2.3002739E-1,1.0420006E-1,-1.7823003E-2,8.969727E-3],"categories":[],"categories_nodes":[],"categories_segments":[],"categories_sizes":[],"default_left":[0,0,0,0,0,0,0,0,0,0,0,0,0,0,0,0,0,0,0,0,0,0,0,0,0,0,0,0,0,0,0,0,0,0,0,0,0,0,0,0,0,0,0,0,0,0,0,0,0,0,0,0,0,0,0,0,0,0,0,0,0,0,0,0,0,0,0,0,0,0,0,0,0,0,0,0,0,0,0,0,0],"id":16,"left_children":[1,3,5,7,9,11,13,15,17,19,21,23,25,27,29,-1,-1,31,33,35,37,39,41,43,45,47,49,51,-1,53,55,-1,-1,-1,-1,-1,57,-1,-1,59,61,63,65,-1,-1,67,69,71,73,75,77,79,-1,-1,-1,-1,-1,-1,-1,-1,-1,-1,-1,-1,-1,-1,-1,-1,-1,-1,-1,-1,-1,-1,-1,-1,-1,-1,-1,-1,-1],"loss_changes":[9.4289294E2,2.5177164E2,1.5206699E2,2.6162354E1,1.9231613E2,3.629889E2,1.9568176E1,4.824463E0,1.4930328E1,2.7620941E1,3.3223717E1,4.566313E1,6.138391E1,4.5225433E1,4.8329163E0,0E0,0E0,1.5971069E0,1.8526751E-1,1.106839E1,2.34091E0,1.198971E1,6.53006E0,8.688797E0,9.33049E0,1.949522E1,1.0057587E1,3.3893166E0,0E0,5.340576E0,1.5262146E0,0E0,0E0,0E0,0E0,0E0,6.7391205E-1,0E0,0E0,1.5539179E0,1.6324282E-1,1.6159425E0,5.453491E-1,0E0,0E0,1.8294125E0,1.3060255E0,1.486402E0,2.0554352E-1,2.0254387E1,1.190445E0,4.405524E-1,0E0,0E0,0E0,0E0,0E0,0E0,0E0,0E0,0E0,0E0,0E0,0E0,0E0,0E0,0E0,0E0,0E0,0E0,0E0,0E0,0E0,0E0,0E0,0E0,0E0,0E0,0E0,0E0,0E0],"parents":[2147483647,0,0,1,1,2,2,3,3,4,4,5,5,6,6,7,7,8,8,9,9,10,10,11,11,12,12,13,13,14,14,17,17,18,18,19,19,20,20,21,21,22,22,23,23,24,24,25,25,26,26,27,27,29,29,30,30,36,36,39,39,40,40,41,41,42,42,45,45,46,46,47,47,48,48,49,49,50,50,51,51],"right_children":[2,4,6,8,10,12,14,16,18,20,22,24,26,28,30,-1,-1,32,34,36,38,40,42,44,46,48,50,52,-1,54,56,-1,-1,-1,-1,-1,58,-1,-1,60,62,64,66,-1,-1,68,70,72,74,76,78,80,-1,-1,-1,-1,-1,-1,-1,-1,-1,-1,-1,-1,-1,-1,-1,-1,-1,-1,-1,-1,-1,-1,-1,-1,-1,-1,-1,-1,-1],"split_conditions":[-1E0,9.1E1,8E0,-5E0,-9E0,8.5E1,8E1,9.8E1,8.9E1,-1.1E1,-6E0,4E0,8.9E1,1.5E1,1E1,-2.4628444E-1,-5.1416744E-2,8.6E1,9E1,9.7E1,9.6E1,9.6E1,9.4E1,8E1,8.2E1,3E0,2E0,1.1E1,1.7012993E-1,8.4E1,7.8E1,-1.956823E-1,-1.07221976E-1,-2.5611874E-4,-3.116173E-2,-2.2588275E-1,8.2E1,-9.147516E-2,-2.8317247E-2,9.5E1,9.5E1,-3E0,8E1,-2.1782771E-1,-9.7976185E-2,8.4E1,5E0,8.7E1,7.8E1,9.2E1,9.2E1,8.9E1,5.133895E-2,4.549406E-2,1.5377477E-1,5.328537E-2,2.16995E-1,-3.7680537E-2,-1.1641567E-1,-5.0754666E-2,-6.104832E-3,4.5951217E-2,6.524811E-3,2.6766052E-3,4.9809247E-2,4.3639738E-2,1.0397651E-1,-1.2143301E-2,-7.73493E-2,-1.0002111E-2,3.4296878E-2,-3.2686982E-2,8.605461E-3,2.1284446E-2,9.293025E-2,5.0814044E-2,1.6948079E-1,2.3002739E-1,1.0420006E-1,-1.7823003E-2,8.969727E-3],"split_indices":[7,0,7,7,7,0,0,3,0,7,7,7,0,7,7,0,0,0,0,0,0,0,0,0,0,7,7,7,0,0,6,0,0,0,0,0,3,0,0,0,3,7,3,0,0,1,7,0,3,0,4,1,0,0,0,0,0,0,0,0,0,0,0,0,0,0,0,0,0,0,0,0,0,0,0,0,0,0,0,0,0],"split_type":[0,0,0,0,0,0,0,0,0,0,0,0,0,0,0,0,0,0,0,0,0,0,0,0,0,0,0,0,0,0,0,0,0,0,0,0,0,0,0,0,0,0,0,0,0,0,0,0,0,0,0,0,0,0,0,0,0,0,0,0,0,0,0,0,0,0,0,0,0,0,0,0,0,0,0,0,0,0,0,0,0],"sum_hessian":[2.28E2,1.02E2,1.26E2,4E1,6.2E1,7.3E1,5.3E1,2.4E1,1.6E1,2.4E1,3.8E1,2.5E1,4.8E1,2.5E1,2.8E1,2.3E1,1E0,1.3E1,3E0,1.5E1,9E0,1.9E1,1.9E1,1.2E1,1.3E1,1.7E1,3.1E1,1E1,1.5E1,8E0,2E1,6E0,7E0,1E0,2E0,1E1,5E0,5E0,4E0,1.4E1,5E0,7E0,1.2E1,6E0,6E0,8E0,5E0,7E0,1E1,1.8E1,1.3E1,4E0,6E0,3E0,5E0,1E0,1.9E1,2E0,3E0,1.1E1,3E0,4E0,1E0,4E0,3E0,3E0,9E0,2E0,6E0,2E0,3E0,4E0,3E0,1E0,9E0,7E0,1.1E1,1E1,3E0,2E0,2E0],"tree_param":{"num_deleted":"0","num_feature":"8","num_nodes":"81","size_leaf_vector":"1"}},{"base_weights":[1.3386903E-2,-2.2755964E0,1.8852273E0,-3.472351E0,-7.7366847E-1,1.3997835E0,3.6096406E0,-4.3351054E0,-2.9242609E0,-2.219636E0,-1.5257393E-1,2.4437206E0,9.5847857E-1,2.3739776E-2,3.708104E0,-2.1698356E0,-2.2918461E-1,-1.3864229E0,-3.2235653E0,4.231373E-2,-2.5282657E0,4.5735598E-1,-1.0637136E0,7.839247E-1,3.1464324E0,3.1742436E-1,2.2231944E0,1.8931678E-1,4.1307982E-2,-2.0581016E-2,-1.2926838E-1,3.2377586E-1,-2.4972973E0,-3.988841E0,-2.0022418E0,-1.3648945E-1,-2.4963377E-4,-1.1210696E0,1.1701308E0,2.1329002E-1,-2.3854728E0,-4.346444E-2,1.0304373E-1,1.4253527E0,3.7750843E0,1.4738766E0,-5.989818E-1,2.7653086E0,7.8080255E-1,-7.878647E-3,2.8504154E-2,-3.471485E-2,-1.3747366E-1,-3.8073704E-2,-2.16921E-1,-1.9232659E-1,-6.829913E-2,-1.7226016E-2,-1.4200912E-1,1.8777236E-2,8.235083E-2,-1.400781E-2,5.8120955E-2,-1.6065139E-1,6.1996426E-2,2.8985351E-2,-5.504644E-2,1.18868135E-1,4.60022E-3,2.1531025E-1,6.728657E-2,1.4646289E-1,2.1292737E-2,-7.0717745E-3,-1.6419505E-1,1.6490202E-1,4.0357195E-2,8.355065E-3,8.573021E-2],"categories":[],"categories_nodes":[],"categories_segments":[],"categories_sizes":[],"default_left":[0,0,0,0,0,0,0,0,0,0,0,0,0,0,0,0,0,0,0,0,0,0,0,0,0,0,0,0,0,0,0,0,0,0,0,0,0,0,0,0,0,0,0,0,0,0,0,0,0,0,0,0,0,0,0,0,0,0,0,0,0,0,0,0,0,0,0,0,0,0,0,0,0,0,0,0,0,0,0],"id":17,"left_children":[1,3,5,7,9,11,13,15,17,19,21,23,25,-1,27,29,-1,31,33,-1,35,37,39,41,43,45,47,-1,-1,-1,-1,49,51,53,55,-1,-1,57,59,61,63,65,-1,67,69,71,73,75,77,-1,-1,-1,-1,-1,-1,-1,-1,-1,-1,-1,-1,-1,-1,-1,-1,-1,-1,-1,-1,-1,-1,-1,-1,-1,-1,-1,-1,-1,-1],"loss_changes":[9.811425E2,1.820252E2,9.992166E1,1.3550537E1,4.1634003E1,4.3386993E1,6.1551514E0,1.439209E-1,1.2560516E1,1.5555031E1,1.9441996E1,3.0964798E1,5.7414337E1,0E0,2.2725525E0,1.5584908E0,0E0,1.6224445E1,2.0388367E1,0E0,6.323372E0,2.4943007E1,2.4356493E1,1.0856659E1,1.5738327E1,5.2899532E1,1.625283E1,0E0,0E0,0E0,0E0,6.053195E-1,2.0036697E-2,1.6494354E1,1.0652706E1,0E0,0E0,8.047861E0,4.863119E0,4.1606383E0,2.5182766E1,5.3032093E0,0E0,8.419863E0,1.170372E1,3.1973011E1,3.3590298E1,1.4661484E1,4.109918E0,0E0,0E0,0E0,0E0,0E0,0E0,0E0,0E0,0E0,0E0,0E0,0E0,0E0,0E0,0E0,0E0,0E0,0E0,0E0,0E0,0E0,0E0,0E0,0E0,0E0,0E0,0E0,0E0,0E0,0E0],"parents":[2147483647,0,0,1,1,2,2,3,3,4,4,5,5,6,6,7,7,8,8,9,9,10,10,11,11,12,12,14,14,15,15,17,17,18,18,20,20,21,21,22,22,23,23,24,24,25,25,26,26,31,31,32,32,33,33,34,34,37,37,38,38,39,39,40,40,41,41,43,43,44,44,45,45,46,46,47,47,48,48],"right_children":[2,4,6,8,10,12,14,16,18,20,22,24,26,-1,28,30,-1,32,34,-1,36,38,40,42,44,46,48,-1,-1,-1,-1,50,52,54,56,-1,-1,58,60,62,64,66,-1,68,70,72,74,76,78,-1,-1,-1,-1,-1,-1,-1,-1,-1,-1,-1,-1,-1,-1,-1,-1,-1,-1,-1,-1,-1,-1,-1,-1,-1,-1,-1,-1,-1,-1],"split_conditions":[-1E0,-7E0,1.2E1,-1.1E1,8.4E1,8.5E1,7.8E1,7.8E1,8.3E1,7.8E1,9E1,8.5E1,7E0,2.3739776E-2,9.7E1,8.8E1,-2.2918461E-1,8.5E1,9.2E1,4.231373E-2,9.7E1,8.2E1,9.2E1,9.1E1,8.6E1,8.7E1,9.3E1,1.8931678E-1,4.1307982E-2,-2.0581016E-2,-1.2926838E-1,8.3E1,7.8E1,7.9E1,7.9E1,-1.3648945E-1,-2.4963377E-4,9.7E1,8E1,9.7E1,9.7E1,8.8E1,1.0304373E-1,8.5E1,9.1E1,8.6E1,9.4E1,9.5E1,1.1E1,-7.878647E-3,2.8504154E-2,-3.471485E-2,-1.3747366E-1,-3.8073704E-2,-2.16921E-1,-1.9232659E-1,-6.829913E-2,-1.7226016E-2,-1.4200912E-1,1.8777236E-2,8.235083E-2,-1.400781E-2,5.8120955E-2,-1.6065139E-1,6.1996426E-2,2.8985351E-2,-5.504644E-2,1.18868135E-1,4.60022E-3,2.1531025E-1,6.728657E-2,1.4646289E-1,2.1292737E-2,-7.0717745E-3,-1.6419505E-1,1.6490202E-1,4.0357195E-2,8.355065E-3,8.573021E-2],"split_indices":[7,7,7,7,2,5,4,3,5,6,3,4,7,0,5,5,0,6,5,0,6,5,4,3,6,6,2,0,0,0,0,2,2,6,2,0,0,2,3,2,3,3,0,6,3,4,5,5,7,0,0,0,0,0,0,0,0,0,0,0,0,0,0,0,0,0,0,0,0,0,0,0,0,0,0,0,0,0,0],"split_type":[0,0,0,0,0,0,0,0,0,0,0,0,0,0,0,0,0,0,0,0,0,0,0,0,0,0,0,0,0,0,0,0,0,0,0,0,0,0,0,0,0,0,0,0,0,0,0,0,0,0,0,0,0,0,0,0,0,0,0,0,0,0,0,0,0,0,0,0,0,0,0,0,0,0,0,0,0,0,0],"sum_hessian":[2.27E2,1.02E2,1.25E2,5.6E1,4.6E1,9.9E1,2.6E1,1.9E1,3.7E1,1.3E1,3.3E1,2.8E1,7.1E1,1E0,2.5E1,3E0,1.6E1,7E0,3E1,1E0,1.2E1,2E1,1.3E1,9E0,1.9E1,4.8E1,2.3E1,2.4E1,1E0,1E0,2E0,3E0,4E0,1.7E1,1.3E1,1.1E1,1E0,6E0,1.4E1,7E0,6E0,6E0,3E0,6E0,1.3E1,2.1E1,2.7E1,1.6E1,7E0,1E0,2E0,1E0,3E0,2E0,1.5E1,2E0,1.1E1,5E0,1E0,6E0,8E0,5E0,2E0,5E0,1E0,4E0,2E0,3E0,3E0,1E1,3E0,8E0,1.3E1,2.4E1,3E0,1.2E1,4E0,5E0,2E0],"tree_param":{"num_deleted":"0","num_feature":"8","num_nodes":"79","size_leaf_vector":"1"}},{"base_weights":[-1.4785759E-2,-2.4288955E0,1.5573977E0,-3.3863258E0,-1.2406925E0,9.04184E-1,2.7567933E0,-3.5213757E0,-5.145977E-2,7.326899E-1,-1.5463954E0,1.9678994E0,5.9672344E-1,3.0390054E-2,2.8902624E0,-2.693598E0,-4.0947905E0,-1.9936574E-1,6.367796E-2,-8.645898E-1,-2.3911636E0,3.746499E0,8.511228E-1,8.4509395E-2,1.2186469E0,2.9130146E-2,2.9861825E0,-3.115739E0,-6.995984E-1,-4.2208934E0,-2.7360497E-2,-0E0,-1.3009033E-2,-2.520051E0,-1.8350497E-1,-1.057863E0,-3.4130685E0,3.8526688E-2,2.0487021E-1,-2.7134064E-1,1.3912555E0,8.882525E-1,-1.5836116E0,4.4931424E-1,2.5674958E0,1.6125062E-1,1.7675636E0,-8.275118E-2,-1.8764727E-1,-1.290446E-2,-4.372874E-2,-7.570175E-2,-2.2009154E-1,-1.2775269E-2,-1.7817238E-1,-9.6896276E-2,2.7723117E-2,-1.0527303E-1,-0E0,-1.8096988E-1,-4.671913E-2,-3.0251032E-2,5.972646E-3,-6.3991295E-3,9.289463E-2,-6.921833E-2,6.1708923E-2,-3.208876E-2,-1.4710975E-1,1.0151761E-1,-3.360604E-2,3.624924E-2,1.5776572E-1,3.7056988E-3,1.1132665E-1],"categories":[],"categories_nodes":[],"categories_segments":[],"categories_sizes":[],"default_left":[0,0,0,0,0,0,0,0,0,0,0,0,0,0,0,0,0,0,0,0,0,0,0,0,0,0,0,0,0,0,0,0,0,0,0,0,0,0,0,0,0,0,0,0,0,0,0,0,0,0,0,0,0,0,0,0,0,0,0,0,0,0,0,0,0,0,0,0,0,0,0,0,0,0,0],"id":18,"left_children":[1,3,5,7,9,11,13,15,-1,17,19,21,23,-1,25,27,29,31,-1,33,35,37,39,41,43,-1,45,47,49,51,-1,-1,-1,53,55,57,59,-1,-1,61,63,65,67,69,71,-1,73,-1,-1,-1,-1,-1,-1,-1,-1,-1,-1,-1,-1,-1,-1,-1,-1,-1,-1,-1,-1,-1,-1,-1,-1,-1,-1,-1,-1],"loss_changes":[8.2747675E2,9.317136E1,1.005582E2,1.0882263E1,2.534515E1,2.7022644E1,1.1087402E1,9.176514E0,0E0,3.3860452E0,1.7765915E1,3.409118E1,2.1747189E1,0E0,7.421417E0,1.5115433E1,7.9501038E0,1.614786E-2,0E0,2.2944904E1,1.6379944E1,3.6659927E0,8.371123E0,5.3626003E1,3.0713829E1,0E0,5.7330933E0,9.071213E0,4.728365E-2,4.0086365E0,0E0,0E0,0E0,1.2884537E1,2.192813E1,8.779265E0,2.5411224E-1,0E0,0E0,7.7282816E-1,6.7911644E0,2.2919802E1,1.4387699E1,3.8734123E1,9.2380905E0,0E0,6.600092E0,0E0,0E0,0E0,0E0,0E0,0E0,0E0,0E0,0E0,0E0,0E0,0E0,0E0,0E0,0E0,0E0,0E0,0E0,0E0,0E0,0E0,0E0,0E0,0E0,0E0,0E0,0E0,0E0],"parents":[2147483647,0,0,1,1,2,2,3,3,4,4,5,5,6,6,7,7,9,9,10,10,11,11,12,12,14,14,15,15,16,16,17,17,19,19,20,20,21,21,22,22,23,23,24,24,26,26,27,27,28,28,29,29,33,33,34,34,35,35,36,36,39,39,40,40,41,41,42,42,43,43,44,44,46,46],"right_children":[2,4,6,8,10,12,14,16,-1,18,20,22,24,-1,26,28,30,32,-1,34,36,38,40,42,44,-1,46,48,50,52,-1,-1,-1,54,56,58,60,-1,-1,62,64,66,68,70,72,-1,74,-1,-1,-1,-1,-1,-1,-1,-1,-1,-1,-1,-1,-1,-1,-1,-1,-1,-1,-1,-1,-1,-1,-1,-1,-1,-1,-1,-1],"split_conditions":[-2E0,-7E0,8E0,9.6E1,7.8E1,8.4E1,8E1,8.6E1,-5.145977E-2,-6E0,8.9E1,8.6E1,8.9E1,3.0390054E-2,7.8E1,9.5E1,9.7E1,7.8E1,6.367796E-2,8.5E1,9E1,8.8E1,8.8E1,8.6E1,9.2E1,2.9130146E-2,9.4E1,8.7E1,8.5E1,7.8E1,-2.7360497E-2,-0E0,-1.3009033E-2,7.9E1,8.2E1,8.1E1,9.1E1,3.8526688E-2,2.0487021E-1,9.4E1,7.9E1,8.5E1,8.7E1,8.7E1,8.3E1,1.6125062E-1,9E0,-8.275118E-2,-1.8764727E-1,-1.290446E-2,-4.372874E-2,-7.570175E-2,-2.2009154E-1,-1.2775269E-2,-1.7817238E-1,-9.6896276E-2,2.7723117E-2,-1.0527303E-1,-0E0,-1.8096988E-1,-4.671913E-2,-3.0251032E-2,5.972646E-3,-6.3991295E-3,9.289463E-2,-6.921833E-2,6.1708923E-2,-3.208876E-2,-1.4710975E-1,1.0151761E-1,-3.360604E-2,3.624924E-2,1.5776572E-1,3.7056988E-3,1.1132665E-1],"split_indices":[7,7,7,1,6,1,1,1,0,7,3,4,4,0,4,4,2,1,0,1,4,3,4,4,6,0,4,3,6,2,0,0,0,1,2,2,1,0,0,2,2,1,4,6,2,0,7,0,0,0,0,0,0,0,0,0,0,0,0,0,0,0,0,0,0,0,0,0,0,0,0,0,0,0,0],"split_type":[0,0,0,0,0,0,0,0,0,0,0,0,0,0,0,0,0,0,0,0,0,0,0,0,0,0,0,0,0,0,0,0,0,0,0,0,0,0,0,0,0,0,0,0,0,0,0,0,0,0,0,0,0,0,0,0,0,0,0,0,0,0,0,0,0,0,0,0,0,0,0,0,0,0,0],"sum_hessian":[2.16E2,8.5E1,1.31E2,4.6E1,3.9E1,8.6E1,4.5E1,4.3E1,3E0,5E0,3.4E1,1.8E1,6.8E1,3E0,4.2E1,2E1,2.3E1,2E0,3E0,2E1,1.4E1,6E0,1.2E1,3.8E1,3E1,2E0,4E1,1.6E1,4E0,2.2E1,1E0,1E0,1E0,5E0,1.5E1,7E0,7E0,1E0,5E0,4E0,8E0,2.6E1,1.2E1,2E1,1E1,3.2E1,8E0,6E0,1E1,2E0,2E0,2E0,2E1,2E0,3E0,4E0,1.1E1,3E0,4E0,6E0,1E0,2E0,2E0,2E0,6E0,3E0,2.3E1,8E0,4E0,8E0,1.2E1,3E0,7E0,2E0,6E0],"tree_param":{"num_deleted":"0","num_feature":"8","num_nodes":"75","size_leaf_vector":"1"}},{"base_weights":[2.8242601E-2,5.039419E-1,-3.8788548E-1,1.8999152E-1,1.2163614E0,8.964982E-1,-6.9189155E-1,-7.8173864E-1,5.1831514E-1,2.5851517E0,-5.25481E-1,1.2916669E0,-1.1796776E0,-1.1835365E0,5.9780496E-1,-2.9236524E0,5.2452266E-1,2.1139262E0,1.8545258E-1,3.005877E0,-3.4685975E-1,-1.457362E-1,3.8201475E-1,1.8430565E-1,2.0711744E0,-6.726911E-2,-1.4564094E-2,-1.1157425E-2,-1.7542295E0,-1.5392087E0,1.0608624E0,-1.9329326E-1,-6.1276324E-2,-6.5431696E-1,1.4743105E0,9.3331504E-1,1.6656807E-1,1.1397388E0,-5.519004E-1,3.183896E0,1.03402715E-2,-4.5551073E-2,1.703659E-2,-1.0053645E0,1.7223915E0,8.1712824E-1,-7.8600466E-1,-5.7376483E-3,2.3112426E0,-8.427842E-1,1.1442358E0,6.9701505E-1,-2.0128148E0,-1.3048603E-1,1.1039224E-2,2.813252E0,5.0959516E-1,-5.1748034E-2,2.8722534E-2,8.784007E-2,-3.0158616E-3,1.21501505E-1,6.3983E-3,2.3053309E-2,1.5317717E-1,-6.1609816E-2,4.294513E-2,3.0649528E-2,1.6634063E-1,-8.954459E-2,7.05568E-2,1.12161316E-1,-1.9544562E-2,5.3875487E-2,-9.619485E-3,3.427849E-3,-5.635221E-2,1.2312122E-1,2.1265183E-2,-8.7830804E-2,5.6671817E-2,9.150752E-2,-5.1647414E-2,8.718708E-2,-8.474728E-2,-6.495008E-2,-1.3828519E-1,-2.3757324E-2,2.7085265E-2,-2.3807297E-2,1.8898189E-1,-6.408455E-2,6.524177E-2],"categories":[],"categories_nodes":[],"categories_segments":[],"categories_sizes":[],"default_left":[0,0,0,0,0,0,0,0,0,0,0,0,0,0,0,0,0,0,0,0,0,0,0,0,0,0,0,0,0,0,0,0,0,0,0,0,0,0,0,0,0,0,0,0,0,0,0,0,0,0,0,0,0,0,0,0,0,0,0,0,0,0,0,0,0,0,0,0,0,0,0,0,0,0,0,0,0,0,0,0,0,0,0,0,0,0,0,0,0,0,0,0,0],"id":19,"left_children":[1,3,5,7,9,11,13,15,17,19,21,23,25,27,29,31,33,35,37,39,41,-1,43,45,47,-1,-1,49,51,53,55,-1,-1,57,59,61,-1,63,65,67,-1,-1,-1,69,71,73,75,-1,77,79,81,83,85,-1,87,89,91,-1,-1,-1,-1,-1,-1,-1,-1,-1,-1,-1,-1,-1,-1,-1,-1,-1,-1,-1,-1,-1,-1,-1,-1,-1,-1,-1,-1,-1,-1,-1,-1,-1,-1,-1,-1],"loss_changes":[4.1974915E1,2.1771042E1,4.472184E1,2.271178E1,7.309091E1,1.9584623E1,5.9100803E1,5.213562E1,2.7527344E1,2.2279236E1,3.172193E1,1.5793457E1,3.3293247E-2,4.4631493E1,2.7313614E1,5.9531174E0,1.4482436E1,9.400185E0,3.2351868E1,6.476822E0,1.5311813E0,0E0,2.2259054E1,6.1716876E0,6.2573547E0,0E0,0E0,2.3033888E1,3.0058044E1,8.586471E0,1.9486866E1,0E0,0E0,3.4469206E0,3.3102427E0,6.665507E0,0E0,2.4347713E1,2.6049519E1,2.7106476E0,0E0,0E0,0E0,1.3954527E1,7.6661167E0,1.872973E0,1.3488729E0,0E0,1.5151443E0,2.7336395E1,1.6903795E1,1.5479071E1,1.8035172E1,0E0,1.0380521E0,1.8024147E1,2.7315758E1,0E0,0E0,0E0,0E0,0E0,0E0,0E0,0E0,0E0,0E0,0E0,0E0,0E0,0E0,0E0,0E0,0E0,0E0,0E0,0E0,0E0,0E0,0E0,0E0,0E0,0E0,0E0,0E0,0E0,0E0,0E0,0E0,0E0,0E0,0E0,0E0],"parents":[2147483647,0,0,1,1,2,2,3,3,4,4,5,5,6,6,7,7,8,8,9,9,10,10,11,11,12,12,13,13,14,14,15,15,16,16,17,17,18,18,19,19,20,20,22,22,23,23,24,24,27,27,28,28,29,29,30,30,33,33,34,34,35,35,37,37,38,38,39,39,43,43,44,44,45,45,46,46,48,48,49,49,50,50,51,51,52,52,54,54,55,55,56,56],"right_children":[2,4,6,8,10,12,14,16,18,20,22,24,26,28,30,32,34,36,38,40,42,-1,44,46,48,-1,-1,50,52,54,56,-1,-1,58,60,62,-1,64,66,68,-1,-1,-1,70,72,74,76,-1,78,80,82,84,86,-1,88,90,92,-1,-1,-1,-1,-1,-1,-1,-1,-1,-1,-1,-1,-1,-1,-1,-1,-1,-1,-1,-1,-1,-1,-1,-1,-1,-1,-1,-1,-1,-1,-1,-1,-1,-1,-1,-1],"split_conditions":[8.7E1,9.2E1,8.1E1,8.4E1,8.9E1,9.5E1,9.2E1,8.9E1,8E1,9.4E1,8.7E1,8.2E1,9.7E1,8.4E1,7.9E1,8.5E1,8.2E1,9E1,8.6E1,9.7E1,9.1E1,-1.457362E-1,9.2E1,9.2E1,7.9E1,-6.726911E-2,-1.4564094E-2,9.1E1,7.9E1,9.5E1,8.5E1,-1.9329326E-1,-6.1276324E-2,9.1E1,8.2E1,8.1E1,1.6656807E-1,9.4E1,9.1E1,7.9E1,1.03402715E-2,-4.5551073E-2,1.703659E-2,9.3E1,8.5E1,8.1E1,7.8E1,-5.7376483E-3,9.7E1,9E1,8.1E1,9.1E1,8.9E1,-1.3048603E-1,7.8E1,8.5E1,8.9E1,-5.1748034E-2,2.8722534E-2,8.784007E-2,-3.0158616E-3,1.21501505E-1,6.3983E-3,2.3053309E-2,1.5317717E-1,-6.1609816E-2,4.294513E-2,3.0649528E-2,1.6634063E-1,-8.954459E-2,7.05568E-2,1.12161316E-1,-1.9544562E-2,5.3875487E-2,-9.619485E-3,3.427849E-3,-5.635221E-2,1.2312122E-1,2.1265183E-2,-8.7830804E-2,5.6671817E-2,9.150752E-2,-5.1647414E-2,8.718708E-2,-8.474728E-2,-6.495008E-2,-1.3828519E-1,-2.3757324E-2,2.7085265E-2,-2.3807297E-2,1.8898189E-1,-6.408455E-2,6.524177E-2],"split_indices":[5,3,3,6,2,0,0,0,1,1,6,1,0,0,1,1,1,3,3,0,0,0,2,6,2,0,0,6,6,0,1,0,0,2,6,0,0,2,0,0,0,0,0,0,0,1,1,0,5,1,0,1,2,0,1,2,1,0,0,0,0,0,0,0,0,0,0,0,0,0,0,0,0,0,0,0,0,0,0,0,0,0,0,0,0,0,0,0,0,0,0,0,0],"split_type":[0,0,0,0,0,0,0,0,0,0,0,0,0,0,0,0,0,0,0,0,0,0,0,0,0,0,0,0,0,0,0,0,0,0,0,0,0,0,0,0,0,0,0,0,0,0,0,0,0,0,0,0,0,0,0,0,0,0,0,0,0,0,0,0,0,0,0,0,0,0,0,0,0,0,0,0,0,0,0,0,0,0,0,0,0,0,0,0,0,0,0,0,0],"sum_hessian":[2.1E2,9.8E1,1.12E2,6.9E1,2.9E1,2.1E1,9.1E1,1.7E1,5.2E1,1.6E1,1.3E1,1.8E1,3E0,6.6E1,2.5E1,6E0,1.1E1,8E0,4.4E1,1.4E1,2E0,3E0,1E1,8E0,1E1,2E0,1E0,2.2E1,4.4E1,4E0,2.1E1,3E0,3E0,5E0,6E0,5E0,3E0,1.9E1,2.5E1,1.3E1,1E0,1E0,1E0,5E0,5E0,5E0,3E0,1E0,9E0,1.3E1,9E0,4E0,4E1,2E0,2E0,4E0,1.7E1,4E0,1E0,5E0,1E0,1E0,4E0,1.5E1,4E0,1.7E1,8E0,1E0,1.2E1,4E0,1E0,4E0,1E0,4E0,1E0,1E0,2E0,8E0,1E0,9E0,4E0,7E0,2E0,3E0,1E0,2.2E1,1.8E1,1E0,1E0,1E0,3E0,5E0,1.2E1],"tree_param":{"num_deleted":"0","num_feature":"8","num_nodes":"93","size_leaf_vector":"1"}},{"base_weights":[-1.0376815E-1,-2.4299405E0,1.1154929E0,-4.0448775E0,-9.502412E-1,4.1581652E-1,2.877701E0,-7.101349E-2,-4.154552E0,-2.4326491E0,3.1132367E-1,-2.4089065E0,1.7453272E0,1.7992862E0,3.4919152E0,-2.1117921E-1,-4.4412386E-2,-1.7669873E-1,-1.3013241E0,-4.7687578E-1,1.2236209E0,-3.5654E0,-8.7876403E-1,1.0533662E0,3.4867575E0,4.8447973E-1,1.3306014E-1,1.5309726E0,3.9006023E0,-9.24975E-2,-5.191444E-1,-7.149367E-1,1.0624771E-2,6.478279E-2,1.0081826E-2,-2.2800715E-1,-2.2041166E0,-1.429197E0,2.6015702E-1,9.003999E-2,2.5122423E0,1.5718442E0,1.9304979E-1,-1.7939961E-1,3.7616972E-2,3.955124E-2,9.86956E-2,4.270073E-2,4.010738E0,-7.990621E-3,-3.169287E-2,-8.02648E-3,-4.1048612E-2,-1.2035932E-1,-4.4727936E-2,-8.652257E-2,-2.2219447E-2,-8.013891E-3,2.6772195E-2,-3.1150479E-2,3.622076E-2,7.008188E-2,1.6926852E-1,2.0219192E-2,8.688067E-2,-1.2237702E-2,-0E0,2.0603262E-1,4.8306998E-2],"categories":[],"categories_nodes":[],"categories_segments":[],"categories_sizes":[],"default_left":[0,0,0,0,0,0,0,0,0,0,0,0,0,0,0,0,0,0,0,0,0,0,0,0,0,0,0,0,0,0,0,0,0,0,0,0,0,0,0,0,0,0,0,0,0,0,0,0,0,0,0,0,0,0,0,0,0,0,0,0,0,0,0,0,0,0,0,0,0],"id":20,"left_children":[1,3,5,7,9,11,13,-1,15,17,19,21,23,25,27,-1,-1,-1,29,31,33,35,37,39,41,43,-1,45,47,-1,49,51,-1,-1,-1,-1,53,55,57,59,61,63,-1,65,-1,-1,-1,-1,67,-1,-1,-1,-1,-1,-1,-1,-1,-1,-1,-1,-1,-1,-1,-1,-1,-1,-1,-1,-1],"loss_changes":[6.268086E2,1.772681E2,1.772555E2,3.904663E0,7.764578E1,3.9846545E2,2.0345398E1,0E0,3.4035034E0,1.8590797E1,1.719685E1,5.658882E1,8.263327E1,1.7661442E1,1.3520447E1,0E0,0E0,0E0,3.5230618E0,2.335625E0,3.9882088E-1,1.5000916E1,1.05191145E1,7.399835E1,7.7205048E0,1.6148756E0,0E0,1.2860584E-1,2.7990417E0,0E0,6.665468E-2,3.5792828E-1,0E0,0E0,0E0,0E0,1.7577362E-1,2.2769775E0,8.177775E-1,1.538871E1,1.5139938E1,5.0782204E-2,0E0,2.3256399E-2,0E0,0E0,0E0,0E0,1.8684082E0,0E0,0E0,0E0,0E0,0E0,0E0,0E0,0E0,0E0,0E0,0E0,0E0,0E0,0E0,0E0,0E0,0E0,0E0,0E0,0E0],"parents":[2147483647,0,0,1,1,2,2,3,3,4,4,5,5,6,6,8,8,9,9,10,10,11,11,12,12,13,13,14,14,18,18,19,19,20,20,21,21,22,22,23,23,24,24,25,25,27,27,28,28,30,30,31,31,36,36,37,37,38,38,39,39,40,40,41,41,43,43,48,48],"right_children":[2,4,6,8,10,12,14,-1,16,18,20,22,24,26,28,-1,-1,-1,30,32,34,36,38,40,42,44,-1,46,48,-1,50,52,-1,-1,-1,-1,54,56,58,60,62,64,-1,66,-1,-1,-1,-1,68,-1,-1,-1,-1,-1,-1,-1,-1,-1,-1,-1,-1,-1,-1,-1,-1,-1,-1,-1,-1],"split_conditions":[-4E0,9.2E1,8E0,7.8E1,-9E0,8.5E1,8E1,-7.101349E-2,9.8E1,-1.3E1,9.6E1,4E0,9.4E1,1.5E1,1E1,-2.1117921E-1,-4.4412386E-2,-1.7669873E-1,9.5E1,-6E0,9.7E1,8.2E1,8.2E1,3E0,-3E0,1.1E1,1.3306014E-1,8.4E1,7.8E1,-9.24975E-2,8.5E1,7.8E1,1.0624771E-2,6.478279E-2,1.0081826E-2,-2.2800715E-1,1E0,9.2E1,5E0,9E1,8.8E1,9.5E1,1.9304979E-1,7.8E1,3.7616972E-2,3.955124E-2,9.86956E-2,4.270073E-2,9.6E1,-7.990621E-3,-3.169287E-2,-8.02648E-3,-4.1048612E-2,-1.2035932E-1,-4.4727936E-2,-8.652257E-2,-2.2219447E-2,-8.013891E-3,2.6772195E-2,-3.1150479E-2,3.622076E-2,7.008188E-2,1.6926852E-1,2.0219192E-2,8.688067E-2,-1.2237702E-2,-0E0,2.0603262E-1,4.8306998E-2],"split_indices":[7,0,7,2,7,0,0,0,3,7,0,7,0,7,7,0,0,0,0,7,3,0,0,7,7,7,0,0,6,0,2,6,0,0,0,0,7,5,7,0,0,0,0,0,0,0,0,0,5,0,0,0,0,0,0,0,0,0,0,0,0,0,0,0,0,0,0,0,0],"split_type":[0,0,0,0,0,0,0,0,0,0,0,0,0,0,0,0,0,0,0,0,0,0,0,0,0,0,0,0,0,0,0,0,0,0,0,0,0,0,0,0,0,0,0,0,0,0,0,0,0,0,0,0,0,0,0,0,0,0,0,0,0,0,0,0,0,0,0,0,0],"sum_hessian":[2.19E2,7.5E1,1.44E2,3.5E1,4E1,1.04E2,4E1,2E0,3.3E1,1.8E1,2.2E1,3.3E1,7.1E1,1.6E1,2.4E1,3.2E1,1E0,8E0,1E1,1.2E1,1E1,1.8E1,1.5E1,5.2E1,1.9E1,7E0,9E0,5E0,1.9E1,5E0,5E0,9E0,3E0,9E0,1E0,9E0,9E0,1E1,5E0,3.2E1,2E1,4E0,1.5E1,2E0,5E0,3E0,2E0,1E0,1.8E1,2E0,3E0,2E0,7E0,7E0,2E0,7E0,3E0,2E0,3E0,1.5E1,1.7E1,1E1,1E1,1E0,3E0,1E0,1E0,1.7E1,1E0],"tree_param":{"num_deleted":"0","num_feature":"8","num_nodes":"69","size_leaf_vector":"1"}},{"base_weights":[-1.5192395E-1,-2.0131109E0,1.3684782E0,-3.3706908E0,-8.8862675E-1,2.2446977E-1,2.5070786E0,-1.9931103E-1,-2.1527188E0,-2.5621567E0,3.016706E-1,-2.1747632E0,2.196648E0,1.9237623E0,1.9317405E-1,-1.3982852E-1,-4.8956272E-1,-3.0415092E0,-1.2706821E0,-1.6916318E-1,1.2678076E0,-3.230201E0,-1.0380371E0,5.3150994E-1,2.8641424E0,9.106981E-1,1.9074868E-1,-2.8587937E-2,-0E0,-1.7733507E-1,-7.958691E-2,-1.054906E-1,-6.2267023E-1,-6.7315006E-1,5.433348E-1,2.9572511E-2,7.777595E-2,-6.628149E-2,-3.8494666E0,-1.4986259E0,1.628659E-1,6.391032E-1,-0E0,5.0603587E-2,2.9819636E0,2.8940383E-1,1.5060322E0,-3.4013964E-2,-5.865631E-3,-4.1182183E-2,-3.3002663E-3,3.1866353E-2,3.9122007E-3,-2.1376577E-1,-6.986908E-2,-8.919535E-2,-3.8975358E-2,-7.746862E-3,2.2985687E-2,3.9498456E-2,2.0357515E-3,1.0842895E-3,-0E0,1.5549648E-1,5.5076826E-2,-4.2458232E-2,3.125815E-2,4.3125335E-2,9.744018E-2],"categories":[],"categories_nodes":[],"categories_segments":[],"categories_sizes":[],"default_left":[0,0,0,0,0,0,0,0,0,0,0,0,0,0,0,0,0,0,0,0,0,0,0,0,0,0,0,0,0,0,0,0,0,0,0,0,0,0,0,0,0,0,0,0,0,0,0,0,0,0,0,0,0,0,0,0,0,0,0,0,0,0,0,0,0,0,0,0,0],"id":21,"left_children":[1,3,5,7,9,11,13,-1,15,17,19,21,23,25,-1,-1,27,29,31,33,35,37,39,41,43,45,-1,-1,-1,-1,-1,-1,47,49,51,-1,-1,-1,53,55,57,59,61,-1,63,65,67,-1,-1,-1,-1,-1,-1,-1,-1,-1,-1,-1,-1,-1,-1,-1,-1,-1,-1,-1,-1,-1,-1],"loss_changes":[6.168757E2,1.4618332E2,1.5547229E2,2.3791626E1,1.1055887E2,2.9341397E2,3.9461548E1,0E0,1.6506325E1,9.942642E0,1.5335699E1,2.9812927E1,3.59281E1,8.0353546E1,0E0,0E0,1.9651008E-1,5.5593567E0,2.7631636E0,8.637789E0,1.0058441E0,1.0891617E1,8.674488E0,5.6854486E-1,1.8197479E0,1.0480934E1,0E0,0E0,0E0,0E0,0E0,0E0,1.5114307E-2,1.13587E0,3.157251E-1,0E0,0E0,0E0,3.90065E0,6.0975075E-1,5.734003E-1,6.9725513E-1,9.40547E-4,0E0,1.4470367E0,6.6250234E0,2.3120346E0,0E0,0E0,0E0,0E0,0E0,0E0,0E0,0E0,0E0,0E0,0E0,0E0,0E0,0E0,0E0,0E0,0E0,0E0,0E0,0E0,0E0,0E0],"parents":[2147483647,0,0,1,1,2,2,3,3,4,4,5,5,6,6,8,8,9,9,10,10,11,11,12,12,13,13,16,16,17,17,18,18,19,19,20,20,21,21,22,22,23,23,24,24,25,25,32,32,33,33,34,34,38,38,39,39,40,40,41,41,42,42,44,44,45,45,46,46],"right_children":[2,4,6,8,10,12,14,-1,16,18,20,22,24,26,-1,-1,28,30,32,34,36,38,40,42,44,46,-1,-1,-1,-1,-1,-1,48,50,52,-1,-1,-1,54,56,58,60,62,-1,64,66,68,-1,-1,-1,-1,-1,-1,-1,-1,-1,-1,-1,-1,-1,-1,-1,-1,-1,-1,-1,-1,-1,-1],"split_conditions":[-1E0,9.1E1,8.5E1,-5E0,-9E0,8E0,6E0,-1.9931103E-1,8.9E1,9.7E1,9.6E1,4E0,1.3E1,9.2E1,1.9317405E-1,-1.3982852E-1,9.1E1,-1.1E1,-1.5E1,-6E0,8.8E1,8.6E1,8.2E1,9.2E1,8E1,2E0,1.9074868E-1,-2.8587937E-2,-0E0,-1.7733507E-1,-7.958691E-2,-1.054906E-1,9.2E1,9.5E1,9.2E1,2.9572511E-2,7.777595E-2,-6.628149E-2,8.3E1,9.2E1,5E0,9.6E1,7.9E1,5.0603587E-2,9.5E1,8.7E1,8.7E1,-3.4013964E-2,-5.865631E-3,-4.1182183E-2,-3.3002663E-3,3.1866353E-2,3.9122007E-3,-2.1376577E-1,-6.986908E-2,-8.919535E-2,-3.8975358E-2,-7.746862E-3,2.2985687E-2,3.9498456E-2,2.0357515E-3,1.0842895E-3,-0E0,1.5549648E-1,5.5076826E-2,-4.2458232E-2,3.125815E-2,4.3125335E-2,9.744018E-2],"split_indices":[7,0,0,7,7,7,7,0,0,0,0,7,7,0,0,0,6,7,7,7,4,6,0,1,1,7,0,0,0,0,0,0,4,0,4,0,0,0,0,1,7,4,0,0,5,0,0,0,0,0,0,0,0,0,0,0,0,0,0,0,0,0,0,0,0,0,0,0,0],"split_type":[0,0,0,0,0,0,0,0,0,0,0,0,0,0,0,0,0,0,0,0,0,0,0,0,0,0,0,0,0,0,0,0,0,0,0,0,0,0,0,0,0,0,0,0,0,0,0,0,0,0,0,0,0,0,0,0,0,0,0,0,0,0,0,0,0,0,0,0,0],"sum_hessian":[2.16E2,9.7E1,1.19E2,4.3E1,5.4E1,6E1,5.9E1,2.7E1,1.6E1,2.2E1,3.2E1,2.7E1,3.3E1,4.3E1,1.6E1,1.1E1,5E0,1.5E1,7E0,2.2E1,1E1,1.3E1,1.4E1,1E1,2.3E1,2.9E1,1.4E1,4E0,1E0,1E1,5E0,2E0,5E0,1.3E1,9E0,4E0,6E0,4E0,9E0,1E1,4E0,8E0,2E0,2E0,2.1E1,1.5E1,1.4E1,4E0,1E0,1E1,3E0,7E0,2E0,7E0,2E0,6E0,4E0,2E0,2E0,6E0,2E0,1E0,1E0,1.9E1,2E0,3E0,1.2E1,7E0,7E0],"tree_param":{"num_deleted":"0","num_feature":"8","num_nodes":"69","size_leaf_vector":"1"}},{"base_weights":[-1.493503E-2,-2.01286E0,1.3378121E0,-2.9198427E0,-1.303386E0,6.572702E-1,2.515713E0,-3.1317785E0,-9.5948607E-1,7.70477E-1,-1.5070733E0,2.2169423E0,2.3115E-1,1.9157264E0,2.8080003E0,-1.6531615E-1,-5.2919276E-2,-5.7189562E-3,-5.5858403E-2,4.7456868E-2,6.0166907E-2,-5.141631E-1,-1.7382407E0,9.4157565E-1,3.2348707E0,3.9802217E-1,-1.797546E0,7.180059E-1,2.3134646E0,2.7123222E-2,1.434057E-1,-0E0,2.9786683E-3,2.9081994E-1,-1.2613651E-1,-1.199883E0,-2.8436098E0,3.2967463E-1,2.0221527E0,1.7604174E-1,2.117897E-2,-1.850597E-1,1.0745822E0,2.3418387E-2,-1.2530582E-1,5.6249887E-2,-3.0651854E-2,9.5743716E-1,2.6145294E0,-5.4922267E-3,7.988679E-2,-1.23885214E-1,-2.4437835E-2,-2.4885712E-2,-1.5092139E-1,4.308482E-2,-1.7736665E-3,2.4653587E-2,1.2450787E-1,3.776002E-2,-9.508908E-2,-1.6120333E-2,1.1567332E-1,8.120309E-3,-1.2919197E-2,6.145767E-2,1.0572051E-3,1.571549E-1,5.0545104E-2],"categories":[],"categories_nodes":[],"categories_segments":[],"categories_sizes":[],"default_left":[0,0,0,0,0,0,0,0,0,0,0,0,0,0,0,0,0,0,0,0,0,0,0,0,0,0,0,0,0,0,0,0,0,0,0,0,0,0,0,0,0,0,0,0,0,0,0,0,0,0,0,0,0,0,0,0,0,0,0,0,0,0,0,0,0,0,0,0,0],"id":22,"left_children":[1,3,5,7,9,11,13,15,17,19,21,23,25,27,29,-1,-1,-1,-1,31,-1,33,35,37,39,41,43,45,47,-1,-1,-1,-1,49,-1,51,53,55,57,-1,-1,59,61,-1,-1,-1,63,65,67,-1,-1,-1,-1,-1,-1,-1,-1,-1,-1,-1,-1,-1,-1,-1,-1,-1,-1,-1,-1],"loss_changes":[5.622167E2,4.98244E1,9.742897E1,1.1542847E1,2.1933372E1,5.2411366E1,2.0398254E0,7.6449585E0,4.1535473E-1,1.3826504E0,9.209808E0,1.8606422E1,2.224162E1,6.6105957E0,1.9163971E0,0E0,0E0,0E0,0E0,3.4150854E-4,0E0,1.7125473E1,1.7606674E1,5.04902E0,5.3495636E0,2.3957207E1,9.405355E0,1.9721034E0,2.4468307E0,0E0,0E0,0E0,0E0,4.5133686E0,0E0,2.2118359E1,2.6572266E0,1.4730563E0,6.207018E-1,0E0,0E0,5.4818333E1,4.9404785E1,0E0,0E0,0E0,1.8345743E-1,8.6660504E-1,4.883507E0,0E0,0E0,0E0,0E0,0E0,0E0,0E0,0E0,0E0,0E0,0E0,0E0,0E0,0E0,0E0,0E0,0E0,0E0,0E0,0E0],"parents":[2147483647,0,0,1,1,2,2,3,3,4,4,5,5,6,6,7,7,8,8,9,9,10,10,11,11,12,12,13,13,14,14,19,19,21,21,22,22,23,23,24,24,25,25,26,26,27,27,28,28,33,33,35,35,36,36,37,37,38,38,41,41,42,42,46,46,47,47,48,48],"right_children":[2,4,6,8,10,12,14,16,18,20,22,24,26,28,30,-1,-1,-1,-1,32,-1,34,36,38,40,42,44,46,48,-1,-1,-1,-1,50,-1,52,54,56,58,-1,-1,60,62,-1,-1,-1,64,66,68,-1,-1,-1,-1,-1,-1,-1,-1,-1,-1,-1,-1,-1,-1,-1,-1,-1,-1,-1,-1],"split_conditions":[-2E0,-9E0,8E0,9.5E1,7.8E1,8.4E1,1.2E1,9.7E1,7.8E1,9E1,8.2E1,9E1,9.5E1,8.6E1,7.8E1,-1.6531615E-1,-5.2919276E-2,-5.7189562E-3,-5.5858403E-2,8.8E1,6.0166907E-2,8.7E1,9.2E1,9.2E1,9.2E1,9E1,1E0,1E1,8.2E1,2.7123222E-2,1.434057E-1,-0E0,2.9786683E-3,8.6E1,-1.2613651E-1,8.5E1,7.8E1,8.9E1,8E1,1.7604174E-1,2.117897E-2,8.7E1,8.8E1,2.3418387E-2,-1.2530582E-1,5.6249887E-2,7.8E1,9.3E1,9.1E1,-5.4922267E-3,7.988679E-2,-1.23885214E-1,-2.4437835E-2,-2.4885712E-2,-1.5092139E-1,4.308482E-2,-1.7736665E-3,2.4653587E-2,1.2450787E-1,3.776002E-2,-9.508908E-2,-1.6120333E-2,1.1567332E-1,8.120309E-3,-1.2919197E-2,6.145767E-2,1.0572051E-3,1.571549E-1,5.0545104E-2],"split_indices":[7,7,7,4,1,1,7,3,6,2,4,3,3,1,3,0,0,0,0,2,0,1,3,2,4,6,7,7,2,0,0,0,0,1,0,1,2,4,1,0,0,6,4,0,0,0,1,1,4,0,0,0,0,0,0,0,0,0,0,0,0,0,0,0,0,0,0,0,0],"split_type":[0,0,0,0,0,0,0,0,0,0,0,0,0,0,0,0,0,0,0,0,0,0,0,0,0,0,0,0,0,0,0,0,0,0,0,0,0,0,0,0,0,0,0,0,0,0,0,0,0,0,0,0,0,0,0,0,0,0,0,0,0,0,0,0,0,0,0,0,0],"sum_hessian":[2.06E2,8.3E1,1.23E2,3.5E1,4.8E1,7.9E1,4.4E1,3.1E1,4E0,4E0,4.4E1,1.6E1,6.3E1,1.7E1,2.7E1,2.8E1,3E0,1E0,3E0,2E0,2E0,9E0,3.5E1,8E0,8E0,5.9E1,4E0,5E0,1.2E1,1E0,2.6E1,1E0,1E0,7E0,2E0,2.5E1,1E1,6E0,2E0,7E0,1E0,3.2E1,2.7E1,1E0,3E0,3E0,2E0,3E0,9E0,6E0,1E0,8E0,1.7E1,1E0,9E0,2E0,4E0,1E0,1E0,2.1E1,1.1E1,1.3E1,1.4E1,1E0,1E0,2E0,1E0,6E0,3E0],"tree_param":{"num_deleted":"0","num_feature":"8","num_nodes":"69","size_leaf_vector":"1"}},{"base_weights":[-3.7662093E-2,-1.9722193E0,1.266556E0,-3.042804E0,-5.090233E-1,5.5480164E-1,2.4944084E0,-1.8561123E-1,-2.1587553E0,-2.9130018E0,1.24552526E-1,-2.077872E0,1.8630171E0,1.7327368E0,3.1479797E0,-3.290279E0,-7.4470824E-1,-1.608927E-1,-1.6975937E-2,-6.258849E-1,9.7341144E-1,-3.0938852E0,-8.337243E-1,6.418652E-1,2.6313546E0,4.4093782E-1,1.1164172E-1,1.888247E0,3.6535807E0,-1.9149803E-1,-1.0028285E-1,-4.0319064E-3,-3.943283E-2,-7.527226E-1,3.2587968E-2,3.3718473E-1,1.4754617E0,-1.8659367E-1,-9.086727E-2,-1.3097342E0,2.6504028E-1,-3.0616048E-1,1.5447354E0,1.8950069E0,3.1750522E0,2.9045919E-2,-0E0,3.2660373E-2,1.1901162E-1,4.0968668E-2,1.890618E-1,-4.006083E-2,-1.2108841E-2,-4.3213908E-3,2.5473012E-2,1.327034E-2,7.980629E-2,-1.4929811E-2,-7.563471E-2,-1.1737785E-2,2.3683911E-2,-3.7685763E-2,5.34547E-3,4.5551147E-2,1.1148643E-1,3.6593955E-2,1.3130043E-1,6.7254625E-2,1.7223524E-1,1.0306931E-3,-0E0],"categories":[],"categories_nodes":[],"categories_segments":[],"categories_sizes":[],"default_left":[0,0,0,0,0,0,0,0,0,0,0,0,0,0,0,0,0,0,0,0,0,0,0,0,0,0,0,0,0,0,0,0,0,0,0,0,0,0,0,0,0,0,0,0,0,0,0,0,0,0,0,0,0,0,0,0,0,0,0,0,0,0,0,0,0,0,0,0,0,0,0],"id":23,"left_children":[1,3,5,7,9,11,13,-1,15,17,19,21,23,25,27,29,31,-1,-1,33,35,37,39,41,43,45,-1,47,49,-1,-1,-1,-1,51,-1,53,55,-1,-1,57,59,61,63,65,67,-1,69,-1,-1,-1,-1,-1,-1,-1,-1,-1,-1,-1,-1,-1,-1,-1,-1,-1,-1,-1,-1,-1,-1,-1,-1],"loss_changes":[5.450317E2,1.3437927E2,1.11048065E2,2.0989166E1,5.8519566E1,2.897103E2,1.7454193E1,0E0,3.5546883E1,4.8279953E0,2.0391478E1,3.242176E1,5.0526077E1,1.4252701E1,7.8330994E0,7.4757385E-1,1.9969225E-1,0E0,0E0,3.2556E0,4.112499E0,4.879242E0,7.773921E0,2.028351E1,7.0881653E0,4.6938777E-1,0E0,3.6104584E0,2.230545E0,0E0,0E0,0E0,0E0,9.775829E-2,0E0,6.701592E-1,5.5830574E-1,0E0,0E0,1.4193916E0,6.5647286E-1,2.3637166E0,2.863655E0,1.2196518E1,3.7697144E0,0E0,8.4986247E-4,0E0,0E0,0E0,0E0,0E0,0E0,0E0,0E0,0E0,0E0,0E0,0E0,0E0,0E0,0E0,0E0,0E0,0E0,0E0,0E0,0E0,0E0,0E0,0E0],"parents":[2147483647,0,0,1,1,2,2,3,3,4,4,5,5,6,6,8,8,9,9,10,10,11,11,12,12,13,13,14,14,15,15,16,16,19,19,20,20,21,21,22,22,23,23,24,24,25,25,27,27,28,28,33,33,35,35,36,36,39,39,40,40,41,41,42,42,43,43,44,44,46,46],"right_children":[2,4,6,8,10,12,14,-1,16,18,20,22,24,26,28,30,32,-1,-1,34,36,38,40,42,44,46,-1,48,50,-1,-1,-1,-1,52,-1,54,56,-1,-1,58,60,62,64,66,68,-1,70,-1,-1,-1,-1,-1,-1,-1,-1,-1,-1,-1,-1,-1,-1,-1,-1,-1,-1,-1,-1,-1,-1,-1,-1],"split_conditions":[-2E0,9.3E1,8E0,8.9E1,-1.3E1,8.5E1,8.1E1,-1.8561123E-1,-9E0,9.8E1,-7E0,4E0,8.9E1,1.4E1,1E1,-1E1,8.4E1,-1.608927E-1,-1.6975937E-2,9.8E1,9.5E1,8.2E1,8.2E1,3E0,9.2E1,9.2E1,1.1164172E-1,8.5E1,7.8E1,-1.9149803E-1,-1.0028285E-1,-4.0319064E-3,-3.943283E-2,9.5E1,3.2587968E-2,-6E0,8.1E1,-1.8659367E-1,-9.086727E-2,7.8E1,5E0,8.7E1,8.7E1,1E0,-1E0,2.9045919E-2,7.9E1,3.2660373E-2,1.1901162E-1,4.0968668E-2,1.890618E-1,-4.006083E-2,-1.2108841E-2,-4.3213908E-3,2.5473012E-2,1.327034E-2,7.980629E-2,-1.4929811E-2,-7.563471E-2,-1.1737785E-2,2.3683911E-2,-3.7685763E-2,5.34547E-3,4.5551147E-2,1.1148643E-1,3.6593955E-2,1.3130043E-1,6.7254625E-2,1.7223524E-1,1.0306931E-3,-0E0],"split_indices":[7,0,7,0,7,0,0,0,7,0,7,7,0,7,7,7,6,0,0,0,0,0,0,7,0,1,0,0,6,0,0,0,0,6,0,7,4,0,0,3,7,0,0,7,7,0,0,0,0,0,0,0,0,0,0,0,0,0,0,0,0,0,0,0,0,0,0,0,0,0,0],"split_type":[0,0,0,0,0,0,0,0,0,0,0,0,0,0,0,0,0,0,0,0,0,0,0,0,0,0,0,0,0,0,0,0,0,0,0,0,0,0,0,0,0,0,0,0,0,0,0,0,0,0,0,0,0,0,0,0,0,0,0,0,0,0,0,0,0,0,0,0,0,0,0],"sum_hessian":[2.14E2,8.6E1,1.28E2,4.9E1,3.7E1,8.2E1,4.6E1,2.6E1,2.3E1,7E0,3E1,2.7E1,5.5E1,2.3E1,2.3E1,1.2E1,1.1E1,6E0,1E0,1.6E1,1.4E1,1.4E1,1.3E1,2.2E1,3.3E1,7E0,1.6E1,8E0,1.5E1,7E0,5E0,1E0,1E1,1.5E1,1E0,7E0,7E0,8E0,6E0,9E0,4E0,1.1E1,1.1E1,1.6E1,1.7E1,5E0,2E0,3E0,5E0,1E0,1.4E1,1.3E1,2E0,2E0,5E0,1E0,6E0,2E0,7E0,1E0,3E0,5E0,6E0,7E0,4E0,7E0,9E0,3E0,1.4E1,1E0,1E0],"tree_param":{"num_deleted":"0","num_feature":"8","num_nodes":"71","size_leaf_vector":"1"}},{"base_weights":[1.1734431E-1,-1.5801466E0,1.2865984E0,-2.8524563E0,-6.0658103E-1,5.9244657E-1,2.4907742E0,-1.6510909E0,-1.5723765E-1,-2.2046356E0,5.5785125E-1,-1.1404964E0,2.0263064E0,1.7185713E0,1.7168896E-1,-2.142148E0,-3.55802E-2,-2.8235724E0,-1.1076605E0,-2.1819085E-1,1.4585783E0,-2.3607788E0,-1.3155822E-1,1.2623467E0,2.57004E0,5.931553E-1,2.5896497E0,-1.1628195E-1,-2.8117333E-2,-2.98215E0,-1.6551552E-2,-7.18351E-2,-2.2992286E-1,-3.913967E-2,5.148656E-2,4.1377302E-2,8.8810295E-2,-1.7517231E-1,-1.4891579E0,-1.1054645E0,6.9494385E-1,1.0505235E-1,1.9090112E0,2.6261754E0,2.5262985E-2,1.3694306E-1,9.056967E-1,8.3473876E-2,1.6443186E-1,-4.9761813E-2,-1.6219202E-1,-0E0,-1.579778E-2,-1.1033784E-2,1.6528964E-2,-8.5797004E-2,-1.0174917E-2,-9.3330005E-3,-5.8433946E-2,1.1402118E-2,4.72876E-2,2.3520341E-2,-1.3065629E-2,3.0557988E-2,1.0330283E-1,6.575247E-2,1.4001207E-1,1.1046524E-2,-6.674538E-3,2.0644931E-2,5.4939788E-2],"categories":[],"categories_nodes":[],"categories_segments":[],"categories_sizes":[],"default_left":[0,0,0,0,0,0,0,0,0,0,0,0,0,0,0,0,0,0,0,0,0,0,0,0,0,0,0,0,0,0,0,0,0,0,0,0,0,0,0,0,0,0,0,0,0,0,0,0,0,0,0,0,0,0,0,0,0,0,0,0,0,0,0,0,0,0,0,0,0,0,0],"id":24,"left_children":[1,3,5,7,9,11,13,15,-1,17,19,21,23,25,-1,27,-1,29,31,33,35,37,39,41,43,45,47,-1,-1,49,-1,-1,51,-1,53,-1,-1,-1,55,57,59,61,63,65,-1,67,69,-1,-1,-1,-1,-1,-1,-1,-1,-1,-1,-1,-1,-1,-1,-1,-1,-1,-1,-1,-1,-1,-1,-1,-1],"loss_changes":[4.5255283E2,1.13120804E2,1.1105992E2,8.374329E0,1.0187916E2,2.1857693E2,2.9264954E1,2.8036823E0,0E0,1.209536E1,2.281036E1,4.8687756E1,1.6311234E1,2.6575096E1,0E0,1.4266014E-1,0E0,4.2151566E0,2.3911285E0,2.8541238E0,1.2762318E0,1.2211067E1,1.9322805E1,1.6062435E1,1.4894562E0,1.7678995E0,4.304901E0,0E0,0E0,3.107132E0,0E0,0E0,8.8025734E-2,0E0,1.0714015E0,0E0,0E0,0E0,2.9576397E0,2.852192E-1,1.1892838E0,1.34851E0,1.323082E0,1.839798E0,0E0,1.9722743E-1,1.5641022E-1,0E0,0E0,0E0,0E0,0E0,0E0,0E0,0E0,0E0,0E0,0E0,0E0,0E0,0E0,0E0,0E0,0E0,0E0,0E0,0E0,0E0,0E0,0E0,0E0],"parents":[2147483647,0,0,1,1,2,2,3,3,4,4,5,5,6,6,7,7,9,9,10,10,11,11,12,12,13,13,15,15,17,17,18,18,19,19,20,20,21,21,22,22,23,23,24,24,25,25,26,26,29,29,32,32,34,34,38,38,39,39,40,40,41,41,42,42,43,43,45,45,46,46],"right_children":[2,4,6,8,10,12,14,16,-1,18,20,22,24,26,-1,28,-1,30,32,34,36,38,40,42,44,46,48,-1,-1,50,-1,-1,52,-1,54,-1,-1,-1,56,58,60,62,64,66,-1,68,70,-1,-1,-1,-1,-1,-1,-1,-1,-1,-1,-1,-1,-1,-1,-1,-1,-1,-1,-1,-1,-1,-1,-1,-1],"split_conditions":[-2E0,9.1E1,8.7E1,8.5E1,-9E0,8E0,2E0,8.9E1,-1.5723765E-1,-1.2E1,9.6E1,4E0,1.3E1,9.2E1,1.7168896E-1,9.4E1,-3.55802E-2,9.8E1,9.6E1,-7E0,-6E0,8E1,8.2E1,8E1,9.7E1,9E1,9.5E1,-1.1628195E-1,-2.8117333E-2,7.8E1,-1.6551552E-2,-7.18351E-2,9.7E1,-3.913967E-2,8.8E1,4.1377302E-2,8.8810295E-2,-1.7517231E-1,1E0,8.2E1,8.5E1,8.7E1,8.4E1,7.8E1,2.5262985E-2,9.3E1,0E0,8.3473876E-2,1.6443186E-1,-4.9761813E-2,-1.6219202E-1,-0E0,-1.579778E-2,-1.1033784E-2,1.6528964E-2,-8.5797004E-2,-1.0174917E-2,-9.3330005E-3,-5.8433946E-2,1.1402118E-2,4.72876E-2,2.3520341E-2,-1.3065629E-2,3.0557988E-2,1.0330283E-1,6.575247E-2,1.4001207E-1,1.1046524E-2,